tree
version=v3
num_class=1
num_tree_per_iteration=1
label_index=0
max_feature_idx=20
objective=regression
feature_names=Column_0 Column_1 Column_2 Column_3 Column_4 Column_5 Column_6 Column_7 Column_8 Column_9 Column_10 Column_11 Column_12 Column_13 Column_14 Column_15 Column_16 Column_17 Column_18 Column_19 Column_20
feature_infos=[0.10000000000000001:11] [16:848] [0:127] [0:75] [0:96] [0:179] [0:63] [0:136] [0:38] [0:109] [0:172] [0:47] [0:120] [0:121] [0:171] [0:107] [0:121] [0:122] [0:82] [0:31] [0:57]
tree_sizes=7851 7684 8126 7932 7952 7690 8218 7883 8068 7833 8005 8088 8079 8255 8205 8270 7585 8275 7921 7943 7708 8211 8116 7640 7992 7912 8097 7990 8343 7982 8014 7923 8185 7829 8121 8022 7767 8047 8202 8226 7961 8138 8303 8179 8342 7953 8155 7910 7916 8290 8445 8087 8243 8332 8102 8016 8214 8380 8424 8374 8224 8114 7994 7869 7933 8472 8109 7750 8191 8202 8404 8046 8105 7977 8323 8300 8153 7937 8452 7902 8230 7948 8198 8381 8505 8468 8392 8031 8466 7899 8231 8399 8176 8413 8238 8253 8259 8064 8151 8442 8345 8080

Tree=0
num_leaves=91
num_cat=0
split_feature=9 15 15 11 2 2 0 11 13 0 20 11 9 15 1 2 5 2 1 15 10 10 5 0 1 5 15 1 11 5 10 15 5 2 2 20 0 2 2 11 5 2 20 1 15 1 15 10 1 15 2 2 10 9 5 1 5 20 2 13 9 20 13 1 15 15 11 6 9 5 5 13 20 20 11 20 11 1 5 6 1 1 15 1 1 1 2 0 10 10
split_gain=190.076 295.834 135.938 142.22 74.5927 54.2427 68.037 65.6757 49.8591 65.7755 53.6959 45.465 38.4474 36.8177 38.9161 32.809 29.9574 29.436 31.3171 29.1729 32.2649 27.9608 26.2141 24.7145 24.1794 36.7556 27.3568 23.0532 22.8871 20.8317 20.7852 19.1306 18.1343 17.8728 17.0057 16.573 14.1793 12.9157 12.6358 13.3929 10.6657 10.3778 10.2905 9.75259 12.7112 9.04921 8.14158 7.83803 7.00754 13.4643 8.35086 6.87458 6.78072 6.48613 6.09239 5.82862 5.57547 5.52766 7.80998 5.46388 5.43247 5.39534 5.35341 4.69578 4.30953 3.81234 3.72359 3.59023 3.38281 2.92401 4.32838 2.71694 2.69766 2.65616 2.52801 2.43035 2.15118 2.04216 1.93917 1.63416 3.07072 1.73958 1.51507 1.36737 1.27924 1.27812 1.00551 1.55675 1.0031 0.895291
threshold=10.500000000000002 17.500000000000004 28.500000000000004 9.5000000000000018 38.500000000000007 11.500000000000002 7.3000000000000016 2.5000000000000004 18.500000000000004 7.4500000000000011 12.500000000000002 4.5000000000000009 24.500000000000004 18.500000000000004 354.50000000000006 36.500000000000007 17.500000000000004 38.500000000000007 448.50000000000006 13.500000000000002 10.500000000000002 2.5000000000000004 12.500000000000002 4.4500000000000011 630.50000000000011 34.500000000000007 52.500000000000007 312.50000000000006 5.5000000000000009 12.500000000000002 36.500000000000007 11.500000000000002 37.500000000000007 50.500000000000007 29.500000000000004 17.500000000000004 7.3000000000000016 28.500000000000004 12.500000000000002 5.5000000000000009 9.5000000000000018 15.500000000000002 11.500000000000002 147.50000000000003 6.5000000000000009 256.50000000000006 5.5000000000000009 14.500000000000002 154.50000000000003 9.5000000000000018 8.5000000000000018 32.500000000000007 24.500000000000004 14.500000000000002 28.500000000000004 180.50000000000003 50.500000000000007 16.500000000000004 32.500000000000007 11.500000000000002 23.500000000000004 7.5000000000000009 13.500000000000002 193.50000000000003 11.500000000000002 17.500000000000004 9.5000000000000018 11.500000000000002 35.500000000000007 34.500000000000007 19.500000000000004 22.500000000000004 6.5000000000000009 13.500000000000002 3.5000000000000004 17.500000000000004 7.5000000000000009 101.50000000000001 6.5000000000000009 10.500000000000002 160.50000000000003 216.50000000000003 6.5000000000000009 231.50000000000003 342.50000000000006 420.50000000000006 15.500000000000002 5.410000000000001 19.500000000000004 47.500000000000007
decision_type=2 2 2 2 2 2 2 2 2 2 2 2 2 2 2 2 2 2 2 2 2 2 2 2 2 2 2 2 2 2 2 2 2 2 2 2 2 2 2 2 2 2 2 2 2 2 2 2 2 2 2 2 2 2 2 2 2 2 2 2 2 2 2 2 2 2 2 2 2 2 2 2 2 2 2 2 2 2 2 2 2 2 2 2 2 2 2 2 2 2
left_child=1 5 8 4 37 21 7 22 9 10 19 16 32 69 -15 -13 -3 71 -19 20 40 -1 -7 -22 25 -5 56 34 29 43 41 38 -6 35 45 -27 68 -4 39 47 -2 76 60 44 -9 53 61 -25 49 50 74 59 72 -21 -53 -45 -26 58 -43 -29 79 77 64 -31 -30 -47 -59 -18 -20 70 88 -16 86 -72 -48 -32 -12 78 -23 80 -40 -82 -49 -62 -61 -73 87 -33 -10 -87
right_child=2 11 3 24 12 6 -8 28 13 -11 30 15 -14 14 17 -17 67 18 36 27 23 46 -24 31 26 33 -28 51 62 63 75 52 -34 -35 -36 -37 -38 -39 42 -41 -42 57 -44 55 -46 65 48 82 -50 -51 -52 54 -54 -55 -56 -57 -58 66 -60 84 83 -63 -64 -65 -66 -67 -68 -69 -70 -71 73 85 -74 -75 -76 -77 -78 -79 -80 -81 81 -83 -84 -85 -86 89 -88 -89 -90 -91
leaf_value=0.045527640636370097 0.036280444625677297 0.075535618824159406 -0.020380573641828194 -0.041071553449123548 0.10049240168923385 0.04067853602580767 0.12057507836204366 -0.011519564781287839 -0.080337406458857202 0.071634528661728009 0.036278162204890343 0.024131094454580622 0.046454648924841933 0.045243057082318211 -0.042252826487391766 0.11624056833548184 0.17460733091202271 0.060170317604472896 -0.034125279820812829 0.033900153987003745 -0.087315987485174634 -0.03009134753674134 0.13276680285830331 -0.010160384199166837 -0.066635464477109288 -0.021326270342249404 0.032512153531525707 -0.014037574079923478 -0.034628692816047829 0.075889331546221059 -0.040090447963022066 0.00550274804861657 0.17536849443024444 0.085521506853063353 0.060902958216875365 0.044958794398298037 -0.0022077033262819581 0.045824959729242776 -0.060054581523876889 0.013277057513824493 -0.020105788629300413 -0.017000190401121155 -0.0078149621593019466 -0.021661068828097731 0.051690140526454216 -0.03754448468644845 -0.043290298730068212 -0.06269325492603034 -0.039450760506061194 0.039998854022000395 0.018385273473538938 -0.029941942690299237 -0.042081255229714058 -0.0044745316834141034 0.017439465901131206 0.016985603630345032 -0.031332986361801651 0.012657680123963845 0.031309118894020722 -0.042212142553571474 -0.083046538757591826 -0.060842304092066798 -0.0551699838432229 0.032968583548122155 0.0038695339246502653 -0.0023615664008939494 0.049624841102854582 0.1421822980900409 -0.064867687083682457 -0.079294484875785595 -0.058526800468906036 -0.049936362945865703 0.015047198140292258 -0.034484329720879191 -0.016714393841688189 -0.0095111339289633886 0.062735425514812829 -0.040568901670775516 -0.0064345019697056556 -0.059683842900600144 -0.024203420739316729 -0.046499717601615038 -0.039892468100384694 -0.061329166700523206 -0.064410003573541846 -0.061296932123139837 -0.022323506974454278 -0.014188906156494187 -0.063496519817119956 -0.078124466883131877
leaf_weight=71 86 53 52 90 53 69 68 57 56 91 60 81 54 74 91 74 96 51 91 98 88 77 56 67 91 63 53 52 63 50 51 65 83 53 59 94 143 68 77 72 55 88 50 148 72 57 59 68 66 57 55 58 63 80 51 53 88 54 54 50 69 58 53 52 54 67 55 53 59 73 95 50 51 89 91 53 63 68 63 96 71 69 51 50 54 71 54 105 96 57
leaf_count=71 86 53 52 90 53 69 68 57 56 91 60 81 54 74 91 74 96 51 91 98 88 77 56 67 91 63 53 52 63 50 51 65 83 53 59 94 143 68 77 72 55 88 50 148 72 57 59 68 66 57 55 58 63 80 51 53 88 54 54 50 69 58 53 52 54 67 55 53 59 73 95 50 51 89 91 53 63 68 63 96 71 69 51 50 54 71 54 105 96 57
internal_value=-8.32787e-11 0.0272455 -0.0111498 0.0250206 0.0788598 0.00729265 0.0249214 0.0159744 -0.0196143 -0.0118232 -0.0149732 0.108845 0.117843 -0.0374004 -0.0232586 0.0681059 0.140106 -0.0315279 -0.01215 -0.0223943 -0.0308963 -0.0137823 0.0819341 -0.03636 -0.00635191 0.0123959 -0.0305948 -0.00464322 0.00227848 0.01451 0.0150374 -0.0322004 0.146189 0.0353105 0.0117985 0.0183603 -0.0247382 0.0171359 -0.0412036 -0.0233428 0.0142858 0.0260336 -0.0507639 0.00230144 0.0237603 0.00220527 -0.0208716 -0.0375183 -0.0103285 -0.00299242 -0.0149461 -0.0270412 -0.0124892 0.0166531 -0.00777266 -0.0114707 -0.0492801 0.0143727 0.00137096 -0.0405045 -0.0557348 -0.033872 -0.0288039 0.0540082 -0.0168603 -0.0185344 0.0313108 0.163074 -0.0462173 -0.0611545 -0.0572134 -0.0563086 -0.00570989 -0.0468976 -0.0271676 -0.0245068 0.0498294 -0.0263514 -0.0194458 -0.0488204 -0.0440144 -0.0351923 -0.0529215 -0.0739216 -0.053738 -0.0634944 -0.0104358 -0.00665974 -0.0697011 -0.0687904
internal_weight=0 1817 4440 842 310 1460 795 727 3598 2502 2411 357 190 1096 687 155 202 613 344 1933 1307 665 125 1166 532 300 232 626 602 432 478 1078 136 210 361 157 293 120 740 258 141 374 482 330 129 302 594 186 328 262 205 265 338 178 109 201 179 251 142 156 432 266 170 102 117 124 109 149 150 409 336 269 275 184 150 104 123 208 140 313 217 140 119 119 104 178 224 170 152 128
internal_count=6257 1817 4440 842 310 1460 795 727 3598 2502 2411 357 190 1096 687 155 202 613 344 1933 1307 665 125 1166 532 300 232 626 602 432 478 1078 136 210 361 157 293 120 740 258 141 374 482 330 129 302 594 186 328 262 205 265 338 178 109 201 179 251 142 156 432 266 170 102 117 124 109 149 150 409 336 269 275 184 150 104 123 208 140 313 217 140 119 119 104 178 224 170 152 128
is_linear=0
shrinkage=1


Tree=1
num_leaves=89
num_cat=0
split_feature=3 14 16 20 3 6 14 20 16 8 20 16 8 14 16 20 3 20 14 20 20 16 14 20 9 19 14 19 4 20 17 16 19 14 16 9 20 14 20 6 6 9 14 6 14 3 20 8 16 4 4 20 3 9 6 16 3 8 17 6 16 16 14 20 11 20 20 20 11 16 17 11 8 16 16 14 20 4 17 3 19 6 3 8 4 6 11 9
split_gain=743.677 237.608 74.2288 70.8943 70.3599 66.6815 100.013 57.028 53.221 44.6204 40.04 47.0495 37.3564 34.7567 30.3659 44.4187 27.4399 43.7384 25.1681 21.4944 21.0809 19.5529 18.5532 16.5756 14.8079 14.4669 14.4198 13.9632 13.2366 12.2237 11.3203 8.90441 8.72169 8.70653 16.2459 9.4011 9.7602 8.09535 7.99915 9.34998 7.30106 11.1482 7.29635 7.2417 7.23818 9.94091 7.07188 6.42066 6.18251 5.08977 5.97291 6.91978 4.94785 4.74919 6.84965 18.1797 8.08504 9.24498 5.09659 4.57756 6.68671 4.46534 4.42065 4.39598 4.31161 3.77162 3.72983 3.33234 3.21052 2.72749 2.60027 2.27633 3.04143 4.04513 2.17113 2.04792 2.02447 1.8299 1.32891 1.2576 0.693396 0.575773 0.450678 0.439458 0.362208 0.275389 0.228756 0.225373
threshold=1.5000000000000002 4.5000000000000009 17.500000000000004 9.5000000000000018 4.5000000000000009 16.500000000000004 7.5000000000000009 25.500000000000004 23.500000000000004 3.5000000000000004 4.5000000000000009 20.500000000000004 3.5000000000000004 22.500000000000004 7.5000000000000009 2.5000000000000004 5.5000000000000009 13.500000000000002 10.500000000000002 14.500000000000002 4.5000000000000009 14.500000000000002 11.500000000000002 2.5000000000000004 7.5000000000000009 1.5000000000000002 11.500000000000002 5.5000000000000009 4.5000000000000009 5.5000000000000009 4.5000000000000009 26.500000000000004 3.5000000000000004 3.5000000000000004 8.5000000000000018 12.500000000000002 3.5000000000000004 2.5000000000000004 1.0000000180025095e-35 4.5000000000000009 5.5000000000000009 13.500000000000002 21.500000000000004 8.5000000000000018 7.5000000000000009 3.5000000000000004 11.500000000000002 4.5000000000000009 10.500000000000002 13.500000000000002 18.500000000000004 7.5000000000000009 1.0000000180025095e-35 22.500000000000004 6.5000000000000009 9.5000000000000018 5.5000000000000009 5.5000000000000009 10.500000000000002 4.5000000000000009 10.500000000000002 22.500000000000004 2.5000000000000004 6.5000000000000009 12.500000000000002 8.5000000000000018 1.5000000000000002 12.500000000000002 8.5000000000000018 29.500000000000004 19.500000000000004 7.5000000000000009 8.5000000000000018 35.500000000000007 34.500000000000007 9.5000000000000018 14.500000000000002 8.5000000000000018 10.500000000000002 7.5000000000000009 1.5000000000000002 20.500000000000004 9.5000000000000018 8.5000000000000018 11.500000000000002 22.500000000000004 15.500000000000002 32.500000000000007
decision_type=2 2 2 2 2 2 2 2 2 2 2 2 2 2 2 2 2 2 2 2 2 2 2 2 2 2 2 2 2 2 2 2 2 2 2 2 2 2 2 2 2 2 2 2 2 2 2 2 2 2 2 2 2 2 2 2 2 2 2 2 2 2 2 2 2 2 2 2 2 2 2 2 2 2 2 2 2 2 2 2 2 2 2 2 2 2 2 2
left_child=5 23 3 29 19 6 9 16 27 14 48 12 32 42 15 38 17 49 -19 26 62 25 43 -2 30 52 -5 -7 -25 44 -17 70 -12 34 -30 36 -36 -22 -1 66 -27 -42 -9 -14 45 -3 -13 -35 -8 80 51 -51 -11 54 58 -56 57 -57 77 -46 -61 67 -16 -60 -33 -39 -40 75 -52 -70 -20 82 73 -73 79 -18 -6 -31 -37 -74 -4 -81 -63 -84 -47 87 -87 -76
right_child=1 2 7 4 76 8 10 13 -10 21 11 46 22 -15 20 24 61 18 31 -21 37 -23 -24 28 -26 40 -28 -29 33 53 -32 64 -34 47 35 78 -38 65 39 -41 41 -43 -44 -45 59 84 -48 -49 -50 50 68 -53 -54 -55 55 56 -58 -59 63 60 -62 71 -64 -65 -66 -67 -68 -69 69 -71 -72 72 74 -75 85 -77 -78 -79 -80 81 -82 -83 83 -85 -86 86 -88 -89
leaf_value=-0.0015700940921669828 -0.0075275010057440448 0.00058911974415367036 -0.077744073420763019 0.067776634263558483 -0.042554740198446739 0.10960660476419258 -0.010069131014281758 0.014590292155742646 0.04136642659006199 0.088237262340420397 0.025972358654770589 -0.041887059030012191 0.069063035022274843 -0.048226241897791622 0.0088872421194889379 0.1458547219853191 -0.043719905291180139 0.042303054139130949 -0.018626022207453571 0.11296894522994512 0.076637810647774196 0.04583604705277021 0.036897647313096305 0.0015887814879533835 0.065774721146115794 0.080829590312556709 -0.00043407522288023263 0.17193304126558362 0.10504438806264127 -0.004606642761901647 0.083174614377319822 -0.059931218018755318 -0.0269153217674995 9.7744239895951521e-06 0.050415625457989645 0.0803945714740881 -0.0038937627481153377 0.011210893037713181 0.0043605535179376603 0.07310226495347677 0.14485387362311691 0.091443279110468359 0.06182205646523628 0.11848121638801219 -0.069136160761117935 -0.039729963894933468 0.0053202923314244139 0.049946670936277283 -0.049233726209236522 -0.060827572502195837 -0.075389871339118758 -0.0119724421903653 0.045707437834318951 -0.047341901552060556 0.046971561366485226 -0.03261811090633273 -0.051024062813005672 0.016350029417908335 -0.027541896955259305 -0.016818077727579154 -0.058909560261915128 -0.079132255950232155 -0.028875391558188225 -0.060245094783604153 -0.023752764439476388 0.044627627402638335 0.042796261119199736 -0.026707178841416653 -0.038467282686471732 -0.067943384765454071 0.0068718698789488599 -0.064331239413518412 -0.045380272242307132 -0.029697016991364462 -0.072589319915353487 -0.069326780227129348 -0.016645813729614021 -0.02652789537636896 0.058302871088655499 -0.069047293102217688 -0.065440325992067866 -0.055237737721672245 -0.064724049993923727 -0.076285190567854919 -0.051208444772886913 -0.079624753090051514 -0.070945703983306893 -0.064375418424606326
leaf_weight=55 72 81 86 79 76 82 73 75 97 59 72 84 52 80 62 68 61 66 163 61 52 92 88 64 92 53 51 64 61 119 50 80 55 51 91 56 52 59 50 62 98 65 58 69 95 54 51 52 90 50 86 69 51 58 54 72 55 83 231 65 90 97 62 50 56 79 51 52 77 53 53 77 56 60 77 64 50 56 53 74 98 51 70 62 56 65 57 59
leaf_count=55 72 81 86 79 76 82 73 75 97 59 72 84 52 80 62 68 61 66 163 61 52 92 88 64 92 53 51 64 61 119 50 80 55 51 91 56 52 59 50 62 98 65 58 69 95 54 51 52 90 50 86 69 51 58 54 72 55 83 231 65 90 97 62 50 56 79 51 52 77 53 53 77 56 60 77 64 50 56 53 74 98 51 70 62 56 65 57 59
internal_value=0 -0.0239524 -0.0331575 -0.0163977 0.0257315 0.0496215 0.0429627 -0.0452321 0.0987819 0.0604182 0.0110251 0.0258088 0.0458427 0.00385846 0.0456977 0.0630251 -0.0506809 -0.0384393 -0.0143648 0.0639964 0.0220794 0.0865489 0.0718348 0.0372149 0.0958482 0.0980385 0.041017 0.136928 0.0439263 -0.0273533 0.119295 -0.02499 0.00306825 0.0504397 0.0587387 0.0475297 0.0306668 0.0430115 0.0314065 0.0425336 0.113072 0.123555 0.0351876 0.0972437 -0.0406538 -0.0259967 -0.0240532 0.0252206 -0.0316938 -0.0578288 -0.0504895 -0.0324998 0.0685189 -0.019814 -0.0175965 -0.00477769 -0.0180846 -0.00639646 -0.025018 -0.0518519 -0.0412583 -0.0623616 -0.00999407 -0.033361 -0.0450342 0.0303408 0.0237687 -0.0479808 -0.0604005 -0.0504845 -0.0123696 -0.0655236 -0.0621706 -0.049163 -0.06623 -0.0568306 -0.0322734 -0.0116214 0.0696527 -0.0578338 -0.071191 -0.063413 -0.0739572 -0.0701543 -0.0455736 -0.0721203 -0.0755698 -0.0690259
internal_weight=0 4220 3668 1536 317 2037 1794 2132 243 1160 634 471 336 213 742 428 1919 937 418 191 314 418 209 552 210 326 130 146 480 1219 118 352 127 416 313 252 143 190 218 163 216 163 133 121 441 191 135 103 163 519 335 119 110 778 720 264 210 155 456 250 155 982 124 281 136 138 101 177 216 130 216 805 576 137 439 125 126 175 109 181 184 125 229 132 110 258 122 136
internal_count=6257 4220 3668 1536 317 2037 1794 2132 243 1160 634 471 336 213 742 428 1919 937 418 191 314 418 209 552 210 326 130 146 480 1219 118 352 127 416 313 252 143 190 218 163 216 163 133 121 441 191 135 103 163 519 335 119 110 778 720 264 210 155 456 250 155 982 124 281 136 138 101 177 216 130 216 805 576 137 439 125 126 175 109 181 184 125 229 132 110 258 122 136
is_linear=0
shrinkage=0.1


Tree=2
num_leaves=94
num_cat=0
split_feature=14 15 16 15 14 15 10 16 15 16 16 10 0 16 7 10 16 15 16 16 10 18 7 14 10 16 15 7 14 14 14 18 0 1 17 0 14 15 19 18 17 15 9 7 18 10 15 16 7 15 19 7 16 1 10 1 16 15 10 18 16 10 1 9 19 15 9 18 14 14 9 19 10 9 15 0 16 1 15 18 15 14 1 19 14 19 18 7 18 16 0 0 10
split_gain=378.81 193.143 510.315 167.209 116.17 132.397 54.1963 49.3177 94.7163 47.2987 46.5625 40.881 60.2276 37.6196 33.8744 30.3757 29.8029 28.9036 33.1438 26.5935 26.0067 25.8465 22.1343 20.334 19.7092 22.0966 18.5036 16.8305 15.9346 15.68 14.8923 15.7584 14.3998 16.7759 14.0322 12.0699 10.0161 8.149 7.52686 6.97553 6.963 5.84304 5.81665 7.71528 5.7656 5.66095 5.65101 5.49158 5.43055 5.33886 5.31201 5.30382 8.03509 4.75209 4.44865 4.38688 4.38342 4.23468 3.58527 2.89945 2.63033 2.49139 3.34321 2.34959 2.29653 2.2794 2.1326 1.52734 1.77841 1.26426 1.26219 1.20435 1.11261 1.07186 1.06139 0.856939 0.854576 1.44129 0.797683 0.752539 0.657075 0.614227 0.470819 0.467822 0.450435 0.398445 0.321932 0.27208 0.238361 0.178994 0.134711 0.211818 0.099709
threshold=4.5000000000000009 27.500000000000004 23.500000000000004 13.500000000000002 7.5000000000000009 15.500000000000002 44.500000000000007 14.500000000000002 19.500000000000004 13.500000000000002 14.500000000000002 8.5000000000000018 7.3000000000000016 31.500000000000004 47.500000000000007 31.500000000000004 3.5000000000000004 6.5000000000000009 5.5000000000000009 16.500000000000004 33.500000000000007 47.500000000000007 10.500000000000002 16.500000000000004 15.500000000000002 10.500000000000002 13.500000000000002 21.500000000000004 9.5000000000000018 15.500000000000002 1.5000000000000002 6.5000000000000009 4.5500000000000007 163.50000000000003 5.5000000000000009 7.7500000000000009 3.5000000000000004 17.500000000000004 2.5000000000000004 47.500000000000007 5.5000000000000009 4.5000000000000009 15.500000000000002 33.500000000000007 11.500000000000002 28.500000000000004 10.500000000000002 52.500000000000007 21.500000000000004 18.500000000000004 1.5000000000000002 15.500000000000002 17.500000000000004 328.50000000000006 32.500000000000007 188.50000000000003 6.5000000000000009 22.500000000000004 20.500000000000004 24.500000000000004 23.500000000000004 20.500000000000004 237.50000000000003 20.500000000000004 4.5000000000000009 9.5000000000000018 8.5000000000000018 24.500000000000004 8.5000000000000018 18.500000000000004 18.500000000000004 2.5000000000000004 34.500000000000007 41.500000000000007 35.500000000000007 2.7500000000000004 21.500000000000004 247.50000000000003 3.5000000000000004 38.500000000000007 14.500000000000002 16.500000000000004 454.50000000000006 9.5000000000000018 8.5000000000000018 7.5000000000000009 39.500000000000007 39.500000000000007 31.500000000000004 28.500000000000004 6.7400000000000011 5.4350000000000014 21.500000000000004
decision_type=2 2 2 2 2 2 2 2 2 2 2 2 2 2 2 2 2 2 2 2 2 2 2 2 2 2 2 2 2 2 2 2 2 2 2 2 2 2 2 2 2 2 2 2 2 2 2 2 2 2 2 2 2 2 2 2 2 2 2 2 2 2 2 2 2 2 2 2 2 2 2 2 2 2 2 2 2 2 2 2 2 2 2 2 2 2 2 2 2 2 2 2 2
left_child=3 4 6 11 5 16 19 8 24 45 15 30 17 14 69 -7 -2 40 -19 -3 -10 27 32 64 44 26 58 63 37 -15 -1 -32 -18 56 -24 38 55 -29 49 73 -13 -42 43 -40 84 66 59 -41 -11 -30 -33 75 -53 -12 61 65 -34 -51 -26 71 72 -27 -63 67 74 -20 -5 68 -9 -4 -64 -36 -44 86 -8 -48 77 -70 -58 82 92 -82 89 88 -6 -66 87 -31 -84 -62 91 -35 -65
right_child=1 2 13 9 7 10 23 21 20 48 53 12 -14 29 -16 -17 22 18 36 -21 -22 -23 34 -25 25 54 -28 28 35 39 31 50 33 90 46 -37 -38 -39 42 47 41 -43 60 -45 -46 -47 51 -49 -50 57 -52 52 -54 -55 -56 -57 78 -59 -60 -61 79 62 70 80 85 -67 -68 -69 76 -71 -72 -73 -74 -75 -76 -77 -78 -79 -80 -81 81 -83 83 -85 -86 -87 -88 -89 -90 -91 -92 -93 -94
leaf_value=0.040815137746870858 0.052127615901738859 0.10151078662835063 -0.023228233019072637 0.13743410135534678 -0.06690517137034073 0.069075418919534753 0.1560965014398098 -0.043832208176404444 0.025104130631169449 0.038798742604859437 -0.00089694783091545107 0.026992548622989228 0.14020724476952304 -0.00052040228299025839 0.049810168031189178 0.16807596315037121 -0.076671468218167629 0.10089561905225981 0.016366985860227976 0.01212555789960581 0.11808316384309106 0.022159802080210997 0.048066674217581755 0.085586233495497238 -0.029878271806852093 -0.022888801969362028 0.05664131169207394 -0.02548640918535873 -0.048749947706727609 -0.078130979992208943 -0.043464786598458892 0.022383162537787826 -0.022327617976676536 -0.00505055134165456 -0.021686129303402212 -0.016334857337417141 0.0033695482129101149 0.02561994738733539 -0.05437681540117964 -0.014664342408550197 -0.035002949492384992 0.0076662015021387213 -0.052630033513361762 -0.010498834529917844 -0.025446918947172575 0.15711767874201951 -0.016324920094242166 -0.059887584060430536 0.081205038755895603 -0.0023176518710036026 -0.015143952236348202 0.046323729833623151 -0.006904861248541074 0.042701614320278171 -0.0064640335813164716 0.061764401765203626 -0.04654132026659219 -0.038747546899725094 0.0048969843398986596 -0.0008248884007334709 -0.06375233984975652 -0.067481762796640407 -0.026290527788006654 -0.068085117349628271 0.17294435197231817 0.044213675436648454 0.10904567056134636 -0.036984737753868104 -0.065874855059073936 -0.045494541920283266 -0.047064263508494561 -0.041332327265292408 -0.033274997928593723 -0.0561250210267632 0.13587690103385183 -0.0016523275154587979 -0.067370897418621817 -0.045629189924236285 -0.061760785165189326 -0.052049999010949581 -0.052598583146131465 -0.067220136596844934 -0.051448137163505207 -0.065287024641166563 -0.056293443828407265 0.16050448065910203 -0.064234352842816769 -0.068270308655851028 -0.060761994808912284 -0.071531289530685174 -0.0024250219060507204 -0.012238761456683279 -0.073530523518198415
leaf_weight=66 67 80 51 55 90 71 50 91 65 58 50 70 57 58 90 55 63 92 53 57 56 59 50 51 56 66 60 78 95 62 100 94 54 97 83 155 86 52 92 58 60 69 66 71 58 98 96 50 63 76 63 53 61 50 50 83 57 55 63 50 55 50 59 82 51 66 51 50 67 51 58 50 54 73 54 68 99 74 87 79 56 59 61 92 72 52 53 51 50 64 56 71 57
leaf_count=66 67 80 51 55 90 71 50 91 65 58 50 70 57 58 90 55 63 92 53 57 56 59 50 51 56 66 60 78 95 62 100 94 54 97 83 155 86 52 92 58 60 69 66 71 58 98 96 50 63 76 63 53 61 50 50 83 57 55 63 50 55 50 59 82 51 66 51 50 67 51 58 50 54 73 54 68 99 74 87 79 56 59 61 92 72 52 53 51 50 64 56 71 57
internal_value=0 -0.0125026 0.0269768 0.0484233 -0.0223402 0.00234644 0.115153 -0.0341609 -0.0134011 0.110412 0.0718529 0.0274156 0.0421293 -0.0313643 0.00509403 0.11229 -0.0124311 0.032474 0.0486426 0.0643213 0.0681357 -0.0429857 -0.0167739 0.142145 -0.0278673 -0.0161364 0.011362 -0.045086 -0.0380952 -0.0486483 -0.00155644 -0.0124379 -0.0320757 -0.025418 -0.00225062 -0.0421297 0.0319506 -0.00504387 -0.0465233 -0.0566927 0.00159934 -0.0121799 -0.051751 -0.0352643 -0.0525023 0.139793 -0.00770802 -0.035601 0.0608781 -0.0307013 0.00732451 0.00127486 0.0178418 0.0209023 -0.0335294 0.0441188 -0.0466249 -0.0176126 -0.0114678 -0.0213542 -0.056909 -0.0393374 -0.0458381 -0.0582419 0.15608 0.0318114 0.123776 -0.0532752 -0.055736 -0.0343614 -0.0365886 -0.0290719 -0.0439203 -0.0662237 0.145598 -0.0102412 -0.0602496 -0.0552495 -0.0557364 -0.0607959 -0.0656918 -0.0601001 -0.0629417 -0.060014 -0.0621888 0.166664 -0.0706646 -0.0736806 -0.0556436 -0.067936 -0.00667257 -0.00808843 -0.0703181
internal_weight=0 4973 992 1284 3981 1289 395 2692 803 325 226 959 636 597 192 126 1063 579 380 137 121 1889 996 258 682 462 179 1830 1195 405 323 257 485 422 511 1065 288 130 910 347 199 129 684 163 220 204 461 108 121 226 157 278 114 100 283 202 198 131 119 183 521 233 167 635 207 119 106 381 331 102 117 133 120 239 104 164 240 141 144 401 254 115 322 203 162 103 166 113 111 119 224 168 139
internal_count=6257 4973 992 1284 3981 1289 395 2692 803 325 226 959 636 597 192 126 1063 579 380 137 121 1889 996 258 682 462 179 1830 1195 405 323 257 485 422 511 1065 288 130 910 347 199 129 684 163 220 204 461 108 121 226 157 278 114 100 283 202 198 131 119 183 521 233 167 635 207 119 106 381 331 102 117 133 120 239 104 164 240 141 144 401 254 115 322 203 162 103 166 113 111 119 224 168 139
is_linear=0
shrinkage=0.1


Tree=3
num_leaves=92
num_cat=0
split_feature=14 15 15 14 14 4 11 15 15 14 15 2 2 2 4 2 4 9 18 15 17 14 9 2 2 14 11 2 8 18 15 4 14 14 2 20 2 15 13 2 20 2 4 11 2 8 18 14 2 2 18 4 17 4 18 11 17 2 15 14 15 13 15 17 9 2 9 9 18 11 2 8 20 17 18 18 14 14 20 4 15 4 13 11 13 14 2 11 17 9 2
split_gain=307.565 259.859 175.988 262.614 64.4582 54.7832 42.243 37.5072 37.1331 84.8434 39.1831 36.085 31.9889 31.1821 29.3555 26.5973 23.9129 27.5418 26.508 23.6197 30.8202 19.6326 16.6594 16.391 14.5324 14.5058 13.5806 13.0366 11.8535 15.2313 11.2412 19.3178 10.0359 9.26877 8.32634 7.79741 7.51311 6.60787 6.55167 6.35834 5.96169 5.83388 5.59447 5.56982 12.3958 5.24699 7.63494 8.21975 5.878 5.08423 5.00969 4.86318 4.597 4.41409 3.70907 3.52095 3.49335 3.2993 3.18057 2.82505 2.5653 3.41489 2.49705 2.42401 3.0842 2.36003 2.13586 1.98877 1.93348 1.91448 1.50964 2.82949 1.39127 1.24549 1.11831 1.06361 0.950806 0.959032 0.889384 0.888253 0.88768 0.90662 0.863131 0.823516 0.819111 0.703105 0.669233 0.428521 0.22061 0.143287 0.128379
threshold=6.5000000000000009 13.500000000000002 27.500000000000004 17.500000000000004 3.5000000000000004 21.500000000000004 6.5000000000000009 40.500000000000007 11.500000000000002 11.500000000000002 18.500000000000004 9.5000000000000018 42.500000000000007 13.500000000000002 10.500000000000002 37.500000000000007 5.5000000000000009 18.500000000000004 7.5000000000000009 5.5000000000000009 6.5000000000000009 22.500000000000004 8.5000000000000018 38.500000000000007 57.500000000000007 1.5000000000000002 10.500000000000002 20.500000000000004 6.5000000000000009 21.500000000000004 19.500000000000004 9.5000000000000018 32.500000000000007 12.500000000000002 14.500000000000002 8.5000000000000018 32.500000000000007 8.5000000000000018 18.500000000000004 8.5000000000000018 22.500000000000004 50.500000000000007 19.500000000000004 3.5000000000000004 17.500000000000004 8.5000000000000018 22.500000000000004 16.500000000000004 28.500000000000004 22.500000000000004 25.500000000000004 17.500000000000004 4.5000000000000009 9.5000000000000018 6.5000000000000009 8.5000000000000018 8.5000000000000018 15.500000000000002 7.5000000000000009 11.500000000000002 15.500000000000002 11.500000000000002 7.5000000000000009 12.500000000000002 6.5000000000000009 8.5000000000000018 2.5000000000000004 14.500000000000002 46.500000000000007 4.5000000000000009 31.500000000000004 11.500000000000002 3.5000000000000004 9.5000000000000018 22.500000000000004 9.5000000000000018 13.500000000000002 20.500000000000004 17.500000000000004 28.500000000000004 31.500000000000004 35.500000000000007 14.500000000000002 5.5000000000000009 14.500000000000002 7.5000000000000009 26.500000000000004 5.5000000000000009 24.500000000000004 24.500000000000004 25.500000000000004
decision_type=2 2 2 2 2 2 2 2 2 2 2 2 2 2 2 2 2 2 2 2 2 2 2 2 2 2 2 2 2 2 2 2 2 2 2 2 2 2 2 2 2 2 2 2 2 2 2 2 2 2 2 2 2 2 2 2 2 2 2 2 2 2 2 2 2 2 2 2 2 2 2 2 2 2 2 2 2 2 2 2 2 2 2 2 2 2 2 2 2 2 2
left_child=1 4 8 5 11 15 13 33 43 10 28 22 45 -3 -12 -4 18 35 -6 -13 52 40 25 50 68 -1 41 -19 29 34 31 -15 -26 -7 -10 37 51 65 49 -20 -5 -14 -28 44 72 46 60 48 -48 -30 -16 -8 -21 54 -24 67 -22 75 -27 -17 -11 -62 -57 64 -36 -18 -58 69 80 -45 79 -72 -2 -71 -32 -39 87 -78 -53 84 -23 -82 -64 -75 -47 -74 -86 -69 -73 -89 -63
right_child=2 6 3 21 16 7 36 -9 9 12 14 19 26 30 23 59 17 27 39 20 56 24 53 -25 32 58 42 -29 38 -31 74 -33 -34 -35 63 -37 -38 57 -40 -41 -42 -43 -44 55 -46 70 47 -49 -50 -51 -52 78 -54 -55 -56 62 66 -59 -60 -61 61 90 82 -65 -66 -67 -68 76 -70 73 71 88 85 83 -76 -77 77 -79 -80 -81 81 -83 -84 -85 86 -87 -88 89 -90 -91 -92
leaf_value=0.033983453077870228 -0.058421763222265458 0.045950253860404099 0.062153941827515762 -0.015660131286190013 -0.020597128326503133 0.038571634944528345 0.020375362610710518 0.10222140449914151 -0.039743239958382526 -0.064053942543569581 0.10521310650958465 0.0019954533434347875 0.04108039438724518 0.13703361101570014 -0.017360165012734279 0.14403936202378617 -0.058241962461183086 0.051601716173304758 0.030003247088661384 0.13210417526721394 0.062652027606964117 -0.048634130972455822 0.0017794287679716945 0.064380697451405608 0.01931694629475136 -0.034333842867299132 -0.013273957358865902 -0.012142727879638021 -0.04138600344611508 0.039001259100623437 0.13497559942505499 0.05587021086511075 -0.041958663904537952 -0.014160063018401465 -0.0040557991076881688 0.008966038620071802 0.085403843521575651 -0.019152183198239754 -0.061139211979193191 0.078407786147476274 0.022007622364398145 -0.004787192395643184 -0.043245111969443639 -0.057273084353102313 0.0028702453350027404 -0.065357415610148267 -0.02907944017186247 -0.047404679300627493 0.016138663090634765 0.00049117987509816885 0.021509606142838797 0.047584809977561239 0.089834103146567951 0.053886272438934874 0.039577319277466612 -0.019128745956883089 0.047497026552446191 -0.038434378785782375 -0.005881953267067838 0.11709745850700599 -0.021890529044545616 -0.057067820534110074 -0.036028378732778414 -0.018585103777526268 0.02436545277014375 -0.034823943433972701 0.020492236893915106 -0.069138873324152972 -0.038431301475925883 -0.052744870512159897 -0.030376084398149567 -0.051507885078443033 -0.047982885786577278 -0.027832832401366654 0.15196691682856334 -0.0033286845592676467 -0.040529794372618201 -0.060019579149928753 0.065568481104617771 -0.068817639903577629 -0.071485864441539801 -0.054705746164708802 -0.054168955901382022 -0.04434827056658619 -0.04639941824016848 -0.033248599165429674 -0.058875648363640433 -0.05506714618993256 -0.060488320823948262 -0.06204893137469436 -0.04990181435272098
leaf_weight=63 56 60 78 99 78 60 56 64 72 89 52 67 54 69 70 97 78 77 51 53 59 51 50 59 55 95 174 55 53 80 79 51 52 75 120 59 61 214 52 58 73 57 97 101 75 60 58 87 57 64 63 55 50 70 54 59 54 87 67 65 52 50 54 58 56 96 64 63 55 54 68 51 57 74 76 53 50 51 55 61 74 57 51 51 99 75 76 53 59 66 50
leaf_count=63 56 60 78 99 78 60 56 64 72 89 52 67 54 69 70 97 78 77 51 53 59 51 50 59 55 95 174 55 53 80 79 51 52 75 120 59 61 214 52 58 73 57 97 101 75 60 58 87 57 64 63 55 50 70 54 59 54 87 67 65 52 50 54 58 56 96 64 63 55 54 68 51 57 74 76 53 50 51 55 61 74 57 51 51 99 75 76 53 59 66 50
internal_value=0 0.0299604 -0.0164067 0.0211101 0.00997823 0.0779627 0.0886981 0.0391682 -0.0280093 -0.0204764 0.0051647 0.0317467 -0.036248 0.111266 0.0385633 0.11013 -0.00794595 -0.0162313 0.0239104 0.0553306 0.068093 -0.0272586 0.0112364 0.0205123 -0.0410513 -0.00673266 -0.0119345 0.0250415 -0.00951863 0.000151349 0.125517 0.102539 -0.0104619 0.00927625 -0.0100055 -0.0255124 0.0553924 -0.0293651 -0.0316051 0.0557598 0.000326764 0.0175268 -0.0240016 -0.0439727 -0.031502 -0.0463764 -0.0385519 -0.0242124 -0.00666699 -0.0184788 0.00105183 0.0443642 0.111585 0.0344723 0.0214053 -0.0484841 0.0427842 -0.021522 -0.0225667 0.133229 -0.0505709 -0.0426762 -0.0355899 -0.000855413 0.00498733 -0.0453217 0.0328504 -0.0522402 -0.0548618 -0.046265 -0.0536892 -0.0464117 -0.0452143 -0.0400537 0.143307 -0.0160112 -0.058152 -0.0503712 0.0565766 -0.0580656 -0.059827 -0.0641846 -0.0448395 -0.0345711 -0.0552746 -0.0396111 -0.0518177 -0.06247 -0.0563247 -0.0589394 -0.0534848
internal_weight=0 2214 4043 955 1652 439 562 199 3088 2098 799 746 1299 335 244 240 906 719 187 347 280 516 399 192 344 225 382 132 555 386 275 120 107 135 306 587 227 528 169 109 172 111 271 990 263 917 443 202 115 117 133 166 103 174 104 727 177 354 162 162 241 152 164 234 176 174 118 563 237 280 474 178 188 179 155 267 283 101 110 296 182 131 105 125 235 132 175 182 110 119 100
internal_count=6257 2214 4043 955 1652 439 562 199 3088 2098 799 746 1299 335 244 240 906 719 187 347 280 516 399 192 344 225 382 132 555 386 275 120 107 135 306 587 227 528 169 109 172 111 271 990 263 917 443 202 115 117 133 166 103 174 104 727 177 354 162 162 241 152 164 234 176 174 118 563 237 280 474 178 188 179 155 267 283 101 110 296 182 131 105 125 235 132 175 182 110 119 100
is_linear=0
shrinkage=0.1


Tree=4
num_leaves=92
num_cat=0
split_feature=3 10 14 16 14 2 16 3 7 16 10 16 10 1 14 10 7 7 16 3 10 6 16 2 16 7 11 16 10 14 10 14 16 8 16 2 14 7 16 1 14 14 14 8 2 1 8 2 7 2 14 16 7 8 7 14 1 3 7 3 3 8 8 1 2 14 11 16 2 16 16 6 16 6 16 14 16 1 16 10 16 2 14 11 6 8 2 1 14 2 11
split_gain=459.544 218.728 126.248 99.7563 94.6903 82.2938 55.7253 50.2848 63.8836 89.6378 71.1079 19.6941 27.1302 18.1977 17.957 17.2329 16.7485 16.52 21.6045 19.3105 16.4643 15.7899 15.3986 14.2695 19.2946 11.7046 10.8418 9.01356 8.6725 7.91465 7.58709 7.06786 9.08978 6.50198 6.46712 8.35448 8.57663 6.4635 6.17448 7.34707 5.53849 5.20219 4.98971 4.46488 7.50843 4.42635 5.42848 4.22903 3.72763 3.57524 3.38108 3.34347 3.26539 2.97921 2.94147 2.78233 2.49963 2.379 1.99715 1.873 1.69538 1.51194 1.39843 1.39003 1.37131 2.46574 3.62503 1.62178 1.36747 1.36677 1.3542 1.30925 1.12851 1.1127 1.52437 0.945681 0.898585 0.829906 0.610592 0.524989 0.391011 0.348753 0.333877 0.313911 0.392115 0.708297 0.211036 0.12837 0.111759 0.0965546 0.0945592
threshold=1.5000000000000002 34.500000000000007 4.5000000000000009 24.500000000000004 7.5000000000000009 11.500000000000002 7.5000000000000009 5.5000000000000009 20.500000000000004 18.500000000000004 43.500000000000007 14.500000000000002 46.500000000000007 141.50000000000003 6.5000000000000009 18.500000000000004 5.5000000000000009 47.500000000000007 7.5000000000000009 9.5000000000000018 63.500000000000007 20.500000000000004 10.500000000000002 15.500000000000002 11.500000000000002 10.500000000000002 9.5000000000000018 7.5000000000000009 18.500000000000004 4.5000000000000009 21.500000000000004 12.500000000000002 34.500000000000007 1.5000000000000002 14.500000000000002 14.500000000000002 11.500000000000002 13.500000000000002 5.5000000000000009 130.50000000000003 3.5000000000000004 3.5000000000000004 9.5000000000000018 9.5000000000000018 32.500000000000007 251.50000000000003 2.5000000000000004 51.500000000000007 8.5000000000000018 42.500000000000007 10.500000000000002 30.500000000000004 7.5000000000000009 1.5000000000000002 24.500000000000004 3.5000000000000004 461.50000000000006 8.5000000000000018 14.500000000000002 1.0000000180025095e-35 2.5000000000000004 5.5000000000000009 3.5000000000000004 247.50000000000003 27.500000000000004 16.500000000000004 12.500000000000002 23.500000000000004 15.500000000000002 11.500000000000002 22.500000000000004 13.500000000000002 17.500000000000004 11.500000000000002 15.500000000000002 11.500000000000002 16.500000000000004 169.50000000000003 30.500000000000004 11.500000000000002 20.500000000000004 19.500000000000004 13.500000000000002 8.5000000000000018 27.500000000000004 13.500000000000002 14.500000000000002 312.50000000000006 24.500000000000004 11.500000000000002 9.5000000000000018
decision_type=2 2 2 2 2 2 2 2 2 2 2 2 2 2 2 2 2 2 2 2 2 2 2 2 2 2 2 2 2 2 2 2 2 2 2 2 2 2 2 2 2 2 2 2 2 2 2 2 2 2 2 2 2 2 2 2 2 2 2 2 2 2 2 2 2 2 2 2 2 2 2 2 2 2 2 2 2 2 2 2 2 2 2 2 2 2 2 2 2 2 2
left_child=1 4 13 11 5 16 15 8 14 10 22 50 -13 33 37 25 41 18 -9 51 26 -5 -10 69 30 -7 56 -15 -8 -30 -25 -28 49 -2 35 77 58 48 40 -40 -18 53 57 44 -24 46 79 -21 -4 -33 59 -19 -35 -1 72 -41 70 73 -37 61 63 -3 -17 -36 80 66 67 -66 86 -6 -11 -47 -26 74 -20 -62 -31 89 -67 -29 82 -82 -44 -80 85 -85 -50 -77 -51 -16 -83
right_child=2 3 7 21 23 6 28 17 9 20 -12 12 -14 27 34 62 38 19 42 47 -22 -23 43 24 54 -27 31 45 29 76 -32 32 -34 52 60 36 -38 -39 39 55 -42 -43 64 -45 -46 71 -48 -49 68 88 -52 -53 -54 -55 -56 -57 -58 -59 -60 -61 75 -63 -64 -65 65 78 -68 -69 -70 -71 -72 -73 -74 -75 -76 87 -78 -79 83 -81 81 90 -84 84 -86 -87 -88 -89 -90 -91 -92
leaf_value=0.0083364077794708721 0.024189131326083815 0.14327407408067411 -0.042821114822163511 -0.01125726257981379 -0.038110459804898356 0.038021907658439207 0.0062492473094778907 -0.0053782746424337188 0.063556282068068376 -0.036093256630003449 0.12795819023098701 0.037232419866763178 0.12251799612616499 0.076532652531311196 -0.050886922541494461 0.13916010856628419 0.062556990354575889 0.027398616453775993 -0.027565059275116013 -0.053894053476687992 0.027606859218761111 0.060552902635186916 -0.004231806130915442 0.0011673962149549933 -0.043206199672867492 0.098176668656159594 0.013315141020963589 0.029949670626471442 0.072564966457359714 0.038918718038236398 0.055713983449865792 -0.030470285746023847 -0.053562408240873431 0.0034806978213144284 -0.052088952465699272 -0.01410983812741258 -0.045609702542424205 0.016465558870783392 -0.017776749107158846 0.037795269718010199 0.021924401083311371 -0.042764174468815329 -0.066858532935825749 -0.011932704088358601 0.044976409675202153 0.057236720577930104 0.0030662225064948018 -0.021437507597864541 -0.018325380498872085 -0.00079693236159828471 0.1139923322254852 -0.0050613677024000121 -0.030806070929545848 -0.020152351694693135 -0.011100160997476122 0.0083795215079530347 -0.024992880854627184 -0.054897524770033561 0.012838929160074756 0.1536110154249602 -0.050646065939695409 0.12097513170912862 0.11671065637575728 -0.031952306877144364 -0.036988746033981439 -0.047058558068733589 -0.020404138191351815 -0.061194843318193193 -0.028458591658477739 -0.058715322794709007 -0.056317559203931271 0.035759112689023216 -0.023741249460726976 -0.019507027653833997 -0.046521406197765222 -0.061698892676772976 0.021063029601992595 -0.038603535767178981 -0.062407646607607607 0.042964863948157579 -0.048709941589303557 -0.055625654019516059 -0.056344855651259421 -0.059384149167453874 -0.060932219876692853 -0.045230374936768902 -0.011059921194951253 -0.068725485163919922 -0.0062451800059240602 -0.056782760690958778 -0.061255050197243692
leaf_weight=76 67 68 64 79 82 53 85 129 61 50 78 61 96 53 51 55 55 65 93 96 69 50 68 51 68 83 75 63 66 51 51 76 67 51 91 55 69 53 63 68 86 50 67 81 57 64 81 69 51 53 62 62 61 71 94 61 58 59 55 72 78 55 56 55 50 94 63 62 71 53 98 51 53 52 78 52 63 50 66 61 62 74 55 64 65 79 185 52 130 61 50
leaf_count=76 67 68 64 79 82 53 85 129 61 50 78 61 96 53 51 55 55 65 93 96 69 50 68 51 68 83 75 63 66 51 51 76 67 51 91 55 69 53 63 68 86 50 67 81 57 64 81 69 51 53 62 62 61 71 94 61 58 59 55 72 78 55 56 55 50 94 63 62 71 53 98 51 53 52 78 52 63 50 66 61 62 74 55 64 65 79 185 52 130 61 50
internal_value=0 0.0390069 -0.0188287 0.093361 0.0192516 0.0358327 0.0644252 -0.0255385 -0.0154998 0.00248641 0.0439624 0.117287 0.0893816 0.0257575 -0.0323012 0.0985969 0.00821126 -0.0391947 -0.0441542 -0.01776 -0.0186811 0.0165761 0.0194243 -0.0189729 -0.00737783 0.074734 -0.0239428 0.0383355 0.0325747 0.0450062 0.0284407 -0.0143638 -0.0207317 -0.000452419 -0.0425053 -0.0328625 -0.0179719 -0.0162007 0.0218842 0.0102151 0.037774 -0.0149008 -0.0485692 0.00635604 0.0182071 0.0320091 0.0232002 -0.0403213 -0.0208674 -0.0122388 0.134334 0.011552 -0.0151933 -0.00542347 -0.0243708 0.0238855 -0.0425892 -0.0370409 -0.000635454 0.140801 -0.0525303 0.133303 0.127834 -0.0445032 -0.0523893 -0.0493661 -0.0395942 -0.0503885 -0.0162907 -0.0461998 -0.049485 0.0477119 -0.0346802 -0.0323165 -0.0362118 -0.0589696 0.0290511 -0.0493158 -0.054013 0.0363523 -0.0577193 -0.0548337 -0.0621188 -0.0563988 -0.0544922 -0.0515649 -0.01263 -0.0652122 -0.00466727 -0.054098 -0.0578956
internal_weight=0 2037 4220 543 1494 1042 512 3668 2114 1021 345 414 157 552 1093 247 530 1554 1262 292 676 129 267 452 317 136 607 373 265 180 102 401 326 179 669 341 179 424 333 192 141 197 1133 206 125 320 205 165 371 259 257 127 112 147 215 129 206 282 110 195 328 123 111 146 851 543 175 112 307 135 148 115 121 223 171 182 114 162 368 124 308 186 122 274 208 143 236 104 183 112 124
internal_count=6257 2037 4220 543 1494 1042 512 3668 2114 1021 345 414 157 552 1093 247 530 1554 1262 292 676 129 267 452 317 136 607 373 265 180 102 401 326 179 669 341 179 424 333 192 141 197 1133 206 125 320 205 165 371 259 257 127 112 147 215 129 206 282 110 195 328 123 111 146 851 543 175 112 307 135 148 115 121 223 171 182 114 162 368 124 308 186 122 274 208 143 236 104 183 112 124
is_linear=0
shrinkage=0.1


Tree=5
num_leaves=89
num_cat=0
split_feature=3 18 14 16 14 2 3 18 16 9 16 5 16 18 9 20 1 14 5 4 20 3 5 16 2 16 16 5 2 4 16 9 8 14 5 18 3 14 18 16 5 14 20 1 20 14 5 5 4 18 5 14 2 9 14 8 9 5 1 14 4 20 20 2 3 1 16 1 16 14 5 8 5 9 20 1 2 2 1 2 2 16 4 16 2 20 8 1
split_gain=372.23 119.062 102.261 75.681 74.255 83.4659 40.7307 50.2875 59.6398 29.2114 24.0482 22.7285 19.9712 43.0773 21.7425 20.2127 19.7759 19.5505 19.2037 19.1122 18.1986 18.2943 17.1367 16.777 16.207 25.6213 15.9006 15.3189 13.5532 17.4683 12.2633 12.2121 12.1434 11.3618 12.0633 11.0534 10.8941 19.2533 9.08892 14.0908 9.05768 8.51106 8.11496 7.62916 7.59778 5.10879 8.91926 4.88094 4.65495 4.17499 3.82124 3.58141 3.54925 3.41218 3.18389 3.06816 2.72027 2.21158 2.69829 2.59022 2.19897 2.13134 2.02353 1.71115 1.68879 2.44523 3.71143 2.00204 3.81188 1.5936 1.48641 1.46343 1.19014 0.984217 0.924008 0.717153 0.594352 0.52345 0.429585 0.369043 0.320679 0.282549 0.258087 0.251459 0.215045 0.172981 0.119899 0.0392788
threshold=1.5000000000000002 21.500000000000004 4.5000000000000009 14.500000000000002 6.5000000000000009 11.500000000000002 5.5000000000000009 35.500000000000007 19.500000000000004 8.5000000000000018 24.500000000000004 10.500000000000002 17.500000000000004 23.500000000000004 19.500000000000004 13.500000000000002 448.50000000000006 10.500000000000002 13.500000000000002 19.500000000000004 25.500000000000004 9.5000000000000018 40.500000000000007 7.5000000000000009 18.500000000000004 10.500000000000002 7.5000000000000009 25.500000000000004 14.500000000000002 8.5000000000000018 7.5000000000000009 19.500000000000004 3.5000000000000004 2.5000000000000004 12.500000000000002 38.500000000000007 7.5000000000000009 1.5000000000000002 7.5000000000000009 5.5000000000000009 30.500000000000004 1.5000000000000002 6.5000000000000009 310.50000000000006 8.5000000000000018 12.500000000000002 18.500000000000004 20.500000000000004 9.5000000000000018 17.500000000000004 56.500000000000007 9.5000000000000018 43.500000000000007 9.5000000000000018 12.500000000000002 1.5000000000000002 8.5000000000000018 21.500000000000004 228.50000000000003 7.5000000000000009 10.500000000000002 14.500000000000002 1.5000000000000002 15.500000000000002 10.500000000000002 344.50000000000006 18.500000000000004 480.50000000000006 36.500000000000007 9.5000000000000018 16.500000000000004 1.5000000000000002 29.500000000000004 21.500000000000004 10.500000000000002 328.50000000000006 22.500000000000004 49.500000000000007 264.50000000000006 44.500000000000007 10.500000000000002 20.500000000000004 25.500000000000004 21.500000000000004 31.500000000000004 12.500000000000002 14.500000000000002 282.50000000000006
decision_type=2 2 2 2 2 2 2 2 2 2 2 2 2 2 2 2 2 2 2 2 2 2 2 2 2 2 2 2 2 2 2 2 2 2 2 2 2 2 2 2 2 2 2 2 2 2 2 2 2 2 2 2 2 2 2 2 2 2 2 2 2 2 2 2 2 2 2 2 2 2 2 2 2 2 2 2 2 2 2 2 2 2 2 2 2 2 2 2
left_child=1 4 11 19 5 38 7 12 -9 33 16 32 13 28 27 52 31 -17 -11 43 23 -22 61 -8 49 -26 -13 -15 55 -30 -20 -5 36 -7 -35 -12 37 -2 41 -40 -19 -1 53 48 -28 46 63 -27 -3 69 51 57 74 -41 -49 -4 62 58 59 -25 80 -10 -43 -31 65 81 -67 68 72 71 -46 -6 -68 -42 75 78 -65 82 83 -45 -57 87 -69 -14 85 -66 -86 -53
right_child=2 3 6 10 24 9 20 8 22 18 35 26 15 14 -16 17 -18 40 30 -21 21 -23 -24 50 25 47 44 -29 29 45 -32 -33 -34 34 -36 -37 -38 -39 39 42 73 56 -44 79 70 -47 -48 54 -50 -51 -52 64 -54 -55 -56 60 -58 -59 -60 -61 -62 -63 -64 76 84 66 67 77 -70 -71 -72 -73 -74 -75 -76 -77 -78 -79 -80 -81 -82 -83 -84 -85 86 -87 -88 -89
leaf_value=0.028823674725843414 0.036958390317687932 0.12660489720377055 -0.01729353800415993 0.067805640151678226 -0.040049729595193644 0.12717423913131159 -0.0045918752159923321 0.11915941791875023 -0.037001206914216954 0.0015888412215121805 -0.021070105766116735 0.094975845544384083 -0.05418031489987829 0.022443520911730928 -0.0089646938234204197 0.034647439773577975 0.10607902244879651 -0.052369554016519992 0.10222044261517349 0.056492134755985302 0.025173294970825794 -0.046775707484860173 0.037990193599118642 -0.043176476492346093 0.05861661806138177 -0.037956242185706895 0.0041713124761978788 0.093608406112374129 0.033674583211541174 -0.015034181861073135 0.041814422145423094 0.012368030279564362 -0.034884996025166551 0.045174847423272622 0.10786065892316402 0.038650280589407143 0.052010114714503286 -0.027481537574560063 0.050605321246566193 -0.022421910321718315 -0.0087374648467885511 -0.014563554320576308 0.0354842437752362 0.13612865996465348 0.033799400849750749 -0.044011378793264604 0.014261906470743602 0.015634185179848881 0.087347743232081193 -0.0061441051463286085 -0.018292782698578473 -0.055448677922215528 -0.021057546697556974 0.0099341989240863127 -0.019877388909459115 -0.044313404156553854 -0.0011188223657588807 -0.015440326577259434 -0.054103879147851974 -0.017229626685380937 -0.027930957425592675 -0.0096377197779336232 -0.042126414410304285 -0.033881962933340067 -0.045769980865851295 -0.01626136905979365 -0.052070569254500765 -0.050939678540527 -0.013964477284545347 -0.048291260772097257 0.05549831631207397 -0.017342737550828973 -0.033480378206035021 -0.024979100208364281 -0.040002176589281353 -0.058749068092475543 -0.020916645133190536 -0.058052155694340246 -0.041331756522967701 0.14789951151609423 -0.053029305851836323 -0.048716752534639488 -0.04272104476805072 -0.045506835831146619 -0.058081300471078706 -0.053007570967666756 -0.052700052932499256 -0.059373399483806946
leaf_weight=51 88 55 60 81 64 75 130 56 55 73 71 52 97 61 82 68 65 85 54 55 93 57 78 79 66 60 63 60 75 188 89 78 61 59 64 55 60 98 99 80 139 57 58 57 54 66 88 51 67 54 63 51 52 55 50 82 62 54 71 75 72 59 50 99 61 58 87 79 56 81 76 51 57 51 91 94 55 59 63 50 87 59 74 51 74 72 94 51
leaf_count=51 88 55 60 81 64 75 130 56 55 73 71 52 97 61 82 68 65 85 54 55 93 57 78 79 66 60 63 60 75 188 89 78 61 59 64 55 60 98 99 80 139 57 58 57 54 66 88 51 67 54 63 51 52 55 50 82 62 54 71 75 72 59 50 99 61 58 87 79 56 81 76 51 57 51 91 94 55 59 63 50 87 59 74 51 74 72 94 51
internal_value=0 0.0351062 -0.0169458 0.0710707 0.0188542 0.0353657 -0.0229846 -0.0139498 0.0283567 0.0687532 0.0399483 0.0231818 -0.0195725 -0.0106983 0.0307904 -0.031633 0.0596076 -0.0133639 0.0433212 0.109426 -0.0352752 -0.00216733 0.00187262 -0.0388124 -0.0131997 0.00614448 0.0458962 0.0577319 -0.0203568 -0.0113052 0.0646251 0.0406098 0.00505462 0.0964973 0.0777919 0.00499832 0.0149584 0.00300617 0.00836882 0.0199337 -0.0252358 -0.00698092 0.00420059 0.122139 0.0326727 -0.0181066 -0.0141305 -0.0153658 0.105046 -0.0307641 -0.0423043 -0.0435534 -0.0456202 -0.00923979 -0.0019458 -0.0375279 -0.0177859 -0.033614 -0.0379757 -0.03054 -0.0425655 -0.0228394 -0.0274434 -0.0214361 -0.0465289 -0.0435889 -0.0399454 -0.0432796 -0.0361027 -0.0375472 0.0464849 -0.0299797 -0.044712 -0.0130971 -0.0488456 -0.0514841 -0.0292515 -0.0500503 -0.0482476 0.141629 -0.0488003 -0.0542249 -0.0469647 -0.0511915 -0.0526921 -0.0496881 -0.0550704 -0.057411
internal_weight=0 2037 4220 634 1403 926 3668 2114 248 414 350 552 1866 1075 203 791 224 343 216 284 1554 150 192 1404 477 227 245 121 872 571 143 159 307 198 123 126 246 186 512 292 275 220 193 229 193 496 430 161 122 250 1274 1211 448 135 101 301 169 279 225 154 241 114 107 342 932 631 470 412 200 196 130 115 144 190 396 305 154 212 211 107 169 161 153 148 301 133 168 102
internal_count=6257 2037 4220 634 1403 926 3668 2114 248 414 350 552 1866 1075 203 791 224 343 216 284 1554 150 192 1404 477 227 245 121 872 571 143 159 307 198 123 126 246 186 512 292 275 220 193 229 193 496 430 161 122 250 1274 1211 448 135 101 301 169 279 225 154 241 114 107 342 932 631 470 412 200 196 130 115 144 190 396 305 154 212 211 107 169 161 153 148 301 133 168 102
is_linear=0
shrinkage=0.1


Tree=6
num_leaves=95
num_cat=0
split_feature=3 13 16 14 16 3 20 13 14 13 16 0 20 16 0 14 16 13 13 14 3 1 0 1 9 1 14 1 20 14 1 9 4 17 16 17 1 16 11 20 13 1 9 16 1 14 11 20 9 1 14 3 16 0 20 14 16 1 13 16 1 1 1 14 1 4 4 17 0 13 20 3 1 4 13 20 11 9 20 11 9 9 20 13 9 3 13 16 4 1 16 14 11 4
split_gain=301.507 94.6081 95.9898 82.8311 39.2561 34.2362 43.8888 32.8974 25.9876 27.3942 25.8525 25.2508 24.4806 20.686 23.7559 19.7443 17.7684 17.5744 15.9131 15.1768 14.249 12.326 14.4912 11.9698 11.6929 11.601 11.1978 9.67834 9.15362 9.05843 8.78192 8.24361 7.07902 6.91487 6.73024 11.1523 7.61923 6.5552 6.5402 10.534 6.41019 6.16873 8.87167 6.03118 5.52293 5.14469 4.6071 4.04613 3.78587 3.49659 3.81612 3.49027 3.35998 3.32084 2.95778 11.6044 3.83411 7.54507 2.90711 2.88445 6.21563 2.85979 2.81491 2.77977 3.02359 1.90215 5.12106 1.84532 1.76382 1.44146 1.3649 1.07059 1.92304 1.8145 1.06059 1.03724 0.997948 0.97866 0.898989 0.830889 0.687227 0.678624 0.654984 0.593875 0.550637 0.533587 0.356676 0.331451 0.270756 0.2641 0.154184 0.149892 0.123023 0.11561
threshold=1.5000000000000002 10.500000000000002 14.500000000000002 4.5000000000000009 6.5000000000000009 4.5000000000000009 14.500000000000002 3.5000000000000004 18.500000000000004 20.500000000000004 17.500000000000004 7.0500000000000007 25.500000000000004 18.500000000000004 4.5500000000000007 3.5000000000000004 9.5000000000000018 19.500000000000004 14.500000000000002 1.5000000000000002 1.0000000180025095e-35 141.50000000000003 6.9500000000000011 149.50000000000003 7.5000000000000009 186.50000000000003 9.5000000000000018 474.50000000000006 15.500000000000002 11.500000000000002 135.50000000000003 11.500000000000002 17.500000000000004 6.5000000000000009 10.500000000000002 9.5000000000000018 237.50000000000003 21.500000000000004 3.5000000000000004 8.5000000000000018 12.500000000000002 303.50000000000006 25.500000000000004 3.5000000000000004 505.50000000000006 4.5000000000000009 4.5000000000000009 2.5000000000000004 6.5000000000000009 310.50000000000006 5.5000000000000009 2.5000000000000004 8.5000000000000018 6.9500000000000011 16.500000000000004 12.500000000000002 34.500000000000007 545.50000000000011 8.5000000000000018 16.500000000000004 326.50000000000006 279.50000000000006 130.50000000000003 7.5000000000000009 132.50000000000003 13.500000000000002 19.500000000000004 10.500000000000002 2.7500000000000004 16.500000000000004 7.5000000000000009 7.5000000000000009 385.50000000000006 23.500000000000004 11.500000000000002 12.500000000000002 11.500000000000002 12.500000000000002 25.500000000000004 2.5000000000000004 15.500000000000002 14.500000000000002 9.5000000000000018 19.500000000000004 9.5000000000000018 2.5000000000000004 30.500000000000004 28.500000000000004 18.500000000000004 537.50000000000011 6.5000000000000009 24.500000000000004 1.5000000000000002 21.500000000000004
decision_type=2 2 2 2 2 2 2 2 2 2 2 2 2 2 2 2 2 2 2 2 2 2 2 2 2 2 2 2 2 2 2 2 2 2 2 2 2 2 2 2 2 2 2 2 2 2 2 2 2 2 2 2 2 2 2 2 2 2 2 2 2 2 2 2 2 2 2 2 2 2 2 2 2 2 2 2 2 2 2 2 2 2 2 2 2 2 2 2 2 2 2 2 2 2
left_child=1 4 18 21 7 6 13 43 9 28 -8 16 46 14 -5 24 68 31 20 -6 52 33 -23 -24 -9 45 58 -10 41 -12 -17 40 49 48 35 -33 -36 -11 -25 -40 63 -4 -43 92 -31 62 -13 -45 -2 50 -20 -38 -3 -18 59 -56 57 -57 67 60 74 -28 -21 64 -16 85 69 -27 -7 -67 81 72 80 -74 -55 -41 87 -51 86 -47 -72 -61 -73 -84 -65 -15 -58 -68 -83 93 -37 -48 -1 -85
right_child=3 2 8 5 19 11 10 15 27 37 29 12 -14 65 17 30 53 -19 32 25 -22 22 23 38 -26 26 61 -29 -30 44 -32 34 -34 -35 36 90 51 -39 39 75 -42 42 -44 47 -46 79 91 -49 -50 77 -52 -53 -54 54 55 56 78 -59 -60 70 -62 -63 -64 84 -66 66 76 -69 -70 -71 71 82 73 -75 -76 -77 -78 -79 -80 -81 -82 88 83 89 -86 -87 -88 -89 -90 -91 -92 -93 -94 -95
leaf_value=0.023053270871892122 0.03139641018675976 0.10341254094243049 -0.019507509053995214 -0.059470777410542831 0.041669177045188258 -0.013651116036179693 0.083020170951704886 0.10887623817860326 -0.048255895113741815 0.097684985713567596 0.038834429071093468 -0.034815505776140426 0.057426463876564172 -0.04039651986494075 -0.033258873136946934 -0.00017406714614480735 -0.013381070179793127 0.037969981491480065 0.11286676313195909 -0.022177587676560508 0.022802362257036673 -0.012929735592972006 0.08234145228073679 0.062968181840637155 0.047452889521624526 0.02347973516718908 -0.037512220878083757 0.010296458404125838 0.053014189686759243 -0.023908391383106579 0.05201516446020258 0.051083898116998816 0.069478618543195939 -0.025818875423796912 -0.045340709456921383 -0.0019487588423200781 0.016560494514149534 0.05083604689155307 -0.010696174058830367 0.027497528093782336 0.0059724725972046151 0.051735517499721884 -0.0019015746638895228 -0.032607437326357916 0.013800751922809216 -0.027621317972593446 -0.0027139289473945448 0.0070342013648912018 -0.0057224121466279039 0.11311251372098924 0.07890278630215547 -0.014559878253530027 0.066932207411702943 -0.051004969406926982 0.0089999679621048587 -0.042490897330987668 -0.056574784732167274 0.0049362198285320229 0.037746338546276098 -0.059103545690886675 -0.002064296086582373 -0.0048140225380107213 0.007086507139805083 -0.046317827973801358 -0.0011284982509635114 -0.0018188284495129034 -0.041989265416156163 -0.0024244331839409741 0.006384659070474437 -0.025479835721061512 -0.037678295011190993 -0.03692034828787049 -0.015241318165578627 -0.039154515026758117 -0.034180873709946595 0.045081540671458774 -0.030157700089666135 0.13233325978597771 -0.037696857189035253 -0.043565777983662936 -0.052085130949374996 -0.042054489319297401 -0.0568730803730432 -0.046011421636033521 -0.033089756794640275 -0.052723377936616023 -0.046897283893297698 -0.052553331741580257 -0.051490879135535045 -0.050031128780445071 0.0042331862917098289 -0.0089940186230299188 0.016514002878730203 -0.039543989707984159
leaf_weight=66 61 50 60 87 63 99 61 79 55 64 73 90 54 89 64 56 52 87 77 84 58 62 55 51 51 55 53 58 56 73 76 51 56 68 59 180 57 56 64 55 64 51 78 52 83 51 55 51 50 54 58 98 51 69 59 98 69 51 61 80 53 54 54 65 54 52 66 55 79 51 57 60 55 75 82 86 52 52 72 91 79 55 64 52 61 58 85 54 68 83 52 123 51 59
leaf_count=66 61 50 60 87 63 99 61 79 55 64 73 90 54 89 64 56 52 87 77 84 58 62 55 51 51 55 53 58 56 73 76 51 56 68 59 180 57 56 64 55 64 51 78 52 83 51 55 51 50 54 58 98 51 69 59 98 69 51 61 80 53 54 54 65 54 52 66 55 79 51 57 60 55 75 82 86 52 52 72 91 79 55 64 52 61 58 85 54 68 83 52 123 51 59
internal_value=0 0.0315956 0.0550153 -0.0152512 0.0117641 -0.0206862 -0.0102399 0.0331776 0.0237036 0.0366772 0.02517 -0.0296212 -0.00399968 -0.0175696 -0.00959179 0.0571173 -0.0346062 -0.00472691 0.0878378 -0.00485636 0.0623063 0.0208636 0.0312154 0.040016 0.0847794 -0.0101092 0.00436138 -0.0182025 0.0175042 0.0097601 0.0298743 -0.00934136 0.101506 -0.000707392 -0.00137504 0.00874427 -0.0147571 0.0758221 0.0309227 0.0229503 -0.0221961 0.00698274 0.0193038 0.00466767 -0.00384519 -0.0244765 -0.0163766 -0.0129791 0.0146762 0.108948 0.0982748 -0.00311561 0.0849918 -0.0382032 -0.039109 -0.0322246 -0.0387106 -0.0262575 0.0202372 -0.042124 -0.0315274 -0.0210103 -0.0107264 -0.0295846 -0.0185551 -0.0360774 -0.0311688 0.0105277 -0.00475883 -0.0135345 -0.0448708 -0.0424154 -0.037734 -0.0290374 -0.0418687 0.0382225 -0.0417289 0.122542 -0.0469208 -0.0378392 -0.046047 -0.0519343 -0.0463314 -0.04852 -0.0399138 -0.0452602 -0.0512333 -0.0467431 -0.0472714 -0.0457643 -0.00056315 -0.00705354 0.0202028 -0.0425738
internal_weight=0 2037 934 4220 1103 3668 1691 482 478 365 290 1977 322 1401 979 262 1655 892 456 621 159 552 373 311 130 558 278 113 245 229 132 805 297 179 497 283 214 120 256 205 308 189 129 220 156 280 268 103 111 241 135 155 101 1477 1425 434 375 149 171 991 204 107 138 244 118 422 275 110 178 103 787 584 266 130 151 141 172 106 226 142 136 203 318 258 126 147 154 120 123 194 232 178 117 111
internal_count=6257 2037 934 4220 1103 3668 1691 482 478 365 290 1977 322 1401 979 262 1655 892 456 621 159 552 373 311 130 558 278 113 245 229 132 805 297 179 497 283 214 120 256 205 308 189 129 220 156 280 268 103 111 241 135 155 101 1477 1425 434 375 149 171 991 204 107 138 244 118 422 275 110 178 103 787 584 266 130 151 141 172 106 226 142 136 203 318 258 126 147 154 120 123 194 232 178 117 111
is_linear=0
shrinkage=0.1


Tree=7
num_leaves=91
num_cat=0
split_feature=3 10 14 14 2 14 3 10 9 17 0 9 7 5 5 17 14 5 9 5 9 0 14 0 7 2 7 2 14 9 14 7 9 10 5 3 14 9 2 2 9 14 5 3 7 14 14 9 11 11 10 5 3 0 14 5 17 2 5 9 5 3 14 17 10 7 7 7 17 0 13 7 17 14 11 10 7 11 0 3 17 13 13 2 9 2 2 17 2 3
split_gain=244.22 132.183 67.0932 61.5997 51.0129 48.0065 27.7313 43.8824 25.9775 24.4236 20.4531 19.4634 18.6325 17.2612 14.7275 18.4825 13.9949 13.7711 12.2863 11.7944 12.6508 11.6652 11.4486 17.8733 10.5323 10.068 9.07256 8.83422 9.23263 7.46032 7.14657 7.1408 6.70986 9.17101 6.35585 6.44907 15.2907 6.16367 5.88892 5.40704 5.53943 5.00935 11.508 4.73755 4.05491 3.87806 3.79729 5.52847 3.63514 3.44964 4.35433 3.27224 3.56123 3.22711 3.14882 5.23002 2.68624 2.65496 2.46521 3.50938 2.26618 4.01922 2.40149 1.99364 1.94066 1.41727 1.44176 1.39016 1.45339 1.04064 0.995385 0.900566 0.894601 0.754757 0.622062 0.486574 0.428068 0.365186 0.360058 0.308339 0.367535 0.274324 0.264807 0.288346 0.504675 0.237185 0.210477 0.275992 0.144517 0.0824116
threshold=1.5000000000000002 36.500000000000007 4.5000000000000009 7.5000000000000009 11.500000000000002 18.500000000000004 4.5000000000000009 52.500000000000007 10.500000000000002 23.500000000000004 7.0500000000000007 32.500000000000007 20.500000000000004 17.500000000000004 13.500000000000002 5.5000000000000009 12.500000000000002 12.500000000000002 26.500000000000004 18.500000000000004 16.500000000000004 6.9500000000000011 6.5000000000000009 4.8500000000000005 5.5000000000000009 8.5000000000000018 60.500000000000007 14.500000000000002 11.500000000000002 23.500000000000004 3.5000000000000004 32.500000000000007 21.500000000000004 23.500000000000004 10.500000000000002 7.5000000000000009 1.5000000000000002 20.500000000000004 28.500000000000004 35.500000000000007 28.500000000000004 11.500000000000002 25.500000000000004 1.0000000180025095e-35 15.500000000000002 2.5000000000000004 3.5000000000000004 5.5000000000000009 4.5000000000000009 1.5000000000000002 13.500000000000002 25.500000000000004 1.0000000180025095e-35 6.7900000000000009 14.500000000000002 14.500000000000002 8.5000000000000018 14.500000000000002 12.500000000000002 13.500000000000002 32.500000000000007 7.5000000000000009 21.500000000000004 5.5000000000000009 30.500000000000004 13.500000000000002 18.500000000000004 40.500000000000007 15.500000000000002 2.7500000000000004 22.500000000000004 11.500000000000002 6.5000000000000009 17.500000000000004 8.5000000000000018 58.500000000000007 38.500000000000007 15.500000000000002 5.4350000000000014 6.5000000000000009 18.500000000000004 6.5000000000000009 14.500000000000002 21.500000000000004 17.500000000000004 38.500000000000007 15.500000000000002 14.500000000000002 44.500000000000007 5.5000000000000009
decision_type=2 2 2 2 2 2 2 2 2 2 2 2 2 2 2 2 2 2 2 2 2 2 2 2 2 2 2 2 2 2 2 2 2 2 2 2 2 2 2 2 2 2 2 2 2 2 2 2 2 2 2 2 2 2 2 2 2 2 2 2 2 2 2 2 2 2 2 2 2 2 2 2 2 2 2 2 2 2 2 2 2 2 2 2 2 2 2 2 2 2
left_child=1 3 13 4 24 18 7 12 14 -9 21 48 22 30 15 -6 19 -10 38 -14 -21 69 23 -4 46 -25 41 81 32 43 34 -22 33 -29 35 36 -2 -15 -3 64 -41 42 58 -19 -16 63 47 -1 -12 -47 -51 52 -30 78 55 71 -57 -55 -23 -60 75 62 -62 -26 -18 -58 -67 68 70 -8 -40 -24 -38 -63 -61 76 79 85 -27 80 89 -5 -81 -84 -85 -75 -73 -88 -50 -43
right_child=2 5 6 27 8 -7 10 9 17 -11 11 -13 16 37 44 -17 39 29 -20 20 31 26 54 25 45 53 -28 28 51 -31 -32 -33 -34 -35 -36 -37 72 -39 67 40 -42 60 -44 -45 -46 49 -48 -49 88 50 -52 -53 -54 57 -56 56 65 -59 59 74 61 73 -64 -65 -66 66 -68 -69 -70 -71 -72 86 -74 77 -76 -77 -78 -79 -80 82 -82 -83 83 84 -86 -87 87 -89 -90 -91
leaf_value=-0.020579781319909011 0.028913457503423414 0.066303220858628095 -0.054821571433502775 -0.034866242540738314 0.089953006313197192 0.0101044048447358 -0.012286003874238543 0.092233900154630344 -0.012028368488245178 0.0089035227215465383 -0.031333955293003889 0.049411434072412941 -0.015532834508092326 0.080883728332817553 0.079890431622889918 0.015542646754585521 -0.016841481494972662 0.070549585255370903 0.04406856107883729 0.067049057944677776 -0.0035528249243119113 -0.050179282755377787 -0.028718684035736849 -0.04034670558399879 0.04621809727567084 0.0031459076075177443 0.0059286608479239729 -0.004289046378618335 -0.018310933299872972 0.014214400801654549 -0.014715746967799981 0.042458744812756778 -0.018046075104483233 0.05321993066549853 0.038680416383431296 0.036198523647908591 -0.017098166041076182 0.031937938880280785 0.10999707954834743 0.015849923707719427 -0.026039121382766303 -0.040133901930843985 0.0042368505402312932 0.035355428351383465 0.11763336885783633 0.02510289464872785 -0.036603193894028663 0.01898365159325649 -0.0021219637719731704 -0.014744801875637021 0.021283141800456429 -0.005432283676096372 -0.052751020356720572 0.0042091080371071312 -0.04929954694036176 0.0022177510388876097 -0.036792721592688135 0.0353631671960071 -0.013408778201972629 -0.045090196236788511 -0.010516104271189999 -0.030057733015349156 -0.035405090707006738 0.019221547934210909 -0.04068179028598886 -0.0092468828847042366 -0.030566663210684398 0.11275624676004931 0.084151597577950057 0.0039994085966967626 0.093007812592185157 -0.046002047196214584 -0.035661220279763699 -0.042309739295082791 -0.031450925451437281 -0.051188674065120079 -0.035703768445836274 -0.0382385558679059 -0.0060226296062748409 -0.047035745091614178 -0.052326046313558305 -0.044544254364100873 -0.033424944058060645 -0.049277467249027852 -0.037050695590236611 -0.050345091982227232 -0.033972443270442243 -0.044375907202415604 -0.0084458290813340543 -0.045791421973091717
leaf_weight=88 94 55 72 64 63 95 99 60 64 85 90 57 87 50 55 71 62 77 52 60 96 83 68 52 51 95 55 57 73 73 91 52 59 54 96 64 50 53 83 76 54 52 96 76 59 82 50 59 51 86 55 70 51 51 85 52 56 59 81 83 92 54 67 59 76 79 53 85 58 65 59 81 54 75 56 68 85 93 78 61 70 54 56 56 85 72 51 51 124 51
leaf_count=88 94 55 72 64 63 95 99 60 64 85 90 57 87 50 55 71 62 77 52 60 96 83 68 52 51 95 55 57 73 73 91 52 59 54 96 64 50 53 83 76 54 52 96 76 59 82 50 59 51 86 55 70 51 51 85 52 56 59 81 83 92 54 67 59 76 79 53 85 58 65 59 81 54 75 56 68 85 93 78 61 70 54 56 56 85 72 51 51 124 51
internal_value=0 0.028436 -0.0137261 0.0141572 0.0275497 0.0738818 -0.0186175 -0.00921595 0.0492418 0.0433851 -0.0266591 -0.00359971 -0.0141494 0.0187772 0.0730037 0.0505266 0.000356775 0.0289213 0.0893381 0.0153843 0.028316 -0.0311456 -0.0224576 -0.00961915 0.0055302 9.59964e-05 -0.0339299 -0.0155174 -0.00780928 0.0405176 0.0103077 0.0126134 0.00920401 0.0236883 0.0166684 0.00860289 -0.000316915 0.055698 0.0962617 -0.0161847 -0.00155014 -0.0354566 -0.0259348 0.0530675 0.0994241 0.0163728 -0.0127977 -0.00470058 -0.0150021 0.00879353 -0.000691349 -0.0227178 -0.0324758 0.00752716 -0.0315293 -0.028453 -0.0178984 0.020919 -0.0354942 -0.0299539 -0.0391202 -0.0338124 -0.0210039 0.0317381 -0.0299709 -0.0234624 -0.0178071 0.102043 0.0974901 -0.00583142 0.102938 -0.038545 -0.0267367 -0.0407394 -0.0395952 -0.0432374 -0.0421895 -0.0431428 -0.000987884 -0.0434686 -0.046735 -0.0392952 -0.0412784 -0.0394957 -0.0419067 -0.0462454 -0.0421963 -0.0391742 -0.00660287 -0.0429352
internal_weight=0 2037 4220 1550 1068 487 3668 1691 538 145 1977 322 1546 552 248 134 563 290 392 295 208 1655 983 407 530 335 1491 482 364 226 449 148 170 111 358 262 198 103 340 268 130 1436 399 153 114 333 197 147 265 223 141 194 124 283 576 491 240 110 303 220 1037 453 159 110 138 188 132 285 200 164 142 251 104 294 139 584 516 240 173 431 173 118 258 197 141 147 183 102 175 103
internal_count=6257 2037 4220 1550 1068 487 3668 1691 538 145 1977 322 1546 552 248 134 563 290 392 295 208 1655 983 407 530 335 1491 482 364 226 449 148 170 111 358 262 198 103 340 268 130 1436 399 153 114 333 197 147 265 223 141 194 124 283 576 491 240 110 303 220 1037 453 159 110 138 188 132 285 200 164 142 251 104 294 139 584 516 240 173 431 173 118 258 197 141 147 183 102 175 103
is_linear=0
shrinkage=0.1


Tree=8
num_leaves=93
num_cat=0
split_feature=12 15 14 12 15 14 5 10 14 12 15 0 17 10 14 12 18 17 15 14 9 10 0 1 14 5 12 5 14 1 1 14 15 18 5 17 9 9 14 18 15 15 17 5 5 0 15 9 18 1 1 12 18 18 1 10 18 1 15 5 15 15 15 10 12 11 10 18 17 1 9 1 5 17 14 18 12 15 10 15 14 5 5 5 18 11 5 5 0 0 9 10
split_gain=160.745 156.072 63.1929 52.0279 38.271 81.8502 39.8598 26.6457 22.3248 21.8077 21.7394 18.1871 15.7145 13.6248 17.8292 13.5332 12.5373 13.4673 11.3225 22.0968 12.8636 11.1292 9.69674 8.9993 8.18824 16.2434 7.78032 7.15654 7.01116 6.44877 6.43629 6.25308 13.9399 12.0377 5.7139 5.52791 5.12492 4.68589 4.16517 4.62769 4.14861 5.89958 3.83054 3.7451 3.50679 8.77126 6.97432 3.47389 3.22505 4.9438 2.75611 2.70205 2.9455 2.4183 5.12341 2.37904 2.33526 2.29407 2.18121 1.75091 1.64133 1.61118 1.59873 1.51771 1.49879 1.4883 1.12187 1.08622 1.08536 1.01943 0.996881 0.981569 0.93434 0.926168 1.61462 1.40488 0.827837 0.779778 0.746818 0.667473 0.657095 0.57135 0.529309 0.52464 0.514684 0.658672 0.47707 0.40291 0.338356 0.237468 0.153116 0.0532088
threshold=5.5000000000000009 15.500000000000002 3.5000000000000004 1.5000000000000002 26.500000000000004 17.500000000000004 27.500000000000004 8.5000000000000018 7.5000000000000009 14.500000000000002 16.500000000000004 7.0500000000000007 4.5000000000000009 27.500000000000004 5.5000000000000009 18.500000000000004 7.5000000000000009 2.5000000000000004 10.500000000000002 7.5000000000000009 2.5000000000000004 54.500000000000007 7.4500000000000011 141.50000000000003 32.500000000000007 56.500000000000007 19.500000000000004 42.500000000000007 16.500000000000004 537.50000000000011 472.50000000000006 11.500000000000002 18.500000000000004 25.500000000000004 22.500000000000004 6.5000000000000009 18.500000000000004 9.5000000000000018 4.5000000000000009 4.5000000000000009 11.500000000000002 16.500000000000004 15.500000000000002 15.500000000000002 4.5000000000000009 4.3000000000000016 11.500000000000002 13.500000000000002 24.500000000000004 260.50000000000006 218.50000000000003 12.500000000000002 28.500000000000004 10.500000000000002 130.50000000000003 14.500000000000002 14.500000000000002 385.50000000000006 17.500000000000004 38.500000000000007 15.500000000000002 14.500000000000002 37.500000000000007 26.500000000000004 24.500000000000004 4.5000000000000009 49.500000000000007 16.500000000000004 10.500000000000002 72.000000000000014 17.500000000000004 178.50000000000003 33.500000000000007 22.500000000000004 17.500000000000004 36.500000000000007 10.500000000000002 9.5000000000000018 22.500000000000004 35.500000000000007 19.500000000000004 21.500000000000004 30.500000000000004 11.500000000000002 18.500000000000004 5.5000000000000009 26.500000000000004 10.500000000000002 6.9500000000000011 5.4350000000000014 17.500000000000004 30.500000000000004
decision_type=2 2 2 2 2 2 2 2 2 2 2 2 2 2 2 2 2 2 2 2 2 2 2 2 2 2 2 2 2 2 2 2 2 2 2 2 2 2 2 2 2 2 2 2 2 2 2 2 2 2 2 2 2 2 2 2 2 2 2 2 2 2 2 2 2 2 2 2 2 2 2 2 2 2 2 2 2 2 2 2 2 2 2 2 2 2 2 2 2 2 2 2
left_child=1 3 23 7 8 6 -6 -1 10 21 15 31 -9 14 -3 44 35 -18 20 -20 -19 36 -13 37 25 29 28 -11 -24 30 -7 32 40 -34 -12 38 -8 -2 39 -5 63 47 48 50 -4 -46 55 -42 49 -15 77 52 58 -22 -55 87 68 78 84 -32 -45 -49 -31 76 73 -56 -50 71 -48 -41 -60 -57 -66 74 -59 80 83 -25 -53 -26 -75 91 -77 -10 85 -33 -83 -47 -85 -70 -90 -80
right_child=2 13 4 16 5 24 9 12 11 27 34 22 -14 42 -16 -17 17 18 19 -21 53 -23 26 43 79 -27 -28 -29 -30 62 59 51 33 -35 -36 -37 -38 -39 -40 69 41 -43 -44 60 45 46 56 61 66 -51 -52 57 -54 54 65 67 -58 64 70 -61 -62 -63 -64 -65 72 -67 -68 -69 89 -71 -72 -73 -74 75 -76 82 -78 -79 81 -81 -82 86 -84 88 -86 -87 -88 -89 90 -91 -92 -93
leaf_value=-0.010074639960881681 -0.018960139389131585 0.085946037408349843 -0.00064980616512270095 0.017806823774607797 -0.025048255821763489 -0.03473372598619838 0.078446872276710544 0.10686437948606908 -0.026687419158935716 0.0062113060535472116 0.0079528387884298963 0.037593906345190831 0.043198434667040903 0.096874940964162992 0.0078698733201944988 0.025980342018672012 0.052980412054737962 0.031130919226857484 0.057415469309004645 -0.017528641198736591 -0.032370087473707863 0.1056812231877336 0.033731119416654111 0.042881106559029769 -0.030703512967253727 0.034326675865385271 -0.03721797398593224 0.053748472375222123 -0.0097720101181013926 -0.043127233691855657 -0.0075995631627738484 -0.023905725055738004 -0.023621945971479784 0.034478945766068712 0.048886858404295734 -0.041672906698659064 0.033616380408114079 0.023907134576024964 -0.030788743475195359 -0.0063733485200478199 -0.024926145641661401 -0.039331332881989471 0.065026449960257332 0.039591017415126169 -0.052034841129131128 -0.0076325226502091288 0.012116682268994844 -0.0065353109227383847 0.11320636247595151 0.061397888308719673 0.008560714347717855 -0.031987885811499188 -0.0076420229941140871 0.010906984110673271 -0.014521697157158934 -0.035417462800230302 -0.01901779826287003 -0.0076944774411718507 -0.02725355710594379 0.017375648560482661 0.063507073010233325 0.016977611403254902 -0.02334020230270523 -0.018279825242596769 -0.031516016163386222 -0.03794024358241016 0.093947782501822619 -0.044640464628381393 0.00027893177751037813 -0.02637158609926701 -0.0096672642118637523 -0.01707248923368752 -0.046907028406368276 -0.044615038278011179 -0.032045473059077033 -0.029092874452471735 -0.04629340665905099 0.028111867761860296 -0.037158215731382373 -0.044574988026594382 -0.03060351678210756 -0.055625695043376513 -0.014613653610999167 -0.029227521614386489 -0.041047593625797629 -0.038252675571129657 -0.042615376588176282 -0.020265170505270363 -0.04271977096463421 -0.0068356181868378428 -0.035847565451903006 -0.041748952069411094
leaf_weight=52 51 58 136 66 76 57 51 72 88 81 60 54 84 93 59 88 54 61 84 74 97 81 50 71 54 63 71 52 143 98 50 64 65 79 79 82 51 51 78 52 67 79 70 60 69 51 59 68 60 68 52 56 80 60 58 70 84 56 66 64 55 51 70 62 82 51 61 56 90 50 63 50 76 65 53 50 57 72 50 97 69 63 51 52 87 64 51 50 56 98 77 51
leaf_count=52 51 58 136 66 76 57 51 72 88 81 60 54 84 93 59 88 54 61 84 74 97 81 50 71 54 63 71 52 143 98 50 64 65 79 79 82 51 51 78 52 67 79 70 60 69 51 59 68 60 68 52 56 80 60 58 70 84 56 66 64 55 51 70 62 82 51 61 56 90 50 63 50 76 65 53 50 57 72 50 97 69 63 51 52 87 64 51 50 56 98 77 51
internal_value=0 0.0280034 -0.00917404 0.00700335 -0.0127579 0.00501857 0.0399739 0.0519184 -0.0177635 0.0556122 -0.00559221 -0.023229 0.0725827 0.0761379 0.0465743 -0.011271 -0.00377212 0.00560857 0.000334177 0.0223151 -0.0102866 0.0780077 -0.0010165 0.0282389 -0.0197599 -0.0123021 -0.00891408 0.0247973 0.00149823 -0.0209677 -0.00729684 -0.0267643 -0.0199255 0.00825285 0.0312175 -0.0191873 0.0560316 0.0024735 -0.0116921 -0.00282585 -0.0261016 -0.0164369 0.0859644 0.0367165 -0.0153031 -0.0182467 -0.0144122 -0.00671287 0.0911618 0.0818908 0.0282757 -0.0313406 -0.0249255 -0.0197845 -0.0125609 -0.02612 -0.00461449 -0.0348594 -0.0289449 0.00642161 0.0510291 0.00354166 -0.0348826 -0.0326351 -0.0308568 -0.025479 0.103497 -0.0331404 0.000283796 -0.0161764 -0.0186649 -0.0277737 -0.0389193 -0.0271537 -0.0195349 -0.0306875 -0.0353322 0.0354448 -0.0422739 -0.0396143 -0.0374002 -0.0449531 -0.0217816 -0.0330436 -0.0351129 -0.0310792 -0.0498053 -0.0138863 -0.036067 -0.00342972 -0.0387411 -0.0394763
internal_weight=0 1544 4713 1075 4301 945 392 208 3356 316 1040 2316 156 469 117 901 867 539 485 158 327 183 318 412 553 402 264 133 193 339 171 1998 801 144 139 328 102 102 246 168 657 265 352 310 813 677 608 186 282 161 195 1197 424 266 169 277 331 773 344 114 115 119 168 392 502 109 121 176 247 102 129 120 158 344 109 235 330 143 271 151 134 215 101 273 215 128 114 101 185 188 133 101
internal_count=6257 1544 4713 1075 4301 945 392 208 3356 316 1040 2316 156 469 117 901 867 539 485 158 327 183 318 412 553 402 264 133 193 339 171 1998 801 144 139 328 102 102 246 168 657 265 352 310 813 677 608 186 282 161 195 1197 424 266 169 277 331 773 344 114 115 119 168 392 502 109 121 176 247 102 129 120 158 344 109 235 330 143 271 151 134 215 101 273 215 128 114 101 185 188 133 101
is_linear=0
shrinkage=0.1


Tree=9
num_leaves=90
num_cat=0
split_feature=17 10 15 11 2 17 0 18 15 4 10 15 17 18 13 18 15 4 2 4 19 4 11 4 13 0 13 11 17 4 2 10 17 11 2 17 10 17 13 10 15 15 11 2 2 2 19 4 10 2 9 9 2 9 4 18 9 17 13 19 10 4 4 13 13 18 2 17 18 15 9 17 2 19 2 10 15 18 13 18 11 13 11 4 4 9 10 0 18
split_gain=47.4014 64.1457 52.7501 43.5735 64.9186 37.8856 31.9285 23.5542 21.9692 31.1731 25.8531 15.1752 13.0406 11.4895 10.7288 10.7248 9.54023 9.05258 9.02576 20.9452 8.276 8.01665 7.99034 7.86104 7.05791 6.74681 7.19281 6.53218 6.3585 6.27545 7.24623 6.1335 5.88778 4.79828 4.44871 4.22258 4.17793 3.66363 3.2246 3.01105 3.23366 2.80782 4.07225 2.67478 2.53885 2.49933 3.08427 4.47224 3.0451 2.45476 2.71581 2.44202 3.36272 3.26403 2.74022 2.43796 3.33975 2.43097 2.10624 2.00843 2.27316 1.99956 1.83283 1.83199 1.76889 1.96194 1.74239 1.69595 2.91391 1.65476 2.00416 1.45263 1.71054 1.43824 1.21 1.1859 1.1293 1.06576 0.914337 0.839078 0.790002 1.31871 0.674053 0.569833 0.6258 0.511635 0.373968 0.0887013 0.0288006
threshold=9.5000000000000018 33.500000000000007 18.500000000000004 9.5000000000000018 32.500000000000007 21.500000000000004 7.6500000000000012 42.500000000000007 10.500000000000002 7.5000000000000009 15.500000000000002 45.500000000000007 6.5000000000000009 18.500000000000004 18.500000000000004 25.500000000000004 13.500000000000002 36.500000000000007 10.500000000000002 6.5000000000000009 2.5000000000000004 20.500000000000004 3.5000000000000004 13.500000000000002 1.5000000000000002 3.1550000000000007 4.5000000000000009 9.5000000000000018 5.5000000000000009 29.500000000000004 53.500000000000007 32.500000000000007 4.5000000000000009 4.5000000000000009 30.500000000000004 15.500000000000002 7.5000000000000009 26.500000000000004 16.500000000000004 54.500000000000007 28.500000000000004 14.500000000000002 5.5000000000000009 52.500000000000007 30.500000000000004 48.500000000000007 2.5000000000000004 10.500000000000002 28.500000000000004 17.500000000000004 11.500000000000002 12.500000000000002 7.5000000000000009 15.500000000000002 6.5000000000000009 12.500000000000002 11.500000000000002 25.500000000000004 19.500000000000004 1.5000000000000002 15.500000000000002 7.5000000000000009 13.500000000000002 12.500000000000002 5.5000000000000009 6.5000000000000009 39.500000000000007 23.500000000000004 25.500000000000004 6.5000000000000009 15.500000000000002 13.500000000000002 46.500000000000007 2.5000000000000004 4.5000000000000009 29.500000000000004 8.5000000000000018 26.500000000000004 14.500000000000002 46.500000000000007 8.5000000000000018 23.500000000000004 3.5000000000000004 34.500000000000007 41.500000000000007 31.500000000000004 23.500000000000004 5.7500000000000009 12.500000000000002
decision_type=2 2 2 2 2 2 2 2 2 2 2 2 2 2 2 2 2 2 2 2 2 2 2 2 2 2 2 2 2 2 2 2 2 2 2 2 2 2 2 2 2 2 2 2 2 2 2 2 2 2 2 2 2 2 2 2 2 2 2 2 2 2 2 2 2 2 2 2 2 2 2 2 2 2 2 2 2 2 2 2 2 2 2 2 2 2 2 2 2
left_child=1 6 14 4 23 15 8 43 12 10 22 20 18 49 16 -6 25 -13 24 32 37 71 -10 -4 74 -2 59 35 -12 30 34 -29 -20 64 77 41 -35 58 75 40 66 -18 -43 -7 -3 46 47 55 69 50 82 52 -14 -53 -54 -28 -57 -31 -5 -27 -61 -48 -16 -37 65 -26 -36 68 -40 -49 -71 -17 -73 -64 -1 -25 -63 -22 86 83 81 -75 88 -59 -85 -82 -78 -62 -11
right_child=2 44 3 11 5 7 -8 -9 9 13 28 17 51 -15 62 21 27 -19 19 -21 29 -23 -24 38 33 26 45 31 -30 57 -32 -33 -34 36 39 63 -38 -39 67 -41 -42 42 -44 -45 -46 -47 61 48 -50 -51 -52 53 54 -55 -56 56 -58 79 -60 60 87 76 73 -65 -66 -67 -68 -69 -70 70 -72 72 -74 80 -76 -77 78 -79 -80 -81 85 -83 -84 84 -86 -87 -88 -89 -90
leaf_value=0.025557566379361293 -0.048633521394943126 0.05839152419044135 0.016780128422639488 0.025042722092187976 0.036071999092930802 -0.019320403234930811 0.068688696938873514 0.066583704574290539 0.03581049905597479 -0.0020420282376262377 0.10658798509349043 0.054782961414716502 -0.042536377072145665 0.039384009045265289 -0.016156168163977039 0.10291318664807947 -0.019083794966047885 -0.00015670174702269132 0.070564455315470703 -0.016712383509037042 -0.020471065163750343 0.045508267569775676 -0.013160116353106719 -0.014658551418878993 -0.023494732061077897 0.014754415964180569 -0.04086744503734948 0.031205305513382582 0.059985197713570804 -0.011732168143323389 0.025790424956516789 -0.010438105878919099 0.026075954316973182 -0.016083971520557124 -0.022464983601582379 -0.0095859865924077386 0.021899904060497216 -0.012424992693876716 -0.034014115336218051 -0.028355661606223423 0.013122679095386584 0.027646775421549065 -0.0070433298787592278 0.009287278945831692 0.085826998659952858 0.00096159303086061111 -0.016002915567287834 -0.01673937589660579 -0.028979776635766032 -0.020032365400556421 0.013065948115269605 0.010136719130807454 -0.0036601880761353597 -0.022018010455863796 -0.030426341897880588 -0.002490789971088289 -0.031150326606902208 -0.02772451129442613 0.0014676646174242101 -0.023865485192923728 0.00026890458296174586 -0.041787985543671413 -0.044846639233979996 -0.031611584908351663 -0.03405530443415046 -0.0020856522403559404 -0.0038574742015313221 -0.039630663840632352 -0.0011399637871923355 -0.0094293736982479937 0.014570159069549891 0.071804824478009288 0.097013820821017616 -0.047563345356913353 0.0061590851574647625 0.0044156146555074625 -0.017808628928992622 -0.040338733838655542 -0.03956903501127202 -0.022838909291241268 -0.030750700076168869 -0.02771240359659053 -0.01722575415753656 -0.048251100160181526 -0.032507338520942952 -0.01810610227403231 -0.028585664218140617 -0.0039629638571045947 -0.0051516015267492662
leaf_weight=68 67 52 96 89 73 91 82 58 87 53 52 59 79 69 71 62 51 61 60 84 54 51 54 61 98 53 77 96 67 83 55 56 59 51 73 70 67 71 56 58 85 61 76 51 96 51 93 51 50 85 95 54 76 76 77 69 99 56 66 59 115 95 88 82 60 76 162 56 52 61 81 57 51 54 61 70 57 54 52 73 64 88 54 50 51 64 74 87 68
leaf_count=68 67 52 96 89 73 91 82 58 87 53 52 59 79 69 71 62 51 61 60 84 54 51 54 61 98 53 77 96 67 83 55 56 59 51 73 70 67 71 56 58 85 61 76 51 96 51 93 51 50 85 95 54 76 76 77 69 99 56 66 59 115 95 88 82 60 76 162 56 52 61 81 57 51 54 61 70 57 54 52 73 64 88 54 50 51 64 74 87 68
internal_value=0 0.0128875 -0.00587839 0.00553379 0.0223674 0.046463 0.00771726 0.0128867 0.00482728 0.0187628 0.0460248 -0.00688099 -0.00428541 0.00204548 -0.0166353 0.069304 -0.0132192 0.0268553 0.00383747 0.0215197 -0.0106295 0.0802811 0.0170558 -0.00807563 -0.00362512 -0.0177349 -0.0160435 -0.00137014 0.0803494 -0.0151327 -0.0086124 0.015863 0.0485071 -0.0109582 -0.0125057 -0.00907436 0.00548314 0.00638714 -0.0161643 -0.00739168 -0.00359196 0.000946206 0.00840263 -0.00904581 0.0761875 -0.0205465 -0.0218235 -0.0165989 -0.00698644 -0.00521187 -0.000546156 -0.0196336 -0.0257818 -0.00866143 -0.0171307 -0.0261328 -0.0193794 -0.0264026 0.0150043 -0.00299342 -0.00659738 -0.0286958 -0.0308334 -0.0214682 -0.0192492 -0.0141436 -0.00963768 -0.0255084 -0.0181858 -0.00128869 0.0042605 0.0907129 0.0837091 -0.0337443 0.0163846 -0.00446625 -0.032942 -0.0304049 -0.0283498 -0.0316967 -0.0301257 -0.0352614 -0.00793558 -0.0358153 -0.0403013 -0.0244284 -0.0238964 -0.00155373 -0.00378956
internal_weight=0 1960 4297 2085 885 494 1812 200 1730 684 260 1200 1046 424 2212 294 1783 120 684 203 1080 221 141 391 481 1291 1224 492 119 854 541 152 119 352 486 340 118 226 295 378 320 188 137 142 148 910 859 488 243 355 270 362 232 130 153 245 168 313 155 314 261 371 429 152 234 174 235 164 108 193 142 170 108 358 129 131 278 108 183 230 270 142 175 157 101 128 131 202 121
internal_count=6257 1960 4297 2085 885 494 1812 200 1730 684 260 1200 1046 424 2212 294 1783 120 684 203 1080 221 141 391 481 1291 1224 492 119 854 541 152 119 352 486 340 118 226 295 378 320 188 137 142 148 910 859 488 243 355 270 362 232 130 153 245 168 313 155 314 261 371 429 152 234 174 235 164 108 193 142 170 108 358 129 131 278 108 183 230 270 142 175 157 101 128 131 202 121
is_linear=0
shrinkage=0.1


Tree=10
num_leaves=92
num_cat=0
split_feature=3 15 14 16 14 16 15 2 14 18 3 18 16 15 18 5 16 2 14 15 16 5 16 14 15 8 11 3 3 14 14 2 19 17 15 14 17 11 11 14 14 17 5 5 14 2 18 2 15 15 2 16 18 2 2 8 11 18 2 16 8 19 2 14 5 16 18 15 17 5 2 17 2 16 15 19 16 3 15 2 11 16 8 8 5 17 15 8 14 17 14
split_gain=151.69 108.073 40.1931 37.899 24.7325 20.3088 67.3578 18.9873 33.0619 16.7449 21.4978 15.0399 19.7932 14.6284 12.8232 12.2043 11.9475 11.6808 9.07565 13.4378 8.62678 7.68753 8.04478 11.1253 7.79296 7.65597 7.59468 10.6638 7.20865 9.03502 6.35289 5.57745 9.57327 5.79629 5.47605 7.27 5.28196 5.10109 4.54061 4.48509 4.44629 4.04333 8.17573 3.93611 3.49214 4.15326 3.33737 3.13201 3.05589 2.23443 2.19975 2.17092 2.51129 2.16608 2.15992 1.94862 2.5126 1.5902 1.46521 1.46156 1.44623 1.30122 1.1773 1.09138 1.02978 0.999265 1.38601 0.998543 0.995769 0.824252 0.819934 0.707339 0.885359 0.525229 0.517473 0.490111 0.484363 0.452792 0.813956 0.583635 0.674933 0.839182 0.820364 0.622901 0.73686 0.446162 0.442316 0.298844 0.386808 0.250329 0.0873044
threshold=1.5000000000000002 13.500000000000002 4.5000000000000009 24.500000000000004 5.5000000000000009 17.500000000000004 27.500000000000004 29.500000000000004 8.5000000000000018 47.500000000000007 8.5000000000000018 7.5000000000000009 5.5000000000000009 5.5000000000000009 29.500000000000004 10.500000000000002 7.5000000000000009 14.500000000000002 11.500000000000002 18.500000000000004 11.500000000000002 30.500000000000004 30.500000000000004 15.500000000000002 29.500000000000004 3.5000000000000004 3.5000000000000004 5.5000000000000009 7.5000000000000009 1.5000000000000002 16.500000000000004 16.500000000000004 1.0000000180025095e-35 10.500000000000002 9.5000000000000018 10.500000000000002 21.500000000000004 12.500000000000002 4.5000000000000009 6.5000000000000009 1.5000000000000002 15.500000000000002 17.500000000000004 17.500000000000004 26.500000000000004 37.500000000000007 22.500000000000004 40.500000000000007 3.5000000000000004 21.500000000000004 36.500000000000007 11.500000000000002 9.5000000000000018 16.500000000000004 21.500000000000004 5.5000000000000009 5.5000000000000009 19.500000000000004 11.500000000000002 4.5000000000000009 7.5000000000000009 4.5000000000000009 22.500000000000004 20.500000000000004 21.500000000000004 11.500000000000002 9.5000000000000018 11.500000000000002 17.500000000000004 58.500000000000007 12.500000000000002 10.500000000000002 15.500000000000002 34.500000000000007 24.500000000000004 4.5000000000000009 14.500000000000002 2.5000000000000004 11.500000000000002 24.500000000000004 8.5000000000000018 27.500000000000004 8.5000000000000018 8.5000000000000018 21.500000000000004 10.500000000000002 10.500000000000002 10.500000000000002 27.500000000000004 24.500000000000004 24.500000000000004
decision_type=2 2 2 2 2 2 2 2 2 2 2 2 2 2 2 2 2 2 2 2 2 2 2 2 2 2 2 2 2 2 2 2 2 2 2 2 2 2 2 2 2 2 2 2 2 2 2 2 2 2 2 2 2 2 2 2 2 2 2 2 2 2 2 2 2 2 2 2 2 2 2 2 2 2 2 2 2 2 2 2 2 2 2 2 2 2 2 2 2 2 2
left_child=1 4 15 7 11 6 17 8 20 21 37 40 13 -13 -8 25 -17 48 19 26 53 39 24 -24 47 28 27 -19 29 -2 -5 32 -14 -33 57 -36 50 -11 -34 -7 -1 42 67 58 49 -46 85 61 -4 77 74 52 70 -3 -10 -52 -57 65 -18 -42 -43 -23 -55 -26 -51 66 -6 -28 -48 73 -50 -69 -73 -25 -9 -66 -53 78 -41 83 82 -82 -81 84 86 -20 -79 -75 -89 -77 -49
right_child=2 3 5 30 34 9 14 36 54 10 -12 12 31 -15 -16 16 43 18 46 -21 -22 22 23 69 63 -27 41 -29 -30 -31 -32 33 38 -35 35 -37 -38 -39 -40 44 59 60 -44 -45 45 -47 68 90 51 64 55 76 -54 62 -56 56 -58 -59 -60 -61 -62 -63 -64 -65 75 -67 -68 71 -70 -71 -72 72 -74 87 -76 89 -78 79 -80 80 81 -83 -84 -85 -86 -87 -88 88 -90 -91 -92
leaf_value=0.017375096278224273 0.022456116023981437 0.057827987425750307 -0.0076845495808350889 0.025562847664507178 -0.036613557212764311 -0.0032709540498833505 0.032328403733816805 0.072549723623828458 -0.020440512879549545 0.05827785326203086 -0.029285652294594757 0.015522462266079826 0.035631773166929968 0.080209834615445952 0.10053057534581361 0.073527666295950242 0.017732336848146384 0.04830089987566074 -0.039549752630462703 0.036645337082873812 0.030069975153757977 -0.018210391217144208 0.0045813991104835996 -0.023776186425756251 0.025675546180886716 -0.03065620483067192 -0.025038972091948931 -0.0045207548898078724 0.039060015383486947 -0.02168736766111486 -0.013874033933783742 0.053159032590687272 -0.037753931630402804 0.0068807385167327989 0.015995492261423862 -0.028000956501752612 0.046749152226204224 0.015533706934538561 -0.00065643046454516888 -0.031464648026838363 -0.0057085308639539612 -0.016892077304422857 0.030513322966940266 0.034959282793020935 -0.030471628549922671 0.0070449700057506563 0.0013267752528190613 -0.0036772754831382866 -0.039237981378214389 -0.052176418064416134 0.095244747251272202 -0.047919084328142084 -0.011985578747334505 0.091007493314301149 0.0082457200003913239 0.060092935086617338 0.087154481665319986 -0.014063923164228963 -0.0060242951130494472 -0.023781021941829933 -0.040601114394529812 -0.039083255000878128 0.070389205716629419 0.0063682057741862629 -0.029893948922031805 -0.041619297880679369 -0.01649385675539573 -0.00044330397465576732 -0.018532798052126289 -0.045830119218219792 -0.024134784441412194 -0.0084214345630138146 -0.021905435914252425 -0.040412920199786179 0.058565762803396759 -0.036582021746370534 -0.034389886364121651 -0.024067767061104504 -0.015944777255910533 -0.047304182866929285 -0.021039493740054555 -0.037646987195694238 -0.031116606012385875 -0.0360673006817505 -0.015620993424884298 -0.028017205889011888 -0.035026464857619961 -0.037030756397240135 -0.027014440008335645 -0.046256176860265015 -0.0085254743594962833
leaf_weight=57 88 62 79 77 63 62 51 55 53 53 93 58 55 88 60 52 54 57 55 87 65 64 91 54 52 61 53 116 60 98 87 50 50 59 93 63 66 59 97 83 90 50 51 89 72 50 50 52 82 66 85 55 99 58 52 58 84 89 50 89 53 56 53 67 57 55 75 60 51 57 64 155 71 66 51 54 51 79 57 71 58 64 56 77 55 86 69 83 72 53 130
leaf_count=57 88 62 79 77 63 62 51 55 53 53 93 58 55 88 60 52 54 57 55 87 65 64 91 54 52 61 53 116 60 98 87 50 50 59 93 63 66 59 97 83 90 50 51 89 72 50 50 52 82 66 85 55 99 58 52 58 84 89 50 89 53 56 53 67 57 55 75 60 51 57 64 155 71 66 51 54 51 79 57 71 58 64 56 77 55 86 69 83 72 53 130
internal_value=0 0.0224107 -0.0108177 0.0481461 0.00179508 -0.0146036 -0.00583715 0.0577616 0.0405084 -0.0209194 0.00625195 0.0135515 0.024138 0.0545121 0.0691944 0.0143397 0.0309843 -0.0116817 -0.00572987 -0.000315627 0.06113 -0.02381 -0.0166552 -0.0263952 -0.00686902 0.00105651 -0.00514386 0.0128829 0.00892023 -0.000802279 0.00464206 0.00987875 4.14712e-05 0.0281093 -0.0168058 -0.0017723 0.0725932 0.0357608 -0.0132746 -0.0293858 -0.00694872 -0.0114697 -0.00681562 0.0195218 -0.0309717 -0.015096 -0.0225767 -0.0154095 -0.025454 -0.0331261 0.0777155 -0.0294534 -0.0242805 0.0728 -0.006234 0.0832695 0.0761012 -0.0251221 0.00631088 -0.0146943 -0.0290919 -0.0279511 0.0811627 0.014805 -0.0416287 -0.0302215 -0.0256789 -0.0124315 -0.00870133 -0.0348858 -0.0326174 -0.0100951 -0.0126576 -0.0326173 0.0658216 -0.0373839 -0.0414098 -0.0302029 -0.0251458 -0.0315413 -0.0350636 -0.0297516 -0.0401664 -0.028409 -0.0255041 -0.0325157 -0.0291769 -0.0347776 -0.032378 -0.0413739 -0.00714027
internal_weight=0 2037 4220 906 1131 3668 1536 742 343 2132 205 693 457 146 111 552 245 1425 995 753 238 1927 844 423 421 307 666 173 246 186 164 311 202 109 438 156 399 112 147 1083 236 493 390 193 1021 122 242 302 430 899 333 351 245 173 105 227 142 282 104 179 103 120 111 119 230 193 138 339 101 332 146 286 226 275 106 164 106 669 140 529 249 122 127 280 203 141 148 221 155 107 182
internal_count=6257 2037 4220 906 1131 3668 1536 742 343 2132 205 693 457 146 111 552 245 1425 995 753 238 1927 844 423 421 307 666 173 246 186 164 311 202 109 438 156 399 112 147 1083 236 493 390 193 1021 122 242 302 430 899 333 351 245 173 105 227 142 282 104 179 103 120 111 119 230 193 138 339 101 332 146 286 226 275 106 164 106 669 140 529 249 122 127 280 203 141 148 221 155 107 182
is_linear=0
shrinkage=0.1


Tree=11
num_leaves=93
num_cat=0
split_feature=16 15 20 16 16 15 15 16 0 7 11 10 16 15 8 20 7 16 15 20 20 16 20 7 15 11 16 0 7 11 0 5 8 19 7 6 20 19 15 8 5 19 11 19 20 16 16 5 19 8 20 6 5 6 11 19 10 6 11 16 15 11 8 5 15 15 7 7 6 20 11 6 5 8 19 5 16 20 20 19 15 8 19 6 7 8 20 16 5 0 5 20
split_gain=69.8737 136.556 29.1321 27.001 24.6975 23.3627 17.966 25.5367 16.1601 18.2793 14.8754 13.7485 13.2189 12.5302 12.4276 12.4423 9.53572 8.7284 25.1381 8.49239 8.01274 7.95456 7.5572 7.14349 6.85151 14.7881 9.8278 6.51215 6.39475 8.20913 6.26438 5.82992 5.40529 4.93663 6.34087 4.93256 4.7716 4.26681 4.20909 4.12596 3.77904 3.78609 3.64421 3.35248 3.19607 3.01486 3.01238 2.69881 2.48561 2.35654 2.15241 2.11719 2.03049 3.45131 2.66402 2.43393 1.96846 1.67348 1.67389 1.59246 2.17046 1.53809 1.46716 1.59434 3.75777 2.2717 1.45263 1.37884 1.66936 1.33832 1.29324 1.07036 1.06945 1.0173 1.00937 1.2467 0.924017 1.2113 0.898796 0.868266 0.839353 0.804069 0.625413 0.470434 0.460465 0.424159 0.339957 0.329343 0.212624 0.104521 0.0255936 0.0160763
threshold=16.500000000000004 20.500000000000004 16.500000000000004 30.500000000000004 3.5000000000000004 41.500000000000007 13.500000000000002 6.5000000000000009 7.3000000000000016 9.5000000000000018 3.5000000000000004 31.500000000000004 11.500000000000002 9.5000000000000018 10.500000000000002 25.500000000000004 9.5000000000000018 25.500000000000004 32.500000000000007 9.5000000000000018 6.5000000000000009 10.500000000000002 11.500000000000002 23.500000000000004 8.5000000000000018 3.5000000000000004 8.5000000000000018 4.5500000000000007 26.500000000000004 4.5000000000000009 2.7500000000000004 18.500000000000004 4.5000000000000009 2.5000000000000004 47.500000000000007 2.5000000000000004 3.5000000000000004 1.5000000000000002 11.500000000000002 4.5000000000000009 4.5000000000000009 1.0000000180025095e-35 2.5000000000000004 5.5000000000000009 21.500000000000004 14.500000000000002 7.5000000000000009 30.500000000000004 2.5000000000000004 3.5000000000000004 29.500000000000004 17.500000000000004 16.500000000000004 13.500000000000002 13.500000000000002 3.5000000000000004 12.500000000000002 8.5000000000000018 4.5000000000000009 41.500000000000007 27.500000000000004 1.5000000000000002 7.5000000000000009 19.500000000000004 15.500000000000002 14.500000000000002 17.500000000000004 13.500000000000002 4.5000000000000009 5.5000000000000009 10.500000000000002 14.500000000000002 8.5000000000000018 8.5000000000000018 1.0000000180025095e-35 14.500000000000002 31.500000000000004 11.500000000000002 9.5000000000000018 3.5000000000000004 20.500000000000004 7.5000000000000009 3.5000000000000004 15.500000000000002 4.5000000000000009 10.500000000000002 11.500000000000002 51.500000000000007 12.500000000000002 5.4350000000000014 33.500000000000007 2.5000000000000004
decision_type=2 2 2 2 2 2 2 2 2 2 2 2 2 2 2 2 2 2 2 2 2 2 2 2 2 2 2 2 2 2 2 2 2 2 2 2 2 2 2 2 2 2 2 2 2 2 2 2 2 2 2 2 2 2 2 2 2 2 2 2 2 2 2 2 2 2 2 2 2 2 2 2 2 2 2 2 2 2 2 2 2 2 2 2 2 2 2 2 2 2 2 2
left_child=1 4 17 5 13 32 8 -8 19 84 -11 12 -3 16 15 43 35 18 22 24 21 30 62 -13 40 26 -26 -27 29 -22 -9 36 -4 -34 44 -1 -29 -24 -28 -21 42 46 -6 -5 -35 51 91 79 -31 72 59 73 53 -19 76 -56 -48 58 61 60 -16 -43 63 65 -65 74 -23 68 -63 -51 -49 85 89 78 -2 88 77 80 -25 -39 -54 -78 -83 -84 -10 -64 -57 -61 -76 -38 -85 -42
right_child=2 11 3 14 6 -7 7 20 9 10 -12 23 -14 -15 50 -17 -18 52 -20 39 28 66 37 45 25 27 38 31 -30 48 -32 -33 33 34 -36 -37 49 47 -40 -41 41 57 -44 -45 -46 -47 56 70 -50 69 -52 -53 54 -55 55 86 -58 -59 -60 87 -62 67 71 64 -66 -67 -68 -69 -70 -71 -72 -73 -74 -75 75 -77 81 -79 -80 -81 -82 82 83 90 -86 -87 -88 -89 -90 -91 -92 -93
leaf_value=0.021087786308131542 -0.0068469282432968891 0.053397934398214733 0.042070897492521908 0.0067256401517187016 -0.020842231068361021 0.084588270092552362 0.059135846649014369 -0.012771955641607444 -0.0055441470532599148 0.076654831272070165 0.0065822959060564505 0.037681690417230129 -0.0096664392719553287 0.067435477099691832 -0.032336208082147336 0.044480940476239017 0.051054211687296625 -0.00036847189319534949 0.043655743656059107 0.025404789542468886 0.03852715611457825 -0.017910371108778887 0.02052698662504554 0.070543801163055725 0.043984827327441023 -0.039363876760525759 -0.022668460427838214 -0.03458355230651796 0.04099364455568752 0.007967537110036409 0.025317226922425658 -0.036907911130829772 0.032627989740691109 -0.025565539930875486 0.025295964546614525 -0.01547765482882304 0.0024001112129343185 -0.0099815397404811601 0.017763613406210566 -0.0050468082899566401 -0.025200964983552693 -0.015792568725737512 0.015234148513159849 -0.028511530512736905 0.0064404096329011597 0.053588731496317966 0.013860360856326122 0.011056374985386025 -0.020530904246413191 -0.023329169999464463 -0.0062522346153855331 0.094520192288865268 -0.024857194954529406 -0.028891864730050204 -0.0033662075419366982 -0.032924736577730915 -0.013800086632370949 -0.042092510755173868 -0.012957302923033754 -0.040907795411638088 -0.004359061940124742 -0.028384608934633432 -0.038507102523510771 -0.027809130503899521 0.0035888754389030333 -0.039110706550107427 -0.041121361282869029 -0.019846315268989445 -0.04993727377251439 -0.0033494227438246554 -0.0068539278797607947 -0.017752679186117538 0.014751682362773202 0.060574912815763243 -0.023529241892548514 -0.010975288760973447 -0.043037947877770766 -0.017394119631499054 0.087031711921022811 -0.025929600722673869 -0.042500850859169777 -0.040612443195035063 -0.021902347157990179 -0.031335024282336234 -0.018451342874994645 -0.027185446306919825 -0.02169606382542822 -0.030897948766193752 -0.031164485471944017 -0.00223176913196221 -0.03453462636470795 -0.022665121899917724
leaf_weight=78 53 84 56 54 56 55 99 90 59 66 56 78 55 66 57 65 60 78 75 90 55 56 55 94 83 86 51 50 76 55 83 68 61 78 66 70 95 55 52 88 50 64 56 54 52 74 53 55 69 62 58 52 56 93 72 52 50 72 83 54 54 75 91 72 81 73 52 53 69 73 151 53 66 57 71 67 91 85 51 90 52 60 63 50 52 52 56 84 75 100 50 50
leaf_count=78 53 84 56 54 56 55 99 90 59 66 56 78 55 66 57 65 60 78 75 90 55 56 55 94 83 86 51 50 76 55 83 68 61 78 66 70 95 55 52 88 50 64 56 54 52 74 53 55 69 62 58 52 56 93 72 52 50 72 83 54 54 75 91 72 81 73 52 53 69 73 151 53 66 57 71 67 91 85 51 90 52 60 63 50 52 52 56 84 75 100 50 50
internal_value=0 0.0097433 -0.0114615 0.00410159 0.000936121 0.0244809 -0.00211457 0.0124742 -0.00691947 0.0177736 0.0444904 0.0555891 0.0284444 0.0294723 -0.0115225 0.00991227 0.0174263 -0.0179724 -0.0123505 -0.0103139 0.0038557 -0.00779159 -0.0161901 0.0648825 -0.0127385 -0.00625741 0.0183783 -0.0138945 0.0166906 0.00637193 0.00550205 -0.00963305 0.0139189 0.00778455 5.26676e-05 0.00379332 -0.00547455 -0.00537071 -0.00225615 0.0103501 -0.0197072 -0.0227656 -0.00280404 -0.0108929 -0.0127632 0.071351 -0.01157 -0.00942875 -0.00789047 -0.00179917 -0.0236014 0.0765258 -0.0256319 -0.0158812 -0.028059 -0.017608 0.000432959 -0.0282289 -0.0253272 -0.0276426 -0.0187257 -0.0292609 -0.0225748 -0.0196601 -0.0111867 -0.0234844 -0.029086 -0.0336364 -0.0387119 -0.0125253 -0.00207205 -0.0298912 0.00374883 0.0718936 -0.019196 -0.0222688 -0.0317694 -0.0263241 0.076343 -0.0198803 -0.0333523 -0.0351163 -0.0318838 -0.0286707 -0.0115908 -0.0343901 -0.0271025 -0.0348148 -0.0274515 2.4788e-05 -0.0329348 -0.023933
internal_weight=0 3382 2875 848 2837 368 2563 635 1928 233 122 545 139 274 480 173 208 2027 1169 1695 536 281 1094 406 1517 786 186 600 255 179 173 514 313 257 196 148 446 406 103 178 731 619 112 108 130 328 203 351 124 396 307 254 858 171 687 180 103 416 344 249 111 261 688 492 153 339 108 197 144 135 206 196 261 202 266 213 507 193 145 145 108 314 223 163 111 143 108 138 146 195 100 100
internal_count=6257 3382 2875 848 2837 368 2563 635 1928 233 122 545 139 274 480 173 208 2027 1169 1695 536 281 1094 406 1517 786 186 600 255 179 173 514 313 257 196 148 446 406 103 178 731 619 112 108 130 328 203 351 124 396 307 254 858 171 687 180 103 416 344 249 111 261 688 492 153 339 108 197 144 135 206 196 261 202 266 213 507 193 145 145 108 314 223 163 111 143 108 138 146 195 100 100
is_linear=0
shrinkage=0.1


Tree=12
num_leaves=93
num_cat=0
split_feature=3 10 12 12 14 3 7 14 10 16 10 0 16 16 7 5 16 14 11 7 5 14 0 12 1 7 7 16 7 1 11 16 13 3 0 14 14 0 12 14 7 12 3 3 5 0 13 1 5 16 5 12 12 1 11 11 7 13 5 16 13 14 5 11 16 5 10 7 7 14 1 3 13 0 14 16 13 1 3 5 13 11 3 13 3 12 12 10 0 11 3 1
split_gain=105.262 61.8705 38.6111 30.6114 29.2818 15.7849 22.0672 14.9741 19.1391 13.5949 17.5198 10.0666 10.8817 9.94492 9.61033 9.03219 8.87839 8.67155 8.27874 8.14094 6.9702 6.49896 9.76142 6.29348 6.26099 6.02283 5.91572 11.6773 5.73546 5.10721 4.86893 4.84817 4.75451 4.59381 10.763 22.7175 4.40135 4.29869 4.23625 4.02444 3.67667 6.5996 3.36935 3.03535 2.8705 2.85051 2.7743 2.34215 1.96068 1.91589 4.98186 1.90152 1.86398 1.84257 3.54072 3.20005 1.67103 1.65534 1.48419 1.40444 1.36318 1.22618 1.51299 1.08084 1.21248 3.87553 1.51644 1.0109 0.898468 0.977038 0.838529 0.961156 0.8234 0.812669 0.750061 0.72808 1.13807 1.0341 0.887954 0.696191 0.593989 0.588854 0.53313 0.458781 0.524394 0.376034 0.429601 1.07235 0.282887 0.155283 0.133645 0.105989
threshold=1.5000000000000002 34.500000000000007 1.5000000000000002 9.5000000000000018 4.5000000000000009 3.5000000000000004 20.500000000000004 7.5000000000000009 18.500000000000004 19.500000000000004 41.500000000000007 7.0500000000000007 9.5000000000000018 7.5000000000000009 35.500000000000007 10.500000000000002 7.5000000000000009 4.5000000000000009 8.5000000000000018 13.500000000000002 47.500000000000007 6.5000000000000009 5.2500000000000009 6.5000000000000009 534.50000000000011 10.500000000000002 42.500000000000007 23.500000000000004 8.5000000000000018 216.50000000000003 1.5000000000000002 7.5000000000000009 18.500000000000004 7.5000000000000009 6.9500000000000011 1.5000000000000002 3.5000000000000004 6.7900000000000009 7.5000000000000009 13.500000000000002 22.500000000000004 13.500000000000002 2.5000000000000004 1.0000000180025095e-35 31.500000000000004 6.9500000000000011 22.500000000000004 318.50000000000006 53.500000000000007 15.500000000000002 24.500000000000004 4.5000000000000009 33.500000000000007 328.50000000000006 6.5000000000000009 4.5000000000000009 10.500000000000002 24.500000000000004 22.500000000000004 3.5000000000000004 12.500000000000002 14.500000000000002 18.500000000000004 4.5000000000000009 27.500000000000004 35.500000000000007 38.500000000000007 7.5000000000000009 14.500000000000002 10.500000000000002 556.50000000000011 8.5000000000000018 11.500000000000002 7.4500000000000011 9.5000000000000018 20.500000000000004 17.500000000000004 288.50000000000006 6.5000000000000009 6.5000000000000009 26.500000000000004 15.500000000000002 6.5000000000000009 10.500000000000002 2.5000000000000004 15.500000000000002 24.500000000000004 45.500000000000007 5.4350000000000014 14.500000000000002 7.5000000000000009 230.50000000000003
decision_type=2 2 2 2 2 2 2 2 2 2 2 2 2 2 2 2 2 2 2 2 2 2 2 2 2 2 2 2 2 2 2 2 2 2 2 2 2 2 2 2 2 2 2 2 2 2 2 2 2 2 2 2 2 2 2 2 2 2 2 2 2 2 2 2 2 2 2 2 2 2 2 2 2 2 2 2 2 2 2 2 2 2 2 2 2 2 2 2 2 2 2 2
left_child=1 2 17 53 15 6 21 8 23 10 18 12 19 -10 39 33 -17 25 -8 45 32 22 -6 30 57 -1 49 -28 -24 -15 59 -9 -11 34 -2 -36 -25 88 -18 -5 56 -42 -37 67 -34 -7 -29 -31 70 50 68 -23 63 55 80 58 -33 73 -3 -4 74 62 83 82 65 66 75 79 -14 -70 -48 -72 -40 -13 -58 76 77 -65 -77 -32 -55 85 -51 84 91 90 87 -87 -30 -73 -66 -53
