tree
version=v3
num_class=1
num_tree_per_iteration=1
label_index=0
max_feature_idx=20
objective=regression
feature_names=Column_0 Column_1 Column_2 Column_3 Column_4 Column_5 Column_6 Column_7 Column_8 Column_9 Column_10 Column_11 Column_12 Column_13 Column_14 Column_15 Column_16 Column_17 Column_18 Column_19 Column_20
feature_infos=[0.10000000000000001:11] [16:851] [0:127] [0:72] [0:96] [0:179] [0:68] [0:157] [0:63] [0:109] [0:172] [0:47] [0:120] [0:121] [0:171] [0:109] [0:121] [0:122] [0:79] [0:31] [0:62]
tree_sizes=5671 5656 5687 5699 5722 5734 5685 5650 5633 5742 5670 5696 5715 5663 5752 5870 5815 5769 5791 5745 5742 5740 5787 5752 5672 5810 5780 5828 5818 5773 5754 5780 5745 5766 5818 5773 5744 5760 5842 5807 5869 5797 5807 5764 5827 5813 5914 5797 5911 5876 5843 5882 5867 5793 5856 5838 5891 5782 5899 5881 5869 5904 5869 5793 5892 5842 5888 6012 5925 5917 5872 5801 5908 5879 5823 5843 5871 5860 5993 6004 6008 5985 5916 5930 5914 6008 6026 6027 6044 6054 6033 6045 6154 5960 6127 5934 6180 6042 6060 6089 6027 5921 6116 6028 6093 6032 6010 6053 6172 6190 6038 6188 6141 6131 6073 5981 6121 6278 6051 5992 6087 6218 6046 6024 6205 6090 6078 6092 6089 5994 6118 6100 6125 6290 6217 6117 6239 5953 6016 6171 6245 6168 6061 6265 6226 6280 6269 6217 6167 6266 5982 6067 6400 6240 6290 6153 6054 6340 6153 6165 6275 6119 6260 6246 6236 6155 6098 6118 6243 6158 6096 6069 6212 6157 6183 6138 6230 6110 6105 6178 6117 6102 6316 6244 6221 6312 6328 6206 6090 6116 6273 6069 6175 6301 6125 6133 6092 6311 6225 6062 6275 6167 6128 6198 6303 6242 6145 6107 6406 6128 6257 6213 6228 6202 6245 6249 6217 6220 6141 6158 6147 6234 6124 6163 6225 6197 6339 6159 6180 6163 6194 6317 6281 6211 6147 6307 6205 6273 6200 6265 6409 6092 6203 6387 6220 6256 6178 6272 6112 6161 6164 6105 6268 6253 6225 6178 6189 6280 6301 6157 6163 6259 6356 6226 6134 6190 6317 6151 6250 6317 6292 6257 6173 6140 6116 6193 6150 6239 6175 6202 6184 6348 6332 6362 6200 6209 6339 6219 6214 6225 6326 6277 6192 6295 6165 6242 6327 6193 6436 6127 6199 6301 6283 6178 6273 6135 6042 6194 6219 6224 6151 6258 6284 6411 6107 6387 6208 6289 6256 6328 6267 6285 6282 6281 6177 6225 6158 6233 6248 6314 6229 6256 6113 6322 6389 6333 6157 6274 6338 6289 6419 6135 6161 6243 6283 6345 6255 6242 6376 6225 6239 6255 6248 6178 6211 6308 6315 6509 6293 6198 6145 6334 6081 6385 6268 6245 6205 6225 6285 6324 6264 6301 6376 6220 6424 6354 6351 6249 6441 6238 6204 6343 6325 6253 6306 6254 6312 6246 6364 6262 6196 6447 6339 6300 6235 6187 6200 6356 6254 6233 6184 6288 6195 6271 6210 6232 6317 6317 6449 6234 6286 6389 6146 6191 6350 6364 6373 6211 6317 6179 6440 6416 6377 6143 6386 6297 6258 6406 6350 6453 6315 6200 6211 6397 6173 6258 6289 6398 6275 6282 6391 6253 6305 6438 6343 6252 6324 6316 6298 6388 6097 6253 6215 6434 6242 6226 6346 6363

Tree=0
num_leaves=63
num_cat=0
split_feature=3 15 12 14 12 16 15 14 14 20 7 10 14 2 5 0 14 7 2 2 16 15 16 12 16 14 18 7 9 15 15 14 14 14 20 14 4 3 13 14 13 1 0 16 12 13 0 0 12 15 9 14 12 14 18 4 14 5 15 14 5 7
split_gain=898.668 442.891 253.804 244.459 162.73 82.2349 224.128 70.0843 61.6653 60.3593 47.4422 46.8745 57.8244 45.6405 41.4976 46.7385 41.2037 39.4866 37.8073 36.9851 36.9391 61.7247 36.4104 30.0469 25.9008 25.0109 24.9532 24.3837 22.4166 20.9638 20.3255 26.2909 17.9169 16.3676 16.2717 16.1698 16.1752 27.207 16.0324 14.5336 13.8184 13.5052 13.4618 13.2831 12.8883 12.8378 12.617 14.5745 12.3324 11.947 11.7695 11.4131 21.3046 11.2771 10.8874 12.3842 10.724 12.9592 10.4001 17.936 10.3441 10.3198
threshold=1.5000000000000002 15.500000000000002 8.5000000000000018 4.5000000000000009 1.5000000000000002 17.500000000000004 27.500000000000004 7.5000000000000009 18.500000000000004 25.500000000000004 22.500000000000004 31.500000000000004 6.5000000000000009 43.500000000000007 14.500000000000002 7.9000000000000012 22.500000000000004 9.5000000000000018 9.5000000000000018 14.500000000000002 31.500000000000004 39.500000000000007 3.5000000000000004 13.500000000000002 6.5000000000000009 3.5000000000000004 29.500000000000004 69.500000000000014 10.500000000000002 10.500000000000002 18.500000000000004 9.5000000000000018 3.5000000000000004 1.5000000000000002 17.500000000000004 3.5000000000000004 9.5000000000000018 7.5000000000000009 9.5000000000000018 20.500000000000004 23.500000000000004 63.500000000000007 6.9500000000000011 13.500000000000002 4.5000000000000009 18.500000000000004 7.4500000000000011 7.9000000000000012 6.5000000000000009 5.5000000000000009 36.500000000000007 6.5000000000000009 15.500000000000002 6.5000000000000009 21.500000000000004 16.500000000000004 10.500000000000002 17.500000000000004 29.500000000000004 11.500000000000002 17.500000000000004 19.500000000000004
decision_type=2 2 2 2 2 2 2 2 2 2 2 2 2 2 2 2 2 2 2 2 2 2 2 2 2 2 2 2 2 2 2 2 2 2 2 2 2 2 2 2 2 2 2 2 2 2 2 2 2 2 2 2 2 2 2 2 2 2 2 2 2 2
left_child=1 4 11 14 18 6 19 17 10 13 53 12 -3 51 15 35 27 33 32 -5 21 -15 -21 -12 38 -20 40 58 60 48 46 45 -1 -6 -10 36 37 41 -19 -23 -8 -2 -22 61 -31 -32 50 -48 -26 -43 56 52 -7 -4 -9 -56 57 -24 59 -11 -16 -14
right_child=3 2 8 5 7 9 26 54 34 16 23 -13 43 20 28 -17 -18 24 25 22 42 39 30 -25 29 -27 -28 -29 -30 44 31 -33 -34 -35 -36 -37 -38 -39 -40 -41 -42 49 -44 -45 -46 -47 47 -49 -50 -51 -52 -53 -54 -55 55 -57 -58 -59 -60 -61 -62 -63
leaf_value=0.04421452541885923 0.032494310125026432 0.080264443828292523 0.028055418539110144 -0.026513728856300236 0.023007704126698201 -0.032781121129940909 0.017871668950282849 -0.022414658267041497 -0.016421203891963197 0.029463754477767726 0.077031561547975122 0.088747794714425121 0.016903772176423543 -0.011842437231238014 0.037823632602998397 0.070384783427994022 -0.027435613194667561 0.034017962065083882 0.098571121990858213 0.081738920482378699 0.015259738609443923 0.078554588790300806 -0.01295848826960741 0.03207903782999437 -0.019887153585840124 0.048786409408692458 0.087396558586929671 0.080607614014679932 0.029961478058630975 0.071475284586909729 0.016209110575149441 -0.0080981219373971337 -0.016734944380913754 -0.0063932937678175122 0.041279803522845576 -0.015125806981943987 0.031780071153780419 0.034269488053899511 0.088381628732446149 0.01161276144391434 0.081356856399154479 -0.025794803161601057 -0.032065325754383728 -0.014580969259292847 0.023109422396622576 0.066171537976029829 0.058622696950062954 -0.014898529102909674 0.010328730087191818 0.0022625190146118366 -0.048018439654943033 -0.03306849638397992 0.027084098918086219 -0.014551439761525587 0.019504491201655021 -0.018202552871712054 -0.023983890454977709 0.0083329632216895232 0.022681047339448483 -0.033945507522802676 0.097676457451772586 0.071126617674821702
leaf_weight=33 20 93 25 418 56 42 30 255 96 19 68 337 27 282 10.999999999999998 29 79 89 52 10.999999999999998 15.999999999999998 25 479 82 46 49 54 13.999999999999998 119 15.999999999999998 36 109 19 306 13.999999999999998 82 66 55 15.999999999999998 11.999999999999998 11.999999999999998 73 247 21 99 20 13.000000000000002 13.999999999999998 127 79 25 1296 23 41 38 51 174 84 72 27 21 12.999999999999998
leaf_count=33 20 93 25 418 56 42 30 255 96 19 68 337 27 282 11 29 79 89 52 11 16 25 479 82 46 49 54 14 119 16 36 109 19 306 14 82 66 55 16 12 12 73 247 21 99 20 13 14 127 79 25 1296 23 41 38 51 174 84 72 27 21 13
internal_value=4.88317e-09 0.0269594 0.0555965 -0.0133187 0.00827206 -0.0180403 -0.00896199 0.00154619 0.0213954 -0.0242737 0.0369139 0.0783044 0.0554509 -0.0270319 0.0175882 0.00922959 0.00112517 0.0100691 0.056584 -0.0140901 -0.0153133 -0.0038757 -0.0087087 0.0524575 0.0210435 0.0744181 0.0649151 0.0182184 0.0399515 0.013293 -0.0097516 0.00620766 0.0219445 -0.00184507 -0.00907744 0.00450025 0.00999287 0.00365827 0.0423019 0.0568437 0.0360103 -0.00613021 -0.0291862 0.0176205 0.0298386 0.0340528 -0.0130891 0.0205006 0.00229445 -0.0112124 -0.0142793 -0.0320431 -0.011598 0.00158752 -0.0171596 -0.00210292 -0.0131348 -0.00978179 0.0108163 -0.00775473 0.077102 0.0345262
internal_weight=0 2069 817 4188 1252 3633 1479 1099 326 2154 216 491 154 1943 555 404 211 755 153 1383 582 319 965 150 393 101 96 132 151 288 954 165 52 362 110 375 293 227 105 37 42 172 263 61 115 56 789 27 173 152 762 1361 65 66 344 89 737 563 118 46 32 40
internal_count=6257 2069 817 4188 1252 3633 1479 1099 326 2154 216 491 154 1943 555 404 211 755 153 1383 582 319 965 150 393 101 96 132 151 288 954 165 52 362 110 375 293 227 105 37 42 172 263 61 115 56 789 27 173 152 762 1361 65 66 344 89 737 563 118 46 32 40
is_linear=0
shrinkage=1


Tree=1
num_leaves=63
num_cat=0
split_feature=3 15 12 14 12 3 15 14 14 14 7 7 14 0 5 0 7 2 5 14 15 18 5 14 0 0 14 12 14 9 10 2 20 1 4 12 14 18 4 2 14 14 4 3 15 20 14 7 18 0 15 12 18 1 15 14 15 15 0 0 11 5
split_gain=811.048 399.709 229.059 220.624 146.863 65.0807 132.475 84.5878 63.2511 55.7292 44.1374 42.8911 54.116 40.4718 37.4516 42.1815 35.6367 34.1211 29.1777 38.6667 25.8481 23.3233 23.1629 23.0509 34.7197 22.9176 22.5724 21.4206 20.3867 20.2922 18.8334 18.7854 18.2268 18.5018 17.8204 16.7881 16.3729 16.2396 15.1209 15.0105 14.7718 14.5932 14.5981 24.5544 14.2659 13.9402 13.8323 14.7863 13.1886 51.1295 15.0119 12.3305 14.7226 12.1884 11.5845 11.3649 11.756 10.7822 10.0501 9.75023 18.4679 9.60418
threshold=1.5000000000000002 15.500000000000002 8.5000000000000018 4.5000000000000009 1.5000000000000002 5.5000000000000009 27.500000000000004 13.500000000000002 7.5000000000000009 17.500000000000004 28.500000000000004 18.500000000000004 6.5000000000000009 7.5500000000000007 14.500000000000002 7.9000000000000012 9.5000000000000018 9.5000000000000018 40.500000000000007 20.500000000000004 12.500000000000002 47.500000000000007 28.500000000000004 11.500000000000002 4.5500000000000007 6.9500000000000011 3.5000000000000004 15.500000000000002 3.5000000000000004 12.500000000000002 21.500000000000004 35.500000000000007 13.500000000000002 427.50000000000006 4.5000000000000009 14.500000000000002 4.5000000000000009 8.5000000000000018 29.500000000000004 3.5000000000000004 1.5000000000000002 3.5000000000000004 9.5000000000000018 7.5000000000000009 3.5000000000000004 9.5000000000000018 6.5000000000000009 9.5000000000000018 47.500000000000007 7.3000000000000016 55.500000000000007 21.500000000000004 32.500000000000007 63.500000000000007 10.500000000000002 9.5000000000000018 22.500000000000004 5.5000000000000009 6.9500000000000011 7.5500000000000007 3.5000000000000004 18.500000000000004
decision_type=2 2 2 2 2 2 2 2 2 2 2 2 2 2 2 2 2 2 2 2 2 2 2 2 2 2 2 2 2 2 2 2 2 2 2 2 2 2 2 2 2 2 2 2 2 2 2 2 2 2 2 2 2 2 2 2 2 2 2 2 2 2
left_child=1 4 11 14 17 6 20 22 16 10 45 12 -3 25 15 41 40 36 -9 38 44 -11 -8 24 -22 -7 -19 -12 37 -16 -13 -25 33 61 -30 -24 39 -18 -20 -1 -6 42 43 53 46 -4 47 -5 55 50 -50 52 -21 -2 -36 56 -27 -55 -10 -46 -61 -26
right_child=3 2 9 5 8 13 7 18 58 21 27 30 -14 -15 29 -17 28 26 19 51 23 -23 35 31 32 48 -28 -29 34 -31 -32 -33 -34 -35 54 -37 -38 -39 -40 -41 -42 -43 -44 -45 59 -47 -48 -49 49 -51 -52 -53 -54 57 -56 -57 -58 -59 -60 60 -62 -63
leaf_value=-0.0079272325405886825 0.030869589839130643 0.075502970798739369 -0.0059101956561207775 -0.0033721555839292699 0.02185731395147741 -0.0080080554345044377 0.0032317322139677252 -0.023678971165450428 0.01904451596109491 -0.014851432383459593 0.077354983015665943 0.020979766299327216 0.005690361462209536 0.022861639055867442 0.068487538350746044 0.066865540861055769 0.003605451176483785 0.093642560965739766 0.078915158100426208 -0.029794786240045841 -0.041543512018397455 0.058730824384838343 0.079202182700888066 -0.029643196561932563 -0.0077445172332533596 -0.025120175388052102 0.046347084413377607 0.030204775580802024 0.03804934573195437 0.026950856668220183 0.084645597735219749 -0.010655971407643794 0.021779718341892712 -0.046062209629095519 -0.0040802362809939556 0.034485197128378789 -0.030376425882180532 0.044703762093994105 0.020049104504287246 0.05746779753654091 -0.0060736334287664964 -0.0143695215969673 0.03019106229238043 0.032556008625436915 -0.028168785864243814 0.03026192228701946 -0.025651629813015459 0.074132361337542529 -0.028144409261150367 0.09500562548637391 0.026641235360875728 -0.029251396008219351 0.036775168031454086 -0.02450506794649138 0.020631173514450592 -0.032663513640289826 0.0057214397678358696 0.0021493881015413551 -0.01836799949579514 0.056476327925920493 -0.024398332776036116 0.0078579458878901848
leaf_weight=12.999999999999998 20 70 50 16.000000000000004 56 153 19 82 19 105 63 11.999999999999998 46 43 40 29 31 52 24 12.999999999999998 60 11.999999999999998 61 250 304 218 49 39 51 111 363 272 73 26 129 32 11.999999999999998 107 20 27 306 82 66 55 574 57 25 9.9999999999999982 117 9.9999999999999982 13.999999999999998 34 23 73 75 944 36 79 325 9.9999999999999982 24 146
leaf_count=13 20 70 50 16 56 153 19 82 19 105 63 12 46 43 40 29 31 52 24 13 60 12 61 250 304 218 49 39 51 111 363 272 73 26 129 32 12 107 20 27 306 82 66 55 574 57 25 10 117 10 14 34 23 73 75 944 36 79 325 10 24 146
internal_value=0 0.0256114 0.0528167 -0.0126528 0.00785845 -0.0171383 -0.0114141 0.0188749 0.00146888 0.0203256 0.0357932 0.0743892 0.0478187 -0.024962 0.0167088 0.0087681 0.00956563 0.0537548 -0.000932554 0.0154289 -0.0166258 -0.00730453 0.0535381 -0.0120394 -0.00543084 -0.0263403 0.0706972 0.059327 0.0199913 0.037954 0.0826083 -0.0197495 -0.0014841 -0.00505187 0.0116137 0.0638157 0.0208473 0.0354715 0.0521579 0.0362144 -0.00175282 0.00427524 0.00949322 0.00347535 -0.0244971 0.0133591 0.000903498 0.0264373 -0.028435 -0.0139707 -0.0222895 -0.00765787 0.012736 -0.0058237 0.00500484 -0.0301374 -0.0207489 -0.0106518 -0.0163016 -0.0266278 -0.000611668 -0.00268238
internal_weight=0 2069 817 4188 1252 3633 2098 308 1099 326 209 491 116 1535 555 404 755 153 196 114 1790 117 112 1131 609 1492 101 102 393 151 375 522 549 476 255 93 52 138 44 40 362 375 293 227 659 107 51 26 1339 141 131 70 36 172 204 1198 254 152 344 608 34 450
internal_count=6257 2069 817 4188 1252 3633 2098 308 1099 326 209 491 116 1535 555 404 755 153 196 114 1790 117 112 1131 609 1492 101 102 393 151 375 522 549 476 255 93 52 138 44 40 362 375 293 227 659 107 51 26 1339 141 131 70 36 172 204 1198 254 152 344 608 34 450
is_linear=0
shrinkage=0.05


Tree=2
num_leaves=63
num_cat=0
split_feature=3 15 12 14 12 16 15 14 20 14 7 10 14 2 14 5 15 2 16 16 13 2 14 18 18 14 7 12 9 15 14 2 15 16 14 16 14 16 15 7 2 20 10 19 16 4 13 9 1 14 18 4 14 3 14 12 5 5 14 16 10 20
split_gain=731.971 360.737 206.725 199.113 132.544 71.9666 186.527 57.0841 50.4852 50.2956 39.834 38.9941 48.5115 38.61 34.2752 33.8 32.5346 32.4558 32.1153 31.6301 47.3416 30.7943 21.1741 21.1394 21.0493 20.3716 19.9907 19.3321 18.5186 18.0338 22.2721 17.3448 21.7223 16.6082 14.7766 13.7953 15.2803 13.6785 14.5819 13.5616 13.547 13.0845 12.6678 12.1428 12.0338 11.7239 11.6915 10.5049 10.3047 9.97897 9.9103 11.1154 9.80833 9.70098 9.46665 18.6299 9.46654 9.33552 9.33254 9.30536 9.11605 9.02097
threshold=1.5000000000000002 15.500000000000002 8.5000000000000018 4.5000000000000009 1.5000000000000002 17.500000000000004 27.500000000000004 7.5000000000000009 25.500000000000004 17.500000000000004 28.500000000000004 31.500000000000004 6.5000000000000009 43.500000000000007 22.500000000000004 14.500000000000002 9.5000000000000018 14.500000000000002 3.5000000000000004 24.500000000000004 26.500000000000004 9.5000000000000018 3.5000000000000004 29.500000000000004 47.500000000000007 3.5000000000000004 69.500000000000014 15.500000000000002 10.500000000000002 18.500000000000004 9.5000000000000018 3.5000000000000004 5.5000000000000009 5.5000000000000009 4.5000000000000009 1.5000000000000002 1.5000000000000002 45.500000000000007 52.500000000000007 7.5000000000000009 3.5000000000000004 4.5000000000000009 40.500000000000007 3.5000000000000004 18.500000000000004 8.5000000000000018 23.500000000000004 36.500000000000007 63.500000000000007 8.5000000000000018 21.500000000000004 16.500000000000004 11.500000000000002 1.0000000180025095e-35 6.5000000000000009 15.500000000000002 7.5000000000000009 17.500000000000004 3.5000000000000004 26.500000000000004 18.500000000000004 8.5000000000000018
decision_type=2 2 2 2 2 2 2 2 2 2 2 2 2 2 2 2 2 2 2 2 2 2 2 2 2 2 2 2 2 2 2 2 2 2 2 2 2 2 2 2 2 2 2 2 2 2 2 2 2 2 2 2 2 2 2 2 2 2 2 2 2 2
left_child=1 4 11 15 21 6 17 16 13 10 41 12 60 54 26 22 35 -5 -19 20 -15 34 31 46 59 -23 -10 -12 57 47 43 -2 45 -18 40 -6 -37 38 -21 -38 -1 -4 56 -31 -14 48 -8 52 -33 -43 -9 -52 61 -41 55 -7 -35 -17 -55 -11 -3 -20
right_child=3 2 9 5 7 8 23 50 14 24 27 -13 44 19 -16 28 33 18 29 37 -22 25 -24 -25 -26 -27 -28 -29 -30 30 -32 32 -34 42 -36 36 39 -39 -40 53 -42 49 -44 -45 -46 -47 -48 -49 -50 -51 51 -53 -54 58 -56 -57 -58 -59 -60 -61 -62 -63
leaf_value=-0.0075308714205255881 0.047374211419373757 0.043567264567883242 -0.036504672545318799 -0.02410503219574708 0.053218356806498314 -0.030432826670862379 0.01631819431980451 -0.020500239357352259 0.010003755169810127 0.00091834383336110751 0.07348723588954835 0.080194895264612473 0.025008942855193336 -0.013855274942600066 -0.024933064761984199 0.032508069488473915 0.055675356976083813 0.077519629980352792 -0.010209723340568222 -0.016704955251212298 0.058671845495700842 0.08896043197466777 -0.014181336738079428 0.08029917995272963 0.055794282599041858 0.044029729296358268 0.073196329176425934 0.028694536928565075 0.026976237216760887 0.014221366710428682 -0.0065396939784527642 0.024089348396020279 0.020422368441502275 -0.013565389656772217 -0.028857604662577314 0.02435862706793893 -0.011852701919153334 -0.034073245499668448 0.028274147339949485 0.01178962306855298 0.054594406706315504 0.032725048920309002 0.068708629688868914 0.062314214131661827 -0.03497721776366234 0.032575622399648028 0.074713520488391319 -0.043442673206329351 -0.022689553156394413 -9.6820002654567373e-05 0.019349207297751778 -0.016374030230822519 -0.021919985778517222 0.016114696425696216 -0.030178139555063817 0.025548555410426596 0.02024036757015802 0.089368252527146114 -0.02169558848916352 -0.028852532445540969 0.081007538177073013 0.0069280615614520178
leaf_weight=12.999999999999998 35 21 11.999999999999998 418 12.999999999999998 42 30 255 118 52 63 337 51 63 79 10.999999999999998 37 10.999999999999998 523 349 35 52 83 54 11.999999999999998 49 13.999999999999998 39 119 35 109 13.999999999999998 183 24 11.999999999999998 62 200 116 19 181 27 55 11.999999999999998 21 9.9999999999999982 14.999999999999998 11.999999999999998 25 74 40 38 51 151 24 1296 23 151 21 51 53 72 90
leaf_count=13 35 21 12 418 13 42 30 255 118 52 63 337 51 63 79 11 37 11 523 349 35 52 83 54 12 49 14 39 119 35 109 14 183 24 12 62 200 116 19 181 27 55 12 21 10 15 12 25 74 40 38 51 151 24 1296 23 151 21 51 53 72 90
internal_value=0 0.0243308 0.0501758 -0.0120202 0.00746553 -0.0162814 -0.00778874 0.00139544 -0.0221126 0.0193093 0.0340035 0.0706697 0.0498256 -0.0246352 0.00111602 0.0158733 0.00908735 -0.012467 -0.00742581 -0.0138568 0.0120473 0.051067 0.0083297 0.0596069 -0.00693931 0.0671624 0.016706 0.0563606 0.0360563 -0.00840527 0.00662739 0.0141503 0.0100844 0.0250679 0.0198049 0.00234601 0.00106929 -0.0191019 -0.0143827 -0.00209724 0.0344037 0.0126911 0.0190119 0.0322562 0.0151751 -0.00828293 0.0330026 -0.011549 -0.0152475 0.0189053 -0.0154865 -0.00112141 -0.0105053 0.00552422 -0.0292443 -0.010624 0.0156041 0.0698226 -0.0095963 -0.0141089 0.0725533 -0.00769357
internal_weight=0 2069 817 4188 1252 3633 1479 1099 2154 326 209 491 154 1943 211 555 755 1383 965 582 98 153 404 96 117 101 132 102 151 954 165 321 286 224 52 531 518 484 368 456 40 107 187 56 61 103 42 789 88 95 344 89 764 256 1361 65 175 32 75 105 93 613
internal_count=6257 2069 817 4188 1252 3633 1479 1099 2154 326 209 491 154 1943 211 555 755 1383 965 582 98 153 404 96 117 101 132 102 151 954 165 321 286 224 52 531 518 484 368 456 40 107 187 56 61 103 42 789 88 95 344 89 764 256 1361 65 175 32 75 105 93 613
is_linear=0
shrinkage=0.05


Tree=3
num_leaves=63
num_cat=0
split_feature=3 15 12 14 12 16 15 14 7 14 7 7 14 16 15 5 0 7 2 16 13 17 12 16 18 12 0 18 9 15 15 14 10 13 17 14 12 5 4 14 12 13 13 13 12 0 0 16 11 16 0 17 15 4 5 16 0 0 4 11 14 15
split_gain=660.604 325.565 186.57 179.7 119.621 64.9499 168.34 51.5184 45.6121 45.3918 36.8207 36.18 45.5867 33.3142 46.8963 30.5045 37.1306 30.1261 29.2914 28.984 28.1124 23.3804 21.7535 21.3303 19.1399 19.0168 30.8994 18.997 16.7574 16.3537 16.2755 20.1006 15.8279 13.7675 13.0857 12.621 20.7802 12.4375 14.6883 11.8861 11.4284 11.131 11.118 11.0996 10.4553 10.2525 12.0889 9.83374 9.82955 9.81795 12.3161 16.6607 12.2457 11.193 9.69674 9.59749 9.09239 9.08235 12.4982 9.05867 8.87114 8.8576
threshold=1.5000000000000002 15.500000000000002 8.5000000000000018 4.5000000000000009 1.5000000000000002 17.500000000000004 27.500000000000004 7.5000000000000009 39.500000000000007 17.500000000000004 22.500000000000004 18.500000000000004 6.5000000000000009 31.500000000000004 45.500000000000007 14.500000000000002 7.9000000000000012 9.5000000000000018 14.500000000000002 3.5000000000000004 3.5000000000000004 4.5000000000000009 13.500000000000002 6.5000000000000009 21.500000000000004 38.500000000000007 7.3000000000000016 47.500000000000007 12.500000000000002 10.500000000000002 18.500000000000004 9.5000000000000018 21.500000000000004 9.5000000000000018 7.5000000000000009 6.5000000000000009 15.500000000000002 39.500000000000007 33.500000000000007 1.5000000000000002 4.5000000000000009 18.500000000000004 17.500000000000004 13.500000000000002 6.5000000000000009 7.4500000000000011 7.9000000000000012 15.500000000000002 11.500000000000002 11.500000000000002 4.4500000000000011 6.5000000000000009 13.500000000000002 9.5000000000000018 7.5000000000000009 2.5000000000000004 6.9500000000000011 6.9500000000000011 5.5000000000000009 12.500000000000002 6.5000000000000009 34.500000000000007
decision_type=2 2 2 2 2 2 2 2 2 2 2 2 2 2 2 2 2 2 2 2 2 2 2 2 2 2 2 2 2 2 2 2 2 2 2 2 2 2 2 2 2 2 2 2 2 2 2 2 2 2 2 2 2 2 2 2 2 2 2 2 2 2
left_child=1 4 11 15 20 6 18 17 35 10 60 12 -3 14 37 16 34 39 -5 -20 -1 55 48 33 -8 43 -27 -11 -17 42 45 41 -13 -19 57 36 -7 -10 61 -6 -31 -32 44 -15 -25 49 -47 -14 -12 50 51 -21 -52 -54 -36 -22 -9 -2 -59 -26 -4 -39
right_child=3 2 9 5 7 8 24 56 13 27 22 32 47 25 -16 28 -18 23 19 30 21 -23 -24 29 59 26 -28 -29 -30 40 31 -33 -34 -35 54 -37 -38 38 -40 -41 -42 -43 -44 -45 -46 46 -48 -49 -50 -51 52 -53 53 -55 -56 -57 -58 58 -60 -61 -62 -63
leaf_value=0.0059957059280526257 0.032504449366695352 0.068141944452321954 0.024431311190128327 -0.022899779984777633 0.019405198346690411 -0.029958036834640163 0.0084990244577912728 0.018907567995943522 -0.01123195517831572 -0.013403417140999366 0.077923713516736159 0.018187543377280235 0.019357856805436315 0.012282453908732064 0.059364210187147062 0.062000497840344906 0.062421401224002762 0.029833981618703754 0.073643649725074131 -0.0050106168061564409 0.046618032455444339 0.036324605785695643 0.028020948600514156 -0.022446766934461064 0.073428741785819124 -0.011921410377209004 0.086595529317855843 0.053004568846275413 0.02425450162441881 0.065006554126739502 0.014028135788652842 -0.0062127090606586416 0.076552677874969055 0.080211641266942024 -0.016570749515857627 -0.027730073358769376 0.023062525477937676 0.015150378089553366 -0.021969594701658934 -0.0056495086941354472 0.019462182019799573 0.060550804585218436 0.04789931451280912 -0.026945775344383794 0.0059465773556188779 0.054027168338115383 -0.012932062368573888 -0.030884410866669251 0.034021978343234345 -0.020000179323905912 -0.0068146173408177111 -0.037779233935954316 0.055731105903784439 0.0050847727525979288 0.0064346371819590069 0.091333549780150264 -0.016677667923056735 -0.0092939503335704408 0.020099661611602645 0.02250840596854687 -0.013536573154269718 0.064893961901014499
leaf_weight=31 45 70 25 418 56 42 17 19 259 105 51 11.999999999999998 32 19 30 40 29 89 10.999999999999998 87 15.999999999999998 58 76 45 69 39 9.9999999999999982 11.999999999999998 111 15.999999999999998 36 109 363 15.999999999999998 98 1285 33 48 24 306 99 20 11.999999999999998 354 116 13.000000000000002 13.999999999999998 13.999999999999998 17 257 293 70 14.999999999999998 40 86 48 325 66 80 9.9999999999999982 40 10.999999999999998
leaf_count=31 45 70 25 418 56 42 17 19 259 105 51 12 32 19 30 40 29 89 11 87 16 58 76 45 69 39 10 12 111 16 36 109 363 16 98 1285 33 48 24 306 99 20 12 354 116 13 14 14 17 257 293 70 15 40 86 48 325 66 80 10 40 11
internal_value=0 0.0231143 0.047667 -0.0114192 0.00709225 -0.0154673 -0.0073993 0.00132566 -0.021007 0.0183438 0.0323033 0.0671362 0.0427328 -0.0114846 -0.00057626 0.0150797 0.00791321 0.00863298 -0.0118436 -0.00705452 0.0485137 0.0593174 0.0464033 0.0182187 0.0566266 -0.0211005 0.00818409 -0.00659234 0.0342534 0.0111852 -0.007985 0.00629602 0.074685 0.0375106 0.00369791 -0.0265664 -0.00662899 -0.0058342 0.0110094 -0.00177364 0.0257988 0.0306434 0.00147104 -0.0249476 -0.00198945 -0.0109715 0.0193076 0.00406673 0.0669483 -0.0120444 -0.00799563 -0.0196208 -0.00275094 0.0188974 -0.00581823 0.0801547 -0.0147122 0.0128653 0.00681214 0.0669831 0.00106646 0.0244246
internal_weight=0 2069 817 4188 1252 3633 1479 1099 2154 326 209 491 116 794 372 555 404 755 1383 965 153 122 144 393 96 422 49 117 151 288 954 165 375 105 375 1360 75 342 83 362 115 56 173 373 161 789 27 46 68 762 505 157 348 55 184 64 344 191 146 79 65 59
internal_count=6257 2069 817 4188 1252 3633 1479 1099 2154 326 209 491 116 794 372 555 404 755 1383 965 153 122 144 393 96 422 49 117 151 288 954 165 375 105 375 1360 75 342 83 362 115 56 173 373 161 789 27 46 68 762 505 157 348 55 184 64 344 191 146 79 65 59
is_linear=0
shrinkage=0.05


Tree=4
num_leaves=63
num_cat=0
split_feature=3 15 12 14 12 16 15 14 20 14 2 7 14 2 14 5 0 16 13 7 2 16 2 16 18 18 14 7 9 10 15 14 16 7 14 5 13 2 12 16 5 8 19 16 14 19 5 0 6 18 12 16 16 0 17 15 15 14 14 16 5 16
split_gain=596.195 293.823 168.379 162.179 107.958 58.6173 151.927 46.4954 42.7714 40.9661 33.4247 32.6525 41.142 32.2219 29.2375 27.5303 33.5103 27.3066 50.543 27.1888 26.4355 26.1581 25.9512 19.2506 17.7462 17.1448 17.1156 16.2976 15.2986 14.9962 14.6886 18.1408 14.4352 13.4709 13.2824 12.4635 12.4252 12.1649 14.9072 11.924 11.9233 11.6347 11.2945 10.8149 10.7272 10.6634 9.41143 9.25292 11.0515 9.02061 9.83736 8.89872 8.8607 11.1153 15.0363 11.0517 8.84413 13.2484 8.45934 8.66924 8.42531 8.39809
threshold=1.5000000000000002 15.500000000000002 8.5000000000000018 4.5000000000000009 1.5000000000000002 17.500000000000004 27.500000000000004 7.5000000000000009 25.500000000000004 17.500000000000004 41.500000000000007 18.500000000000004 6.5000000000000009 43.500000000000007 22.500000000000004 14.500000000000002 7.9000000000000012 25.500000000000004 26.500000000000004 9.5000000000000018 14.500000000000002 3.5000000000000004 9.5000000000000018 6.5000000000000009 29.500000000000004 47.500000000000007 3.5000000000000004 69.500000000000014 10.500000000000002 44.500000000000007 18.500000000000004 9.5000000000000018 20.500000000000004 22.500000000000004 3.5000000000000004 7.5000000000000009 9.5000000000000018 3.5000000000000004 12.500000000000002 12.500000000000002 33.500000000000007 1.0000000180025095e-35 2.5000000000000004 14.500000000000002 1.5000000000000002 3.5000000000000004 12.500000000000002 7.4500000000000011 8.5000000000000018 21.500000000000004 11.500000000000002 13.500000000000002 11.500000000000002 4.4500000000000011 6.5000000000000009 13.500000000000002 52.500000000000007 31.500000000000004 3.5000000000000004 3.5000000000000004 17.500000000000004 26.500000000000004
decision_type=2 2 2 2 2 2 2 2 2 2 2 2 2 2 2 2 2 2 2 2 2 2 2 2 2 2 2 2 2 2 2 2 2 2 2 2 2 2 2 2 2 2 2 2 2 2 2 2 2 2 2 2 2 2 2 2 2 2 2 2 2 2
left_child=1 4 11 15 22 6 20 19 13 10 33 12 -3 -7 27 16 37 18 -15 44 -5 -22 34 36 43 61 -24 -10 60 35 47 45 -13 -4 -1 -25 58 -2 41 -35 -34 -39 -12 -8 -6 -32 -19 52 -49 -9 -51 -14 53 54 -23 -55 -48 -58 59 -21 -17 -11
right_child=3 2 9 5 7 8 24 49 14 25 42 32 51 17 -16 28 -18 46 -20 23 21 30 26 29 -26 -27 -28 -29 -30 -31 31 -33 40 39 -36 -37 -38 38 -40 -41 -42 -43 -44 -45 -46 -47 56 48 -50 50 -52 -53 -54 55 -56 -57 57 -59 -60 -61 -62 -63
leaf_value=0.036563897210483746 0.031147829326801005 0.064734847157129224 0.0010131361303277887 -0.021754791388515403 0.018434938256229674 -0.026489059227660046 0.047360150915171421 -0.018759961233602143 0.0097711179216029287 0.0015425982652232052 0.025102649542192618 0.073340058223591686 0.020701005171727519 -0.00914049795461736 -0.022634826671284969 0.027782640876764408 0.05930032900630914 0.014796332291820469 0.055143111328490903 0.084246159954504532 0.06996146694503047 -0.0047600861466168586 0.080843858879346114 -0.01285552638159557 0.072754230853860027 0.05035433924446503 0.039659980838472136 0.066828755927937369 0.024287822794075275 0.070783020108938222 0.012210742843204312 -0.0059020735107686954 -0.0088407104741781914 0.065011620782315732 -0.015913951004806318 0.013719763725603443 0.076201059296727186 0.02696504123652211 0.02094904042150773 0.020862768203593219 0.066595929861068728 -0.0082331108496993908 0.075343621285124271 -0.0064621083970580785 -0.0053670333353045482 0.05727864478318398 -0.025838731024819223 0.056922238523309868 -0.008181594510097057 0.024918569665816098 -0.011241283757431855 -0.024859585941714401 -0.019000170455524403 -0.0064738866173103607 -0.035890273131164059 0.017952538569542497 0.040388308565777076 -0.029708466785294669 0.015932035722114421 0.030642727511925233 0.081799814034075977 -0.026739735418232158
leaf_weight=33 36 70 65 418 56 1361 28 255 118 52 14.999999999999998 354 29 203 79 10.999999999999998 29 17 36 10.999999999999998 10.999999999999998 87 52 55 54 11.999999999999998 49 13.999999999999998 119 9.9999999999999982 35 109 10.000000000000002 20 19 223 15.999999999999998 26 71 65 10.999999999999998 242 44 13.999999999999998 306 21 299 11.000000000000002 15.999999999999998 27 62 17 257 293 70 55 13.000000000000002 13.999999999999998 54 24 21 53
leaf_count=33 36 70 65 418 56 1361 28 255 118 52 15 354 29 203 79 11 29 17 36 11 11 87 52 55 54 12 49 14 119 10 35 109 10 20 19 223 16 26 71 65 11 242 44 14 306 21 299 11 16 27 62 17 257 293 70 55 13 14 54 24 21 53
internal_value=0 0.0219586 0.0452837 -0.0108482 0.00673764 -0.0146939 -0.00702934 0.00125938 -0.0199567 0.0174266 0.0306882 0.0637794 0.0405962 -0.0222785 0.0014239 0.0143257 0.00751755 -0.0124321 0.000542389 0.00820134 -0.0112514 -0.0067018 0.046088 0.0173078 0.0537952 -0.00626272 0.0608636 0.0158227 0.0325408 0.010626 -0.00758575 0.00598122 0.0709507 0.0181478 0.0173893 0.00846206 0.035635 0.00351302 0.000578348 0.0312507 0.0306737 -0.00481836 0.0625705 0.0294194 -0.00168496 0.0291112 -0.0214726 -0.010423 0.0183422 -0.0139766 -0.000271441 0.0038634 -0.0114422 -0.00759585 -0.0186398 -0.00261339 -0.023364 0.00404183 0.0283423 0.0474895 0.0632314 -0.0127332
internal_weight=0 2069 817 4188 1252 3633 1479 1099 2154 326 209 491 116 1943 211 555 404 582 239 755 1383 965 153 393 96 117 101 132 151 288 954 165 375 150 52 278 105 375 339 85 21 268 59 42 362 56 343 789 27 344 89 46 762 505 157 348 326 27 89 35 32 105
internal_count=6257 2069 817 4188 1252 3633 1479 1099 2154 326 209 491 116 1943 211 555 404 582 239 755 1383 965 153 393 96 117 101 132 151 288 954 165 375 150 52 278 105 375 339 85 21 268 59 42 362 56 343 789 27 344 89 46 762 505 157 348 326 27 89 35 32 105
is_linear=0
shrinkage=0.05


Tree=5
num_leaves=63
num_cat=0
split_feature=3 15 12 14 12 16 15 14 20 14 7 7 14 2 14 15 15 0 16 15 2 13 16 17 12 2 18 12 7 16 15 14 7 19 16 2 15 16 12 16 14 20 7 0 20 19 8 6 14 9 12 13 1 14 0 0 17 15 14 1 16 0
split_gain=538.066 265.175 151.962 146.367 97.4322 52.9021 137.114 41.9621 38.6012 36.9719 30.5056 29.4689 37.1306 29.0803 26.3869 25.4717 25.046 26.7684 24.9605 41.3717 23.858 23.82 23.6077 20.0875 19.1112 16.443 15.4732 15.121 14.7086 14.5277 13.2565 16.7405 13.1318 13.0411 13.0277 12.6621 12.2405 12.4839 11.6088 11.4399 12.0538 11.1479 10.4429 9.6305 9.61559 10.8358 10.0299 9.37704 8.95168 8.93781 8.90508 11.7125 8.61059 8.58845 14.042 8.79719 13.5703 10.0276 8.55458 8.26903 12.8628 8.21065
threshold=1.5000000000000002 15.500000000000002 8.5000000000000018 4.5000000000000009 1.5000000000000002 17.500000000000004 27.500000000000004 7.5000000000000009 25.500000000000004 17.500000000000004 28.500000000000004 18.500000000000004 6.5000000000000009 43.500000000000007 22.500000000000004 9.5000000000000018 18.500000000000004 7.9000000000000012 31.500000000000004 39.500000000000007 14.500000000000002 3.5000000000000004 3.5000000000000004 4.5000000000000009 12.500000000000002 39.500000000000007 47.500000000000007 15.500000000000002 69.500000000000014 4.5000000000000009 18.500000000000004 11.500000000000002 7.5000000000000009 3.5000000000000004 20.500000000000004 3.5000000000000004 5.5000000000000009 3.5000000000000004 7.5000000000000009 1.5000000000000002 1.5000000000000002 4.5000000000000009 7.5000000000000009 6.9500000000000011 7.5000000000000009 3.5000000000000004 1.0000000180025095e-35 14.500000000000002 20.500000000000004 36.500000000000007 3.5000000000000004 10.500000000000002 66.500000000000014 11.500000000000002 7.4500000000000011 4.4500000000000011 6.5000000000000009 11.500000000000002 8.5000000000000018 136.50000000000003 5.5000000000000009 6.9500000000000011
decision_type=2 2 2 2 2 2 2 2 2 2 2 2 2 2 2 2 2 2 2 2 2 2 2 2 2 2 2 2 2 2 2 2 2 2 2 2 2 2 2 2 2 2 2 2 2 2 2 2 2 2 2 2 2 2 2 2 2 2 2 2 2 2
left_child=1 4 11 16 21 6 20 15 13 10 41 12 -3 -7 28 39 17 24 19 -15 -5 -1 -22 -23 35 -8 -11 -12 -10 -17 49 33 -31 -32 -13 -2 37 -37 -18 -6 -41 -4 -42 -20 46 -46 -38 -36 -21 53 51 -34 -44 54 55 56 -24 -57 -43 -48 -61 -9
right_child=3 2 9 5 7 8 25 61 14 26 27 34 -14 18 -16 29 38 -19 43 48 22 23 30 -25 -26 -27 -28 -29 -30 32 31 -33 50 -35 47 36 44 -39 -40 40 42 58 52 -45 45 -47 59 -49 -50 -51 -52 -53 -54 -55 -56 57 -58 -59 -60 60 -62 -63
leaf_value=0.0046459577587102691 0.029683601308394883 0.061498103077922556 -0.034906397014856337 -0.020667051507770554 0.048152698117953086 -0.025164606656795704 0.024390802718698978 0.018670300296262692 0.0092825622337286261 -0.012096584882764591 0.063865534328515577 0.069673056118611229 0.0036702257482355222 -0.0089308816828956531 -0.021503085855253137 0.058689477605124322 0.069500524371862424 0.056335314067787134 0.014378458226565272 0.064341108828783036 0.066463392769748525 0.073042624164372683 -0.0045220818015982286 0.032416163306233696 0.023874880250736741 0.067134283670845132 0.047836622130125767 0.024250723640076244 0.063487319435392112 -0.015623680760080999 0.0073709067024967899 -0.010340842655462373 0.018390564939805436 0.049289487994142941 -0.005902021769434212 0.010970677051912337 0.033371304127534751 -0.024702710099518299 0.026067521637305621 0.021348680078142113 -0.010709238640090917 0.029034454408525069 0.031244862355567796 -0.02564953943254494 0.046533415867732124 -0.0068319644778966904 -0.03011382512782735 0.060996448993682867 0.011804450831065577 -0.039320520699024204 0.017731814823786704 0.085707798103491467 0.001390563485041814 -0.019620413932061157 0.039917508373036981 -0.016761680756720295 -0.034095759146979876 0.00051585548038990306 -0.0013547781453235076 0.049630047608904236 -0.0056697256672743924 -0.015145497251588563
leaf_weight=31 34 70 11.999999999999998 418 12.999999999999998 1361 36 19 118 105 63 354 46 282 79 24 25 29 15.999999999999998 25 10.999999999999998 64 87 58 121 60 11.999999999999998 39 13.999999999999998 26 55 82 14.000000000000002 28 10.000000000000002 34 19 88 40 62 200 55 27 247 26 14.999999999999998 27 10.999999999999998 11.999999999999998 25 148 11.999999999999998 229 151 15.999999999999998 113 70 327 40 11.999999999999998 85 325
leaf_count=31 34 70 12 418 13 1361 36 19 118 105 63 354 46 282 79 24 25 29 16 25 11 64 87 58 121 60 12 39 14 26 55 82 14 28 10 34 19 88 40 62 200 55 27 247 26 15 27 11 12 25 148 12 229 151 16 113 70 327 40 12 85 325
internal_value=0 0.0208606 0.0430195 -0.0103058 0.00640076 -0.0139592 -0.00667787 0.00119641 -0.0189588 0.0165553 0.0291538 0.0605904 0.0385664 -0.0211646 0.00135271 0.00779127 0.0136094 0.00974081 -0.0118105 -0.00240855 -0.0106889 0.0437836 -0.00636671 0.0537284 0.0068097 0.0511055 -0.00594959 0.0487187 0.0150316 0.0219313 -0.00720647 0.00568216 0.0175203 0.0215121 0.0674032 0.000736505 -0.00247984 -0.0147609 0.0427725 0.00182638 0.000663747 0.0105031 -0.00214868 -0.0232144 0.00566307 0.0270095 -0.000457235 0.02914 0.0473022 -0.00990181 0.0224728 0.0494601 0.00453926 -0.00893915 -0.00630804 -0.00754692 -0.0177078 -0.00392133 0.016239 -0.00564064 0.00117148 -0.0132778
internal_weight=0 2069 817 4188 1252 3633 1479 1099 2154 326 209 491 116 1943 211 755 555 490 582 319 1383 153 965 122 461 96 117 102 132 224 954 165 200 83 375 340 306 122 65 531 518 107 456 263 184 41 143 21 37 789 174 26 256 764 613 597 157 440 95 124 97 344
internal_count=6257 2069 817 4188 1252 3633 1479 1099 2154 326 209 491 116 1943 211 755 555 490 582 319 1383 153 965 122 461 96 117 102 132 224 954 165 200 83 375 340 306 122 65 531 518 107 456 263 184 41 143 21 37 789 174 26 256 764 613 597 157 440 95 124 97 344
is_linear=0
shrinkage=0.05


Tree=6
num_leaves=63
num_cat=0
split_feature=3 15 12 14 12 16 15 14 7 10 14 10 14 10 5 0 7 2 2 12 20 0 16 15 10 3 2 7 16 18 12 16 4 9 10 15 7 14 12 16 20 14 14 9 4 3 9 18 3 14 0 5 1 1 0 12 14 20 1 14 15 3
split_gain=485.605 239.321 137.146 132.096 87.9326 47.7441 123.746 38.1467 35.2598 33.9391 32.8305 28.3184 35.1264 24.7671 22.7917 27.3531 22.2397 22.1628 21.5319 22.6886 18.1812 18.2227 17.8315 22.5269 15.8745 15.3429 15.0608 14.8306 14.5081 13.8048 21.0504 13.6513 13.2526 13.0876 12.9174 12.4047 12.319 11.8499 18.4779 11.2713 13.6954 10.9162 10.769 10.7195 10.5083 16.7807 9.83518 12.8843 12.6913 11.2924 11.693 9.48184 8.91406 8.63237 8.36387 8.30847 8.18388 8.03798 8.01508 7.91715 9.90449 7.87702
threshold=1.5000000000000002 15.500000000000002 8.5000000000000018 4.5000000000000009 1.5000000000000002 17.500000000000004 27.500000000000004 5.5000000000000009 44.500000000000007 75.500000000000014 11.500000000000002 31.500000000000004 10.500000000000002 105.50000000000001 14.500000000000002 7.9000000000000012 9.5000000000000018 9.5000000000000018 14.500000000000002 3.5000000000000004 25.500000000000004 7.3000000000000016 24.500000000000004 27.500000000000004 44.500000000000007 5.5000000000000009 16.500000000000004 22.500000000000004 5.5000000000000009 21.500000000000004 11.500000000000002 6.5000000000000009 14.500000000000002 12.500000000000002 18.500000000000004 44.500000000000007 3.5000000000000004 6.5000000000000009 15.500000000000002 17.500000000000004 7.5000000000000009 3.5000000000000004 3.5000000000000004 33.500000000000007 9.5000000000000018 7.5000000000000009 36.500000000000007 22.500000000000004 2.5000000000000004 11.500000000000002 7.7500000000000009 7.5000000000000009 63.500000000000007 339.50000000000006 6.9500000000000011 4.5000000000000009 3.5000000000000004 32.500000000000007 226.50000000000003 11.500000000000002 9.5000000000000018 4.5000000000000009
decision_type=2 2 2 2 2 2 2 2 2 2 2 2 2 2 2 2 2 2 2 2 2 2 2 2 2 2 2 2 2 2 2 2 2 2 2 2 2 2 2 2 2 2 2 2 2 2 2 2 2 2 2 2 2 2 2 2 2 2 2 2 2 2
left_child=1 4 11 14 17 6 18 16 37 10 27 12 34 20 15 42 55 36 -5 26 25 -22 23 -12 -8 35 -20 -4 -19 59 39 56 -29 -16 -3 -10 -1 38 -7 40 -31 -38 44 -23 45 52 47 49 53 50 -21 -33 -2 -49 -27 -6 -18 -39 -35 60 -9 -46
right_child=3 2 9 5 7 8 24 29 13 -11 22 -13 -14 -15 33 -17 31 28 19 46 21 43 -24 -25 -26 54 -28 32 -30 30 -32 51 -34 58 -36 -37 41 57 -40 -41 -42 -43 -44 -45 61 -47 -48 48 -50 -51 -52 -53 -54 -55 -56 -57 -58 -59 -60 -61 -62 -63
leaf_value=-0.029358896240592004 0.026185493431985382 0.024435367621481421 0.0078923314203469385 -0.01963369881836742 -0.0059424802682215942 -0.025056882139815148 0.023430942469521574 -0.016843689072064738 -0.0084235127520639573 0.07295560538768768 -0.0093316172622144224 0.065678161056850454 -0.011992206556412081 0.060317562291255372 0.054023705259896818 0.053518547310397548 0.050260320370611934 0.071237641623464673 0.081223057433962825 -0.0081919996308473259 -0.0081698906357719828 0.018459142010126797 -0.017018982640119515 0.046951995579001961 0.065007653633325266 0.010131397688140472 0.012946608019549222 0.087163364461490089 0.032788670346850443 0.022817782739944312 -0.0094913025380338779 -0.011986510652829619 0.033808797400147805 -0.0098739941087034027 0.060450020538622973 0.030853985588658941 0.046527121595486449 -0.0236072004505316 0.023873192431139098 -0.0098726322501897813 0.092583323766787851 -0.00924037924179664 -0.012900149803920992 0.073221541692813238 0.032884488627314572 0.026533658863997767 -0.037605719709837879 0.014326843757633913 -0.002586624908385573 -0.023386456224023168 0.041709579682598516 0.017041420595908959 -0.0093232403984170806 0.063848334675033896 -0.02530638159185581 0.010879194457879944 0.020747277722693983 0.0044455186893733655 0.026576858972354483 -0.027277139669639017 0.0021003318796737479 -0.013465043961663137
leaf_weight=11.999999999999998 20 34 48 418 197 43 38 188 233 24 40 337 27 12.999999999999998 40 29 46 59 9.9999999999999982 540 67 35 99 32 58 18 42 13.999999999999998 42 17.000000000000004 74 34 69 18 93 22 27 1428 35 9.9999999999999982 11.999999999999998 12.999999999999998 82 11.999999999999998 55 55 27 33 157 132 11.999999999999998 163 152 11.999999999999998 222 117 48 26 93 84 109 10.999999999999998
leaf_count=12 20 34 48 418 197 43 38 188 233 24 40 337 27 13 40 29 46 59 10 540 67 35 99 32 58 18 42 14 42 17 74 34 69 18 93 22 27 1428 35 10 12 13 82 12 55 55 27 33 157 132 12 163 152 12 222 117 48 26 93 84 109 11
internal_value=0 0.0198176 0.0408685 -0.00979051 0.00608072 -0.0132613 -0.00634398 0.00113659 -0.0180109 0.0157275 0.0111796 0.0575609 0.0397978 -0.00797117 0.0129289 0.00673437 0.00955413 0.0415944 -0.0101544 -0.00604837 -0.00942889 0.00857321 -0.00324959 0.0156833 0.0485502 -0.0135748 0.0260767 0.0300147 0.055249 -0.00917234 0.00617539 0.0195122 0.0428084 0.0295024 0.0508083 -0.00503487 0.0150731 -0.0220871 -0.00310108 0.0359019 0.0516863 0.0284027 0.00311639 0.032441 0.00759884 0.00249308 -0.00787806 -0.00697213 0.0041231 -0.0102488 -0.00710718 0.0120315 -0.00519432 0.0275326 -0.0226485 0.000325469 0.0351898 -0.0231056 0.0206659 -0.0137243 -0.00989117 0.0251596
internal_weight=0 2069 817 4188 1252 3633 1479 1099 2154 326 302 491 154 622 555 404 605 153 1383 965 609 114 171 72 96 495 52 131 101 494 113 291 83 151 127 255 52 1532 78 39 29 40 375 47 293 227 913 886 202 684 552 197 172 45 240 314 94 1454 111 381 297 66
internal_count=6257 2069 817 4188 1252 3633 1479 1099 2154 326 302 491 154 622 555 404 605 153 1383 965 609 114 171 72 96 495 52 131 101 494 113 291 83 151 127 255 52 1532 78 39 29 40 375 47 293 227 913 886 202 684 552 197 172 45 240 314 94 1454 111 381 297 66
is_linear=0
shrinkage=0.05


Tree=7
num_leaves=63
num_cat=0
split_feature=3 15 12 14 12 3 15 16 10 14 14 10 14 0 14 16 15 0 10 5 15 10 14 16 16 0 16 12 5 7 20 16 15 12 2 13 18 16 12 2 2 15 16 14 16 12 15 15 14 7 12 5 13 2 0 7 5 12 19 20 19 8
split_gain=438.258 216.117 128.266 119.216 73.9406 44.3348 82.205 80.1288 35.8047 42.2031 32.9549 30.8623 33.6864 26.6339 22.0769 20.9042 20.8145 21.8396 19.2908 19.0892 18.9588 18.4223 17.3344 16.8732 16.4301 16.2437 24.7201 15.8242 15.1608 16.2809 14.9454 14.0993 21.4437 13.6218 15.2507 12.6849 11.6449 12.1804 11.1268 11.0736 11.0236 10.7952 10.6037 10.4589 10.4351 9.93855 9.88089 9.32258 20.2615 14.4927 16.9158 9.24795 9.29767 9.23103 30.5892 9.1601 8.87936 8.50376 9.16276 8.47458 9.34683 8.58394
threshold=1.5000000000000002 14.500000000000002 8.5000000000000018 4.5000000000000009 1.5000000000000002 5.5000000000000009 27.500000000000004 24.500000000000004 30.500000000000004 10.500000000000002 5.5000000000000009 75.500000000000014 11.500000000000002 7.5500000000000007 2.5000000000000004 8.5000000000000018 18.500000000000004 7.9000000000000012 51.500000000000007 7.5000000000000009 12.500000000000002 16.500000000000004 13.500000000000002 13.500000000000002 3.5000000000000004 4.3000000000000016 17.500000000000004 12.500000000000002 38.500000000000007 16.500000000000004 13.500000000000002 25.500000000000004 27.500000000000004 16.500000000000004 40.500000000000007 6.5000000000000009 7.5000000000000009 7.5000000000000009 5.5000000000000009 44.500000000000007 3.5000000000000004 5.5000000000000009 3.5000000000000004 10.500000000000002 3.5000000000000004 7.5000000000000009 52.500000000000007 9.5000000000000018 10.500000000000002 21.500000000000004 11.500000000000002 26.500000000000004 19.500000000000004 46.500000000000007 7.3000000000000016 10.500000000000002 13.500000000000002 8.5000000000000018 1.0000000180025095e-35 7.5000000000000009 3.5000000000000004 1.0000000180025095e-35
decision_type=2 2 2 2 2 2 2 2 2 2 2 2 2 2 2 2 2 2 2 2 2 2 2 2 2 2 2 2 2 2 2 2 2 2 2 2 2 2 2 2 2 2 2 2 2 2 2 2 2 2 2 2 2 2 2 2 2 2 2 2 2 2
left_child=1 4 8 16 14 6 20 18 9 23 19 12 39 15 55 -7 17 27 33 -6 24 44 -9 35 -5 -22 28 40 29 -27 -28 32 -14 34 -8 -3 -21 56 -31 -4 -2 42 -42 -32 -16 -18 -24 -12 49 -49 -51 -40 -53 -17 -55 -1 -38 58 -39 61 -61 -43
right_child=3 2 11 5 10 13 7 22 -10 -11 47 -13 31 -15 21 53 45 -19 -20 36 25 -23 46 -25 -26 26 30 -29 -30 38 43 -33 -34 -35 -36 -37 37 57 51 -41 41 59 -44 -45 -46 -47 -48 48 -50 50 -52 52 -54 54 -56 -57 -58 -59 -60 60 -62 -63
leaf_value=0.041190492108299004 0.027591225754140931 0.019193868121753138 0.023335843125144088 0.031328435102477674 -0.0046151330526201777 -0.0016353320846658036 0.014497876756295963 0.023102571359939046 0.062434490375612356 -0.016210895318142845 -0.015800427754589643 0.069307825279732546 -0.0075973816903737879 0.019740051962435248 0.022346740629937915 -0.024099708429442812 0.063598780632019056 0.050842619860737494 0.063905162493756509 0.001359977227924713 -0.033824367355555295 0.042691578591863316 -0.021806815297653281 -0.010046980778376263 -0.019965725618470348 -0.0037973190254247408 -0.022328148115495289 0.021636674504280709 -0.03655332225561142 0.041468394536412129 0.015283993171760813 -0.018759712739025845 0.041892777803833742 -0.022136016686757409 0.062924804133844797 0.059520896760603563 0.027536895390175564 0.021743640445527578 0.0017544860589421458 0.067294072406366465 0.0097624712349737401 0.030777627067934528 -0.0231149212023328 -0.010189679416330854 -0.030779124953244863 0.023411535628256389 0.017214449769572208 0.00059553343488509406 -0.021608116620530686 0.072446685036023459 0.00055291715388496715 0.015980551491181057 0.071651230454444881 -0.017058138338045453 0.072088873386383062 0.079326448775827896 0.067371320943622026 0.019880311092918237 -0.020505055782356951 0.043400933292622755 -0.0061625517904758459 -0.0053129504089273758
leaf_weight=31 34 24 137 15.999999999999998 195 138 37 36 352 33 269 24 65 43 18 1089 25 29 64 116 58 45 111 11.999999999999998 643 298 270 121 25 33 48 85 33 11.999999999999998 29 104 79 21 108 15.999999999999998 34 19 88 251 19 40 19 83 75 18 14.999999999999998 30 9.9999999999999982 255 9.9999999999999982 32 17 118 33 26 14.999999999999998 124
leaf_count=31 34 24 137 16 195 138 37 36 352 33 269 24 65 43 18 1089 25 29 64 116 58 45 111 12 643 298 270 121 25 33 48 85 33 12 29 104 79 21 108 16 34 19 88 251 19 40 19 83 75 18 15 30 10 255 10 32 17 118 33 26 15 124
internal_value=0 0.0188267 0.037518 -0.00930098 0.00485567 -0.0125982 -0.00787365 0.0159862 0.0532805 0.0346549 0.000187872 0.014531 0.0106184 -0.0190556 0.0383028 -0.0201737 0.0122825 0.0087558 0.0435601 0.00812497 -0.0119791 0.0212019 -0.00760114 0.0466447 -0.0187203 -0.00805124 -0.0066581 0.00610825 0.00140563 0.00338678 -0.0138007 -0.00385762 0.00906767 0.0268668 0.0357764 0.0519596 0.0145946 0.020323 0.0152148 0.0279328 0.000581964 -0.00241907 -0.0139524 -0.00610026 -0.00493411 0.0388682 -0.0161037 -0.00980252 -0.00135521 0.0117393 0.0397677 0.0093609 0.0298982 -0.0220632 -0.0136941 0.0605611 0.0345909 0.0123595 -0.00407501 0.00522802 0.025268 -0.000517699
internal_weight=0 2069 885 4188 1184 3633 2098 308 525 173 1039 360 336 1535 145 1492 555 490 142 579 1790 82 166 140 659 1131 1073 461 504 479 569 183 98 78 66 128 384 268 181 153 340 306 122 299 37 65 130 460 191 116 33 148 40 1354 265 63 96 172 54 184 41 143
internal_count=6257 2069 885 4188 1184 3633 2098 308 525 173 1039 360 336 1535 145 1492 555 490 142 579 1790 82 166 140 659 1131 1073 461 504 479 569 183 98 78 66 128 384 268 181 153 340 306 122 299 37 65 130 460 191 116 33 148 40 1354 265 63 96 172 54 184 41 143
is_linear=0
shrinkage=0.05


Tree=8
num_leaves=63
num_cat=0
split_feature=3 15 14 14 16 10 18 3 15 16 16 13 14 0 14 20 16 15 0 13 15 14 9 16 0 14 20 14 18 7 4 3 9 2 16 9 16 10 4 10 16 14 15 16 10 16 9 15 14 11 1 15 1 2 0 0 9 17 16 14 16 1
split_gain=395.528 195.045 107.593 107.429 63.4601 54.4117 42.94 40.0122 74.19 72.3162 33.503 34.232 26.3327 24.0371 24.0291 19.5874 18.866 18.7851 19.7103 17.6337 17.1103 15.6443 15.6285 14.8282 14.6599 22.8615 17.1733 14.2336 12.3659 11.9428 11.8692 13.0309 11.8073 11.4084 12.4226 11.3375 11.9632 12.1777 14.5523 11.0294 10.1408 10.0949 11.6071 11.1335 13.7195 9.80451 9.67654 8.9175 8.77658 8.68377 8.57977 11.5483 8.47022 8.331 27.6067 8.32313 16.3705 8.24227 7.89104 7.73882 7.68918 8.8021
threshold=1.5000000000000002 14.500000000000002 4.5000000000000009 11.500000000000002 6.5000000000000009 48.500000000000007 7.5000000000000009 5.5000000000000009 27.500000000000004 24.500000000000004 20.500000000000004 9.5000000000000018 3.5000000000000004 7.5500000000000007 25.500000000000004 8.5000000000000018 8.5000000000000018 18.500000000000004 7.9000000000000012 20.500000000000004 12.500000000000002 13.500000000000002 7.5000000000000009 3.5000000000000004 4.3000000000000016 9.5000000000000018 10.500000000000002 8.5000000000000018 19.500000000000004 5.5000000000000009 10.500000000000002 7.5000000000000009 14.500000000000002 35.500000000000007 18.500000000000004 29.500000000000004 17.500000000000004 17.500000000000004 9.5000000000000018 17.500000000000004 7.5000000000000009 3.5000000000000004 9.5000000000000018 11.500000000000002 27.500000000000004 24.500000000000004 21.500000000000004 52.500000000000007 1.5000000000000002 5.5000000000000009 63.500000000000007 5.5000000000000009 147.50000000000003 46.500000000000007 7.3000000000000016 6.9500000000000011 2.5000000000000004 21.500000000000004 15.500000000000002 8.5000000000000018 4.5000000000000009 141.50000000000003
decision_type=2 2 2 2 2 2 2 2 2 2 2 2 2 2 2 2 2 2 2 2 2 2 2 2 2 2 2 2 2 2 2 2 2 2 2 2 2 2 2 2 2 2 2 2 2 2 2 2 2 2 2 2 2 2 2 2 2 2 2 2 2 2
left_child=1 4 17 10 6 28 39 8 20 19 11 40 22 16 57 41 -9 18 30 58 23 -11 -8 -4 -22 26 35 -17 -5 -14 31 50 -12 -27 -35 36 37 -26 -39 48 -3 52 -43 44 -44 -30 -13 -23 -1 -19 -2 -52 -6 -18 -55 -53 -57 -7 -10 -28 -58 -62
right_child=2 3 7 5 15 14 12 13 9 21 32 46 29 -15 -16 27 53 49 -20 -21 24 47 -24 -25 25 33 59 -29 45 -31 -32 -33 -34 34 -36 -37 -38 38 -40 -41 -42 42 43 -45 -46 -47 -48 -49 -50 -51 51 55 -54 54 -56 56 60 -59 -60 -61 61 -63
leaf_value=0.019506313174198837 0.024631456512471905 0.041715138185085085 0.029762014839798213 -0.024256327684658269 -0.0056122612004645732 0.065680933023492497 0.06727733303721134 -0.0015535654697526732 0.041771111206004498 0.021947442918705443 -0.032383267153054472 0.061486690047807914 -0.026739453753599752 0.018753049349369007 -0.0087525236109892539 0.014799899642845039 -0.022894722994723116 0.062474736232649201 0.048300489330471597 0.053972949293699668 -0.032133150678770296 -0.020716474758595366 0.028945242824653786 -0.018967439052427964 -0.003190105548362486 -0.018927822866843958 0.01372770372110961 -0.0092748465477191702 0.016812092564426936 0.023577349493646718 0.017766830672418792 0.021197991274663663 0.025502208903167602 0.023067395065856332 -0.0091073683562104182 -0.035072477161884309 -0.022520986743563533 0.055395323476044547 0.0079386687478316675 0.048096103159089881 0.009206799181869273 -0.023158258619993308 -0.0017785613407503885 -0.018886098527582364 0.052385395765304571 -0.01121677598838384 0.035892485045805216 0.01635372646545109 -0.0073562514462062849 0.023852679320762672 -0.020230409603100269 -0.019577322325274121 0.024116471633315088 -0.016205231134651926 0.068484431207180022 0.064166709532340369 0.034597074637810386 0.034689292516105058 0.00031564123928546907 0.048513475521689373 -0.027414048245797559 0.0084078193186445434
leaf_weight=39 23 49 15.999999999999998 60 119 45 65 138 19 36 9.9999999999999982 372 12.999999999999998 43 21 177 1089 22 29 94 58 111 45 643 199 330 67 94 65 127 143 61 74 34 255 25 51 21 70 11.999999999999998 47 193 53 64 14.999999999999998 60 41 19 138 43 100 33 30 255 9.9999999999999982 11.999999999999998 14.999999999999998 41 29 21 27 47
leaf_count=39 23 49 16 60 119 45 65 138 19 36 10 372 13 43 21 177 1089 22 29 94 58 111 45 643 199 330 67 94 65 127 143 61 74 34 255 25 51 21 70 12 47 193 53 64 15 60 41 19 138 43 100 33 30 255 10 12 15 41 29 21 27 47
internal_value=0 0.0178854 -0.00883593 0.0356421 0.00461288 0.0108168 0.0196925 -0.0119683 -0.00747996 0.0151869 0.0478663 0.0526943 0.0332891 -0.0181028 0.0391972 -0.00427296 -0.019165 0.0116683 0.00831801 0.0413821 -0.0113802 -0.00722108 0.051596 -0.0177843 -0.00764868 -0.0063252 0.00219677 0.00644925 -0.00559784 0.0189051 0.00580284 0.000422809 0.0186111 -0.0125756 -0.0053221 -0.0025716 -0.000188835 0.00373854 0.0188902 0.0017076 0.0257996 -0.0104032 -0.0153438 -0.00391813 0.0101694 0.00335824 0.0589459 -0.0152985 -0.00143738 0.0369248 -0.00450827 -0.00737243 0.00037339 -0.02096 -0.0130094 0.00222308 0.00934599 0.0509058 0.0167251 0.0220289 0.00195443 -0.00466232
internal_weight=0 2069 4188 885 1184 292 439 3633 2098 308 593 509 250 1535 107 745 1492 555 490 142 1790 166 110 659 1131 1073 454 271 185 140 461 318 84 619 289 366 341 290 91 189 96 474 325 132 68 125 413 130 177 65 257 234 149 1354 265 134 101 86 48 88 89 74
internal_count=6257 2069 4188 885 1184 292 439 3633 2098 308 593 509 250 1535 107 745 1492 555 490 142 1790 166 110 659 1131 1073 454 271 185 140 461 318 84 619 289 366 341 290 91 189 96 474 325 132 68 125 413 130 177 65 257 234 149 1354 265 134 101 86 48 88 89 74
is_linear=0
shrinkage=0.05


Tree=9
num_leaves=63
num_cat=0
split_feature=3 15 14 14 16 15 12 3 15 16 10 0 14 15 16 7 16 13 16 16 2 0 16 13 0 15 14 10 20 7 20 18 16 20 4 12 17 14 3 14 10 16 18 14 16 7 0 14 16 1 16 14 6 18 0 16 13 1 16 20 4 10
split_gain=356.964 177.447 97.4035 82.3147 78.2549 66.8904 44.1083 41.0458 67.799 70.3207 22.3435 21.6524 18.9356 23.2678 18.3039 17.3455 18.1373 16.8772 15.4402 15.3703 16.7591 15.2503 14.8 14.796 14.6183 14.1223 13.391 19.2668 13.2875 13.273 12.6545 12.4425 14.5416 25.4312 11.8544 11.5822 11.271 11.0792 11.8589 10.9019 10.7324 16.7227 10.595 10.4974 9.78625 9.51822 9.43245 9.28338 8.21859 9.06 8.19795 8.09759 7.87749 7.56054 23.5292 9.83568 7.33493 7.33343 7.27426 7.27264 7.18322 7.167
threshold=1.5000000000000002 21.500000000000004 3.5000000000000004 7.5000000000000009 23.500000000000004 13.500000000000002 1.5000000000000002 5.5000000000000009 27.500000000000004 23.500000000000004 80.500000000000014 7.5500000000000007 6.5000000000000009 15.500000000000002 3.5000000000000004 20.500000000000004 11.500000000000002 14.500000000000002 8.5000000000000018 6.5000000000000009 3.5000000000000004 7.9000000000000012 11.500000000000002 6.5000000000000009 4.3000000000000016 6.5000000000000009 11.500000000000002 32.500000000000007 16.500000000000004 7.5000000000000009 16.500000000000004 21.500000000000004 16.500000000000004 8.5000000000000018 7.5000000000000009 17.500000000000004 8.5000000000000018 3.5000000000000004 1.0000000180025095e-35 1.5000000000000002 9.5000000000000018 7.5000000000000009 6.5000000000000009 3.5000000000000004 3.5000000000000004 25.500000000000004 7.1500000000000012 30.500000000000004 9.5000000000000018 147.50000000000003 25.500000000000004 10.500000000000002 9.5000000000000018 47.500000000000007 7.3000000000000016 30.500000000000004 21.500000000000004 104.50000000000001 2.5000000000000004 19.500000000000004 18.500000000000004 11.500000000000002
decision_type=2 2 2 2 2 2 2 2 2 2 2 2 2 2 2 2 2 2 2 2 2 2 2 2 2 2 2 2 2 2 2 2 2 2 2 2 2 2 2 2 2 2 2 2 2 2 2 2 2 2 2 2 2 2 2 2 2 2 2 2 2 2
left_child=1 3 21 5 26 6 19 8 12 17 30 18 13 14 -4 -14 36 -10 -9 20 -1 25 23 -7 -16 34 -3 -28 -11 39 -6 48 33 52 61 45 -17 44 46 -8 -27 -42 -26 58 -31 -19 -39 -30 49 -5 -18 -51 -33 -20 55 -55 60 -46 -22 -52 -29 -2
right_child=2 4 7 31 10 22 29 11 9 28 -12 -13 15 -15 24 16 50 35 53 -21 43 -23 -24 -25 42 40 27 56 47 37 -32 32 -34 -35 -36 -37 -38 38 -40 -41 41 -43 -44 -45 57 -47 -48 -49 -50 51 59 -53 -54 54 -56 -57 -58 -59 -60 -61 -62 -63
leaf_value=-0.014405274546394745 0.001260517824610526 0.057350139793344461 0.049841584318450524 -0.022160245974858606 -0.022958792626576605 0.016995565995814338 0.018662601125172592 -0.0027719478420659797 -0.0062029875931330029 -0.019399136246255277 0.059704832945551192 0.017815396779888245 -0.01921990493962835 0.022810387342141417 -0.031044860501758389 0.068300142548978329 -0.0061778728583934562 0.017778626919607632 -0.021094535392638808 -0.020198722861029889 0.035781593111000563 0.05014894659231816 0.022627910804212767 0.055437291278145645 -0.027565807994941006 -0.015505467688566761 -0.0177955265556063 0.050914503477121655 0.015655851208915314 0.061243229984704939 0.019096152084293189 -0.01463626101302604 -0.010679578080676343 0.065272584117271687 0.029793451242148879 -0.00043236708945848724 0.0092354481102943069 0.015322681849410888 -0.010274377682055998 -0.0085212716514146639 0.052279590942510751 0.016442831874975371 -0.0021730829621750066 0.029618831872940066 -0.02182674029080028 0.059528942747912816 -0.020173942687965574 -0.026449587312527001 -0.017958537647072441 0.027663123940653872 -0.023376663974663127 -0.011498513242060488 0.034828825701366771 0.023590132792790732 0.065060204565525068 -0.01943609961770186 0.056672404533518218 0.020922651632868671 0.073066067411786034 0.00025651164171172348 0.0084844990855171571 -0.025624572252854708
leaf_weight=11.999999999999998 110 305 13.999999999999998 30 53 31 44 147 15.999999999999998 89 13.999999999999998 43 653 78 61 9.9999999999999982 418 15.999999999999998 1221 10.999999999999998 19 28 89 130 46 19 13.999999999999998 19 72 13.999999999999998 27 30 75 22 30 10.999999999999998 42 172 93 228 41 158 384 45 10.999999999999998 93 21 15.999999999999998 261 33 158 22 10.999999999999998 14.999999999999998 9.9999999999999982 116 56 114 42 41 21 32
leaf_count=12 110 305 14 30 53 31 44 147 16 89 14 43 653 78 61 10 418 16 1221 11 19 28 89 130 46 19 14 19 72 14 27 30 75 22 30 11 42 172 93 228 41 158 384 45 11 93 21 16 261 33 158 22 11 15 10 116 56 114 42 41 21 32
internal_value=0 0.0169911 -0.00839414 0.00862701 0.0426258 0.0163301 0.00947161 -0.0109332 -0.00656904 0.0149973 0.00143242 -0.0171701 -0.0101125 -0.00260589 -0.00653157 -0.0134229 -0.00776451 0.0420342 -0.018167 0.0363289 0.0415984 0.0145059 0.0389904 0.0480355 -0.00813896 0.0119469 0.0519563 0.0370006 -0.00577681 0.0045009 -0.00876525 -0.00849796 0.00419607 0.0219052 0.00123532 0.0484658 0.020594 0.0100208 0.00439277 -0.00412388 0.0203983 0.0238263 -0.00488951 0.0479384 0.0216007 0.0534005 0.0114604 0.00800032 -0.0135609 -5.7548e-05 -0.0101545 0.0119985 -0.00136514 -0.0198286 -0.0088662 -0.0145094 0.0449917 0.0171607 0.0614529 -0.0185075 0.0286388 -0.00479809
internal_weight=0 2069 4188 1560 509 1076 826 3770 2218 313 94 1552 1905 583 505 1322 669 136 1509 129 118 418 250 161 491 390 415 110 177 697 80 484 138 63 172 120 52 425 286 272 218 199 430 106 139 109 193 88 346 85 617 55 41 1362 141 131 96 125 61 199 40 142
internal_count=6257 2069 4188 1560 509 1076 826 3770 2218 313 94 1552 1905 583 505 1322 669 136 1509 129 118 418 250 161 491 390 415 110 177 697 80 484 138 63 172 120 52 425 286 272 218 199 430 106 139 109 193 88 346 85 617 55 41 1362 141 131 96 125 61 199 40 142
is_linear=0
shrinkage=0.05


Tree=10
num_leaves=63
num_cat=0
split_feature=3 15 14 14 16 15 3 15 16 12 12 0 10 10 2 14 15 0 0 5 13 16 7 16 14 14 10 20 9 20 16 16 20 18 16 20 14 13 18 0 16 16 10 3 5 17 5 16 4 10 16 5 10 5 20 16 7 16 0 5 10 0
split_gain=322.16 160.146 87.9066 74.289 70.625 60.8357 37.591 60.2765 56.7517 32.4559 28.8238 21.2264 20.6172 20.2168 18.1792 16.7384 23.2357 14.6336 13.7634 17.374 13.7297 13.5483 13.156 13.955 12.676 12.0854 17.3883 11.9459 11.8719 11.8591 11.84 11.5093 11.3354 11.233 11.4666 13.3992 10.3351 9.34533 9.29522 19.9568 13.203 9.2575 9.63725 9.19973 9.11541 8.9924 8.75859 8.67949 8.20979 7.70597 12.937 7.46147 7.43377 7.36014 7.19181 8.29603 8.17768 6.67341 9.35295 9.59892 7.20878 6.5881
threshold=1.5000000000000002 21.500000000000004 3.5000000000000004 7.5000000000000009 23.500000000000004 10.500000000000002 4.5000000000000009 27.500000000000004 24.500000000000004 1.5000000000000002 4.5000000000000009 7.5500000000000007 18.500000000000004 76.500000000000014 11.500000000000002 7.5000000000000009 15.500000000000002 4.8500000000000005 7.9000000000000012 7.5000000000000009 20.500000000000004 8.5000000000000018 20.500000000000004 11.500000000000002 15.500000000000002 11.500000000000002 32.500000000000007 9.5000000000000018 3.5000000000000004 16.500000000000004 3.5000000000000004 1.5000000000000002 8.5000000000000018 13.500000000000002 13.500000000000002 4.5000000000000009 1.5000000000000002 17.500000000000004 47.500000000000007 7.3000000000000016 30.500000000000004 3.5000000000000004 9.5000000000000018 6.5000000000000009 55.500000000000007 4.5000000000000009 15.500000000000002 7.5000000000000009 9.5000000000000018 9.5000000000000018 7.5000000000000009 27.500000000000004 34.500000000000007 30.500000000000004 12.500000000000002 6.5000000000000009 6.5000000000000009 21.500000000000004 6.9500000000000011 19.500000000000004 26.500000000000004 2.9700000000000002
decision_type=2 2 2 2 2 2 2 2 2 2 2 2 2 2 2 2 2 2 2 2 2 2 2 2 2 2 2 2 2 2 2 2 2 2 2 2 2 2 2 2 2 2 2 2 2 2 2 2 2 2 2 2 2 2 2 2 2 2 2 2 2 2
left_child=1 3 18 5 25 9 7 15 20 14 12 21 28 29 30 16 17 -4 19 32 -9 -8 -17 27 53 -3 -27 -24 -7 -6 -1 -11 43 -5 35 -35 -33 54 -23 40 44 -19 -43 -2 -40 -16 -12 -48 -18 -21 -51 -28 -37 -10 55 56 -38 58 -25 -60 -61 -45
right_child=2 4 6 33 13 10 11 8 24 31 46 -13 -14 -15 45 22 48 41 -20 49 -22 38 23 57 -26 26 51 -29 -30 -31 -32 36 -34 34 -36 52 37 -39 39 -41 -42 42 -44 61 -46 -47 47 -49 -50 50 -52 -53 -54 -55 -56 -57 -58 -59 59 60 -62 -63
leaf_value=0.028635726179237722 -0.0024188408090513413 0.054482634486783234 -0.028154820642050576 -0.018713212017335137 -0.022702504551181429 0.070969490977850824 -0.0030818862566780866 0.017138230558988211 -0.017693509999662637 0.046682846333299367 0.0064126301276306794 0.0012636917626433488 0.059648658800870183 0.054575287997722627 0.067908259793635337 -0.018441334701992673 0.050162947491595625 0.032879281898631769 0.047641498635389974 -0.00095878042761356598 0.053760960042835718 -0.019332821610556397 -0.0039642608228504014 -0.033406376838684082 -0.017185944159765067 -0.016905750294349025 0.011572503449860961 0.048872420284897092 0.013794996302861434 0.018141344948499293 -0.022883080181322599 0.018488675436108475 -0.033904213458299637 -0.010670997829486927 -0.00951762307879769 0.014042703335748075 -0.0088449051671820444 0.041796562603364396 -0.0027392782146732006 0.061807197332382206 -0.017973383801099922 -0.023373266550091407 -0.001869932115324914 -0.0095582258829381324 0.05888933673501015 0.030673868515912223 0.060524035486228325 0.022181706991302369 0.013158712028460185 0.054746030922979118 0.019309899147254218 0.048976055427920079 0.051104012033657026 0.028033393590400621 0.02813553959131241 -0.010050513748397199 0.011506798173556286 -0.016118405220407549 -0.012691291919375054 0.041455470563636888 0.0056391038669971749 0.03280725609511137
leaf_weight=27 123 305 68 164 52 10.999999999999998 165 37 11.999999999999998 13.999999999999998 83 180 110 14.999999999999998 31 512 19 17 28 31 83 1487 23 21 82 13.999999999999998 15.999999999999998 20 52 27 19 72 21 45 209 47 82 11.999999999999998 15.000000000000002 9.9999999999999982 122 60 396 11.999999999999998 9.9999999999999982 34 17 112 71 32 132 80 19 33 18 258 124 184 61 18 64 39
leaf_count=27 123 305 68 164 52 11 165 37 12 14 83 180 110 15 31 512 19 17 28 31 83 1487 23 21 82 14 16 20 52 27 19 72 21 45 209 47 82 12 15 10 122 60 396 12 10 34 17 112 71 32 132 80 19 33 18 258 124 184 61 18 64 39
internal_value=0 0.0161416 -0.00797443 0.00819566 0.0404945 0.0155136 -0.0103865 -0.00511026 0.017813 0.00663925 0.0314412 -0.015111 0.0465859 0.0013608 0.0314095 -0.00880129 -0.00255326 -0.00646667 0.0137806 0.0113496 0.042469 -0.0167404 -0.0131673 -0.00626117 -0.005484 0.0493585 0.0351506 0.0206109 0.0237778 -0.00874321 0.00735622 0.00189874 0.000796299 -0.00807306 -0.00261998 0.0103675 0.000791009 -0.00178841 -0.0181112 -0.00654062 -0.0111901 -0.00334871 -0.00469932 0.00498429 0.0219122 0.0484318 0.0190826 0.0272346 0.0209707 0.0219029 0.0262243 0.0427421 0.0247119 0.0158396 -0.00287351 -0.00407645 0.00340563 -0.00958158 -0.00224757 0.0023282 0.0135012 0.0228389
internal_weight=0 2069 4188 1560 509 1076 3770 1781 247 691 385 1989 173 94 111 1534 631 541 418 390 120 1809 903 391 127 415 110 43 63 79 46 580 195 484 320 111 566 494 1644 157 147 473 456 174 25 65 212 129 90 195 164 96 66 45 482 464 206 348 164 143 82 51
internal_count=6257 2069 4188 1560 509 1076 3770 1781 247 691 385 1989 173 94 111 1534 631 541 418 390 120 1809 903 391 127 415 110 43 63 79 46 580 195 484 320 111 566 494 1644 157 147 473 456 174 25 65 212 129 90 195 164 96 66 45 482 464 206 348 164 143 82 51
is_linear=0
shrinkage=0.05


Tree=11
num_leaves=63
num_cat=0
split_feature=3 15 14 14 16 15 16 15 12 12 20 14 15 15 18 0 7 4 12 9 0 5 18 14 13 18 16 20 16 20 14 20 5 5 3 5 0 0 5 9 5 16 16 15 0 5 9 18 3 14 0 12 0 18 0 11 6 3 6 5 13 11
split_gain=290.749 144.531 79.3357 67.0458 63.7391 54.9042 34.8119 85.511 29.2914 26.0134 23.9343 25.1942 19.0695 16.2955 15.9097 15.681 15.0008 13.7861 13.5262 13.1744 12.4215 15.68 12.2651 10.9071 14.2492 10.5765 12.3408 22.2283 10.3871 10.2302 9.32741 9.12908 8.95695 8.51662 8.30276 8.30078 8.08692 14.2101 8.4856 20.3275 7.90463 7.83324 7.6064 10.9534 7.60513 7.59468 7.4398 11.1329 11.5841 8.57638 7.62311 8.33466 7.0319 8.0202 18.8951 6.90098 7.44593 6.80027 6.77173 6.63038 6.60405 6.58104
threshold=1.5000000000000002 21.500000000000004 3.5000000000000004 7.5000000000000009 23.500000000000004 10.500000000000002 17.500000000000004 27.500000000000004 1.5000000000000002 4.5000000000000009 11.500000000000002 9.5000000000000018 60.500000000000007 11.500000000000002 47.500000000000007 7.9000000000000012 10.500000000000002 22.500000000000004 5.5000000000000009 8.5000000000000018 7.9000000000000012 7.5000000000000009 21.500000000000004 11.500000000000002 20.500000000000004 21.500000000000004 16.500000000000004 8.5000000000000018 1.5000000000000002 8.5000000000000018 1.5000000000000002 16.500000000000004 14.500000000000002 7.5000000000000009 6.5000000000000009 5.5000000000000009 7.4500000000000011 7.9000000000000012 4.5000000000000009 9.5000000000000018 15.500000000000002 7.5000000000000009 23.500000000000004 39.500000000000007 6.9500000000000011 24.500000000000004 37.500000000000007 22.500000000000004 2.5000000000000004 9.5000000000000018 3.0150000000000001 10.500000000000002 6.9500000000000011 47.500000000000007 7.3000000000000016 5.5000000000000009 7.5000000000000009 2.5000000000000004 9.5000000000000018 24.500000000000004 17.500000000000004 7.5000000000000009
decision_type=2 2 2 2 2 2 2 2 2 2 2 2 2 2 2 2 2 2 2 2 2 2 2 2 2 2 2 2 2 2 2 2 2 2 2 2 2 2 2 2 2 2 2 2 2 2 2 2 2 2 2 2 2 2 2 2 2 2 2 2 2 2
left_child=1 3 20 5 23 8 7 13 16 35 -8 17 15 36 31 42 -1 -12 32 -18 21 29 -9 -3 45 44 27 58 -10 34 -30 -6 57 -32 -2 -7 38 -38 39 -4 -11 -42 43 -13 -5 -25 47 49 -49 50 51 -20 -44 -54 -55 -37 -57 -15 -27 -50 -35 -19
right_child=2 4 6 25 14 9 10 22 28 40 11 12 -14 18 -16 -17 19 61 46 -21 -22 -23 -24 24 -26 26 -28 -29 30 -31 33 -33 -34 60 -36 55 37 -39 -40 -41 41 -43 52 -45 -46 -47 -48 48 59 -51 -52 -53 53 54 -56 56 -58 -59 -60 -61 -62 -63
leaf_value=0.007157286730679599 -0.0022978982933592506 0.051758501423812921 -0.014041909838228353 0.01049242731471278 -0.021027324861828605 0.0022257963703437287 -0.020693860021425477 0.0018210922833532097 0.044348704176289694 0.0060919986760064248 -0.0073371481933239575 -0.0088719365056673643 0.03003418097415796 0.017384255514480175 0.042161509237791363 0.00023436727671331348 0.065934639487947741 -0.011455263637859996 -0.0045594260654782497 0.021546811296138915 0.045259424644921512 0.0208077162074355 0.048437827416269265 -0.025559651777148248 0.049521861081851311 -0.013711916552856565 -0.0096697175878798589 0.060892886262048376 0.017564241420606981 -0.032209003326438723 -0.010257430392434527 0.016368522557119528 0.023563628271222117 0.0018773554175637388 0.021696961915129612 0.05141414443867795 0.045687417934338254 -0.025734320139655698 -0.016655148884181733 0.069005250930786133 0.057497833844493418 0.021072621829391989 0.013385647737110654 0.045374814420938492 -0.014744260689145484 0.023282020232186486 -0.031083165716241909 0.03366991420361129 -0.0096364666927709342 -0.019115879735909405 -0.00044396062270286223 -0.029940289090264516 -0.020489010735823827 -0.01245949813620309 0.058716839253902434 -0.0011727550998330114 0.055317164659500123 -0.026348759222310038 0.032150262797420677 0.013079478121603486 0.039706733853866659 0.028539226226146436
leaf_weight=44 123 305 28 33 51 10.999999999999998 824 17 13.999999999999998 83 69 134 26 15.999999999999998 19 182 35 11.999999999999998 83 32 28 195 83 9.9999999999999982 61 30 75 22 72 21 183 24 73 299 51 138 15 13 525 9.9999999999999982 17 112 18 9.9999999999999982 313 39 27 33 72 126 340 53 683 138 9.9999999999999982 14.000000000000002 9.9999999999999982 20 10.999999999999998 58 11.999999999999998 72
leaf_count=44 123 305 28 33 51 11 824 17 14 83 69 134 26 16 19 182 35 12 83 32 28 195 83 10 61 30 75 22 72 21 183 24 73 299 51 138 15 13 525 10 17 112 18 10 313 39 27 33 72 126 340 53 683 138 10 14 10 20 11 58 12 72
internal_value=0 0.0153345 -0.00757571 0.00778588 0.0384697 0.0147379 -0.0098672 -0.0042474 0.00630729 0.0298691 -0.013975 -0.00988607 -0.0123204 -0.00724743 0.00129276 -0.0132576 0.029839 0.00922286 -0.00301537 0.0447345 0.0130916 0.0107821 0.040513 0.0468906 0.0333931 -0.00766941 0.00403413 0.0203482 0.00180381 0.000756485 0.000751459 -0.00906065 0.0134983 -0.00169899 0.00473508 0.0442566 -0.0136993 0.0125273 -0.0150037 0.00781261 0.0181285 0.0258728 -0.0157305 -0.0051048 -0.0123373 0.0133143 -0.00528809 -0.00437768 0.00721406 -0.0075163 -0.00444583 -0.0144505 -0.0175327 -0.0182025 -0.00765029 0.0471105 0.0223647 -0.00691186 -0.00140743 0.000498339 0.00333701 0.0228257
internal_weight=0 2069 4188 1560 509 1076 3770 1592 691 385 2178 1354 1201 1492 94 1175 111 153 901 67 418 390 100 415 110 484 138 63 580 195 566 75 109 494 174 173 591 28 563 38 212 129 993 144 346 49 792 765 163 602 476 136 849 831 148 162 24 36 41 130 311 84
internal_count=6257 2069 4188 1560 509 1076 3770 1592 691 385 2178 1354 1201 1492 94 1175 111 153 901 67 418 390 100 415 110 484 138 63 580 195 566 75 109 494 174 173 591 28 563 38 212 129 993 144 346 49 792 765 163 602 476 136 849 831 148 162 24 36 41 130 311 84
is_linear=0
shrinkage=0.05


Tree=12
num_leaves=63
num_cat=0
split_feature=12 15 14 16 2 2 16 2 16 13 14 1 20 0 16 0 15 7 16 16 4 14 14 16 7 18 5 14 18 14 7 16 16 15 13 10 11 14 11 14 13 20 13 7 9 18 12 14 2 19 18 20 5 16 15 15 14 12 14 17 14 5
split_gain=192.081 163.276 81.5917 70.6116 60.0289 46.3917 44.6509 38.8612 67.8651 61.4296 29.0098 27.6328 23.763 22.3682 21.1509 25.667 20.9711 20.4407 16.5331 16.0295 15.7486 14.1438 13.2369 12.2162 17.2626 12.1108 11.906 11.446 11.2086 10.9828 10.4207 12.8331 10.3586 10.0426 9.84637 9.83743 9.63667 9.58921 9.24766 8.71087 10.8888 8.64866 8.62328 7.53201 8.2078 7.4343 7.25402 7.22007 7.16446 7.32832 6.98537 6.98535 6.9594 8.31195 8.82136 6.84073 6.74465 6.58807 6.50067 6.13864 7.12685 6.15177
threshold=6.5000000000000009 18.500000000000004 4.5000000000000009 6.5000000000000009 11.500000000000002 23.500000000000004 16.500000000000004 39.500000000000007 24.500000000000004 26.500000000000004 7.5000000000000009 372.50000000000006 13.500000000000002 7.7500000000000009 18.500000000000004 6.9500000000000011 18.500000000000004 8.5000000000000018 3.5000000000000004 17.500000000000004 5.5000000000000009 11.500000000000002 7.5000000000000009 15.500000000000002 26.500000000000004 10.500000000000002 7.5000000000000009 1.5000000000000002 7.5000000000000009 23.500000000000004 61.500000000000007 51.500000000000007 13.500000000000002 9.5000000000000018 4.5000000000000009 17.500000000000004 1.5000000000000002 8.5000000000000018 10.500000000000002 9.5000000000000018 9.5000000000000018 9.5000000000000018 2.5000000000000004 14.500000000000002 11.500000000000002 13.500000000000002 3.5000000000000004 5.5000000000000009 32.500000000000007 2.5000000000000004 13.500000000000002 2.5000000000000004 12.500000000000002 34.500000000000007 46.500000000000007 21.500000000000004 9.5000000000000018 14.500000000000002 6.5000000000000009 3.5000000000000004 4.5000000000000009 11.500000000000002
decision_type=2 2 2 2 2 2 2 2 2 2 2 2 2 2 2 2 2 2 2 2 2 2 2 2 2 2 2 2 2 2 2 2 2 2 2 2 2 2 2 2 2 2 2 2 2 2 2 2 2 2 2 2 2 2 2 2 2 2 2 2 2 2
left_child=1 3 26 4 18 32 43 10 9 16 12 -8 -4 23 15 -7 37 58 27 21 59 -18 45 24 50 -20 34 42 -29 -11 52 38 33 -5 -2 -22 -28 57 -32 40 -35 -24 -1 44 -3 -17 -27 -42 49 -38 -12 -44 -10 54 -54 -50 -26 -9 -6 -19 -61 -62
right_child=2 6 7 5 17 14 11 8 30 29 13 -13 -14 -15 -16 22 19 20 25 -21 35 -23 41 -25 56 46 36 28 -30 -31 31 -33 -34 39 -36 -37 48 -39 -40 -41 47 -43 51 -45 -46 -47 -48 -49 55 -51 -52 -53 53 -55 -56 -57 -58 -59 -60 60 61 -63
leaf_value=0.015762688268138016 0.011780481886020617 0.040239530910912438 -0.0064572853568147419 -0.015212587622506372 0.018527992278905003 -0.025477466272952207 -0.017399824172258379 0.049147938787937162 0.010193705027375152 0.054952081066689321 -0.019069121909191515 0.035999349659888394 0.019306081501785127 0.012368428162919979 -0.02393488620442373 0.021848844262686642 0.052685548710128809 0.097690286189317702 -0.013157372423906771 0.0021661640337963658 0.012795222559500309 0.01074174531307575 -0.00027772500578846247 -0.017817496651425849 0.045759047647672045 0.037240597072311421 -0.030978215243667364 -0.0028785601981539044 0.024377444918666568 -0.00025151498615741733 0.045527563311836938 -0.023459490571015828 -0.025984069560308104 -0.0047587702516466383 -0.019910550546334234 0.043404012178736073 0.019982556552564 -0.014019147965149205 0.0041582718331898963 -0.020423522792957925 0.048969621541764354 0.047481738861936795 0.032583248716863709 0.049011379311507904 -0.0082495553108553107 0.056424575003812899 -0.0078517978762586912 0.0090103047720801379 0.020470692965147249 0.00079690578471248357 -0.0063097052366162341 0.09032333329319954 -0.0094161852076486852 -0.018916838640952637 0.025766407855247198 0.067667607484119277 0.0067392448584970861 0.0022861781002332768 -0.022989029390737416 0.06676682620606525 0.0058457350866361084 0.058725398609584027
leaf_weight=23 57 32 683 271 44 22 50 9.9999999999999982 34 91 205 47 103 75 27 22 44 9.9999999999999982 142 82 42 37 35 1426 13.999999999999998 22 9.9999999999999982 94 63 9.9999999999999982 22 24 121 72 43 70 292 129 35 37 20 12.999999999999998 11.000000000000002 337 11.999999999999998 53 14.999999999999998 26 17.000000000000004 60 225 9.9999999999999982 286 303 19 13.999999999999998 53 30 11.999999999999998 47 11.000000000000002 10.999999999999998
leaf_count=23 57 32 683 271 44 22 50 10 34 91 205 47 103 75 27 22 44 10 142 82 42 37 35 1426 14 22 10 94 63 10 22 24 121 72 43 70 292 129 35 37 20 13 11 337 12 53 15 26 17 60 225 10 286 303 19 14 53 30 12 47 11 11
internal_value=0 0.0136573 -0.00561944 0.00474255 0.0170061 -0.00595181 0.0387604 -0.00801893 -0.000312813 0.0153417 -0.0112187 0.008474 -0.00308117 -0.01442 0.0166975 0.0242636 0.0049543 0.0361954 0.00453304 0.0177499 0.0439838 0.033526 0.0331603 -0.0154648 -0.00871438 -0.00651861 0.013557 0.0143751 0.00805856 0.0494864 -0.0096882 0.00721133 -0.0130737 -0.0094067 -0.00184666 0.0319257 0.0174766 -0.00738701 0.0201254 0.000744249 0.0073816 0.0126571 0.0369134 0.0464711 0.0270152 0.0462824 0.0189599 0.0263839 0.0187417 0.0167123 -0.0123927 0.0600785 -0.0118204 -0.0130514 -0.00722448 0.0417854 0.0148926 0.0140016 0.00963149 0.0610788 0.0557728 0.0322856
internal_weight=0 1824 4433 1346 627 719 478 3940 1156 433 2784 97 786 1998 172 145 332 247 380 163 191 81 123 1923 497 179 493 201 157 101 723 81 547 426 100 112 393 169 57 155 118 48 44 381 44 75 37 46 383 352 430 21 642 608 305 31 67 40 56 79 69 22
internal_count=6257 1824 4433 1346 627 719 478 3940 1156 433 2784 97 786 1998 172 145 332 247 380 163 191 81 123 1923 497 179 493 201 157 101 723 81 547 426 100 112 393 169 57 155 118 48 44 381 44 75 37 46 383 352 430 21 642 608 305 31 67 40 56 79 69 22
is_linear=0
shrinkage=0.05


Tree=13
num_leaves=63
num_cat=0
split_feature=3 18 12 14 14 2 3 7 16 13 9 0 7 12 9 5 16 2 14 0 20 12 7 12 20 16 5 0 5 14 3 0 16 4 16 14 13 14 18 5 2 16 7 16 18 20 0 3 18 5 16 20 11 7 0 19 14 14 11 7 16 6
split_gain=242.634 78.697 86.6995 65.6536 58.6254 47.8484 29.8451 36.338 35.1307 27.3936 22.9828 16.8967 16.5186 20.6215 15.8891 15.8993 15.1286 25.0258 13.5358 13.5481 12.9881 12.7788 11.2133 15.9242 10.771 10.7355 10.3654 10.0058 12.9417 9.72875 9.75147 9.62354 9.82271 11.9656 9.19977 9.07512 8.98265 8.97866 8.78954 8.3471 7.91748 7.85398 7.67369 11.0386 13.7565 9.36399 12.2813 7.41058 7.12605 7.01609 6.85194 7.99641 6.9338 6.68063 6.51571 6.39969 8.62461 6.05477 5.9851 5.89629 6.09208 5.8411
threshold=1.5000000000000002 21.500000000000004 9.5000000000000018 3.5000000000000004 5.5000000000000009 11.500000000000002 4.5000000000000009 20.500000000000004 18.500000000000004 26.500000000000004 8.5000000000000018 7.5500000000000007 35.500000000000007 19.500000000000004 37.500000000000007 25.500000000000004 10.500000000000002 18.500000000000004 7.5000000000000009 4.8500000000000005 16.500000000000004 10.500000000000002 8.5000000000000018 3.5000000000000004 16.500000000000004 8.5000000000000018 12.500000000000002 7.9000000000000012 8.5000000000000018 1.0000000180025095e-35 7.5000000000000009 7.4500000000000011 4.5000000000000009 4.5000000000000009 20.500000000000004 11.500000000000002 19.500000000000004 17.500000000000004 3.5000000000000004 55.500000000000007 36.500000000000007 5.5000000000000009 33.500000000000007 23.500000000000004 43.500000000000007 26.500000000000004 7.3000000000000016 8.5000000000000018 17.500000000000004 6.5000000000000009 13.500000000000002 6.5000000000000009 5.5000000000000009 7.5000000000000009 6.9500000000000011 1.0000000180025095e-35 1.5000000000000002 15.500000000000002 10.500000000000002 5.5000000000000009 11.500000000000002 3.5000000000000004
decision_type=2 2 2 2 2 2 2 2 2 2 2 2 2 2 2 2 2 2 2 2 2 2 2 2 2 2 2 2 2 2 2 2 2 2 2 2 2 2 2 2 2 2 2 2 2 2 2 2 2 2 2 2 2 2 2 2 2 2 2 2 2 2
left_child=1 4 34 27 5 31 7 18 9 14 49 25 35 58 15 50 17 53 19 -5 -10 -19 -21 41 48 -8 -12 28 29 -2 61 32 38 -34 -3 -4 -36 -22 -1 -39 -17 -24 -27 44 57 54 -47 -32 -18 -7 51 -9 -53 -6 -45 -40 -57 -44 -14 -51 -61 -31
right_child=3 2 12 6 16 10 11 8 20 -11 26 -13 13 -15 -16 40 24 21 -20 22 37 -23 23 -25 -26 42 -28 -29 -30 30 47 -33 33 -35 36 -37 -38 39 55 -41 -42 -43 43 45 -46 46 -48 -49 -50 59 -52 52 -54 -55 -56 56 -58 -59 -60 60 -62 -63
leaf_value=-0.015832563906031497 0.049454332590103151 0.047594459319773227 0.010644354073806331 -0.025436704704428423 -0.019703965277100603 0.0070160422474145889 -0.002510250032117421 -0.0063174162858298842 -0.011312806696238431 0.053601772983868916 -0.0011812049136669547 0.0013947790914163409 0.053930121209276351 -0.0044924949924461544 -0.028390347657968169 0.017250065127653737 -0.01887126969864391 0.033197303496014616 -0.0159103546877436 -0.017834946122237069 0.016522525735769147 -0.026838367953896526 0.065860137114158043 -0.00095270662514675912 0.020690951332449914 -0.018750585784569701 0.024766146119053256 0.040751303067164762 0.019594972358517433 0.0013270100797124116 0.040455958260489366 -0.012076275369583849 -0.021624212483452126 0.0072558529994248893 -0.017484887215224173 -0.011268627620669769 0.040502090664470899 -0.019053056285433148 0.0054164545144885778 0.021108692553308276 0.050210971993051079 0.015424059841193653 0.00510791709930345 0.01236229765539368 0.048799648877632412 -0.0061416369168058281 0.053504616022109985 0.001987270313885904 -0.0037944841994753766 0.0079557370627298951 -0.0059387146474432148 0.045306781679391867 0.010028904660915335 0.0021252927953919658 -0.018287311560507807 0.067077480543118267 0.023348271066651625 -0.020523783732723032 0.024325625063671221 0.050567795017498064 0.014807360547666366 -0.018711324448161055
leaf_weight=17 9.9999999999999982 324 94 68 63 12.999999999999998 165 28 274 45 54 180 38 40 23 35 213 78 525 86 94 9.9999999999999982 12.999999999999998 346 25 966 134 28 181 81 21 68 44 194 11.000000000000002 95 17 46 40 18 38 19 64 18 13.999999999999998 63 9.9999999999999982 31 124 9.9999999999999982 67 26 30 79 473 12.999999999999998 85 36 31 142 12.999999999999998 66
leaf_count=17 10 324 94 68 63 13 165 28 274 45 54 180 38 40 23 35 213 78 525 86 94 10 13 346 25 966 134 28 181 81 21 68 44 194 11 95 17 46 40 18 38 19 64 18 14 63 10 31 124 10 67 26 30 79 473 13 85 36 31 142 13 66
internal_value=0 0.0140083 0.0284163 -0.00692053 0.00740845 0.0160071 -0.00900509 -0.00430375 0.00432577 0.0177224 0.0295048 -0.0132148 0.00856976 0.024071 0.0111856 0.0152492 -0.00460349 0.00542415 -0.0102146 -0.00459379 -0.00472934 0.0263751 -0.00153923 0.00216826 -0.0109746 -0.0146685 0.0173132 0.0118804 0.00980757 0.00133141 -0.00108683 0.00529089 0.00829589 0.00191668 0.0452182 -0.000370108 0.0177215 0.00668755 0.0180911 -0.00775756 0.0344078 0.0359137 -0.0158887 -0.0118112 0.00237935 -0.0146795 0.00202908 0.0175227 -0.0133237 0.0423814 0.00598717 0.0154995 0.0264079 -0.00755952 -0.0171637 0.0222701 0.0291491 -0.0041195 0.0406296 0.0451678 0.0475685 -0.00766979
internal_weight=0 2069 650 4188 1419 827 3770 1781 724 292 366 1989 298 109 247 224 592 230 1057 532 432 88 464 378 362 1809 188 418 390 209 199 461 393 238 352 189 28 158 155 64 73 32 1644 678 114 564 73 52 337 178 151 84 56 142 491 138 98 100 69 165 155 147
internal_count=6257 2069 650 4188 1419 827 3770 1781 724 292 366 1989 298 109 247 224 592 230 1057 532 432 88 464 378 362 1809 188 418 390 209 199 461 393 238 352 189 28 158 155 64 73 32 1644 678 114 564 73 52 337 178 151 84 56 142 491 138 98 100 69 165 155 147
is_linear=0
shrinkage=0.05


Tree=14
num_leaves=63
num_cat=0
split_feature=3 15 12 14 12 3 15 16 10 14 14 10 14 7 16 15 7 16 15 16 14 20 16 7 12 19 14 15 7 17 16 12 2 15 4 7 13 20 16 15 4 10 16 2 6 15 16 1 13 4 10 2 10 20 16 15 17 16 12 16 4 13
split_gain=218.977 111.445 64.5686 59.2524 38.6306 26.9352 43.8083 40.0257 20.4825 23.9064 18.2069 18.1109 18.2616 13.0567 12.9398 12.8646 11.6358 11.9656 18.2663 11.7193 11.4791 20.1983 10.7521 10.5547 10.2372 12.5374 10.0592 9.37883 9.36452 9.19315 11.4889 8.81192 8.54626 9.49726 8.56429 9.8095 8.49899 8.27025 8.17526 12.9037 7.54502 7.51706 8.64307 9.0437 6.82411 6.81157 6.69162 6.93776 6.68065 6.38513 6.19681 6.17987 6.13371 6.73167 6.65711 6.08209 6.06424 6.0066 5.83838 5.7581 7.34872 7.08657
threshold=1.5000000000000002 14.500000000000002 8.5000000000000018 3.5000000000000004 1.5000000000000002 4.5000000000000009 27.500000000000004 24.500000000000004 31.500000000000004 10.500000000000002 5.5000000000000009 75.500000000000014 11.500000000000002 3.5000000000000004 6.5000000000000009 11.500000000000002 39.500000000000007 31.500000000000004 42.500000000000007 10.500000000000002 9.5000000000000018 8.5000000000000018 13.500000000000002 23.500000000000004 6.5000000000000009 3.5000000000000004 15.500000000000002 22.500000000000004 9.5000000000000018 5.5000000000000009 3.5000000000000004 38.500000000000007 2.5000000000000004 5.5000000000000009 5.5000000000000009 9.5000000000000018 6.5000000000000009 26.500000000000004 25.500000000000004 27.500000000000004 5.5000000000000009 9.5000000000000018 7.5000000000000009 11.500000000000002 13.500000000000002 26.500000000000004 3.5000000000000004 111.50000000000001 13.500000000000002 25.500000000000004 45.500000000000007 14.500000000000002 20.500000000000004 9.5000000000000018 12.500000000000002 3.5000000000000004 5.5000000000000009 2.5000000000000004 4.5000000000000009 17.500000000000004 16.500000000000004 19.500000000000004
decision_type=2 2 2 2 2 2 2 2 2 2 2 2 2 2 2 2 2 2 2 2 2 2 2 2 2 2 2 2 2 2 2 2 2 2 2 2 2 2 2 2 2 2 2 2 2 2 2 2 2 2 2 2 2 2 2 2 2 2 2 2 2 2
left_child=1 4 8 32 13 6 15 23 9 22 28 12 45 -1 40 29 19 18 -18 27 21 24 36 -8 25 51 -9 -7 58 30 -5 48 -2 34 -34 -36 -3 -33 39 -14 57 -35 43 -43 -41 -4 -30 -48 -19 -47 -25 -17 55 -54 -55 -31 -42 -15 -6 61 -61 -23
right_child=3 2 11 5 10 16 7 26 -10 -11 -12 -13 38 14 -16 20 17 31 -20 -21 -22 59 -24 50 -26 -27 -28 -29 46 52 -32 37 33 41 35 -37 -38 -39 -40 44 56 42 -44 -45 -46 49 47 -49 -50 -51 -52 -53 53 54 -56 -57 -58 -59 -60 60 -62 -63
leaf_value=-0.016718948135773341 0.054774484851143584 0.0099536259736244873 0.01453255445854406 0.053763100802898416 -0.0053371220033577816 -0.0074780276554716005 -0.0030728262104094029 0.01488446010897557 0.045168289192713242 -0.013386096118997291 -0.007524456778470346 0.052382374741137029 -0.0063201848761393472 0.027830351665616038 -0.011130464176336924 -0.016545646313439917 -0.0026916769750169657 0.015040418622083962 0.052201185841113329 -0.017338923943672278 -0.010217423716914004 0.020716725365043834 -0.012346819384644429 0.024948584972622079 -0.0080855732802462676 0.049896562055629846 -0.014535412830641357 0.036211379674764781 0.031013047570983571 0.00070815804030965358 -0.0043413408427384866 -0.017315404358155588 -0.016276550052518195 -0.011837336878913146 0.026100496326883632 -0.015070669482583586 0.04269034427701978 0.029117488832773899 -0.014582338979029481 0.0038685957972819994 0.032620945809917021 0.0039993873664311 0.01331340089149044 0.05241713499830615 0.05040185063378886 0.05803733907639981 -0.018838576180860402 0.012019841053737693 -0.018169033362171464 0.014010727645031043 0.050538741126386594 0.01529190961803709 -0.01502767549516585 0.03313206755556166 -0.0042079212104386473 -0.021597916677452329 -0.010513942986726761 0.061253101033408468 0.0087774364607066373 -0.023062408566474915 0.016419479289854114 0.063343832393487301
leaf_weight=14.999999999999998 10.999999999999998 24 119 9.9999999999999982 196 223 14.999999999999998 45 341 34 460 24 65 20 14.999999999999998 27 287 15.999999999999998 15.999999999999998 1112 392 52 11.999999999999998 36 347 17 82 12.999999999999998 42 34 57 17 55 24 39 23 114 22 85 12.999999999999998 44 13.999999999999998 221 31 20 20 20 204 283 13.999999999999998 69 35 116 15.999999999999998 47 302 9.9999999999999982 41 117 14.999999999999998 55 11.999999999999998
leaf_count=15 11 24 119 10 196 223 15 45 341 34 460 24 65 20 15 27 287 16 16 1112 392 52 12 36 347 17 82 13 42 34 57 17 55 24 39 23 114 22 85 13 44 14 221 31 20 20 20 204 283 14 69 35 116 16 47 302 10 41 117 15 55 12
internal_value=0 0.0133079 0.0267301 -0.00657451 0.00327524 -0.00855483 -0.00408856 0.015454 0.0379137 0.024469 -9.86929e-05 0.0104207 0.00742348 0.0274512 0.0325478 -0.00723524 -0.012554 -0.0070082 0.000206956 -0.0151912 -0.00365511 0.000938505 0.0330495 0.0361602 -0.00438725 0.0118573 -0.00411105 -0.00507141 0.00580088 -0.0130914 0.00433096 -0.0134762 0.0112863 0.010111 -0.00191381 0.0108273 0.036997 0.00887751 -0.00323487 0.00660731 0.0382449 0.0149624 0.0173804 0.0373538 0.0320706 0.0201717 0.0126986 0.00926463 -0.0163919 0.0399087 0.041765 0.00142717 -0.015358 -0.00788195 0.00527525 -0.0193408 0.024633 0.0502948 -6.1073e-05 0.0178696 0.00795907 0.0287093
internal_weight=0 2069 885 4188 1184 3770 1781 247 525 184 1039 360 336 145 130 1534 1989 641 303 1348 952 560 150 120 426 79 127 236 579 582 67 338 418 407 117 62 138 39 183 98 115 290 266 45 33 153 266 224 299 34 105 62 515 179 63 336 54 61 313 134 70 64
internal_count=6257 2069 885 4188 1184 3770 1781 247 525 184 1039 360 336 145 130 1534 1989 641 303 1348 952 560 150 120 426 79 127 236 579 582 67 338 418 407 117 62 138 39 183 98 115 290 266 45 33 153 266 224 299 34 105 62 515 179 63 336 54 61 313 134 70 64
is_linear=0
shrinkage=0.05


Tree=15
num_leaves=63
num_cat=0
split_feature=3 15 14 14 10 14 16 15 12 16 7 20 14 16 12 2 17 15 9 0 4 2 5 16 10 7 15 14 3 0 5 19 2 16 15 0 4 3 10 20 15 16 9 4 2 8 4 10 16 12 10 18 3 11 0 8 0 15 12 10 5 12
split_gain=197.627 101.05 63.388 53.4753 33.0881 33.0479 24.8251 59.9034 24.5248 21.3406 20.84 18.1091 19.2827 16.9965 15.8486 14.4982 16.4266 14.1588 11.5036 11.3803 11.0184 10.4529 10.0604 9.82955 9.3946 8.95487 8.93529 12.0577 8.9334 8.85184 11.2448 8.10982 8.10228 8.56515 8.20774 7.96221 8.16677 7.75493 7.75357 7.67362 6.64395 10.9142 7.41384 6.43926 6.35338 6.31687 6.08075 6.00084 10.5722 6.2729 7.6221 6.84399 5.86722 5.77559 5.77024 5.76884 5.60005 5.51486 5.44048 5.3531 5.26171 5.2127
threshold=1.5000000000000002 13.500000000000002 11.500000000000002 3.5000000000000004 51.500000000000007 5.5000000000000009 17.500000000000004 27.500000000000004 1.5000000000000002 20.500000000000004 23.500000000000004 11.500000000000002 9.5000000000000018 11.500000000000002 22.500000000000004 14.500000000000002 3.5000000000000004 60.500000000000007 14.500000000000002 7.9000000000000012 22.500000000000004 3.5000000000000004 7.5000000000000009 5.5000000000000009 34.500000000000007 24.500000000000004 18.500000000000004 9.5000000000000018 1.0000000180025095e-35 7.9000000000000012 7.5000000000000009 3.5000000000000004 35.500000000000007 31.500000000000004 39.500000000000007 7.3000000000000016 47.500000000000007 5.5000000000000009 44.500000000000007 8.5000000000000018 7.5000000000000009 4.5000000000000009 4.5000000000000009 15.500000000000002 67.500000000000014 1.5000000000000002 27.500000000000004 9.5000000000000018 7.5000000000000009 9.5000000000000018 29.500000000000004 11.500000000000002 6.5000000000000009 7.5000000000000009 2.9700000000000002 4.5000000000000009 4.5500000000000007 8.5000000000000018 1.5000000000000002 18.500000000000004 12.500000000000002 9.5000000000000018
decision_type=2 2 2 2 2 2 2 2 2 2 2 2 2 2 2 2 2 2 2 2 2 2 2 2 2 2 2 2 2 2 2 2 2 2 2 2 2 2 2 2 2 2 2 2 2 2 2 2 2 2 2 2 2 2 2 2 2 2 2 2 2 2
left_child=1 5 9 29 24 8 7 15 21 10 13 -8 20 43 -6 45 -17 19 -11 32 -13 -1 -10 -23 -4 -9 58 31 38 30 39 -28 -14 34 -34 60 -37 -27 -7 52 42 -42 -24 59 -19 57 -36 -32 -49 50 51 -50 -2 -22 -54 -33 -56 -5 -18 -3 -35 -26
right_child=3 2 4 6 14 28 11 25 22 18 -12 12 17 -15 -16 16 26 44 -20 -21 53 23 40 -25 61 37 27 -29 -30 -31 47 55 33 35 46 36 -38 -39 -40 -41 41 -43 -44 -45 -46 -47 -48 48 49 -51 -52 -53 54 -55 56 -57 -58 -59 -60 -61 -62 -63
leaf_value=-0.012542610629819907 -0.0021840315105817547 0.021172682153794201 -0.015664324894440178 -0.011536929565076919 0.04108106286620495 -0.0041840262769992599 -0.017440296985882616 0.0021469031460583212 -0.0044653999932894586 -0.034541468291232988 0.04665399625639808 -0.0061265053973276768 -0.017974482828147988 0.0040273203426727756 -0.015282503366470338 0.061258168071508412 0.031353880465030674 0.0034439853791679645 0.017956865828164154 0.00051735002639611346 -0.011275540532854697 0.045955687569720405 -0.032670363611899893 0.014093259136771431 0.025871352176181972 0.047458727057757125 0.0087175001726589266 -0.0028811170415825806 -0.016704339607543237 0.037877158182007931 -0.0029118203347729098 0.075044984221458416 -0.0043070784220213282 0.012082990916336285 0.054453239386731911 -0.013058667132546276 0.049373512566089628 0.0039550122494498886 0.037012046179734172 -0.028268459244143396 0.053019232386232996 0.012598909542767628 0.006308442262951474 -0.0033130380579016426 0.053023750955859816 -0.015648033643602371 0.0055099256336689001 0.046859480300918223 0.0077394751211007423 0.021245565917580485 0.032995638814754785 -0.045661497364441556 -0.012332825052241486 0.026191625838530148 0.057544355771758364 0.027680044600533117 0.015440398314967749 0.015019140978727273 -0.0057501342087145045 0.040421734648780565 -0.016445696333415451 -0.00026513666054734617
leaf_weight=12.999999999999998 123 47 102 46 74 237 824 18 190 11.999999999999998 282 69 457 61 14.999999999999998 9.9999999999999982 9.9999999999999982 14.000000000000002 80 182 11.999999999999998 70 12.999999999999998 37 24 70 36 110 185 28 31 10.000000000000002 144 17 11.000000000000002 11.000000000000002 9.9999999999999982 11.999999999999998 11.999999999999998 21 19 138 198 10.999999999999998 11.999999999999998 398 14.999999999999998 32 12.000000000000002 98 9.9999999999999982 11.999999999999998 11.999999999999998 72 10.999999999999995 18 28.000000000000004 34 820 156 328 93
leaf_count=13 123 47 102 46 74 237 824 18 190 12 282 69 457 61 15 10 10 14 80 182 12 70 13 37 24 70 36 110 185 28 31 10 144 17 11 11 10 12 12 21 19 138 198 11 12 398 15 32 12 98 10 12 12 72 11 18 28 34 820 156 328 93
internal_value=0 0.0126425 0.0245537 -0.00624578 0.0058742 0.00239161 -0.00812709 -0.00338137 0.00928797 0.0334185 0.0371033 -0.011596 -0.00803928 0.0273096 0.0315816 -0.00589233 -0.00250828 -0.010169 0.0111093 -0.0109766 0.00867818 0.0297941 0.00487804 0.0349378 -0.00457309 0.0340822 -0.0031434 0.00715861 -0.00838196 0.010722 0.00877243 0.0244144 -0.0130832 -0.00891282 0.000361266 -0.0132205 0.0166709 0.0410923 -0.00219867 0.000282316 0.0097021 0.0174905 0.0039069 0.0339461 0.026327 -0.0130711 0.0262167 0.0172625 0.021076 0.0148254 -0.00367964 -0.018961 0.0037281 0.0208392 0.0179868 0.0445961 0.0273159 -0.0002506 -0.0053031 0.0359651 -0.0150399 0.00509619
internal_weight=0 2069 957 4188 308 1112 3770 1592 678 649 557 2178 1354 275 89 1492 1014 1201 92 1175 153 120 558 107 219 100 1004 174 434 418 390 64 993 536 170 366 21 82 249 195 368 157 211 214 26 478 26 195 164 132 34 24 174 84 51 28 39 80 830 203 345 117
internal_count=6257 2069 957 4188 308 1112 3770 1592 678 649 557 2178 1354 275 89 1492 1014 1201 92 1175 153 120 558 107 219 100 1004 174 434 418 390 64 993 536 170 366 21 82 249 195 368 157 211 214 26 478 26 195 164 132 34 24 174 84 51 28 39 80 830 203 345 117
is_linear=0
shrinkage=0.05


Tree=16
num_leaves=63
num_cat=0
split_feature=3 15 12 14 16 18 16 15 7 14 7 14 10 14 15 20 2 16 15 16 5 2 2 16 10 16 4 7 15 12 0 9 10 20 15 7 5 11 16 5 10 3 14 4 3 19 12 16 10 17 15 14 19 2 17 4 9 8 16 7 9 15
split_gain=178.358 91.1977 57.5654 48.262 30.4237 24.1144 21.6977 49.4072 18.0192 20.1229 16.6705 15.4455 14.5673 14.1721 13.4277 12.7002 11.825 15.2112 10.9977 10.427 10.8868 10.0774 9.49769 9.29014 8.67239 8.54866 8.40657 8.34731 8.08476 7.86684 8.10879 7.81217 7.69079 7.57791 7.48171 7.43599 7.65211 8.2135 7.39917 9.41913 7.19608 7.0321 6.95058 7.09971 6.7411 6.68414 7.84276 6.56952 6.28242 6.2328 6.13549 8.64653 7.68288 6.05093 6.63467 7.62228 5.87478 5.54258 5.33228 5.29445 5.17198 5.16024
threshold=1.5000000000000002 13.500000000000002 8.5000000000000018 4.5000000000000009 6.5000000000000009 7.5000000000000009 17.500000000000004 27.500000000000004 18.500000000000004 5.5000000000000009 39.500000000000007 11.500000000000002 78.500000000000014 3.5000000000000004 60.500000000000007 12.500000000000002 14.500000000000002 3.5000000000000004 19.500000000000004 31.500000000000004 37.500000000000007 39.500000000000007 2.5000000000000004 20.500000000000004 54.500000000000007 23.500000000000004 36.500000000000007 25.500000000000004 38.500000000000007 38.500000000000007 7.3000000000000016 7.5000000000000009 34.500000000000007 32.500000000000007 5.5000000000000009 5.5000000000000009 10.500000000000002 1.5000000000000002 24.500000000000004 31.500000000000004 17.500000000000004 5.5000000000000009 3.5000000000000004 3.5000000000000004 1.0000000180025095e-35 2.5000000000000004 6.5000000000000009 13.500000000000002 9.5000000000000018 21.500000000000004 18.500000000000004 11.500000000000002 3.5000000000000004 3.5000000000000004 4.5000000000000009 4.5000000000000009 17.500000000000004 1.5000000000000002 14.500000000000002 27.500000000000004 13.500000000000002 9.5000000000000018
decision_type=2 2 2 2 2 2 2 2 2 2 2 2 2 2 2 2 2 2 2 2 2 2 2 2 2 2 2 2 2 2 2 2 2 2 2 2 2 2 2 2 2 2 2 2 2 2 2 2 2 2 2 2 2 2 2 2 2 2 2 2 2 2
left_child=1 4 8 18 5 40 7 16 9 -3 33 21 32 31 19 42 57 -18 22 20 -12 -4 -2 -10 -25 -23 28 56 -22 -21 -31 -7 -13 -8 53 -15 37 -37 39 -34 60 -29 43 -6 45 -44 -47 -11 -36 -17 -19 52 -52 -24 55 -55 -9 -5 -20 -54 61 -1
right_child=3 2 11 6 15 13 10 27 23 47 14 12 -14 35 -16 49 17 50 58 29 26 25 34 24 -26 -27 -28 41 -30 30 -32 -33 38 -35 48 36 -38 -39 -40 -41 -42 -43 44 -45 -46 46 -48 -49 -50 -51 51 -53 59 54 -56 -57 -58 -59 -60 -61 -62 -63
leaf_value=-0.0079340609359399728 0.0514359341764992 0.035506865884514252 0.013033966253258707 0.000377384133927121 -0.02814186194704639 0.049020824552376253 -0.015072802652362853 0.02967598490417003 0.041464413128045163 0.0099910529296506553 -0.006144618381087829 -0.017983076103370299 0.048710392827966381 -0.022986966772721367 0.030585808604955675 0.022205168153846364 0.055727985569021921 -0.0052407977108313046 0.046160108283162117 -0.014606943603261239 0.011561286307709374 0.054076461397832447 0.023929117992520333 -0.026297282651066775 0.035637093507326571 0.00091093095019459727 -0.016397633657325061 0.045467115001520148 0.048394826995699032 -0.0035628891526124419 0.046904836595058445 0.020368584403051782 -0.017475202253886633 0.014512413655492393 -0.011305125065458319 0.019457590175596506 0.030098061255391752 -0.017443787731230259 -0.0067652248884909425 0.030500482130599652 0.038709824938665739 0.0037572618573904039 -0.010846636183059857 0.0050788597953166596 -0.01736743369147007 0.039711909989515945 -0.00051678401078023614 -0.022882953703048686 0.010765387791320864 -0.0024844754402610393 0.0058839011310853747 -0.006154239958254394 0.020568996470640685 -0.022279826737940312 -0.016969807280804074 0.021372997568299374 -0.024521715659648183 -0.015316231782180643 0.014649663037010308 0.065087284147739413 0.028697006093959018 0.024904313454261195
leaf_weight=150 10.999999999999998 94 145 67 18 61 1338 10.000000000000002 368 55 249 66 13.999999999999998 12.999999999999998 25 61 10.999999999999998 789 25 363 69 31 15.999999999999998 10.000000000000002 12.999999999999998 9.9999999999999982 20 64 19 39 9.9999999999999982 39 13.999999999999998 22 36 38 57 25 78 38 10.999999999999998 11.999999999999998 149 151 192 14.999999999999998 63 21 309 44 55 82 17.000000000000004 14.999999999999998 84 30 9.9999999999999982 351 29 10.999999999999998 11.999999999999998 12.999999999999998
leaf_count=150 11 94 145 67 18 61 1338 10 368 55 249 66 14 13 25 61 11 789 25 363 69 31 16 10 13 10 20 64 19 39 10 39 14 22 36 38 57 25 78 38 11 12 149 151 192 15 63 21 309 44 55 82 17 15 84 30 10 351 29 11 12 13
internal_value=0 0.0120104 0.023326 -0.00593349 0.00227203 0.0129082 -0.00803138 -0.0033682 0.0336289 0.0200389 -0.0112333 0.00873016 -0.000563141 0.0236253 -0.00547646 -0.00415876 -0.00577592 -0.00273304 0.00779919 -0.00664884 -0.000394208 0.0192226 0.00548844 0.0395376 0.0087091 0.0411093 0.0128637 0.031318 0.019514 -0.0120685 0.00673665 0.0378465 -0.00408268 -0.0145942 0.00445697 0.0129327 0.016824 0.00481419 0.00297445 0.017584 -0.000517102 0.0388813 -0.00701908 0.00154056 -0.0104715 -0.00463889 0.0072195 0.000907446 0.00846238 0.011859 -0.00340712 0.00536121 0.0167379 -0.00507314 -0.00867032 0.00682206 0.00257713 -0.0128007 0.0292378 0.0380583 -0.00298279 -0.00531505
internal_weight=0 2069 957 4188 1112 419 3633 1479 561 170 2154 396 210 233 794 693 1383 965 555 769 357 186 501 391 23 41 108 96 88 412 49 100 196 1360 490 133 120 63 130 52 186 76 588 169 419 227 78 76 345 105 954 165 83 145 129 45 20 418 54 28 175 163
internal_count=6257 2069 957 4188 1112 419 3633 1479 561 170 2154 396 210 233 794 693 1383 965 555 769 357 186 501 391 23 41 108 96 88 412 49 100 196 1360 490 133 120 63 130 52 186 76 588 169 419 227 78 76 345 105 954 165 83 145 129 45 20 418 54 28 175 163
is_linear=0
shrinkage=0.05


Tree=17
num_leaves=63
num_cat=0
