tree
version=v3
num_class=1
num_tree_per_iteration=1
label_index=0
max_feature_idx=20
objective=regression
feature_names=Column_0 Column_1 Column_2 Column_3 Column_4 Column_5 Column_6 Column_7 Column_8 Column_9 Column_10 Column_11 Column_12 Column_13 Column_14 Column_15 Column_16 Column_17 Column_18 Column_19 Column_20
feature_infos=[0.10000000000000001:11] [16:848] [0:127] [0:75] [0:96] [0:179] [0:63] [0:136] [0:38] [0:109] [0:172] [0:47] [0:120] [0:121] [0:171] [0:107] [0:121] [0:122] [0:82] [0:31] [0:57]
tree_sizes=5725 5647 5710 5670 5730 5634 5687 5654 5718 5722 5727 5738 5723 5702 5718 5737 5756 5748 5737 5792 5731 5794 5770 5753 5761 5801 5699 5814 5881 5730 5698 5815 5686 5751 5804 5830 5806 5772 5742 5697 5809 5788 5804 5764 5806 5794 5821 5871 5822 5846 5779 5912 5877 5823 5854 5942 5942 5880 5858 5774 5886 5875 5875 5830 5931 5919 5843 5811 5924 5862 5855 5910 5901 5875 5949 5855 5956 5955 5953 5934 6015 5977 5940 5908 6013 5972 5862 6027 5917 6004 6112 5971 6004 6216 6152 6015 6078 6038 5925 6021 5860 6142 5954 5980 6068 6063 5988 6143 6110 5990 6092 6082 6208 6090 6090 6197 6048 6115 6196 6038 6187 5987 6151 6119 6148 6111 6146 6175 6144 6178 6079 6137 6121 6274 6227 6140 6076 6077 6086 6141 6189 6042 6191 6130 6199 6221 6173 6118 6250 6112 6165 6195 6175 6006 6296 6092 6179 6179 6119 6300 6188 6128 6096 6199 6085 6236 6150 6248 6215 6189 5964 6139 6380 6134 6123 6267 6156 6267 6182 6112 6143 6138 6099 6160 6198 6159 6191 6066 6304 6289 6081 6071 6207 6171 6142 6138 6137 6076 6175 6225 6308 6082 6086 6014 6253 6388 6334 6209 6318 6264 6258 6247 6255 6156 6243 6267 6254 6279 6238 6255 6143 6226 6149 6143 6241 6213 6214 6174 6296 6210 6253 6222 6202 6311 6182 6324 6143 6157 6130 6200 6318 6168 6266 6157 6280 6255

Tree=0
num_leaves=63
num_cat=0
split_feature=3 15 14 12 12 3 15 16 10 14 14 0 14 10 7 2 5 0 15 14 16 16 16 0 2 18 12 12 14 7 11 14 4 16 18 12 0 3 5 20 16 20 14 16 15 20 20 16 10 19 1 18 2 2 18 13 2 16 18 4 4 8
split_gain=811.871 413.014 256.859 248.655 145.667 79.9048 167.685 142.853 69.2065 67.1484 61.0271 52.1972 48.1463 45.0653 43.3396 42.0783 35.6559 40.5396 30.7378 53.1455 30.3218 29.161 27.2367 29.7475 27.4701 26.9254 26.3375 25.9827 25.9338 25.2169 19.6592 19.2626 19.2706 19.2201 19.0657 18.6369 49.9521 17.266 21.494 16.6721 19.3984 16.0925 15.4736 14.7564 14.1812 14.096 13.9764 13.9685 15.2369 13.8922 13.5933 13.5795 13.462 13.2403 12.5448 12.4403 12.3587 12.145 11.7916 14.6889 11.2016 11.1652
threshold=1.5000000000000002 13.500000000000002 4.5000000000000009 8.5000000000000018 1.5000000000000002 5.5000000000000009 27.500000000000004 20.500000000000004 27.500000000000004 6.5000000000000009 7.5000000000000009 7.6500000000000012 17.500000000000004 42.500000000000007 25.500000000000004 9.5000000000000018 14.500000000000002 7.9000000000000012 18.500000000000004 9.5000000000000018 7.5000000000000009 5.5000000000000009 16.500000000000004 4.5500000000000007 14.500000000000002 41.500000000000007 15.500000000000002 2.5000000000000004 8.5000000000000018 7.5000000000000009 2.5000000000000004 3.5000000000000004 4.5000000000000009 30.500000000000004 47.500000000000007 40.500000000000007 7.3000000000000016 7.5000000000000009 10.500000000000002 9.5000000000000018 10.500000000000002 10.500000000000002 1.0000000180025095e-35 5.5000000000000009 8.5000000000000018 6.5000000000000009 18.500000000000004 9.5000000000000018 13.500000000000002 3.5000000000000004 368.50000000000006 10.500000000000002 36.500000000000007 39.500000000000007 7.5000000000000009 6.5000000000000009 86.500000000000014 17.500000000000004 5.5000000000000009 5.5000000000000009 10.500000000000002 5.5000000000000009
decision_type=2 2 2 2 2 2 2 2 2 2 2 2 2 2 2 2 2 2 2 2 2 2 2 2 2 2 2 2 2 2 2 2 2 2 2 2 2 2 2 2 2 2 2 2 2 2 2 2 2 2 2 2 2 2 2 2 2 2 2 2 2 2
left_child=1 4 16 8 15 6 18 14 9 47 29 20 13 28 -8 58 17 37 22 49 -7 -17 23 -4 -25 46 -27 -26 53 -6 -18 51 54 -15 -14 56 -37 38 42 50 -41 -30 -2 -11 -32 -34 -9 48 -3 -20 -29 -31 -21 -5 -33 -39 -22 -54 -1 -60 -44 -51
right_child=2 3 5 12 10 11 7 25 -10 43 -12 -13 34 33 -16 21 30 -19 19 52 35 -23 -24 24 27 26 -28 39 41 31 44 32 45 -35 -36 36 -38 55 -40 40 -42 -43 60 -45 -46 -47 -48 -49 -50 61 -52 -53 57 -55 -56 -57 -58 -59 59 -61 -62 -63
leaf_value=-0.011300042160867264 0.053696016287971431 0.036263808349468615 -0.043189916369853427 0.030614495778738447 -0.0053240598165530334 -0.0045495480067926286 0.0037195933382773313 -0.030200940406078285 0.085757559579819995 0.062362625552881655 -0.020517078525536907 0.022860416809707528 -0.012365449108332946 0.082880032622046976 0.081678545741468725 0.094627192316439818 0.096133549641027646 0.067228827542234346 0.014849263091307612 -0.02532105106224292 -0.031432486858991568 0.040679640979641461 -0.030501848599626222 -0.025289929528691212 0.057214195826631183 0.065263688477984888 0.00019057673456161306 -0.008919770649450964 -0.018378885869382577 0.013694738638502089 -0.010309622520040581 -0.00013371910579754683 -0.017138226342307241 0.022783242786429549 0.054067642282614008 -0.024839865052532266 0.10010023764388651 0.038829025102934206 0.022870055541903189 0.053209456329409828 -0.0052646658838533889 0.026431513193857743 -0.014842125426039198 -0.0037603887975745714 0.039684718430210049 0.0095719022442814078 0.0047909145921490827 0.016421184437889747 0.088963294596571194 0.099132606601882819 -0.04927063673934632 0.045185671225730473 0.034284001615110048 0.090928775584865493 0.040855371554872559 -0.015287340687620672 0.017560336053768458 -0.0096704684504582226 0.081187448093191922 0.0051181321503409654 0.018736536560221232 0.033860687161600851
leaf_weight=24 9.9999999999999982 17 87 101 264 130 22 78 360 9.9999999999999982 290 53 108 51 94 55 13.999999999999998 30 66 160 1308 46 464 268 15.999999999999998 23 48 407 51 67 15.999999999999998 28 83 18 11.999999999999998 40 9.9999999999999982 58 84 23 37 33 173 54 125 122 45 9.9999999999999982 71 10.000000000000002 22 70 17 9.9999999999999982 56 12.999999999999998 12.999999999999998 208 11.000000000000002 14.999999999999998 29 19
leaf_count=24 10 17 87 101 264 130 22 78 360 10 290 53 108 51 94 55 14 30 66 160 1308 46 464 268 16 23 48 407 51 67 16 28 83 18 12 40 10 58 84 23 37 33 173 54 125 122 45 10 71 10 22 70 17 10 56 13 13 208 11 15 29 19
internal_value=-8.32787e-11 0.0259233 -0.0125132 0.0510783 0.00577267 -0.0172986 -0.0109714 0.0229992 0.0735448 0.0464053 -0.00127092 -0.0259059 0.020538 0.0324744 0.0668932 0.051486 0.0192852 0.0113449 -0.0168089 -0.00596931 -0.0276279 0.070057 -0.0207386 -0.015471 -0.0123513 -0.00324675 0.0212706 -0.00548485 0.020186 0.00681804 0.0396226 0.0143427 0.00702234 0.0672026 -0.00572214 -0.0298162 0.000148155 0.00677674 0.00146526 -0.00753635 0.0171504 -0.000774801 -0.00701589 0.00657133 0.0340116 -0.00124244 -0.017399 0.0724193 0.0787827 0.0275235 -0.010989 0.029785 -0.0142338 0.0360482 0.0271923 0.0289204 -0.0309503 -0.00634946 0.0139727 0.0373013 -0.0100214 0.0563682
internal_weight=0 2037 4220 906 1131 3668 2114 310 522 162 980 1554 384 264 116 151 552 397 1804 480 1501 101 1324 860 773 194 71 505 195 690 155 426 289 69 120 1371 50 367 296 489 60 84 212 64 141 205 123 98 88 95 429 137 385 111 84 71 1321 225 50 26 202 29
internal_count=6257 2037 4220 906 1131 3668 2114 310 522 162 980 1554 384 264 116 151 552 397 1804 480 1501 101 1324 860 773 194 71 505 195 690 155 426 289 69 120 1371 50 367 296 489 60 84 212 64 141 205 123 98 88 95 429 137 385 111 84 71 1321 225 50 26 202 29
is_linear=0
shrinkage=1


Tree=1
num_leaves=63
num_cat=0
split_feature=3 15 14 12 12 3 15 14 10 14 14 0 10 14 2 5 0 18 12 15 14 12 0 3 11 5 7 14 0 17 2 2 14 4 12 0 18 5 10 14 5 2 14 2 18 15 0 0 20 19 2 1 18 12 15 4 18 2 14 15 20 18
split_gain=732.713 372.745 231.815 224.411 131.464 72.1141 151.336 94.3197 62.5515 68.8018 55.077 47.1079 43.9243 46.7076 38.2161 32.3003 42.2325 29.4791 29.3319 27.7409 47.9638 25.8202 25.2908 23.5826 23.0554 22.9827 22.7582 19.9864 28.0662 18.718 18.6738 17.82 17.3845 17.3917 17.0665 45.0818 16.5312 18.943 16.3924 15.2716 14.1888 14.1656 13.9649 13.5497 13.4181 13.2302 12.9191 17.6605 12.7216 12.5377 12.3311 16.3187 12.2555 12.1622 14.4542 11.4262 11.3217 11.2684 11.5039 18.7476 11.2228 10.4254
threshold=1.5000000000000002 13.500000000000002 4.5000000000000009 8.5000000000000018 1.5000000000000002 5.5000000000000009 27.500000000000004 13.500000000000002 31.500000000000004 8.5000000000000018 7.5000000000000009 7.6500000000000012 63.500000000000007 11.500000000000002 11.500000000000002 10.500000000000002 7.9000000000000012 31.500000000000004 21.500000000000004 18.500000000000004 9.5000000000000018 16.500000000000004 6.9500000000000011 7.5000000000000009 2.5000000000000004 40.500000000000007 7.5000000000000009 6.5000000000000009 4.5500000000000007 4.5000000000000009 39.500000000000007 29.500000000000004 3.5000000000000004 4.5000000000000009 40.500000000000007 7.3000000000000016 6.5000000000000009 4.5000000000000009 43.500000000000007 4.5000000000000009 3.5000000000000004 11.500000000000002 1.0000000180025095e-35 34.500000000000007 23.500000000000004 5.5000000000000009 7.4500000000000011 7.9000000000000012 6.5000000000000009 3.5000000000000004 40.500000000000007 454.50000000000006 10.500000000000002 16.500000000000004 27.500000000000004 20.500000000000004 7.5000000000000009 86.500000000000014 10.500000000000002 27.500000000000004 13.500000000000002 33.500000000000007
decision_type=2 2 2 2 2 2 2 2 2 2 2 2 2 2 2 2 2 2 2 2 2 2 2 2 2 2 2 2 2 2 2 2 2 2 2 2 2 2 2 2 2 2 2 2 2 2 2 2 2 2 2 2 2 2 2 2 2 2 2 2 2 2
left_child=1 4 15 8 14 6 19 21 9 41 26 22 13 30 39 16 23 -9 25 27 49 38 -7 42 -17 -19 -6 28 -4 -16 -5 -11 52 56 57 -36 -30 -38 -8 45 -25 -3 -2 -26 -15 -1 -29 -48 -35 -21 -22 61 -28 54 -46 -32 -34 58 59 -24 -39 -52
right_child=2 3 5 12 10 11 7 17 -10 31 -12 -13 -14 44 29 24 -18 18 -20 20 50 -23 34 40 43 -27 32 46 36 -31 55 -33 33 48 35 -37 37 60 -40 -41 -42 -43 -44 -45 53 -47 47 -49 -50 -51 51 -53 -54 -55 -56 -57 -58 -59 -60 -61 -62 -63
leaf_value=0.0064719480506721001 0.05101121500134468 0.028279895761183334 -0.041035687918218773 0.025469404721100417 -0.0050578568053121368 -0.0077152263572160583 0.039696083677311741 -0.02456370061139266 0.08378631320755564 -0.014282869443643926 -0.019491225129619628 0.021717396380713669 0.071298089583177834 -0.020470852125436069 0.09449209059987751 0.077360382916405804 0.063867387175559995 -0.0083591289552194734 -0.016791335341715535 0.014106800350727458 -0.022826069858478938 0.016963465980464412 -0.024934936071444265 0.037721479338678449 0.022449674124671099 0.053971998605877161 0.013010001012972042 -0.025577165618482414 -0.036399336261674763 0.048080256212916644 0.094006306264135558 0.050664677231439526 -0.00012703384937984603 -0.016281314475843349 -0.023597871065139771 0.095095223784446722 0.065368402488529695 -0.0068941455877448519 0.084962572483345877 -0.01800400234366718 -0.027025221288204195 0.07261084293044634 -0.009520354222000281 0.063005075506542038 0.0025264994186513564 0.060814925469458103 0.040276597585115176 -0.022773340880742361 0.0090933070278566199 0.053549833878360945 0.0074073981274576737 -0.010558172700673643 0.042926387633862244 -0.010551412225700916 0.053848139978135416 0.027346662282943725 0.038812602778697122 0.016682318555047881 -0.03278273386079452 0.025132562406361105 0.030051103877750313 0.071746346950531004
leaf_weight=21 9.9999999999999982 21 67 140 264 164 30 75 317 43 290 53 37 72 42 25 30 21 43 66 185 31 287 55 197 50 67 825 40 45 18.000000000000004 13.999999999999998 28 83 40 9.9999999999999982 9.9999999999999982 313 60 19 9.9999999999999982 127 202 23 34 24 18 29 122 29 17.000000000000004 173 70 50 23 9.9999999999999982 56 12.999999999999998 967 20 22 9.9999999999999982
leaf_count=21 10 21 67 140 264 164 30 75 317 43 290 53 37 72 42 25 30 21 43 66 185 31 287 55 197 50 67 825 40 45 18 14 28 83 40 10 10 313 60 19 10 127 202 23 34 24 18 29 122 29 17 173 70 50 23 10 56 13 967 20 22 10
internal_value=0 0.0246272 -0.0118876 0.0485244 0.00548403 -0.0164337 -0.0104228 0.0218492 0.0698675 0.0483444 -0.00120738 -0.0246106 0.0195111 0.0139891 0.0489117 0.0183209 0.00751613 -0.000218237 0.0157985 -0.0159684 -0.00567084 0.0563182 -0.0262465 0.0014131 0.03186 0.035536 0.00647714 -0.0197017 -0.0111691 0.070486 0.0329244 0.00166916 0.0136256 0.00667122 -0.0285196 0.000140748 -0.00597151 -0.00244365 0.0698737 0.0195843 0.0277604 0.0663206 -0.00666509 0.0266896 -0.00378248 0.0354549 -0.0241246 0.00137344 -0.00118032 0.0261473 -0.0135221 -0.00491587 0.0282957 0.00744708 0.0232352 0.0701993 0.0258327 -0.029633 -0.0301056 -0.0216732 -0.00446789 0.0312366
internal_weight=0 2037 4220 906 1131 3668 2114 310 522 205 980 1554 384 347 151 552 307 189 114 1804 480 121 1501 277 245 71 690 1324 452 87 168 57 426 289 1337 50 385 345 90 64 65 148 212 220 179 45 872 47 205 95 385 200 137 107 57 28 84 1287 1274 307 335 27
internal_count=6257 2037 4220 906 1131 3668 2114 310 522 205 980 1554 384 347 151 552 307 189 114 1804 480 121 1501 277 245 71 690 1324 452 87 168 57 426 289 1337 50 385 345 90 64 65 148 212 220 179 45 872 47 205 95 385 200 137 107 57 28 84 1287 1274 307 335 27
is_linear=0
shrinkage=0.05


Tree=2
num_leaves=63
num_cat=0
split_feature=3 15 14 12 12 16 15 10 7 14 14 14 10 2 12 3 2 10 5 7 16 18 16 14 12 14 7 15 14 16 9 18 15 2 14 20 8 15 14 4 1 19 18 13 16 16 10 7 15 14 20 11 20 1 20 16 2 15 14 16 7 9
split_gain=661.274 336.402 209.213 202.531 118.646 71.4716 210.238 56.7029 56.3134 55.9406 49.707 39.6546 37.9126 37.7346 43.6949 34.8426 34.7129 33.4454 29.9311 28.9653 30.8049 27.077 25.0034 22.8847 23.1479 21.4153 20.5393 18.4929 25.1438 18.2994 17.5534 16.0594 16.0494 25.7126 16.2337 15.9127 15.8989 15.7348 15.6895 15.696 14.3066 13.4081 13.501 13.0972 12.934 12.5787 13.3021 12.2203 11.8435 11.8208 13.1616 19.8372 11.4813 11.1233 10.8346 10.7403 10.6098 10.5911 10.4251 10.2559 17.8642 10.2369
threshold=1.5000000000000002 13.500000000000002 4.5000000000000009 8.5000000000000018 1.5000000000000002 17.500000000000004 27.500000000000004 27.500000000000004 44.500000000000007 6.5000000000000009 7.5000000000000009 17.500000000000004 46.500000000000007 14.500000000000002 2.5000000000000004 9.5000000000000018 9.5000000000000018 47.500000000000007 17.500000000000004 69.500000000000014 31.500000000000004 23.500000000000004 6.5000000000000009 6.5000000000000009 15.500000000000002 8.5000000000000018 7.5000000000000009 18.500000000000004 11.500000000000002 30.500000000000004 8.5000000000000018 47.500000000000007 4.5000000000000009 3.5000000000000004 3.5000000000000004 10.500000000000002 4.5000000000000009 37.500000000000007 3.5000000000000004 4.5000000000000009 142.50000000000003 3.5000000000000004 25.500000000000004 18.500000000000004 5.5000000000000009 9.5000000000000018 13.500000000000002 25.500000000000004 10.500000000000002 11.500000000000002 9.5000000000000018 4.5000000000000009 6.5000000000000009 354.50000000000006 32.500000000000007 3.5000000000000004 39.500000000000007 8.5000000000000018 1.5000000000000002 14.500000000000002 23.500000000000004 5.5000000000000009
decision_type=2 2 2 2 2 2 2 2 2 2 2 2 2 2 2 2 2 2 2 2 2 2 2 2 2 2 2 2 2 2 2 2 2 2 2 2 2 2 2 2 2 2 2 2 2 2 2 2 2 2 2 2 2 2 2 2 2 2 2 2 2 2
left_child=1 4 18 7 16 6 13 9 23 45 26 12 25 -4 36 17 55 -10 32 20 37 -8 40 24 -7 56 58 49 41 -14 -20 -13 33 -2 -34 -27 -15 -19 48 57 -18 -29 -43 -17 -11 46 -3 -23 -28 50 53 -52 -41 -16 -25 -1 -5 -40 61 -9 -61 -6
right_child=2 3 5 11 10 8 21 59 15 44 -12 31 29 14 27 43 22 19 30 -21 -22 47 -24 54 -26 35 38 28 -30 -31 -32 -33 34 -35 -36 -37 -38 -39 39 52 -42 42 -44 -45 -46 -47 -48 -49 -50 -51 51 -53 -54 -55 -56 -57 -58 -59 -60 60 -62 -63
leaf_value=0.034658182476862122 0.045726510994136334 0.031863156048690576 -0.024928816169429963 0.028248627992714038 -0.020755258632393983 -0.028334888730730329 0.010585482936838399 0.082301206088590415 -0.013598355053065905 0.05768321132287383 -0.018516663126647473 -0.011393649222467233 0.080263522995842829 0.10304658687250177 -0.0099126947579323728 0.015502899635911865 0.090348422644185092 0.014337389524434769 0.096024163411213809 0.070114194211505707 -0.014478638952735951 0.024624336200455826 0.001317533398313182 -0.028640948035945836 0.028387846155847246 -0.01769314927195071 0.019263030053978718 0.012244456125931308 -0.013165329497761703 0.018006619857624175 0.033869051080611022 0.049577262516443926 0.022932861067872859 -0.01728397138252416 -0.0030071415651876194 0.025379084611651361 0.022719205809491022 0.059958853686435359 0.015598008018543028 -0.015467249062641648 0.049180189582208794 0.013744267296384678 0.086672944227854418 -0.030466168679296968 -0.0042223034150622512 0.012412893194705248 0.081103121249241308 0.078918621365569153 0.055251173882550512 -0.024242974445371171 0.067981310704579731 -0.001804109813368067 0.0086386423584715027 -0.046147695590149279 0.004563067287672311 -0.011726079788058997 0.07988534312356603 0.059787346050143242 -0.0093690934031347341 0.0031138859011910179 0.071123860606664355 0.031629405887515255
leaf_weight=26 20 17 430 104 12.999999999999998 35 23 270 229 9.9999999999999982 290 108 45 11.000000000000002 568 17 51 63 12.999999999999998 21 81 11.999999999999998 13.999999999999998 1422 37 51 108 55 81 15.999999999999998 90 11.999999999999998 266 85 78 37 13.999999999999998 27 67 83 36 11.000000000000002 14.999999999999998 175 54 9.9999999999999982 71 76 29 158 12.999999999999998 47 122 22 25 24 10.999999999999998 17 218 10.999999999999998 79 33
leaf_count=26 20 17 430 104 13 35 23 270 229 10 290 108 45 11 568 17 51 63 13 21 81 12 14 1422 37 51 108 55 81 16 90 12 266 85 78 37 14 27 67 83 36 11 15 175 54 10 71 76 29 158 13 47 122 22 25 24 11 17 218 11 79 33
internal_value=0 0.0233958 -0.0112932 0.0460982 0.00520983 -0.015612 -0.00738918 0.0663742 -0.0215361 0.0418083 -0.00114701 0.0185355 0.0293683 -0.012552 -0.00720319 -0.00874434 0.0464662 -0.000694181 0.0174049 0.0146967 0.00789108 0.0588899 0.0633337 -0.0266983 0.000814294 0.0189816 0.00615328 -0.00888531 0.00653293 0.0639338 0.0417139 -0.00529656 0.0118285 -0.00528197 0.0170511 0.000416767 0.0580633 0.0280238 0.0129443 0.00633766 0.0733133 0.0262312 0.0558185 -0.026396 0.00545043 0.0655523 0.0715909 0.0715149 0.026881 -0.0119766 -0.00899492 0.0133161 -0.0011213 -0.0112638 -0.0280673 0.0123937 0.0331878 0.0245411 -0.00480496 0.0774288 0.0628115 0.016825
internal_weight=0 2037 4220 906 1131 3668 1536 522 2132 162 980 384 264 1425 995 613 151 421 552 192 171 111 101 1519 72 203 690 970 162 61 103 120 449 105 344 88 25 90 426 289 87 81 26 192 64 98 88 88 137 808 650 60 205 590 1447 50 115 84 264 360 90 46
internal_count=6257 2037 4220 906 1131 3668 1536 522 2132 162 980 384 264 1425 995 613 151 421 552 192 171 111 101 1519 72 203 690 970 162 61 103 120 449 105 344 88 25 90 426 289 87 81 26 192 64 98 88 88 137 808 650 60 205 590 1447 50 115 84 264 360 90 46
is_linear=0
shrinkage=0.05


Tree=3
num_leaves=63
num_cat=0
split_feature=3 15 14 12 12 16 15 10 14 7 14 10 14 2 12 16 5 2 5 0 18 12 0 14 12 7 16 16 15 14 11 2 2 17 14 4 12 14 15 19 18 15 10 16 6 0 6 13 13 18 13 18 3 18 4 16 6 14 9 14 5 5
split_gain=596.8 303.603 188.815 182.784 107.078 64.5032 189.74 51.8545 57.5432 50.8228 44.8605 36.223 38.6661 34.0555 39.4347 32.2988 50.8991 31.5859 27.6097 32.3345 24.8644 20.6886 26.5164 20.6534 20.891 18.5367 17.1899 16.9382 16.6898 22.6923 15.995 15.5682 15.2098 15.1382 14.1598 14.1657 13.4608 13.2257 12.3582 12.1008 12.1847 11.7879 11.6375 15.0793 12.3288 11.421 15.416 11.3505 10.9545 10.8496 10.7633 10.181 10.0549 9.91495 9.82368 9.75705 9.63639 9.40862 9.23879 9.21435 10.2849 11.0852
threshold=1.5000000000000002 13.500000000000002 4.5000000000000009 8.5000000000000018 1.5000000000000002 17.500000000000004 27.500000000000004 31.500000000000004 8.5000000000000018 44.500000000000007 7.5000000000000009 63.500000000000007 11.500000000000002 14.500000000000002 2.5000000000000004 31.500000000000004 50.500000000000007 11.500000000000002 14.500000000000002 7.9000000000000012 29.500000000000004 40.500000000000007 7.3000000000000016 6.5000000000000009 15.500000000000002 7.5000000000000009 11.500000000000002 5.5000000000000009 18.500000000000004 11.500000000000002 2.5000000000000004 39.500000000000007 29.500000000000004 35.500000000000007 3.5000000000000004 4.5000000000000009 10.500000000000002 4.5000000000000009 10.500000000000002 3.5000000000000004 25.500000000000004 5.5000000000000009 33.500000000000007 24.500000000000004 12.500000000000002 7.3000000000000016 8.5000000000000018 23.500000000000004 8.5000000000000018 10.500000000000002 19.500000000000004 23.500000000000004 7.5000000000000009 7.5000000000000009 20.500000000000004 10.500000000000002 18.500000000000004 1.5000000000000002 5.5000000000000009 11.500000000000002 38.500000000000007 17.500000000000004
decision_type=2 2 2 2 2 2 2 2 2 2 2 2 2 2 2 2 2 2 2 2 2 2 2 2 2 2 2 2 2 2 2 2 2 2 2 2 2 2 2 2 2 2 2 2 2 2 2 2 2 2 2 2 2 2 2 2 2 2 2 2 2 2
left_child=1 4 18 7 17 6 13 8 26 23 25 12 31 -4 -15 16 33 37 19 36 47 50 -23 24 -7 57 48 -19 45 39 -20 -5 -10 -11 49 53 52 41 -32 55 -41 -1 -14 44 -44 59 -47 51 -3 -27 -17 -8 -2 -36 -33 -30 -12 58 -6 60 61 -16
right_child=2 3 5 11 10 9 20 -9 32 15 56 -13 42 14 28 21 -18 27 30 -21 -22 22 -24 -25 -26 34 -28 -29 29 -31 38 54 -34 -35 35 -37 -38 -39 -40 40 -42 -43 43 -45 -46 46 -48 -49 -50 -51 -52 -53 -54 -55 -56 -57 -58 -59 -60 -61 -62 -63
leaf_value=0.0048922653664790448 -0.0044328503004513221 0.047742598134748362 -0.023682375014434723 0.023015618204704619 -0.019717496031752001 -0.026918144534741131 -0.012680268857408972 0.075728334721518631 -0.013964430697608827 -0.0092514842614979925 -0.020071455959868791 0.064637192439388577 -0.020459145101217126 0.055160090293735267 -0.012013491349429578 0.0054083682741199075 0.065255125065644584 0.084584932482760888 0.085404036726270408 0.059456637445837263 0.077762953154742728 -0.014712863705224462 0.08683475315570828 -0.026663914640609795 0.026968453929608539 0.011154638452511002 0.0049861252666092842 0.040388034820193201 0.046022241761287053 -0.012507063940736569 0.00027943040276395863 0.085931525958908919 0.046038218015538798 0.020798606208812159 -0.00097949040521468447 -0.0010652393084473726 0.020493611184339795 -0.017499410478692308 0.03690197064508019 0.013057054312561043 0.08233929942051571 0.056187673565000297 -0.0056474703418857913 -0.0089052281862891779 0.047979841612536336 0.065376744961196734 -0.0052345155917394625 0.068624398298561581 0.076815837767711032 0.039302799845380446 -0.026718939077686667 0.039949032850563532 0.024723070257288569 0.035460796280780679 0.024122805297374726 -0.0012640196480788292 0.015897619235329331 -0.0089006393285972329 0.030047934369720294 -0.023941820990420928 -0.044424473529770261 0.005603191126650627
leaf_weight=21 227 54 430 140 12.999999999999998 35 17 317 43 216 270 37 65 25 494 29 30 46 13.999999999999998 30 60 18 10.000000000000002 1447 37 67 12.999999999999998 41 14.999999999999998 81 29 18.000000000000004 13.999999999999998 52 28 205 106 19 112 11.000000000000002 14.999999999999998 24 17 68 29 10.999999999999998 26 13.999999999999998 81 70 258 20 34 56 9.9999999999999982 40 20 218 33 147 21 109
leaf_count=21 227 54 430 140 13 35 17 317 43 216 270 37 65 25 494 29 30 46 14 30 60 18 10 1447 37 67 13 41 15 81 29 18 14 52 28 205 106 19 112 11 15 24 17 68 29 11 26 14 81 70 258 20 34 56 10 40 20 218 33 147 21 109
internal_value=0 0.022226 -0.0107285 0.0437933 0.00494934 -0.0148314 -0.00701973 0.0630555 0.0434589 -0.0204593 -0.00108966 0.0176088 0.0125942 -0.0119244 -0.00684303 -0.00830712 0.00349282 0.0441428 0.0165347 0.00954748 0.0559454 -0.0194702 0.0215541 -0.0253634 0.00077358 0.00584562 0.0598987 0.0637565 -0.00844105 0.00620628 0.0344308 0.0298225 0.000773062 -0.00342087 0.0122971 0.00602078 0.00546771 0.0174805 0.0293697 0.0249196 0.0530276 0.0322498 -0.00357537 0.00605134 0.0281611 -0.0113778 0.015758 0.0302776 0.0651865 0.0255369 -0.0234726 0.015768 -0.000634761 0.023314 0.063857 0.0116322 -0.0175908 -0.00456472 0.0159838 -0.01268 -0.010027 -0.00882905
internal_weight=0 2037 4220 906 1131 3668 1536 522 205 2132 980 384 347 1425 995 613 298 151 552 397 111 315 28 1519 72 690 148 87 970 162 155 168 57 268 426 289 367 64 141 81 26 45 179 114 46 808 37 51 135 137 287 37 261 84 28 55 290 264 46 771 624 603
internal_count=6257 2037 4220 906 1131 3668 1536 522 205 2132 980 384 347 1425 995 613 298 151 552 397 111 315 28 1519 72 690 148 87 970 162 155 168 57 268 426 289 367 64 141 81 26 45 179 114 46 808 37 51 135 137 287 37 261 84 28 55 290 264 46 771 624 603
is_linear=0
shrinkage=0.05


Tree=4
num_leaves=63
num_cat=0
split_feature=3 15 14 12 12 10 16 15 14 7 14 15 14 2 16 10 3 5 0 20 18 20 14 16 15 12 14 10 3 12 18 15 2 5 13 16 15 16 5 13 14 16 16 20 15 16 10 16 10 9 0 6 13 18 13 9 12 2 20 2 14 18
split_gain=538.612 274.002 170.405 165.147 96.6382 60.4626 58.2141 171.24 53.6456 45.8809 40.4866 32.0618 31.0359 30.7351 37.7261 28.8855 26.2439 25.6571 33.7909 24.0927 22.4401 22.2029 21.2877 20.1158 20.0644 21.5851 19.5712 19.2839 18.8495 18.5306 18.3279 17.2436 15.8201 15.656 13.9536 13.2138 12.4852 12.5918 12.4741 12.259 12.1793 12.0825 11.9177 11.4596 11.2765 11.1983 12.5404 10.9291 21.1106 10.7716 10.2813 13.913 10.2438 10.1589 10.1033 9.9476 9.87296 10.9804 9.61603 13.9533 9.53233 9.24608
threshold=1.5000000000000002 13.500000000000002 4.5000000000000009 9.5000000000000018 1.5000000000000002 27.500000000000004 17.500000000000004 27.500000000000004 6.5000000000000009 42.500000000000007 7.5000000000000009 57.500000000000007 11.500000000000002 14.500000000000002 3.5000000000000004 8.5000000000000018 9.5000000000000018 10.500000000000002 7.9000000000000012 25.500000000000004 29.500000000000004 16.500000000000004 3.5000000000000004 7.5000000000000009 18.500000000000004 6.5000000000000009 6.5000000000000009 81.500000000000014 7.5000000000000009 15.500000000000002 32.500000000000007 10.500000000000002 39.500000000000007 24.500000000000004 6.5000000000000009 25.500000000000004 44.500000000000007 29.500000000000004 3.5000000000000004 18.500000000000004 1.0000000180025095e-35 23.500000000000004 5.5000000000000009 12.500000000000002 34.500000000000007 9.5000000000000018 13.500000000000002 14.500000000000002 37.500000000000007 5.5000000000000009 7.3000000000000016 8.5000000000000018 23.500000000000004 6.5000000000000009 1.5000000000000002 4.5000000000000009 13.500000000000002 36.500000000000007 8.5000000000000018 29.500000000000004 1.5000000000000002 34.500000000000007
decision_type=2 2 2 2 2 2 2 2 2 2 2 2 2 2 2 2 2 2 2 2 2 2 2 2 2 2 2 2 2 2 2 2 2 2 2 2 2 2 2 2 2 2 2 2 2 2 2 2 2 2 2 2 2 2 2 2 2 2 2 2 2 2
left_child=1 4 17 5 15 8 7 13 45 26 31 16 32 -4 -15 -1 19 18 28 36 52 56 -17 34 50 -26 29 -13 40 -8 -27 43 -5 -21 -19 -23 37 44 -30 -18 -2 -34 -10 54 -11 46 -3 -7 -49 -33 -16 -52 -9 -24 55 -6 57 -14 59 -25 -56 -12
right_child=2 3 6 12 10 47 9 20 42 11 61 27 21 14 24 22 39 23 -20 33 -22 35 53 58 25 30 -28 -29 38 -31 -32 49 41 -35 -36 -37 -38 -39 -40 -41 -42 -43 -44 -45 -46 -47 -48 48 -50 -51 51 -53 -54 -55 60 -57 -58 -59 -60 -61 -62 -63
leaf_value=0.0013685001731466723 0.047259537577629095 0.026993374195363785 -0.022498255720890675 0.022004563083902487 -0.022538935939470928 0.074480793785951141 -0.025513174735447942 0.014979602336078077 0.05321848463034258 -0.0087043258380052179 -0.019075259245241345 -0.0064200454524585187 -0.012736109478606117 0.085582321723499763 -0.012006201353906457 0.077161021024551038 0.014457336862516754 0.012704616545566491 0.056483807223849006 0.071052054191629091 0.073874804157142843 0.064755782898929387 -0.011975350975990296 -0.0071082639197508502 0.041900074947625404 -0.0091848263870425786 -0.025784801730502502 0.07009175509214402 0.033514267819171599 0.025620031598451977 0.042777570318430665 0.059968574608073512 0.078683782279491424 0.010042819529771804 0.071097288339545858 0.0075585413319261179 0.031213339220951587 -0.026006756806424981 -0.027194393277168272 -0.02991003670503159 -0.0092696644181367201 0.013654002696275711 -0.0053550692952492023 0.030624935629500291 0.036236459168915949 0.016162108520178922 0.07371902700749712 0.0078550228162815698 0.066215962555170774 0.016854320302586625 0.062107907642017714 -0.0049727906652081476 0.065193177227463039 0.04288854231126607 0.017429625615477562 0.021746653700020255 -0.020892768419241606 0.029012192998613628 0.028107405663826149 0.052816027775406837 -0.0055433034072862389 0.017006393654369994
leaf_weight=34 9.9999999999999982 18 430 123 14.999999999999998 282 34 37 9.9999999999999982 201 271 13.999999999999998 36 10.999999999999998 778 53 17 13.999999999999998 30 11.999999999999998 60 18 9.9999999999999982 51 37 112 1379 20 55 37 20 17 25 85 38 23 17 116 9.9999999999999982 185 202 9.9999999999999982 66 33 14.999999999999998 13.999999999999998 71 19 84 98 10.999999999999998 26 13.999999999999998 54 51 82 79 28 130 11.999999999999998 394 19
leaf_count=34 10 18 430 123 15 282 34 37 10 201 271 14 36 11 778 53 17 14 30 12 60 18 10 51 37 112 1379 20 55 37 20 17 25 85 38 23 17 116 10 185 202 10 66 33 15 14 71 19 84 98 11 26 14 54 51 82 79 28 130 12 394 19
internal_value=0 0.0211147 -0.0101921 0.0416036 0.00470187 0.0582268 -0.0140898 -0.00666874 0.0342176 -0.0194363 -0.00103517 -0.00874127 0.0141899 -0.0113282 -0.00650088 0.0419357 -0.0112245 0.0157079 0.0060781 -0.00445272 0.0531481 0.000232409 0.0537245 0.0277747 -0.00753026 0.00814884 -0.0244667 0.0385869 0.000619003 0.00113371 -0.00131174 0.00555334 0.0304443 0.0175904 0.0553762 0.0326695 -0.0105793 -0.0127193 0.0241745 -0.0261761 -0.00660319 0.0601038 0.00235198 0.00201846 -0.00558344 0.0577301 0.0642689 0.0693895 0.0554504 0.0232277 -0.0107815 0.0149701 0.0287637 0.0343161 0.000276736 0.0148984 -0.00906774 0.00552877 0.020338 0.00430589 -0.00291045 -0.0167113
internal_weight=0 2037 4220 906 1131 564 3668 1536 179 2132 980 682 342 1425 995 151 648 552 307 446 111 184 117 245 984 169 1450 34 277 71 132 690 158 97 52 41 349 332 65 202 212 35 76 575 216 103 89 385 103 115 815 37 51 64 542 97 143 64 193 63 445 290
internal_count=6257 2037 4220 906 1131 564 3668 1536 179 2132 980 682 342 1425 995 151 648 552 307 446 111 184 117 245 984 169 1450 34 277 71 132 690 158 97 52 41 349 332 65 202 212 35 76 575 216 103 89 385 103 115 815 37 51 64 542 97 143 64 193 63 445 290
is_linear=0
shrinkage=0.05


Tree=5
num_leaves=63
num_cat=0
split_feature=3 15 14 12 12 3 15 16 14 7 15 7 14 0 2 14 18 15 14 0 20 15 0 16 12 16 2 1 7 14 12 17 16 16 18 12 2 14 12 0 7 11 14 20 18 8 2 1 16 13 20 19 2 2 16 15 20 16 13 16 9 18
split_gain=486.097 247.706 153.791 141.514 101.817 54.2697 108.269 90.6217 45.7996 38.6974 36.0172 35.9029 40.6273 34.9011 30.8518 26.706 26.6466 22.9017 23.2323 35.2728 23.5387 22.7009 22.9961 21.8927 19.9688 19.9582 19.2108 15.838 17.4297 15.7445 15.4725 15.1116 14.5764 14.0628 16.4099 12.7692 25.6882 12.5572 12.0626 30.8741 12.0474 11.8737 11.4851 11.2843 11.0988 10.8737 10.6311 12.7401 15.0773 14.7718 10.3423 10.1663 10.0632 10.0318 12.552 9.78324 9.75711 9.56205 9.11821 9.05661 8.97771 8.70699
threshold=1.5000000000000002 15.500000000000002 4.5000000000000009 9.5000000000000018 1.5000000000000002 5.5000000000000009 27.500000000000004 24.500000000000004 7.5000000000000009 25.500000000000004 10.500000000000002 18.500000000000004 6.5000000000000009 7.6500000000000012 11.500000000000002 17.500000000000004 28.500000000000004 11.500000000000002 11.500000000000002 4.8500000000000005 13.500000000000002 18.500000000000004 7.9000000000000012 7.5000000000000009 12.500000000000002 17.500000000000004 36.500000000000007 427.50000000000006 14.500000000000002 15.500000000000002 4.5000000000000009 4.5000000000000009 3.5000000000000004 15.500000000000002 20.500000000000004 4.5000000000000009 13.500000000000002 4.5000000000000009 40.500000000000007 7.3000000000000016 8.5000000000000018 5.5000000000000009 12.500000000000002 13.500000000000002 5.5000000000000009 1.0000000180025095e-35 3.5000000000000004 130.50000000000003 5.5000000000000009 8.5000000000000018 12.500000000000002 3.5000000000000004 15.500000000000002 51.500000000000007 17.500000000000004 50.500000000000007 17.500000000000004 33.500000000000007 1.5000000000000002 8.5000000000000018 4.5000000000000009 25.500000000000004
decision_type=2 2 2 2 2 2 2 2 2 2 2 2 2 2 2 2 2 2 2 2 2 2 2 2 2 2 2 2 2 2 2 2 2 2 2 2 2 2 2 2 2 2 2 2 2 2 2 2 2 2 2 2 2 2 2 2 2 2 2 2 2 2
left_child=1 4 21 11 14 6 17 9 10 -8 50 12 -3 23 37 16 43 32 19 -19 25 22 24 -7 45 27 -20 28 -21 -9 -30 -16 -4 -13 -35 36 40 44 -25 -40 -12 -23 -11 -5 -1 -2 -47 -48 49 -49 58 -18 -10 54 -44 -31 -17 -28 60 -54 -6 -32
right_child=2 3 5 15 8 13 7 29 52 42 35 33 -14 -15 31 56 51 18 26 20 -22 41 -24 38 -26 -27 57 -29 30 55 61 -33 -34 34 -36 -37 -38 -39 39 -41 -42 -43 53 -45 -46 46 47 48 -50 -51 -52 -53 59 -55 -56 -57 -58 -59 -60 -61 -62 -63
leaf_value=-0.00036946646610481874 0.027049355601009569 0.061530081487037772 0.027543982366720839 -0.0055977660110565252 -0.02141198972860972 -0.0022769053414231168 -0.0050500251224328734 0.01535053896995333 -0.025863267683511618 0.074298606821966748 -0.02667266726493835 0.072293141508468217 0.0051233968785803384 0.019397600353607592 0.079889986455440529 -0.012267233585753072 0.027101116095270428 -0.035910009406507015 -0.025398134955271774 -0.0040810649089672302 0.026375111696543177 0.070724904758390036 0.053659618049860004 -0.024658752679432447 0.025056245774388888 -0.022715838174197343 -0.0027761877122507916 -0.041431978344917297 0.05088310903936092 -0.025436553321564678 0.0017971169323690477 0.041016294866800307 -0.022400665093861918 -0.011358058601617814 0.057054610122782248 0.018807077532649409 0.077714904349657804 -0.016485913591459397 -0.019284644052386286 0.078940415978431711 0.04576992365446958 0.026239486626582223 0.055838498654530236 0.027366379253566265 0.049293499800066157 0.029109656674644126 -0.018023657747723448 0.0016125884050360089 -0.0023053460170639989 0.076987979962275577 0.029093688506294381 0.066185691180389111 0.019912886118086486 0.069543302480293362 -0.0024273271103286082 0.013345305621623994 0.029072157956440661 -0.030564662700312009 -0.0027649286454229545 -0.011378658476450513 0.020659320643448512 0.030757627356797459
leaf_weight=18 38 71 14.999999999999998 54 14.999999999999998 130 29 52 117 62 12.000000000000002 277 58 53 50 89 28 72 293 249 80 24 30 1321 130 101 221 20 28 87 93 50 560 9.9999999999999982 71 122 31 20 40 9.9999999999999982 10.999999999999998 40 19 50 30 26 104 13.000000000000002 134 12.999999999999998 33 41 26 23 18 20 17 36 445 209 82 36
leaf_count=18 38 71 15 54 15 130 29 52 117 62 12 277 58 53 50 89 28 72 293 249 80 24 30 1321 130 101 221 20 28 87 93 50 560 10 71 122 31 20 40 10 11 40 19 50 30 26 104 13 134 13 33 41 26 23 18 20 17 36 445 209 82 36
internal_value=0 0.020059 -0.0096825 0.0425186 0.00652317 -0.0133853 -0.0081709 0.0191257 0.00100018 0.0468662 0.00797551 0.058785 0.0361689 -0.0204788 0.0427842 0.0141252 0.026234 -0.0128615 -0.00900815 -0.00282106 0.00110382 0.0149225 0.0112505 -0.0218869 0.00847264 -0.00273243 -0.0166464 0.00200542 0.00414519 -0.00721916 0.0171919 0.0604531 -0.0210978 0.0669343 0.0486086 0.0277672 0.0480104 0.0168005 -0.0237463 0.000360368 0.00797379 0.0429215 0.059207 0.0102504 0.0306699 0.00189987 -0.00139558 -0.00439988 0.00445557 0.0393003 0.00191754 0.0503253 -0.0138818 0.0436123 0.027493 -0.0181876 -0.00563733 -0.00666874 0.000262899 -0.00791662 0.0141534 0.00987912
internal_weight=0 2037 4220 766 1271 3668 2114 310 1103 151 751 487 129 1554 168 279 173 1804 1229 679 607 552 488 1501 458 527 550 426 406 159 157 100 575 358 81 176 54 68 1371 50 23 64 122 104 48 328 290 264 160 26 575 69 352 60 37 107 106 257 542 235 97 129
internal_count=6257 2037 4220 766 1271 3668 2114 310 1103 151 751 487 129 1554 168 279 173 1804 1229 679 607 552 488 1501 458 527 550 426 406 159 157 100 575 358 81 176 54 68 1371 50 23 64 122 104 48 328 290 264 160 26 575 69 352 60 37 107 106 257 542 235 97 129
is_linear=0
shrinkage=0.05


Tree=6
num_leaves=63
num_cat=0
split_feature=3 15 14 12 12 16 15 10 16 7 14 10 14 2 16 15 10 14 5 0 3 18 14 20 11 11 15 12 18 14 12 15 3 7 20 4 15 14 1 5 15 10 16 2 15 0 4 18 20 4 20 7 16 2 12 14 16 2 0 16 15 14
split_gain=438.703 224.443 138.796 134.886 78.6043 49.2004 140.892 39.202 44.912 38.7165 33.7268 27.8745 30.0042 26.5943 32.9829 25.1067 24.3157 22.5523 21.5767 27.6926 21.4719 19.042 17.9348 17.7587 17.6665 17.3712 17.2973 18.6802 15.9488 15.8889 16.2925 15.7885 15.7056 14.4008 13.2405 12.1702 12.0578 11.2177 10.7854 10.6446 9.81299 9.80321 11.5735 9.86711 9.7758 9.33994 11.9367 9.3289 9.317 9.26733 9.69297 9.00996 8.9696 8.94348 8.92204 9.09034 8.72532 8.60111 14.5747 15.1165 18.012 8.45291
threshold=1.5000000000000002 13.500000000000002 4.5000000000000009 8.5000000000000018 1.5000000000000002 17.500000000000004 27.500000000000004 31.500000000000004 13.500000000000002 44.500000000000007 6.5000000000000009 63.500000000000007 11.500000000000002 14.500000000000002 3.5000000000000004 64.500000000000014 8.5000000000000018 9.5000000000000018 10.500000000000002 7.9000000000000012 9.5000000000000018 23.500000000000004 3.5000000000000004 25.500000000000004 2.5000000000000004 9.5000000000000018 18.500000000000004 6.5000000000000009 32.500000000000007 6.5000000000000009 15.500000000000002 44.500000000000007 7.5000000000000009 7.5000000000000009 5.5000000000000009 10.500000000000002 16.500000000000004 3.5000000000000004 63.500000000000007 3.5000000000000004 31.500000000000004 33.500000000000007 24.500000000000004 34.500000000000007 18.500000000000004 7.3000000000000016 12.500000000000002 10.500000000000002 32.500000000000007 3.5000000000000004 7.5000000000000009 25.500000000000004 29.500000000000004 11.500000000000002 4.5000000000000009 1.5000000000000002 6.5000000000000009 35.500000000000007 7.3000000000000016 24.500000000000004 34.500000000000007 10.500000000000002
decision_type=2 2 2 2 2 2 2 2 2 2 2 2 2 2 2 2 2 2 2 2 2 2 2 2 2 2 2 2 2 2 2 2 2 2 2 2 2 2 2 2 2 2 2 2 2 2 2 2 2 2 2 2 2 2 2 2 2 2 2 2 2 2
left_child=1 4 18 7 16 6 13 8 17 29 33 12 34 -4 -15 20 -1 53 19 32 23 -8 -18 31 -20 -25 45 -28 -29 30 -7 52 35 54 -5 38 -19 47 -2 -34 -36 -14 43 -43 -26 61 -47 -35 57 -39 -51 -23 -11 -3 -6 -56 -24 -31 59 60 -59 -16
right_child=2 3 5 11 10 9 21 -9 -10 15 -12 -13 41 14 26 -17 22 36 24 -21 -22 51 56 25 44 -27 27 28 -30 48 -32 -33 39 37 40 -37 -38 49 -40 -41 -42 42 -44 -45 -46 46 -48 -49 -50 50 -52 -53 -54 -55 55 -57 -58 58 -60 -61 -62 -63
leaf_value=0.00056176570189349795 0.030801978707313538 0.021284336048890563 -0.020510513573386818 -0.0084993312018923472 -0.010796866940251393 -0.023441614955663683 0.0078560626701168392 0.065165498535433783 -0.016321835935002926 -0.0046510362941281575 -0.013641644931365654 0.056360666635068696 -0.019032699036626865 0.080470410666682507 -0.0079188789711349388 0.05288988229106454 0.070109843870378885 -0.037720991894602762 0.065071437478065486 0.050976636167615656 -0.022660425523106285 0.018688556614021461 0.040104434273990935 0.070359085958737591 0.01463084225063071 0.0081479163976704207 0.039363750855664952 -0.0081796909555643133 0.040293046464212244 -0.026225846482190531 0.024146188017786355 0.033839933751594456 0.030532707859000027 0.010043072292178091 0.027502326384712835 0.021712111732499165 0.030756465081746384 0.020990643535873724 -0.01490781402666912 -0.025547656714916229 0.073047738464979028 -0.016638215563514018 -0.0078041770214707972 0.037651002050510474 0.038971610854972499 0.0585952696136453 -0.0035388961291083925 0.036144185304375631 0.0072066447660326955 -0.012166814743070289 0.011103849405901403 0.065308899248607069 -0.02309122972632989 0.059901316269616214 0.03521851555754741 -0.00037633538456030298 -0.0057830191002442291 -0.011898052035480418 0.038984578179026196 -0.024666666006953344 0.044075282323448095 -0.020277670998798892
leaf_weight=34 13.999999999999998 17 430 24 157 35 23 317 33 190 342 37 65 10.999999999999998 598 17 53 10.000000000000002 25 30 189 11.999999999999998 51 12.999999999999998 165 82 37 112 20 973 37 21 55 67 131 33 18 70 165 9.9999999999999982 12.999999999999998 10.999999999999998 68 35 55 10.999999999999998 26 70 25 89 90 76 101 127 24 71 12.999999999999998 93 10.999999999999998 328 17 180
leaf_count=34 14 17 430 24 157 35 23 317 33 190 342 37 65 11 598 17 53 10 25 30 189 12 51 13 165 82 37 112 20 973 37 21 55 67 131 33 18 70 165 10 13 11 68 35 55 11 26 70 25 89 90 76 101 127 24 71 13 93 11 328 17 180
internal_value=0 0.019056 -0.00919838 0.0375997 0.00420147 -0.0127161 -0.00589366 0.0541466 0.0371077 -0.0176313 -0.000972655 0.0151061 0.0107072 -0.0101201 -0.00562971 -0.00702474 0.0377819 0.0473588 0.0141764 0.00534547 -0.00873372 0.0483642 0.048598 -0.00226652 0.0252421 0.016661 -0.00659221 0.00796565 -0.000835337 -0.0219116 0.00101323 -0.00802972 0.000403467 0.00581856 0.0258836 -0.00618897 0.00630023 0.0118881 -0.0113327 0.021905 0.0316141 -0.00353656 0.00529895 0.0246688 0.020716 -0.00961096 0.0149334 0.0233794 -0.0230523 0.00556564 -0.000466481 0.0589516 -0.0110512 0.0553424 -0.00347851 0.00861605 0.0307835 -0.0235843 -0.0178599 -0.0192875 -0.00324763 -0.0107782
internal_weight=0 2037 4220 906 1131 3668 1536 522 205 2132 980 384 347 1425 995 613 151 172 552 307 596 111 117 407 245 95 984 169 132 1519 72 312 277 638 168 212 28 386 179 65 144 179 114 46 220 815 37 137 1447 249 179 88 291 144 252 95 64 1422 449 438 110 778
internal_count=6257 2037 4220 906 1131 3668 1536 522 205 2132 980 384 347 1425 995 613 151 172 552 307 596 111 117 407 245 95 984 169 132 1519 72 312 277 638 168 212 28 386 179 65 144 179 114 46 220 815 37 137 1447 249 179 88 291 144 252 95 64 1422 449 438 110 778
is_linear=0
shrinkage=0.05


Tree=7
num_leaves=63
num_cat=0
split_feature=3 15 14 12 12 7 14 3 15 16 7 14 0 14 18 0 16 7 20 5 5 0 4 16 14 16 2 20 15 10 16 10 11 14 18 16 7 2 15 20 12 12 16 13 14 12 0 5 14 14 5 14 15 14 2 15 18 4 10 12 2 0
split_gain=395.929 202.56 125.263 122.043 70.9404 47.3976 47.6496 45.6973 89.5422 74.65 32.5825 30.4385 29.6456 24.0422 23.0452 19.8824 23.0419 27.4509 22.8776 22.1346 19.7186 20.0498 18.8313 18.7574 18.7285 18.2219 22.3217 17.281 17.053 16.8963 14.2753 25.008 14.1136 13.9028 13.0071 14.9266 12.9967 12.5881 12.5666 11.1572 11.2673 11.0833 10.5025 10.1299 10.124 9.93993 25.3476 9.91358 9.90266 9.82217 11.1928 9.81644 9.7905 9.02951 8.95611 8.73607 8.56866 8.36377 8.9145 8.2823 8.59558 8.26479
threshold=1.5000000000000002 13.500000000000002 4.5000000000000009 9.5000000000000018 1.5000000000000002 18.500000000000004 8.5000000000000018 5.5000000000000009 27.500000000000004 24.500000000000004 25.500000000000004 6.5000000000000009 7.6500000000000012 11.500000000000002 6.5000000000000009 4.5500000000000007 17.500000000000004 20.500000000000004 13.500000000000002 42.500000000000007 17.500000000000004 7.9000000000000012 5.5000000000000009 7.5000000000000009 12.500000000000002 3.5000000000000004 8.5000000000000018 16.500000000000004 12.500000000000002 12.500000000000002 14.500000000000002 37.500000000000007 3.5000000000000004 15.500000000000002 35.500000000000007 10.500000000000002 7.5000000000000009 39.500000000000007 4.5000000000000009 9.5000000000000018 6.5000000000000009 20.500000000000004 23.500000000000004 8.5000000000000018 3.5000000000000004 40.500000000000007 7.3000000000000016 33.500000000000007 1.5000000000000002 12.500000000000002 40.500000000000007 3.5000000000000004 11.500000000000002 3.5000000000000004 38.500000000000007 10.500000000000002 47.500000000000007 3.5000000000000004 12.500000000000002 13.500000000000002 36.500000000000007 7.3000000000000016
decision_type=2 2 2 2 2 2 2 2 2 2 2 2 2 2 2 2 2 2 2 2 2 2 2 2 2 2 2 2 2 2 2 2 2 2 2 2 2 2 2 2 2 2 2 2 2 2 2 2 2 2 2 2 2 2 2 2 2 2 2 2 2 2
left_child=1 4 20 5 14 6 43 8 15 10 -10 36 23 37 48 -4 17 25 61 34 21 38 -16 -9 -20 26 -17 59 -27 -24 -7 -32 -22 47 35 39 -6 -5 -2 40 -19 -29 -39 53 55 -25 -47 -11 -1 -12 -51 -40 -34 -3 -26 -38 -35 -46 -59 60 -15 -18
right_child=2 3 7 13 11 30 -8 12 9 33 49 -13 -14 27 22 16 18 19 24 -21 32 -23 29 45 54 28 -28 41 -30 -31 31 -33 52 56 -36 -37 44 42 51 -41 -42 -43 -44 -45 57 46 -48 -49 -50 50 -52 -53 -54 -55 -56 -57 -58 58 -60 -61 -62 -63
leaf_value=0.034930494431262983 -0.0091509929082045968 0.056217013654254737 -0.034880185760985845 0.018931246029091922 -0.0033045808710633695 0.066282968739274459 -0.0077829080996877067 -0.001735614322197552 -0.0049320575789195201 -0.016498836233992786 0.067986287549138075 -0.012959562900169122 0.018162179028369346 -0.011127109297861655 0.068971830549148419 -0.022381333075463763 -0.025360118264992099 0.046451574165581003 0.014605265926235381 -0.039066534099124729 0.079864435430083966 0.048427804361175129 -0.014253701203886202 -0.022436582666081867 -0.027249909535166806 -0.019181379715292945 0.076981861316240754 0.049282787024974822 -0.0033398171667335975 0.043913989379367933 0.00093603011779487132 0.058060808670593468 -0.0095649092749226852 -0.024093190336134288 0.061332122821893015 0.002500817051454299 0.01566776848372279 0.07023922589421272 0.016009773780824615 0.064148600144605883 -0.0074580485821657246 -0.0040098572149872783 0.0096102736145257956 0.058937748758277543 0.019941111872238775 -0.017525334842503071 0.071475440859794612 0.030041388893233878 -0.020111864161762326 0.0090675983671098942 0.054878594009205695 -0.0045077799907099307 0.033621387129764341 0.014517177619478284 -0.0071262026637501225 0.046576237909752752 0.01035089900960093 -0.021584072116857922 0.0054460977780399844 -0.019166657250209513 0.025810364547318651 0.013674278610519001
leaf_weight=12.999999999999998 102 21 87 123 252 271 59 130 29 17 62 342 53 36 52 10.000000000000002 432 18 78 21 13.999999999999998 30 17 1321 80 349 12.999999999999998 25 331 47 25 82 15.999999999999998 84 13.999999999999998 138 108 25 240 19 21 15.999999999999998 9.9999999999999982 72 70 40 9.9999999999999982 35 22 20 40 77 73 34 179 29 23 39 140 79 28 13.999999999999998
leaf_count=13 102 21 87 123 252 271 59 130 29 17 62 342 53 36 52 10 432 18 78 21 14 30 17 1321 80 349 13 25 331 47 25 82 16 84 14 138 108 25 240 19 21 16 10 72 70 40 10 35 22 20 40 77 73 34 179 29 23 39 140 79 28 14
internal_value=0 0.0181032 -0.00873846 0.0357197 0.0039914 0.0500098 0.0293466 -0.0120803 -0.00729536 0.0175285 0.0427061 -0.000924023 -0.0185895 0.0121535 0.0358928 -0.0115611 -0.0103795 -0.00507616 -0.0167056 0.00987748 0.0134676 0.00894138 0.0466222 -0.0198872 -0.00687351 -0.0099898 0.0337805 -0.000131194 -0.0114703 0.0284632 0.0601774 0.0447139 0.0331983 -0.00638232 0.0147719 0.0114462 0.00552763 0.0264597 0.00611419 0.0327299 0.0174233 0.0284857 0.0529167 0.0465957 0.0112937 -0.0216083 0.00027482 0.0148263 0.00033244 0.0540299 0.0396083 0.011026 0.0258576 0.0304389 -0.013342 0.0222104 -0.0166893 0.00528736 -0.000443157 -0.00833603 0.00503304 -0.0241348
internal_weight=0 2037 4220 906 1131 564 186 3668 2114 310 151 980 1554 342 151 1804 1717 934 783 231 552 449 116 1501 337 703 23 184 680 64 378 107 103 159 210 196 638 158 419 58 39 41 35 127 386 1371 50 52 35 122 60 317 89 55 259 137 107 249 179 143 64 446
internal_count=6257 2037 4220 906 1131 564 186 3668 2114 310 151 980 1554 342 151 1804 1717 934 783 231 552 449 116 1501 337 703 23 184 680 64 378 107 103 159 210 196 638 158 419 58 39 41 35 127 386 1371 50 52 35 122 60 317 89 55 259 137 107 249 179 143 64 446
is_linear=0
shrinkage=0.05


Tree=8
num_leaves=63
num_cat=0
split_feature=3 15 14 16 14 10 3 15 16 15 7 0 13 16 7 15 0 14 20 1 15 16 0 11 2 16 16 20 14 10 15 1 7 16 13 14 15 14 20 11 14 20 10 6 4 17 10 14 2 0 16 13 0 18 14 16 14 10 14 16 19 7
split_gain=357.326 183.29 113.05 96.5173 63.0761 46.1807 41.2418 80.8118 67.3716 36.4672 29.4057 26.7551 26.4065 21.1332 42.497 18.4039 18.793 29.1149 19.4671 18.0434 17.1241 16.9654 16.9423 15.7848 15.4071 14.8652 14.729 14.3459 14.0898 13.3246 13.2934 12.798 14.5353 12.9716 13.8295 12.5473 11.9493 11.1335 10.3436 10.2327 10.1281 9.95725 9.7122 9.27046 9.25929 9.15863 12.074 9.97236 9.05882 26.6586 9.76426 12.1286 9.5967 8.93447 9.49817 8.87153 8.86451 9.64161 8.47021 8.38138 8.27033 8.2194
threshold=1.5000000000000002 15.500000000000002 4.5000000000000009 15.500000000000002 7.5000000000000009 59.500000000000007 5.5000000000000009 27.500000000000004 24.500000000000004 10.500000000000002 25.500000000000004 7.6500000000000012 9.5000000000000018 6.5000000000000009 10.500000000000002 11.500000000000002 4.5500000000000007 11.500000000000002 13.500000000000002 101.50000000000001 18.500000000000004 8.5000000000000018 7.9000000000000012 3.5000000000000004 36.500000000000007 17.500000000000004 7.5000000000000009 7.5000000000000009 11.500000000000002 21.500000000000004 4.5000000000000009 427.50000000000006 14.500000000000002 9.5000000000000018 13.500000000000002 15.500000000000002 2.5000000000000004 25.500000000000004 9.5000000000000018 5.5000000000000009 18.500000000000004 3.5000000000000004 34.500000000000007 18.500000000000004 9.5000000000000018 7.5000000000000009 9.5000000000000018 1.5000000000000002 47.500000000000007 7.3000000000000016 21.500000000000004 30.500000000000004 6.9500000000000011 7.5000000000000009 1.0000000180025095e-35 26.500000000000004 12.500000000000002 41.500000000000007 3.5000000000000004 24.500000000000004 1.0000000180025095e-35 3.5000000000000004
decision_type=2 2 2 2 2 2 2 2 2 2 2 2 2 2 2 2 2 2 2 2 2 2 2 2 2 2 2 2 2 2 2 2 2 2 2 2 2 2 2 2 2 2 2 2 2 2 2 2 2 2 2 2 2 2 2 2 2 2 2 2 2 2
left_child=1 4 20 12 9 28 7 15 10 13 -9 21 26 14 53 36 -17 18 25 -16 22 -8 30 44 -19 31 -3 58 29 -5 61 32 -18 34 -34 -10 -4 -7 45 -22 -14 -25 -30 -6 -11 46 47 -32 -23 50 51 -50 -52 54 -1 -45 -12 -58 60 -44 -15 -2
right_child=2 3 6 5 43 37 11 8 35 23 56 -13 40 27 19 16 17 24 -20 -21 39 48 -24 41 -26 -27 -28 -29 42 -31 38 -33 33 -35 -36 -37 -38 -39 -40 -41 -42 -43 59 55 -46 -47 -48 -49 49 -51 52 -53 -54 -55 -56 -57 57 -59 -60 -61 -62 -63
leaf_value=0.043836084622889765 0.016894278489053251 0.043257296925819505 0.027261053185377804 -0.018550337733406769 -0.014449089706746732 0.059438091522601794 -0.0029397450671531261 -0.0046854546327738033 0.014084999560593413 0.054946447061239814 0.064586973399104131 0.017254070417498643 0.05881369352025885 0.022814699222466775 0.074119366753485891 -0.033277550712227821 -0.003445158612169142 -0.022230308165268359 0.024455075096338989 0.028770099714398385 0.062922673701541504 -0.022619817401515321 0.046006413426560665 -0.023348173437019192 -0.0054573053588315209 -0.019264626344389257 -0.0028461130832632387 0.01159946316507675 -0.021193721059157893 0.027574689795388685 0.02859475075577696 -0.037011107802391051 0.018579756019806323 0.0082094248735391697 0.083626375290063726 -0.015854854747722639 -0.019504966190642611 0.0025201374292373661 0.025512147195298564 0.021625609223265202 0.018146251328289509 0.024367767883979572 0.025690046474902018 0.053382602967321863 0.0055514598265290266 -0.0034384693713767119 0.024651312241710875 -0.026856220304965973 -0.014264865693015353 0.067901665866374972 0.017222257869948143 0.056823590658605094 -0.02191648627479266 0.016062891222916695 -0.0065682128579779113 -0.0059682044036248154 -0.00048279972173846685 0.048169092195940781 -0.021015461318521819 -0.0058729035330229796 -0.0081811609187273562 -0.016566588183960472
leaf_weight=9.9999999999999982 24 41 13.999999999999998 19 333 61 150 29 52 69 62 53 355 28 31 67 254 293 80 75 24 1100 30 11.999999999999998 257 101 30 124 54 89 11.999999999999998 20 22 122 12.999999999999998 107 561 9.9999999999999982 99 40 15.999999999999998 123 33 10.000000000000002 10.999999999999998 122 98 25 15.000000000000002 9.9999999999999982 17 9.9999999999999982 199 98 143 17 12.999999999999998 47 94 58 93 78
leaf_count=10 24 41 14 19 333 61 150 29 52 69 62 53 355 28 31 67 254 293 80 75 24 1100 30 12 257 101 30 124 54 89 12 20 22 122 13 107 561 10 99 40 16 123 33 10 11 122 98 25 15 10 17 10 199 98 143 17 13 47 94 58 93 78
internal_value=0 0.0171981 -0.00830154 0.0365178 0.00555454 0.015788 -0.0114762 -0.00693059 0.0166521 0.0125565 0.0405708 -0.01766 0.0517135 0.00699651 0.0154866 -0.010983 -0.0075287 -0.00604404 0.00145888 0.0420326 0.0127942 -0.0188928 0.00960498 0.0305555 -0.0143927 -0.0019992 0.023777 -0.00194441 0.00578804 0.0194601 0.00722061 0.00204676 0.00394739 0.0159073 0.0427399 -0.0060632 -0.0183663 0.0514215 0.0117803 0.037112 0.0570598 0.0201264 -0.0043953 -0.0121644 0.0481546 0.00649053 0.0154634 -0.00887212 -0.020664 -0.0120929 -0.0154122 0.0141705 -0.0188361 0.00427598 -0.00327381 0.0160136 0.0513284 0.0376278 -0.00975577 0.005573 -0.00100857 -0.00869344
internal_weight=0 2037 4220 766 1271 324 3668 2114 310 911 151 1554 442 696 357 1804 1229 1162 612 106 552 1501 488 215 550 532 71 339 253 108 458 431 411 157 35 159 575 71 356 64 371 135 145 360 80 257 135 37 1351 251 241 25 216 251 153 27 122 60 215 91 121 102
internal_count=6257 2037 4220 766 1271 324 3668 2114 310 911 151 1554 442 696 357 1804 1229 1162 612 106 552 1501 488 215 550 532 71 339 253 108 458 431 411 157 35 159 575 71 356 64 371 135 145 360 80 257 135 37 1351 251 241 25 216 251 153 27 122 60 215 91 121 102
is_linear=0
shrinkage=0.05


Tree=9
num_leaves=63
num_cat=0
split_feature=3 15 14 12 12 16 15 20 10 14 14 2 10 16 2 12 16 14 16 15 2 10 16 15 0 12 8 2 7 14 15 0 14 12 7 0 1 3 12 11 10 8 2 1 16 13 14 18 16 3 18 16 10 3 7 18 16 20 3 18 16 11
split_gain=322.487 165.951 102.028 101.374 59.0339 38.8729 118.327 30.1985 26.8294 29.216 24.8952 24.1632 23.3201 28.1572 21.8011 26.6913 20.991 20.779 20.0764 27.8947 19.9263 18.652 16.2531 15.4545 15.2904 14.733 14.6167 13.206 11.8998 11.5136 19.7379 12.0814 11.2736 12.0043 11.1431 9.69088 9.58617 9.43553 14.367 9.39156 8.85999 8.73869 8.99743 9.62028 12.8259 12.3629 8.18673 9.02743 8.18424 8.13638 8.06161 9.55258 7.77738 7.65889 7.562 7.4496 9.23895 10.8969 7.14571 7.06329 6.73289 8.57507
threshold=1.5000000000000002 13.500000000000002 4.5000000000000009 7.5000000000000009 1.5000000000000002 18.500000000000004 27.500000000000004 25.500000000000004 57.500000000000007 11.500000000000002 6.5000000000000009 43.500000000000007 25.500000000000004 9.5000000000000018 14.500000000000002 2.5000000000000004 30.500000000000004 22.500000000000004 32.500000000000007 44.500000000000007 9.5000000000000018 41.500000000000007 6.5000000000000009 18.500000000000004 7.9000000000000012 12.500000000000002 4.5000000000000009 39.500000000000007 69.500000000000014 11.500000000000002 18.500000000000004 7.4500000000000011 6.5000000000000009 15.500000000000002 5.5000000000000009 6.9500000000000011 142.50000000000003 3.5000000000000004 12.500000000000002 6.5000000000000009 18.500000000000004 1.0000000180025095e-35 3.5000000000000004 130.50000000000003 5.5000000000000009 8.5000000000000018 3.5000000000000004 10.500000000000002 3.5000000000000004 1.0000000180025095e-35 30.500000000000004 9.5000000000000018 44.500000000000007 4.5000000000000009 29.500000000000004 22.500000000000004 24.500000000000004 13.500000000000002 1.0000000180025095e-35 18.500000000000004 4.5000000000000009 2.5000000000000004
decision_type=2 2 2 2 2 2 2 2 2 2 2 2 2 2 2 2 2 2 2 2 2 2 2 2 2 2 2 2 2 2 2 2 2 2 2 2 2 2 2 2 2 2 2 2 2 2 2 2 2 2 2 2 2 2 2 2 2 2 2 2 2 2
left_child=1 4 23 12 20 6 14 11 9 27 34 32 13 40 -4 26 -10 28 19 37 48 -8 36 24 25 41 -16 -5 -9 30 31 -17 33 -7 -6 -20 -22 38 -13 -25 58 -2 -43 60 45 -45 47 -36 -1 -48 51 -32 -12 -52 -31 -11 57 -57 -3 -53 61 -44
right_child=2 3 5 8 10 7 21 17 16 55 52 18 -14 -15 15 29 -18 -19 35 -21 22 -23 -24 39 -26 -27 -28 -29 -30 54 50 -33 -34 -35 46 -37 -38 -39 -40 -41 -42 42 43 44 -46 -47 49 -49 -50 -51 53 59 -54 -55 -56 56 -58 -59 -60 -61 -62 -63
leaf_value=0.026286964526829812 0.023759561649670729 0.043101377670581531 -0.017993986257744898 0.01747236124582317 -0.0060042667039261581 -0.021239222784837086 0.015274253034860725 0.0094093295341978467 0.063450420241464273 -0.016693123759000335 -0.013528002311865121 0.057751855786357609 0.054512956380592975 -0.0093970182570902745 0.088721690623258978 -0.0072442752452423946 -0.00064389500766992569 -0.018043172569898302 0.016361144995864701 0.048697417129117709 0.067436519703444317 0.055335233158931685 -0.0045542485479797635 0.055646899081766614 0.043706092586119974 0.021104128957085778 0.012839535210902493 0.053812456652522093 0.059771359196076027 -0.019907468655124053 0.049508013060459724 0.03545398348531522 -0.022649643631686023 0.025178613896983178 0.0073429918135473234 -0.022796050767231332 0.033737613071894483 -0.0091269434147595099 -0.0029766243649646642 0.017264798375104234 0.058073686718940733 0.026323340339765241 0.026596337819800659 0.00085089536240467642 -0.0030448186211287976 0.069807159900665286 0.0099290106501430282 0.029271937574607783 -0.014203409757465126 -0.0078931505792995578 0.077648990154266337 -0.033980518037622628 0.021164337479892902 0.015766477612778548 -0.00067764011978664824 0.0043332737242413122 -0.012693731653246474 0.053827512279773754 0.00063250933308154353 0.010527920892630566 -0.026606015203749792 -0.019817854960759482
leaf_weight=26 38 26 474 150 171 30 45 120 44 77 325 13.999999999999998 356 34 11.000000000000002 650 18 79 17 26 51 82 13.999999999999998 30 30 130 14.999999999999998 30 12.999999999999998 206 12.999999999999998 17 1177 26 108 224 36 251 32 34 50 26 17 13.000000000000002 134 12.999999999999998 175 83 24 101 10.000000000000002 10.999999999999998 17 9.9999999999999982 68 43 47 14.999999999999998 15.999999999999998 47 63 24
leaf_count=26 38 26 474 150 171 30 45 120 44 77 325 14 356 34 11 650 18 79 17 26 51 82 14 30 30 130 15 30 13 206 13 17 1177 26 108 224 36 251 32 34 50 26 17 13 134 13 175 83 24 101 10 11 17 10 68 43 47 15 16 47 63 24
internal_value=0 0.0163382 -0.00788646 0.0322834 0.00356506 -0.0109024 -0.00523814 -0.0155799 0.014451 0.00924584 -0.000918933 -0.0176855 0.04797 0.0294837 -0.00908284 -0.00509051 0.0448424 0.00226763 -0.00911282 -0.00096426 0.0326665 0.0411404 0.0454461 0.0121545 0.00912473 0.00685958 0.0449435 0.023529 0.0143319 -0.00635106 -0.00317583 -0.00615601 -0.0216068 0.000311916 0.00491576 -0.0200339 0.0534921 -0.00531175 0.015506 0.0352564 0.0438526 0.00121387 -0.00174039 -0.00450425 0.00319093 0.035329 0.00891431 0.0168723 0.00685158 0.00340713 0.018668 0.0107694 -0.0118035 0.0467077 -0.0151351 -0.0048804 0.00378227 0.0171335 0.0269228 0.00208667 -0.016343 -0.000572946
internal_weight=0 2037 4220 906 1131 3668 1659 2009 424 362 980 1797 482 126 1532 1058 62 212 564 323 151 127 101 552 488 458 26 180 133 1032 758 667 1233 56 638 241 87 297 46 64 92 328 290 264 160 26 467 191 50 276 91 71 342 20 274 182 105 58 42 58 104 41
internal_count=6257 2037 4220 906 1131 3668 1659 2009 424 362 980 1797 482 126 1532 1058 62 212 564 323 151 127 101 552 488 458 26 180 133 1032 758 667 1233 56 638 241 87 297 46 64 92 328 290 264 160 26 467 191 50 276 91 71 342 20 274 182 105 58 42 58 104 41
is_linear=0
shrinkage=0.05


Tree=10
num_leaves=63
num_cat=0
split_feature=3 15 14 12 12 16 15 14 20 10 15 2 2 2 16 16 16 15 14 20 10 5 0 16 15 3 16 3 1 14 7 8 17 10 12 15 4 16 10 7 14 13 14 14 0 1 16 8 5 5 15 3 12 2 4 5 4 18 14 12 16 20
split_gain=291.044 150.142 92.0802 87.0503 63.1932 35.0828 106.791 29.352 27.2541 25.2661 24.7903 21.8305 20.9367 19.6755 25.5881 19.0074 18.8921 25.3471 18.7531 18.6962 16.8441 16.2454 18.8392 16.0513 13.9066 16.3931 13.2989 11.9576 11.4745 10.7952 10.7396 10.5351 10.5202 10.4619 10.359 10.3258 9.89857 9.86688 19.404 9.76503 10.1387 9.57142 9.19762 9.12678 8.85953 8.76736 8.73279 16.9433 9.78969 8.5655 8.44113 8.28185 11.6422 8.11398 8.30369 8.02092 9.43676 7.88955 7.85988 9.79641 8.74337 8.62821
threshold=1.5000000000000002 15.500000000000002 4.5000000000000009 9.5000000000000018 1.5000000000000002 18.500000000000004 27.500000000000004 7.5000000000000009 25.500000000000004 24.500000000000004 10.500000000000002 42.500000000000007 11.500000000000002 14.500000000000002 3.5000000000000004 11.500000000000002 32.500000000000007 44.500000000000007 22.500000000000004 9.5000000000000018 42.500000000000007 10.500000000000002 7.9000000000000012 7.5000000000000009 18.500000000000004 2.5000000000000004 24.500000000000004 7.5000000000000009 366.50000000000006 6.5000000000000009 69.500000000000014 3.5000000000000004 4.5000000000000009 44.500000000000007 15.500000000000002 10.500000000000002 10.500000000000002 15.500000000000002 42.500000000000007 3.5000000000000004 4.5000000000000009 17.500000000000004 14.500000000000002 18.500000000000004 6.9500000000000011 63.500000000000007 10.500000000000002 9.5000000000000018 17.500000000000004 3.5000000000000004 13.500000000000002 3.5000000000000004 12.500000000000002 15.500000000000002 7.5000000000000009 21.500000000000004 14.500000000000002 14.500000000000002 1.5000000000000002 4.5000000000000009 1.5000000000000002 12.500000000000002
decision_type=2 2 2 2 2 2 2 2 2 2 2 2 2 2 2 2 2 2 2 2 2 2 2 2 2 2 2 2 2 2 2 2 2 2 2 2 2 2 2 2 2 2 2 2 2 2 2 2 2 2 2 2 2 2 2 2 2 2 2 2 2 2
left_child=1 4 21 9 12 6 13 10 11 15 41 29 39 -4 -15 -3 17 51 30 -5 -8 22 27 35 46 31 28 36 -21 34 -10 -26 -14 -12 -7 -23 45 -11 -39 -1 -41 58 55 -28 -18 -2 47 48 -16 -29 -50 52 -13 -9 57 -27 -57 -55 59 -6 -60 -62
right_child=2 3 5 19 7 8 20 53 18 37 33 16 32 14 24 -17 44 -19 -20 26 -22 23 -24 -25 25 42 43 49 -30 -31 -32 -33 -34 -35 -36 -37 -38 38 -40 40 -42 -43 -44 -45 -46 -47 -48 -49 50 -51 -52 -53 -54 54 -56 56 -58 -59 60 -61 61 -63
leaf_value=-0.026827721584301731 0.027405530320746559 0.035308387380704957 -0.017094286894356981 -0.0059240338549993582 -0.007190067909898297 -0.019543810651220128 0.014920083986109365 -0.022040445879937559 0.0089388629794120798 0.055240022280745829 0.019643830572232516 0.050556863347689308 0.064322959646582606 0.07102576236833226 -0.0076991921145906708 -0.017372341113893883 0.015543087715666523 0.046262545797687314 -0.017141013865983941 0.010431446310664928 0.052805742860576259 0.017621159013360737 0.041520788557827475 0.014505528805444472 0.075698596239089977 -0.012415416145490276 0.018978614259200791 0.026308706531470473 0.046346313402545261 -0.021670212000578209 0.056782788725999692 0.019196687254941825 0.031888110361993315 0.072303488254547119 0.023919683379622608 0.06341879026731477 0.019218374929870621 -0.004400264810432087 0.050374206164699113 0.035107039765287666 -0.012159151863306761 0.047382218526168307 -0.020602111218878155 -0.016177018806338313 -0.021845827772743728 -0.013806591160934079 -0.014162908988054541 0.050246694710637842 -0.0035894523409660908 -0.023997506201267244 0.043607173500479102 -0.0085706295365305385 -0.0028277931502088908 -0.011523182044426601 -0.0099229720695501178 0.059172050451690508 0.0085893289762009918 0.03595477183560087 0.044157017171382908 0.028724416284536831 -0.0046099987236458704 0.026785488944986592
leaf_weight=12.999999999999998 13.999999999999998 67 474 105 31 29 46 117 120 314 166 14.999999999999998 50 10.999999999999998 434 23 17 26 79 35 81 20 30 193 10.999999999999998 36 48 55 61 1155 12.999999999999998 33 50 9.9999999999999982 26 32 33 22 61 39 15.999999999999998 10.999999999999998 44 30 233 165 369 13.999999999999998 20 9.9999999999999982 18 264 32 14.999999999999998 199 10.999999999999998 57 21 9.9999999999999982 49 451 23
leaf_count=13 14 67 474 105 31 29 46 117 120 314 166 15 50 11 434 23 17 26 79 35 81 20 30 193 11 36 48 55 61 1155 13 33 50 10 26 32 33 22 61 39 16 11 44 30 233 165 369 14 20 10 18 264 32 15 199 11 57 21 10 49 451 23
internal_value=0 0.0155213 -0.00749214 0.033007 0.00498306 -0.0103573 -0.00497624 0.000631954 -0.0148009 0.0457649 0.00621604 -0.0168012 0.0335501 -0.0086287 -0.00483599 0.0218455 -0.00888893 -0.00116308 0.00215424 0.0107379 0.0390834 0.0115468 0.00388412 0.0211485 -0.00563301 0.00652714 0.0207925 -0.000192058 0.0332524 -0.0206396 0.0136153 0.0333222 0.0481055 0.0226359 0.00100257 0.0458043 -0.00594436 0.0511874 0.0358557 0.0121451 0.0213569 0.00119015 -0.00143894 0.00545722 -0.0193034 -0.0105833 -0.00836371 -0.00396061 -0.00556845 0.0185693 0.0187668 -0.00512792 0.0142099 -0.0112818 -0.0059254 0.00666855 0.0167718 0.0161723 0.00028924 0.0148076 -0.00211048 -0.00308659
internal_weight=0 2037 4220 766 1271 3668 1659 1103 2009 487 751 1797 168 1532 1058 90 587 337 212 279 127 552 307 245 1047 192 174 277 96 1210 133 44 100 176 55 52 212 397 83 68 55 575 148 78 250 179 855 486 472 65 38 311 47 352 235 104 68 36 564 80 484 474
internal_count=6257 2037 4220 766 1271 3668 1659 1103 2009 487 751 1797 168 1532 1058 90 587 337 212 279 127 552 307 245 1047 192 174 277 96 1210 133 44 100 176 55 52 212 397 83 68 55 575 148 78 250 179 855 486 472 65 38 311 47 352 235 104 68 36 564 80 484 474
is_linear=0
shrinkage=0.05


Tree=11
num_leaves=63
num_cat=0
split_feature=3 15 12 14 12 3 15 16 7 14 7 16 0 14 20 0 18 14 0 16 5 0 16 4 16 16 18 16 9 3 18 16 7 14 15 7 15 15 4 20 18 5 20 14 0 1 14 14 18 5 14 18 3 18 7 3 4 20 15 12 13 18
split_gain=262.667 135.928 83.1981 83.1023 47.98 32.7171 62.774 44.8912 24.1467 32.4318 21.7359 34.6522 21.5735 20.5154 19.0072 18.0122 17.2747 16.9353 20.6159 14.7327 14.6614 17.0024 14.4863 13.9537 13.9414 13.7722 13.1867 12.7144 11.7218 10.7918 10.6031 10.1059 9.633 9.33176 11.2072 9.75127 9.31901 9.28045 8.93346 8.70728 8.6738 7.99844 7.9594 12.0528 8.2816 7.91254 7.88636 7.78806 8.81716 7.73036 7.19994 7.94673 7.27833 7.11488 7.07757 26.0666 6.98143 6.91198 9.14991 8.68446 6.70922 6.57839
threshold=1.5000000000000002 13.500000000000002 8.5000000000000018 4.5000000000000009 1.5000000000000002 5.5000000000000009 33.500000000000007 24.500000000000004 18.500000000000004 8.5000000000000018 20.500000000000004 18.500000000000004 7.6500000000000012 6.5000000000000009 10.500000000000002 6.9500000000000011 6.5000000000000009 6.5000000000000009 4.5500000000000007 3.5000000000000004 10.500000000000002 7.9000000000000012 7.5000000000000009 5.5000000000000009 7.5000000000000009 23.500000000000004 35.500000000000007 10.500000000000002 41.500000000000007 7.5000000000000009 7.5000000000000009 22.500000000000004 5.5000000000000009 8.5000000000000018 38.500000000000007 24.500000000000004 10.500000000000002 49.500000000000007 10.500000000000002 13.500000000000002 26.500000000000004 17.500000000000004 13.500000000000002 12.500000000000002 7.3000000000000016 63.500000000000007 1.5000000000000002 16.500000000000004 47.500000000000007 3.5000000000000004 3.5000000000000004 10.500000000000002 1.0000000180025095e-35 34.500000000000007 61.500000000000007 8.5000000000000018 27.500000000000004 8.5000000000000018 18.500000000000004 9.5000000000000018 8.5000000000000018 36.500000000000007
decision_type=2 2 2 2 2 2 2 2 2 2 2 2 2 2 2 2 2 2 2 2 2 2 2 2 2 2 2 2 2 2 2 2 2 2 2 2 2 2 2 2 2 2 2 2 2 2 2 2 2 2 2 2 2 2 2 2 2 2 2 2 2 2
left_child=1 4 8 20 16 6 10 28 9 60 17 15 24 32 33 -12 46 18 -5 -20 21 29 36 -18 -7 40 27 -17 -8 38 -21 -10 -6 35 -35 -4 -22 -9 45 -32 -16 -29 44 56 -13 -2 -1 -27 -49 -31 51 -34 -52 -15 -26 -56 -44 58 59 -24 -3 -39
right_child=3 2 14 5 13 12 7 37 31 -11 11 42 -14 53 25 26 23 -19 19 30 22 -23 57 -25 54 47 -28 41 -30 49 39 -33 50 34 -36 -37 -38 61 -40 -41 -42 -43 43 -45 -46 -47 -48 48 -50 -51 52 -53 -54 -55 55 -57 -58 -59 -60 -61 -62 -63
leaf_value=0.029508280009031298 0.026035253118191451 0.026637440342456103 0.0040654586134196233 -0.030836431670989563 -0.005713878431471817 -0.00080537131342750328 0.051317270774522729 -0.013560423111686341 0.051266768552116398 -0.0076474867152924444 -0.034090194106101993 -0.019221488944855102 0.016004291609070211 -0.012487333433026084 0.019233256493331581 0.030720084584960995 0.05794893064034673 -0.018196749494818063 0.059222776666283609 -0.023152173625735139 0.016740101035684348 0.039444749106963481 -0.022198336783589592 0.023078914972575151 -0.018934757552917937 0.020239404194731397 0.056433987741669023 -0.011330522734743472 -0.0058429660651017918 0.02499327042055401 -0.00065326708190176371 0.0063473170766463654 0.0066792642136095787 -0.011318200716665545 0.041358833827755674 0.053865354499014632 0.060247850860469049 -0.011643822491168972 0.018257456430883119 0.038448614676793419 0.048038878012448549 0.011897667254819427 -0.0037707665383263874 -0.0093724294579263789 0.027345902463421223 -0.013116261736250828 -0.019611813297325916 -0.021992183787127337 0.03222085715737194 -0.022797631025314333 0.0091608043682894543 0.027253792292427227 -0.0076954320077738253 0.018996586057504542 0.042938307825137273 -0.018864289446929961 0.030284628907547281 0.020367308149042612 0.041617780466648664 0.022073949908372015 0.050618185539330757 0.038935457583930758
leaf_weight=12.999999999999998 13.999999999999998 50 33 67 171 130 87 65 340 49 20 211 53 323 49 67 52 659 9.9999999999999982 52 20 30 36 64 1273 58 18 52 9.9999999999999982 55 280 12.999999999999998 108 123 10.999999999999998 13.999999999999998 32 10.000000000000002 33 14.999999999999998 56 129 27 273 9.9999999999999982 165 22 30 9.9999999999999982 9.9999999999999982 175 83 101 19 22 76 34 130 10.999999999999998 15.999999999999998 70 18
leaf_count=13 14 50 33 67 171 130 87 65 340 49 20 211 53 323 49 67 52 659 10 52 20 30 36 64 1273 58 18 52 10 55 280 13 108 123 11 14 32 10 33 15 56 129 27 273 10 165 22 30 10 10 175 83 101 19 22 76 34 130 11 16 70 18
internal_value=0 0.0147452 0.0291762 -0.00711753 0.00318508 -0.00983945 -0.00579075 0.0216271 0.0421717 0.0266297 -0.00849833 -0.00246756 -0.0153471 -0.000857367 0.0115105 0.0116709 0.0294208 -0.0131815 -0.00538658 -0.000610282 0.0109694 0.00368991 0.0200911 0.0387103 -0.0164542 0.0220145 0.0151115 0.0121123 0.0454245 -0.000182455 -0.00233458 0.0496125 0.00443927 -0.000270256 -0.00699397 0.0188995 0.0435141 -0.00319384 -0.00564714 0.00133496 0.0345963 0.00522438 -0.0097533 -0.00488265 -0.0171144 -0.0100541 -0.00136721 0.00853396 -0.00843892 0.0176408 0.00815702 0.01562 0.0029924 -0.0107382 -0.017938 -0.00499024 0.0152109 0.0137803 0.000187915 -0.00857609 0.0406262 0.0208714
internal_weight=0 2037 906 4220 1131 3668 2114 190 522 169 1924 841 1554 980 384 286 151 1083 424 357 552 307 245 116 1501 203 266 248 97 277 347 353 638 181 134 47 52 93 212 295 105 181 555 334 221 179 35 98 40 65 467 191 276 342 1371 98 61 193 63 52 120 28
internal_count=6257 2037 906 4220 1131 3668 2114 190 522 169 1924 841 1554 980 384 286 151 1083 424 357 552 307 245 116 1501 203 266 248 97 277 347 353 638 181 134 47 52 93 212 295 105 181 555 334 221 179 35 98 40 65 467 191 276 342 1371 98 61 193 63 52 120 28
is_linear=0
shrinkage=0.05


Tree=12
num_leaves=63
num_cat=0
split_feature=12 15 14 2 16 15 16 14 15 16 10 2 2 11 16 0 16 10 16 20 9 14 7 12 9 6 16 0 14 18 19 16 2 10 5 16 10 7 14 4 4 1 14 18 14 5 5 15 18 16 18 12 5 20 16 18 16 9 16 20 5 19
split_gain=192.577 157.228 83.0015 53.9801 60.4278 44.2538 122.6 37.5847 35.3545 26.8901 26.5269 25.299 23.9635 23.7421 22.5759 18.3952 21.835 17.8302 17.5482 18.4866 14.1652 17.345 17.5096 13.8649 13.5007 12.9483 12.8094 15.4171 12.7825 10.3938 10.0443 9.95734 12.0889 9.95462 9.83878 15.9934 9.81045 9.67491 10.1271 9.64099 9.53907 10.33 8.93608 9.36654 8.76056 8.72061 8.3009 8.17959 7.97125 7.9066 7.93902 7.55311 7.23951 7.12461 6.83224 6.73395 9.06342 6.71062 6.35936 6.2159 8.81838 8.25957
threshold=5.5000000000000009 18.500000000000004 3.5000000000000004 11.500000000000002 7.5000000000000009 29.500000000000004 23.500000000000004 7.5000000000000009 16.500000000000004 4.5000000000000009 47.500000000000007 23.500000000000004 32.500000000000007 3.5000000000000004 21.500000000000004 6.9500000000000011 15.500000000000002 7.5000000000000009 31.500000000000004 18.500000000000004 35.500000000000007 11.500000000000002 69.500000000000014 18.500000000000004 5.5000000000000009 6.5000000000000009 14.500000000000002 7.4500000000000011 18.500000000000004 13.500000000000002 8.5000000000000018 9.5000000000000018 14.500000000000002 20.500000000000004 25.500000000000004 15.500000000000002 9.5000000000000018 5.5000000000000009 1.0000000180025095e-35 4.5000000000000009 13.500000000000002 223.50000000000003 1.5000000000000002 7.5000000000000009 18.500000000000004 14.500000000000002 27.500000000000004 40.500000000000007 48.500000000000007 6.5000000000000009 28.500000000000004 3.5000000000000004 9.5000000000000018 15.500000000000002 13.500000000000002 10.500000000000002 7.5000000000000009 4.5000000000000009 14.500000000000002 5.5000000000000009 4.5000000000000009 1.5000000000000002
decision_type=2 2 2 2 2 2 2 2 2 2 2 2 2 2 2 2 2 2 2 2 2 2 2 2 2 2 2 2 2 2 2 2 2 2 2 2 2 2 2 2 2 2 2 2 2 2 2 2 2 2 2 2 2 2 2 2 2 2 2 2 2 2
left_child=1 3 24 9 13 7 10 8 23 37 46 31 26 17 45 -13 40 -5 19 48 21 30 -23 57 -2 33 27 29 -12 -9 -14 32 -6 -15 -10 -36 -19 38 -1 -26 41 54 -39 -44 53 -3 -7 -30 -8 -31 -51 -34 -38 -20 -17 -11 -57 -4 -48 60 -59 -61
right_child=2 14 5 4 11 6 18 12 34 55 28 15 20 25 -16 16 -18 36 44 -21 -22 22 -24 -25 39 -27 -28 -29 47 49 -32 -33 51 -35 35 -37 52 42 -40 -41 -42 -43 43 -45 -46 -47 58 -49 -50 50 -52 -53 -54 -55 -56 56 -58 59 -60 61 -62 -63
leaf_value=0.045352899283170704 -0.019192912511527539 0.013653500064423211 0.022035178805297047 -0.0048463056882610545 -0.028794180016432493 -0.013271663497601236 -0.021062952148226594 -0.019193775071221039 0.0093088494271211242 -0.017105545443420491 0.056019643966007886 -0.023433363978224604 0.0071854275701763483 -0.0059978217049910312 -0.0067655908919516065 0.0051101974047282166 -0.014759256805364902 0.07998320050537587 -0.019413932277981577 0.018615528960969855 -0.019654467002461283 -0.0084465703309612641 0.050172289747458243 0.013562694000905718 -0.0090094007342925355 0.043433915675971019 -0.019571728359236512 0.038632925646379594 -0.019248267798684535 0.030055300792446362 0.049151040939614178 -0.019175584167154008 0.048999506958267262 0.037597138807177549 0.067553511448204526 0.017011412317450677 0.024526438862085345 0.051391788457027257 -0.0074686721499477114 0.020964669487204966 -0.0086830163747072236 0.07136196686035913 -0.0046966610753789865 0.02407880867109962 -0.019845844937852866 0.048480480682250263 0.046416032165288924 0.043232901936227627 0.026889084577560424 -0.0096705828723993078 0.022743817995346728 -0.0041734981350600719 0.051817148123489754 0.012654937812408737 0.043093151197983674 0.021754589498621121 -0.012109687460225917 0.020907154964903991 0.013239863042074902 0.010604138801614421 -0.019030175139116843 -0.0076640194709483526
leaf_weight=9.9999999999999982 25 19 19 15.999999999999998 13.999999999999998 21 65 215 87 262 111 23 131 57 21 17 26 24 29 94 170 635 12.999999999999998 88 29 29 1081 15.999999999999998 10.000000000000002 15.999999999999998 15.999999999999998 119 17.000000000000004 17 24 45 32 17 98 358 9.9999999999999982 23 47 71 276 333 20 10.999999999999998 9.9999999999999982 188 21 10.999999999999998 101 43 39 29 62 14.999999999999998 52 70 176 533
leaf_count=10 25 19 19 16 14 21 65 215 87 262 111 23 131 57 21 17 26 24 29 94 170 635 13 88 29 29 1081 16 10 16 16 119 17 17 24 45 32 17 98 358 10 23 47 71 276 333 20 11 10 188 21 11 101 43 39 29 62 15 52 70 176 533
internal_value=0 0.0153255 -0.0050207 0.00632041 0.0172498 -0.00707435 0.0040333 -0.00939014 -0.00148485 -0.00422392 0.0348415 0.0016768 -0.0127298 0.0341206 0.0435961 0.0173862 0.0255501 0.045436 -0.00937454 0.00384413 -0.00655428 -0.00375299 -0.00727057 -0.00528985 0.0164181 0.0151151 -0.0166071 -0.00957917 0.049252 -0.0113323 0.0117531 -0.0117884 0.00914201 0.00401724 0.0204915 0.0345913 0.0505603 0.00857659 -0.00257779 0.0187186 0.0373259 0.0431498 0.0175001 0.0126174 -0.015794 0.0466006 0.014388 0.01348 -0.0146693 -0.00382029 -0.00641363 0.0281101 0.045251 -0.00026169 0.0315626 -0.0130356 -0.00131778 -0.00733046 0.0224555 -0.00803317 -0.0158937 -0.00554334
internal_weight=0 1544 4713 1171 575 4301 742 3559 1057 596 225 299 2502 276 373 138 115 173 517 169 965 795 648 901 412 103 1537 456 132 440 147 161 42 74 156 69 157 243 108 387 89 79 135 118 348 352 93 21 75 225 209 28 133 72 56 353 91 813 72 794 191 603
internal_count=6257 1544 4713 1171 575 4301 742 3559 1057 596 225 299 2502 276 373 138 115 173 517 169 965 795 648 901 412 103 1537 456 132 440 147 161 42 74 156 69 157 243 108 387 89 79 135 118 348 352 93 21 75 225 209 28 133 72 56 353 91 813 72 794 191 603
is_linear=0
shrinkage=0.05


Tree=13
num_leaves=63
num_cat=0
split_feature=3 2 12 14 14 2 16 3 7 16 13 7 16 20 0 9 16 5 14 16 5 14 0 7 5 17 14 11 0 5 4 16 16 1 11 16 14 20 14 5 13 2 0 16 17 7 7 16 12 0 18 11 9 1 14 8 5 16 13 2 20 5
split_gain=219.289 69.3454 108.631 68.2353 33.5565 28.4413 39.8027 27.6435 46.3164 39.5523 30.5065 21.065 29.2237 19.4258 19.162 18.0211 16.2067 14.2199 13.494 13.4742 12.5632 12.4938 16.2459 11.868 11.708 11.6321 11.2646 11.0003 10.9322 10.8344 10.0056 9.99112 9.71819 12.1762 9.44989 9.09416 8.80025 8.78766 8.73997 8.29338 8.2562 7.80118 16.9057 8.58127 9.41751 7.67181 7.55012 7.5028 7.35499 7.28618 6.98816 6.96388 6.73056 6.59972 6.42251 6.72601 6.81439 8.39117 9.25272 6.32942 6.28413 6.08881
threshold=1.5000000000000002 16.500000000000004 9.5000000000000018 4.5000000000000009 6.5000000000000009 29.500000000000004 11.500000000000002 4.5000000000000009 20.500000000000004 18.500000000000004 26.500000000000004 10.500000000000002 5.5000000000000009 10.500000000000002 7.6500000000000012 37.500000000000007 3.5000000000000004 42.500000000000007 9.5000000000000018 45.500000000000007 17.500000000000004 7.5000000000000009 4.5500000000000007 35.500000000000007 27.500000000000004 5.5000000000000009 7.5000000000000009 3.5000000000000004 7.9000000000000012 25.500000000000004 22.500000000000004 30.500000000000004 14.500000000000002 348.50000000000006 3.5000000000000004 14.500000000000002 1.5000000000000002 18.500000000000004 11.500000000000002 7.5000000000000009 18.500000000000004 47.500000000000007 7.3000000000000016 22.500000000000004 25.500000000000004 23.500000000000004 5.5000000000000009 8.5000000000000018 12.500000000000002 6.9500000000000011 6.5000000000000009 9.5000000000000018 31.500000000000004 63.500000000000007 1.0000000180025095e-35 1.0000000180025095e-35 8.5000000000000018 5.5000000000000009 8.5000000000000018 57.500000000000007 3.5000000000000004 14.500000000000002
decision_type=2 2 2 2 2 2 2 2 2 2 2 2 2 2 2 2 2 2 2 2 2 2 2 2 2 2 2 2 2 2 2 2 2 2 2 2 2 2 2 2 2 2 2 2 2 2 2 2 2 2 2 2 2 2 2 2 2 2 2 2 2 2
left_child=1 4 5 20 11 6 26 8 16 10 15 36 60 59 18 24 25 40 29 52 28 22 -18 -15 34 -5 61 -22 48 47 50 -25 -7 -34 -10 -31 53 -37 -26 -14 51 -20 43 44 -43 -6 -38 -9 54 -45 -24 -11 -19 -1 -2 -56 -57 58 -58 -4 -13 -3
right_child=3 2 13 7 45 32 -8 14 9 17 -12 12 39 23 -16 -17 21 19 41 -21 27 -23 30 31 38 -27 -28 -29 -30 35 -32 -33 33 -35 -36 37 46 -39 -40 -41 -42 42 -44 49 -46 -47 -48 -49 -50 -51 -52 -53 -54 -55 55 56 57 -59 -60 -61 -62 -63
leaf_value=-0.011093830908922589 0.039808338433504106 0.030983802702361615 -0.010903522190763742 0.070995602831244439 -0.01766816350663962 0.051417372542693546 -0.0068034378431477381 -0.0011700731961544128 0.034913478924759794 -0.011955261783483107 0.057462302943070732 0.024815982742057669 -0.01599829474946967 0.0050588282972987572 0.0023362416078059659 -0.031604461442856564 -0.028911409994114692 0.039923547659859518 -0.019243219890299201 -0.020630568573656291 0.066833907259362085 -0.017583867091843786 -0.023326205618952107 0.042433943759117812 0.048891582498326897 -0.0020205358198533458 0.015190309072555653 0.01915448331117128 0.035430612290898965 0.056062216311693197 0.037795755018790567 0.0074567661381193572 0.0040160497167596116 0.042973597852799757 0.0027050050769428739 -0.0096509760112634731 -0.0090643050232131015 0.037220286232020172 0.014932928381798169 0.014357704040939334 -0.016835178882044194 -0.0078785959491506196 0.05402334421873093 0.016134999385651421 0.049719434299252255 0.0072613605088868967 0.0052225826464257106 -0.01504943799658337 0.015714665266680711 -0.017834402674101125 -0.0014390446812930432 0.010044196505426758 0.0090578520768567136 0.023589469283871668 0.020049026778296515 -0.010402531263779009 0.0027798715668420002 -0.0028579397143863412 0.055951481610536584 0.021876117261126638 0.057409186027711258 0.049093529558500527
leaf_weight=17 9.9999999999999982 89 185 10.000000000000002 186 222 77 149 28 70 45 21 27 178 185 21 67 33 1024 23 13.999999999999998 512 41 49 40 11.999999999999998 58 89 30 9.9999999999999982 14.999999999999998 35 27 78 122 35 157 13.999999999999998 36 135 174 20.000000000000004 9.9999999999999982 17 10.999999999999998 37 225 281 104 221 330 74 38 71 34 155 18 83 14.999999999999998 15.999999999999998 50 97
leaf_count=17 10 89 185 10 186 222 77 149 28 70 45 21 27 178 185 21 67 33 1024 23 14 512 41 49 40 12 58 89 30 10 15 35 27 78 122 35 157 14 36 135 174 20 10 17 11 37 225 281 104 221 330 74 38 71 34 155 18 83 15 16 50 97
internal_value=0 0.0134727 0.0218951 -0.00650331 0.00336778 0.0351109 0.0245383 -0.00896977 -0.00427641 0.00552159 0.0195991 0.00872855 0.0210212 0.00339868 -0.0129842 0.012701 -0.0112651 -0.0044557 -0.0145658 0.0126295 0.0098861 -0.0122325 -0.00618408 0.0123692 0.0168179 0.0311686 0.034429 0.0256352 0.00627328 -0.00748325 -0.00223918 0.0278601 0.0454894 0.0329559 0.00871725 0.0126088 0.00263456 0.00374081 0.0328059 0.00929837 -0.00950603 -0.0172238 -0.00981195 -0.012185 0.0125594 -0.0135319 -0.000649253 -0.0102401 0.00418564 -0.015408 -0.00385784 -0.000649985 0.0234039 0.0168893 0.000379234 -0.000913523 -0.00354351 0.00562156 0.0269488 -0.0082942 0.0477689 0.0404281
internal_weight=0 2037 1111 4220 926 648 321 3668 1691 704 292 703 233 463 1977 247 987 412 1792 94 552 965 453 262 226 22 244 103 449 489 386 84 327 105 150 59 470 49 76 162 318 1303 279 269 31 223 382 430 419 238 371 144 71 88 315 305 271 116 33 201 71 186
internal_count=6257 2037 1111 4220 926 648 321 3668 1691 704 292 703 233 463 1977 247 987 412 1792 94 552 965 453 262 226 22 244 103 449 489 386 84 327 105 150 59 470 49 76 162 318 1303 279 269 31 223 382 430 419 238 371 144 71 88 315 305 271 116 33 201 71 186
is_linear=0
shrinkage=0.05


Tree=14
num_leaves=63
num_cat=0
split_feature=3 15 14 12 12 7 14 3 15 16 7 14 20 14 15 14 20 16 7 2 10 15 20 16 16 7 16 10 16 11 16 10 15 20 10 1 14 4 15 6 2 16 15 11 14 2 14 9 12 7 17 16 18 12 4 15 18 12 2 3 9 1
split_gain=197.908 104.668 61.5823 61.0517 35.923 26.8936 28.9281 25.2561 47.8541 48.9358 21.7985 15.7037 15.6929 14.491 13.6806 19.8072 13.5954 13.3549 14.2787 11.0489 10.5944 10.5833 10.4838 9.89973 9.38168 8.93937 8.74275 14.2288 19.7697 9.43547 8.62211 15.644 8.29277 8.1341 8.08155 8.07746 7.96832 9.3436 12.1366 11.4529 9.29325 7.73904 12.4063 11.3329 7.94891 7.66686 7.59157 7.58718 7.37024 7.34354 7.30394 6.84008 6.77537 6.73599 6.65272 6.62436 6.21654 6.16609 6.14329 5.84839 5.83118 5.80846
threshold=1.5000000000000002 13.500000000000002 4.5000000000000009 9.5000000000000018 1.5000000000000002 18.500000000000004 8.5000000000000018 9.5000000000000018 27.500000000000004 23.500000000000004 25.500000000000004 7.5000000000000009 15.500000000000002 11.500000000000002 12.500000000000002 11.500000000000002 14.500000000000002 6.5000000000000009 3.5000000000000004 35.500000000000007 40.500000000000007 19.500000000000004 16.500000000000004 3.5000000000000004 44.500000000000007 69.500000000000014 16.500000000000004 17.500000000000004 10.500000000000002 7.5000000000000009 14.500000000000002 37.500000000000007 32.500000000000007 12.500000000000002 45.500000000000007 427.50000000000006 3.5000000000000004 5.5000000000000009 5.5000000000000009 4.5000000000000009 3.5000000000000004 4.5000000000000009 8.5000000000000018 3.5000000000000004 1.5000000000000002 6.5000000000000009 30.500000000000004 7.5000000000000009 8.5000000000000018 9.5000000000000018 23.500000000000004 14.500000000000002 34.500000000000007 20.500000000000004 5.5000000000000009 42.500000000000007 29.500000000000004 13.500000000000002 11.500000000000002 3.5000000000000004 8.5000000000000018 378.50000000000006
decision_type=2 2 2 2 2 2 2 2 2 2 2 2 2 2 2 2 2 2 2 2 2 2 2 2 2 2 2 2 2 2 2 2 2 2 2 2 2 2 2 2 2 2 2 2 2 2 2 2 2 2 2 2 2 2 2 2 2 2 2 2 2 2
left_child=1 4 21 5 17 6 58 8 14 10 -10 20 -11 32 23 16 26 18 -1 -17 33 36 57 -4 46 50 27 -16 29 -29 -7 -32 -5 41 -12 56 37 38 -2 45 -39 42 49 -44 54 -40 55 -20 -46 -6 59 -23 -13 -24 -43 -14 -30 61 -3 -21 -42 -15
right_child=2 3 7 13 11 30 -8 -9 9 12 34 52 24 22 15 19 -18 -19 47 25 -22 51 53 -25 -26 -27 -28 28 35 -31 31 -33 -34 -35 -36 -37 -38 40 39 -41 60 44 43 -45 48 -47 -48 -49 -50 -51 -52 -53 -54 -55 -56 -57 -58 -59 -60 -61 -62 -63
leaf_value=-0.016179477583084786 -0.018774820614123236 0.0063836055497328448 0.021216349107654475 0.016056174849747012 -0.0031729078021001176 0.047973509662530334 -0.0089253295402405616 -0.018114262079217014 -0.0045595961169172554 -0.018235207888926189 0.021656700573861598 -0.012629460889267877 0.0098649689609914826 -0.015709298273103071 -0.0063776075114270999 -0.017554764804650343 0.01738698658544224 -0.010650667074051771 0.047978219210498912 0.017742669745348393 0.049830692975471422 0.049705592304468159 0.037759744167327886 -0.015267121831634907 -0.013535842526141765 0.036393940200408301 -0.013544916602842816 0.045923431044634942 0.00014610970689153129 0.0037616431075883543 -0.0034142357409000395 0.041767111643240221 0.054026481416076425 0.021052995178400091 0.046778157620240797 -0.029822736978530884 -0.0047957322338100421 0.048175496309995652 -0.0091300938024439608 -0.026677085229983702 0.0048944938223718145 -0.012894939184188842 0.065496175078784705 -0.0015845604962669312 -0.010497320479588953 0.039258355546917305 -0.02398540015731539 0.021853252870843134 0.0040313965606522595 0.019748101763281168 -0.016559773014536757 0.013410299036789825 0.018257431455544735 -0.0037865850841626528 0.026430187033685416 0.040488670185385718 0.03350206322502345 -0.01647850306457074 0.0379135231837767 -0.0052181430655764416 0.019866378271304396 0.015683839897193561
leaf_weight=13.999999999999998 54 18 19 142 111 271 59 578 39 123 50 271 111 23 389 455 86 22 68 32 11.999999999999998 25 25 870 53 11.999999999999998 171 44 110 19 25 82 15.999999999999998 54 89 20 109 20 10.999999999999998 12.999999999999998 123 14.999999999999998 17.000000000000004 9.9999999999999982 247 32 13.999999999999998 47 135 51 139 27 19 15.999999999999998 38 21 15.999999999999998 79 109 208 138 41
leaf_count=14 54 18 19 142 111 271 59 578 39 123 50 271 111 23 389 455 86 22 68 32 12 25 25 870 53 12 171 44 110 19 25 82 16 54 89 20 109 20 11 13 123 15 17 10 247 32 14 47 135 51 139 27 19 16 38 21 16 79 109 208 138 41
internal_value=0 0.0127991 -0.00617815 0.0254625 0.002655 0.0355696 0.0200048 -0.00852128 -0.00672687 0.00743483 0.0284734 -0.000842846 -0.00419519 0.00879453 -0.00946078 -0.00683371 -0.00146671 0.0253563 0.031497 -0.0122578 0.00326044 0.00939179 -0.000742771 -0.0144874 0.00448281 -0.00609384 -0.00357519 -0.000724309 0.00979786 0.033208 0.0432285 0.0312107 0.0199013 0.00243619 0.0377417 -0.000303765 0.0071591 0.0104918 -0.00186187 0.014447 0.0153277 0.000825117 0.00927275 0.0406515 -0.00284523 0.0268799 0.0110238 0.0373011 -0.00536283 0.00404297 -0.00743909 0.03086 -0.0106058 0.0215465 0.0153004 0.0147369 0.00438179 -0.00713341 0.0334447 -0.0021567 0.0128107 0.00440193
internal_weight=0 2037 4220 906 1131 564 186 3668 3090 500 178 980 322 342 2590 1701 855 151 129 846 690 552 184 889 199 391 769 598 209 63 378 107 158 678 139 146 500 391 110 56 281 624 189 27 435 43 146 115 382 162 379 52 290 41 53 132 126 143 127 240 261 64
internal_count=6257 2037 4220 906 1131 564 186 3668 3090 500 178 980 322 342 2590 1701 855 151 129 846 690 552 184 889 199 391 769 598 209 63 378 107 158 678 139 146 500 391 110 56 281 624 189 27 435 43 146 115 382 162 379 52 290 41 53 132 126 143 127 240 261 64
is_linear=0
shrinkage=0.05


Tree=15
num_leaves=63
num_cat=0
split_feature=3 15 12 14 12 16 15 10 18 12 7 14 2 14 2 16 10 14 15 18 5 0 16 16 15 3 17 9 20 14 7 4 20 8 2 3 15 11 12 16 18 2 14 20 16 16 12 18 14 14 5 4 0 2 5 7 18 15 14 1 2 12
split_gain=178.612 94.6372 68.1551 55.5781 29.1061 23.5301 67.2923 21.6039 21.398 21.0762 18.97 18.264 15.0797 14.2842 14.0778 19.2119 13.0218 12.8016 16.6768 11.3988 10.6221 12.2233 11.881 10.5513 9.7194 12.2112 9.39013 8.7879 8.6687 8.62898 17.3567 9.33679 8.57296 8.3184 8.29591 7.89121 7.562 7.47596 7.30372 8.83814 12.0954 9.2077 7.11687 7.06305 7.05844 7.00869 6.88944 8.87153 6.87269 6.59609 6.52838 6.71454 6.4178 7.43429 6.27304 6.03692 5.94717 6.51097 5.88713 5.71619 5.65262 9.31901
threshold=1.5000000000000002 11.500000000000002 7.5000000000000009 4.5000000000000009 1.5000000000000002 18.500000000000004 27.500000000000004 18.500000000000004 27.500000000000004 19.500000000000004 44.500000000000007 9.5000000000000018 9.5000000000000018 5.5000000000000009 14.500000000000002 3.5000000000000004 51.500000000000007 31.500000000000004 53.500000000000007 23.500000000000004 10.500000000000002 7.9000000000000012 7.5000000000000009 6.5000000000000009 18.500000000000004 2.5000000000000004 4.5000000000000009 16.500000000000004 32.500000000000007 5.5000000000000009 18.500000000000004 8.5000000000000018 25.500000000000004 3.5000000000000004 39.500000000000007 7.5000000000000009 10.500000000000002 9.5000000000000018 6.5000000000000009 4.5000000000000009 7.5000000000000009 8.5000000000000018 1.0000000180025095e-35 10.500000000000002 30.500000000000004 14.500000000000002 13.500000000000002 11.500000000000002 14.500000000000002 5.5000000000000009 21.500000000000004 14.500000000000002 7.0500000000000007 35.500000000000007 3.5000000000000004 25.500000000000004 1.5000000000000002 4.5000000000000009 13.500000000000002 142.50000000000003 29.500000000000004 9.5000000000000018
decision_type=2 2 2 2 2 2 2 2 2 2 2 2 2 2 2 2 2 2 2 2 2 2 2 2 2 2 2 2 2 2 2 2 2 2 2 2 2 2 2 2 2 2 2 2 2 2 2 2 2 2 2 2 2 2 2 2 2 2 2 2 2 2
left_child=1 4 7 20 12 6 14 26 11 16 28 -4 -1 38 -5 -16 27 18 32 -8 21 35 36 59 45 33 -3 34 49 -9 31 -31 -12 -26 -10 42 -22 -34 39 40 -6 -42 -2 -29 -39 46 -17 -48 50 -7 -27 -52 -51 -54 -37 -21 -44 -58 -30 -14 61 -24
right_child=3 2 8 5 13 10 19 29 9 -11 17 -13 23 -15 15 24 -18 -19 -20 55 22 -23 60 -25 25 48 -28 43 58 30 -32 -33 37 -35 -36 54 -38 44 -40 -41 41 -43 56 -45 -46 -47 47 -49 -50 52 51 -53 53 -55 -56 -57 57 -59 -60 -61 -62 -63
leaf_value=-0.00072882148720647974 0.035943744815886018 0.034844001434976235 0.012967864447696643 -0.013748475911836476 -0.0046259276817242302 0.0076790909965833033 0.0010294918082654476 0.047824742120191541 0.010848978683352467 -0.009744929211835068 -0.0066379072897903187 -0.011055501172268124 0.052541483636531564 -0.010315458101610541 0.062354418601502072 -0.0056012272073966245 0.050550180583793139 -0.019859444237433785 0.035198215399092687 0.0094077367335557941 0.01378038650378585 0.033042282288273182 -0.010269488083819549 -0.011416974799199538 0.06687707440419631 -0.010988271639992794 0.001400828284791625 -0.0093252270723934525 0.029745788106487855 0.037004939809833708 0.040094631684896825 -0.0063184192455891103 0.047156668826937677 0.016670230815582204 0.070476088140692034 0.021307002023412763 0.052972629037685695 0.01742290709009196 0.010853862297230376 -0.0092111873273924266 0.01240160316625174 0.055341622101909974 0.026869310624897481 0.024121152310583153 -0.012484476194196546 -0.015645298170686769 0.055510435104370121 0.0033381660595874895 -0.017344538037749855 -0.016639808549480616 0.051109270548278643 0.0084416003889616655 -0.0094411066104657954 0.038612343167716806 -0.021744118332862855 0.043753447203800595 -0.022411649147625213 -0.0028279622963127047 -0.015466413646936418 0.025377655440174479 0.032188254774168687 0.015409327974269652
leaf_weight=46 9.9999999999999982 32 165 474 90 30 25 181 10.000000000000002 39 374 152 45 339 10.999999999999998 637 56 109 30 14.999999999999998 20 30 51 10.999999999999998 10.999999999999998 36 61 27 18.000000000000004 19 217 36 11.999999999999998 33 13.999999999999998 55 32 47 185 176 47 17 11.999999999999998 38 34 164 9.9999999999999982 44 44 1302 10.999999999999998 57 30 10.999999999999998 9.9999999999999982 87 64 126 11.999999999999998 34 27 115
leaf_count=46 10 32 165 474 90 30 25 181 10 39 374 152 45 339 11 637 56 109 30 15 20 30 51 11 11 36 61 27 18 19 217 36 12 33 14 55 32 47 185 176 47 17 12 38 34 164 10 44 44 1302 11 57 30 11 10 87 64 126 12 34 27 115
internal_value=0 0.0121592 0.0226389 -0.00586924 0.00107606 -0.00809522 -0.00368831 0.0348588 0.00932135 0.0228844 -0.0117344 0.00144877 0.0225595 -0.00234519 -0.00658767 -0.00337952 0.0316606 -0.00434163 -0.000938323 0.0312866 0.0089222 0.0027261 0.0166863 0.0344624 -0.00407013 0.00609584 0.0129082 0.019775 -0.0149275 0.0393652 0.0337359 0.00864783 -0.00325973 0.0292219 0.0456315 -0.000557241 0.0378987 0.0103256 0.00290125 -0.00155703 0.00719058 0.0238075 -0.00523019 0.010228 0.00486919 -0.00635301 -0.00414761 0.0129997 -0.000779488 -0.0155085 0.0062288 0.0153437 -0.0160265 0.00345128 0.0146838 0.0387026 -0.0072685 -0.00942457 0.0116609 0.0408507 0.010971 0.00752005
internal_weight=0 2037 1047 4220 990 3668 1659 546 501 184 2009 317 136 854 1532 1058 145 606 497 127 552 307 245 90 1047 192 93 89 1403 453 272 55 467 44 24 277 52 93 515 330 154 64 212 65 81 855 691 54 148 1373 104 68 1343 41 65 102 202 190 30 79 193 166
internal_count=6257 2037 1047 4220 990 3668 1659 546 501 184 2009 317 136 854 1532 1058 145 606 497 127 552 307 245 90 1047 192 93 89 1403 453 272 55 467 44 24 277 52 93 515 330 154 64 212 65 81 855 691 54 148 1373 104 68 1343 41 65 102 202 190 30 79 193 166
is_linear=0
shrinkage=0.05


Tree=16
num_leaves=63
num_cat=0
split_feature=3 10 14 14 15 16 3 15 16 18 12 16 0 12 2 16 0 14 20 20 10 15 15 7 15 5 11 18 2 14 0 18 12 16 16 5 16 7 14 15 18 5 14 12 15 14 20 19 16 18 11 5 12 14 7 16 20 10 7 3 8 19
split_gain=161.198 85.7683 50.1592 49.8618 45.4392 44.0646 21.9668 41.7667 31.7243 20.8802 17.8626 17.0025 15.476 15.3437 13.5417 13.3865 12.09 13.8392 11.9547 11.6357 11.574 11.3719 9.78252 12.5115 10.3263 9.76964 9.6653 9.61734 9.21731 8.93649 8.75981 8.66814 10.1831 8.48352 8.41388 7.52633 7.47088 7.41135 13.8102 6.98672 6.88155 6.82371 6.36365 6.31562 6.02922 6.76107 5.96977 5.82672 5.7593 10.0537 5.74888 5.5718 6.40949 5.85981 5.52582 6.03245 12.2459 6.69551 5.47514 5.41778 5.34552 5.2366
threshold=1.5000000000000002 36.500000000000007 4.5000000000000009 7.5000000000000009 10.500000000000002 23.500000000000004 4.5000000000000009 18.500000000000004 18.500000000000004 29.500000000000004 1.5000000000000002 7.5000000000000009 7.0500000000000007 4.5000000000000009 8.5000000000000018 9.5000000000000018 3.1550000000000007 6.5000000000000009 14.500000000000002 25.500000000000004 16.500000000000004 42.500000000000007 3.5000000000000004 7.5000000000000009 8.5000000000000018 17.500000000000004 3.5000000000000004 22.500000000000004 22.500000000000004 3.5000000000000004 7.9000000000000012 33.500000000000007 12.500000000000002 11.500000000000002 3.5000000000000004 7.5000000000000009 41.500000000000007 60.500000000000007 17.500000000000004 11.500000000000002 16.500000000000004 9.5000000000000018 16.500000000000004 15.500000000000002 4.5000000000000009 3.5000000000000004 13.500000000000002 2.5000000000000004 8.5000000000000018 14.500000000000002 4.5000000000000009 48.500000000000007 22.500000000000004 15.500000000000002 15.500000000000002 10.500000000000002 7.5000000000000009 23.500000000000004 37.500000000000007 6.5000000000000009 2.5000000000000004 4.5000000000000009
decision_type=2 2 2 2 2 2 2 2 2 2 2 2 2 2 2 2 2 2 2 2 2 2 2 2 2 2 2 2 2 2 2 2 2 2 2 2 2 2 2 2 2 2 2 2 2 2 2 2 2 2 2 2 2 2 2 2 2 2 2 2 2 2
left_child=1 3 25 4 10 42 7 16 9 13 14 20 15 -9 34 28 -4 22 31 50 -6 -7 23 -18 -24 30 -27 48 -8 -16 44 -10 -33 -29 -1 -13 51 -17 -39 -28 -15 -31 43 -3 59 -46 -12 -26 49 -5 -14 53 -53 -20 -19 56 -56 -58 -44 60 -2 -11
right_child=2 5 6 27 11 21 12 8 18 61 46 35 19 40 29 37 17 54 36 -21 -22 -23 24 -25 47 26 39 33 -30 41 -32 32 -34 -35 -36 -37 -38 38 -40 -41 -42 -43 58 -45 45 -47 -48 -49 -50 -51 -52 52 -54 -55 55 -57 57 -59 -60 -61 -62 -63
leaf_value=0.017093554727341 5.6497143073515462e-05 0.042397383485037632 -0.029706716583325313 -0.011804020925071733 0.021019887599273961 -0.0010600812087120774 -0.0042000408429885283 0.052044564642404256 -0.018613610612789804 0.033135047441141478 -0.00068650909143460432 -0.024213736165653577 -0.015804961316494479 -0.028205518921216328 0.050815636340553895 -0.015477949009704601 -0.011555085564032194 -0.016270271756178786 0.018325085744548303 0.019934546457241395 0.047568612805796121 0.048366823448584631 -0.018869276348711321 0.061670954951218195 0.018139186467291141 0.060982262875352591 -0.013634052546694876 0.027537060169310408 0.032647340019282538 -0.018586367238312959 0.031390167772769928 0.039191075949929655 -0.0080057797254994515 -0.0028060095391992945 -0.033000382234652841 0.018295331980006244 -0.010364718553729547 0.048262085650975894 -0.010711239699629092 0.022848081785215909 0.0085603928388861411 0.027709894904341455 0.0031542034819722177 0.0038426662456582891 0.0109597381684398 -0.0060679761190935008 0.022990515575345077 -0.0008363196248708471 -0.015746570068506792 0.026674661729096744 -0.00029902658614936926 0.049036035473857612 0.0043635899917437481 -0.0088690285396296527 -0.016196304635593184 -0.010018506446606755 -0.0018057735264301296 0.049221753893006183 0.038847033998795917 0.019563733879476786 -0.024881594672444322 0.05935782028201643
leaf_weight=19 44 309 65 58 67 111 159 19 112 45 541 10.999999999999998 90 14.999999999999998 37 1422 10.000000000000002 334 52 54 106 12.999999999999998 71 13.999999999999998 49 13.999999999999998 15.999999999999998 29 19 9.9999999999999982 30 15.999999999999998 40 112 14.999999999999998 195 39 12.999999999999998 42 73 84 39 22 10.999999999999998 240 77 28 232 259 24 178 21 12.999999999999998 32 27 340 10.000000000000002 18 21 15.999999999999998 42 33
leaf_count=19 44 309 65 58 67 111 159 19 112 45 541 11 90 15 37 1422 10 334 52 54 106 13 71 14 49 14 16 29 19 10 30 16 40 112 15 195 39 13 42 73 84 39 22 11 240 77 28 232 259 24 178 21 13 32 27 340 10 18 21 16 42 33
internal_value=0 0.0115512 -0.00557578 0.00580029 0.0118249 0.0298549 -0.00769046 -0.00350666 0.00826906 0.0241567 0.00417577 0.0257305 -0.011269 0.0108884 0.0217064 -0.0132203 -0.00875038 -0.00751766 -0.00131244 -0.00123978 0.0372867 0.00412177 0.000273718 0.0311601 -0.00183217 0.00847609 0.0223642 -0.00754876 -0.000266893 0.0322675 0.00529017 -0.0105827 0.00547904 0.00343476 -0.00500671 0.0160254 0.00860736 -0.0147814 0.00322791 0.0162895 0.0029898 0.0182617 0.0386453 0.0410721 0.00342144 0.00682367 0.000478617 0.00247258 -0.0120903 -0.000541967 -0.00550624 0.0148778 0.0319554 0.00796542 -0.0115363 -0.00753331 0.0078297 0.0309976 0.0205856 -0.00715217 -0.0121226 0.0442293
internal_weight=0 2037 4220 1550 1068 487 3668 1691 521 196 689 379 1977 118 120 1655 1170 1105 325 322 173 124 376 24 352 552 103 482 178 86 449 168 56 141 34 206 157 1477 55 89 99 49 363 320 419 317 569 281 341 82 268 118 34 84 729 395 55 28 43 102 86 78
internal_count=6257 2037 4220 1550 1068 487 3668 1691 521 196 689 379 1977 118 120 1655 1170 1105 325 322 173 124 376 24 352 552 103 482 178 86 449 168 56 141 34 206 157 1477 55 89 99 49 363 320 419 317 569 281 341 82 268 118 34 84 729 395 55 28 43 102 86 78
is_linear=0
shrinkage=0.05


Tree=17
num_leaves=63
num_cat=0
split_feature=3 15 14 16 10 14 14 16 15 7 15 7 16 15 10 14 7 0 8 16 9 14 13 9 15 14 6 17 14 15 14 14 15 3 0 20 15 11 0 0 10 4 15 20 14 2 4 16 16 13 9 15 11 2 11 13 4 13 0 2 20 7
split_gain=145.481 77.9956 45.2687 42.5132 25.4709 30.2126 25.0015 19.9058 50.8087 16.8349 13.034 13.0313 15.0309 12.5415 11.0202 9.80814 9.49846 9.43076 10.7995 18.639 8.74209 9.91862 11.9941 8.30577 8.26772 8.60603 10.0062 8.21969 8.14012 8.04031 7.50768 7.42923 10.4538 7.39083 7.17924 7.0293 9.72899 7.80198 6.93689 11.7791 6.88379 7.05466 6.75675 6.67153 6.4373 6.28281 8.91244 6.03929 6.0118 10.5291 5.90604 7.46798 6.86045 5.88558 5.73801 5.64446 5.62831 5.56153 5.54212 6.24922 5.77072 5.52895
