tree
version=v3
num_class=1
num_tree_per_iteration=1
label_index=0
max_feature_idx=20
objective=regression
feature_names=Column_0 Column_1 Column_2 Column_3 Column_4 Column_5 Column_6 Column_7 Column_8 Column_9 Column_10 Column_11 Column_12 Column_13 Column_14 Column_15 Column_16 Column_17 Column_18 Column_19 Column_20
feature_infos=[0.10000000000000001:11] [16:851] [0:127] [0:75] [0:96] [0:179] [0:68] [0:157] [0:63] [0:109] [0:172] [0:47] [0:120] [0:115] [0:149] [0:109] [0:121] [0:122] [0:82] [0:29] [0:62]
tree_sizes=1440 1429 1435 1427 1432 1438 1440 1438 1444 1448 1433 1440 1460 1460 1436 1443 1433 1460 1447 1446 1436 1475 1451 1484 1463 1470 1462 1447 1475 1449 1467 1451 1464 1473 1465 1475 1453 1486 1451 1456 1498 1506 1479 1458 1474 1503 1481 1505 1467 1526 1542 1504 1483 1520 1465 1496 1496 1483 1490 1489 1473 1529 1481 1495 1477 1485 1482 1469 1498 1522 1515 1526 1492 1547 1493 1500 1501 1501 1499 1543 1484 1545 1488 1468 1500 1477 1533 1497 1522 1505 1521 1524 1487 1496 1534 1499 1523 1478 1539 1497 1525 1495 1490 1509 1453 1488 1549 1579 1541 1471 1522 1481 1456 1529 1549 1559 1511 1521 1531 1492 1564 1505 1474 1513 1457 1533 1607 1502 1517 1566 1471 1505 1508 1532 1447 1472 1507 1544 1521 1540 1567 1460 1511 1545 1519 1524 1480 1545 1521 1527 1515 1557 1496 1469 1532 1541 1536 1561 1485 1495 1453 1531 1467 1547 1476 1565 1496 1545 1519 1508 1524 1552 1510 1527 1505 1561 1497 1526 1483 1489 1507 1511 1542 1556 1535 1516 1543 1502 1507 1563 1539 1566 1518 1530 1527 1530 1560 1498 1538 1501 1567 1554 1537 1503 1555 1554 1599 1538 1535 1532 1559 1580 1508 1568 1476 1486 1480 1532 1549 1533 1564 1576 1523 1556 1574 1570 1497 1588 1539 1520 1558 1551 1606 1584 1578 1569 1559 1475 1516 1474 1568 1507 1526 1526 1515 1537 1546 1556 1509 1597 1567 1560 1509 1524 1532 1513 1558 1563 1572 1464 1569 1547 1596 1483 1510 1543 1513 1534 1569 1520 1528 1548 1567 1589 1590 1504 1586 1524 1484 1541 1541 1541 1508 1589 1497 1518 1532 1555 1488 1534 1542 1536 1501 1553 1558 1533 1520 1526 1555 1523 1491 1574 1534 1493 1586 1514 1493 1527 1517 1561 1520 1564 1542 1564 1550 1543 1569 1533 1540 1598 1533 1549 1499 1519 1514 1545 1540 1555 1534 1484 1542 1511 1519 1534 1565 1543 1517 1556 1503 1543 1527 1574 1570 1581 1465 1527 1492 1532 1534 1619 1530 1554 1535 1535 1534 1579 1516 1563 1579 1488 1569 1568 1537 1502 1587 1547 1555 1499 1566 1593 1576 1488 1540 1557 1524 1551 1525 1483 1544 1549 1578 1553 1602

Tree=0
num_leaves=15
num_cat=0
split_feature=3 15 14 12 12 16 15 10 14 10 14 14 15 7
split_gain=868.227 423.706 271.337 266.726 148.799 97.4121 206.733 62.5959 61.4369 58.6404 71.8883 54.0266 52.8072 47.6398
threshold=1.5000000000000002 14.500000000000002 4.5000000000000009 8.5000000000000018 1.5000000000000002 17.500000000000004 27.500000000000004 58.500000000000007 7.5000000000000009 31.500000000000004 8.5000000000000018 11.500000000000002 18.500000000000004 44.500000000000007
decision_type=2 2 2 2 2 2 2 2 2 2 2 2 2 2
left_child=1 4 -2 9 -1 6 12 11 -6 10 -3 -5 -4 -7
right_child=2 3 5 7 8 13 -8 -9 -10 -11 -12 -13 -14 -15
leaf_value=0.11087239650051577 0.039296796788908885 0.14653199007303105 -0.034265972310384717 0.067403566059573025 0.017081176744409451 -0.059066440806175124 0.1210417028626893 0.13797272382088971 -0.035266087584885038 0.1769132845548175 0.010754935303608097 -0.015344767495668842 0.023173768693573321 -0.026221765128356941
leaf_weight=139 549 134 1187 148 718 1541 102 56 326 329 55 169 185 619
leaf_count=139 549 134 1187 148 718 1541 102 56 326 329 55 169 185 619
internal_value=-1.14901e-09 0.0529021 -0.0262297 0.104983 0.0136761 -0.036129 -0.0163096 0.0405065 0.000735192 0.151412 0.10702 0.0232885 -0.0265208 -0.049654
internal_weight=0 2074 4183 891 1183 3634 1474 373 1044 518 189 317 1372 2160
internal_count=6257 2074 4183 891 1183 3634 1474 373 1044 518 189 317 1372 2160
is_linear=0
shrinkage=1


Tree=1
num_leaves=15
num_cat=0
split_feature=3 15 12 16 15 12 10 16 10 10 3 20 0 0
split_gain=703.264 347.347 223.388 142.049 173.912 111.865 55.2427 67.8371 53.2703 48.0132 43.9666 62.0068 47.5281 38.684
threshold=1.5000000000000002 13.500000000000002 8.5000000000000018 17.500000000000004 22.500000000000004 1.5000000000000002 31.500000000000004 13.500000000000002 43.500000000000007 58.500000000000007 5.5000000000000009 11.500000000000002 7.9000000000000012 7.4500000000000011
decision_type=2 2 2 2 2 2 2 2 2 2 2 2 2 2
left_child=1 5 6 4 13 -1 7 -3 -6 -4 11 -5 -12 -2
right_child=3 2 9 10 8 -7 -8 -9 -10 -11 12 -13 -14 -15
leaf_value=0.096258447541080372 -0.016788981514523162 0.11940273821640474 0.021677761725467547 -0.054757222756415216 0.043596737844567017 -0.0021383800716802907 0.15856621661362891 -0.027495755725785304 0.1507006267883948 0.11987219378352165 -0.058197782390020991 -0.0065935649373568593 0.052753535453230138 0.059096596182457044
leaf_weight=131 1665 182 352 454 117 979 334 38 77 58 1110 650 40 70
leaf_count=131 1665 182 352 454 117 979 334 38 77 58 1110 650 40 70
internal_value=0 0.0476119 0.0915257 -0.0236068 -0.00368695 0.00947422 0.132938 0.0940294 0.086107 0.0355687 -0.0406544 -0.0264 -0.0543386 -0.0137273
internal_weight=0 2074 964 4183 1929 1110 554 220 194 410 2254 1104 1150 1735
internal_count=6257 2074 964 4183 1929 1110 554 220 194 410 2254 1104 1150 1735
is_linear=0
shrinkage=0.1


Tree=2
num_leaves=15
num_cat=0
split_feature=3 10 16 12 16 10 10 2 12 16 10 17 3 20
split_gain=569.644 223.048 191.47 128.655 115.059 123.988 43.8562 43.1274 53.7464 42.6117 75.8236 37.6156 35.6129 50.4321
threshold=1.5000000000000002 34.500000000000007 23.500000000000004 1.5000000000000002 17.500000000000004 44.500000000000007 8.5000000000000018 16.500000000000004 4.5000000000000009 7.5000000000000009 18.500000000000004 7.5000000000000009 5.5000000000000009 18.500000000000004
decision_type=2 2 2 2 2 2 2 2 2 2 2 2 2 2
left_child=1 3 -3 6 5 7 -1 11 -9 10 -5 -2 13 -6
right_child=4 2 -4 9 12 -7 -8 8 -10 -11 -12 -13 -14 -15
leaf_value=-0.0076638289997654589 0.0023273320528130761 0.13017359539241194 0.0024484653094852416 0.014240983582636308 -0.034392101195704003 0.11195762837201023 0.12284458817448468 0.061764242830303129 -0.0042898451947117281 -0.0016291323855779517 0.11414295008444056 -0.035408289946884552 -0.048904744560020447 0.01920535967655514
leaf_weight=31 425 426 162 338 885 89 152 158 559 867 98 698 1150 219
leaf_count=31 425 426 162 338 885 89 152 158 559 867 98 698 1150 219
internal_value=0 0.0428507 0.094984 0.0222219 -0.0212461 -0.00331826 0.100737 -0.0088941 0.010266 0.0111949 0.036696 -0.0211272 -0.0365889 -0.02376
internal_weight=0 2074 588 1486 4183 1929 183 1840 717 1303 436 1123 2254 1104
internal_count=6257 2074 588 1486 4183 1929 183 1840 717 1303 436 1123 2254 1104
is_linear=0
shrinkage=0.1


Tree=3
num_leaves=15
num_cat=0
split_feature=3 15 14 12 14 12 3 15 14 14 7 15 7 14
split_gain=461.411 247.372 195.048 156.517 79.2252 53.6883 49.762 96.8882 103.096 48.5727 40.9344 39.73 38.3217 55.749
threshold=1.5000000000000002 13.500000000000002 4.5000000000000009 8.5000000000000018 5.5000000000000009 1.5000000000000002 5.5000000000000009 18.500000000000004 11.500000000000002 17.500000000000004 22.500000000000004 5.5000000000000009 18.500000000000004 8.5000000000000018
decision_type=2 2 2 2 2 2 2 2 2 2 2 2 2 2
left_child=1 4 11 12 5 -1 7 -4 -9 10 -5 -2 13 -3
right_child=2 3 6 9 -6 -7 -8 8 -10 -11 -12 -13 -14 -15
leaf_value=0.090592990783245675 -0.010444265171228087 0.10772518184928535 -0.034363146782458685 0.00049849052067694013 -0.025852921779630129 0.015378079499061432 -0.04120612418320943 0.068895693911084285 -0.011964126099427295 -0.02116447793404487 0.080817310608431905 0.051871966695769295 0.12778821817240291 -0.01795518842339516
leaf_weight=115 136 120 1300 98 452 543 1534 216 584 132 180 413 384 50
leaf_count=115 136 120 1300 98 452 543 1534 216 584 132 180 413 384 50
internal_value=0 0.0385657 -0.0191215 0.0756247 0.00638105 0.0285235 -0.0275145 -0.0175132 0.00986803 0.028786 0.0525035 0.0364348 0.110289 0.0707604
internal_weight=0 2074 4183 964 1110 658 3634 2100 800 410 278 549 554 170
internal_count=6257 2074 4183 964 1110 658 3634 2100 800 410 278 549 554 170
is_linear=0
shrinkage=0.1


Tree=4
num_leaves=15
num_cat=0
split_feature=3 15 14 14 10 14 16 15 15 10 20 5 16 5
split_gain=373.743 201.546 157.989 141.172 83.4146 58.5687 45.7633 129.918 44.615 44.1498 36.7302 35.4341 34.1263 33.2636
threshold=1.5000000000000002 11.500000000000002 4.5000000000000009 11.500000000000002 53.500000000000007 5.5000000000000009 18.500000000000004 33.500000000000007 18.500000000000004 23.500000000000004 25.500000000000004 6.5000000000000009 20.500000000000004 11.500000000000002
decision_type=2 2 2 2 2 2 2 2 2 2 2 2 2 2
left_child=1 5 13 9 -5 11 7 8 -4 -3 -8 -1 -11 -2
right_child=2 3 6 4 -6 -7 10 -9 -10 12 -12 -13 -14 -15
leaf_value=-0.018457293042281112 0.011812013567355022 0.051313083039839641 -0.025459408499012671 -0.016857787402047502 0.096592800899647002 -0.030317940083778885 -0.039401097956067187 0.13234414669995506 0.019959894536862373 0.1154446715967449 0.0028496104049705101 0.035684284371628565 0.048746621128051511 0.061671912809027542
leaf_weight=168 318 230 1262 263 86 365 1819 60 261 438 232 431 93 231
leaf_count=168 318 230 1262 263 86 365 1819 60 261 438 232 431 93 231
internal_value=0 0.0347091 -0.0172093 0.06376 0.0110985 0.00125835 -0.0247631 -0.0119896 -0.0176758 0.0879109 -0.0346219 0.0204993 0.103763 0.0327913
internal_weight=0 2074 4183 1110 349 964 3634 1583 1523 761 2051 599 531 549
internal_count=6257 2074 4183 1110 349 964 3634 1583 1523 761 2051 599 531 549
is_linear=0
shrinkage=0.1


Tree=5
num_leaves=15
num_cat=0
split_feature=3 15 14 16 14 15 3 15 16 15 0 16 15 16
split_gain=302.732 166.716 129.3 110.094 95.8754 96.3392 43.984 93.6137 72.422 55.9936 32.5149 28.587 27.7306 26.9447
threshold=1.5000000000000002 20.500000000000004 3.5000000000000004 23.500000000000004 8.5000000000000018 9.5000000000000018 4.5000000000000009 18.500000000000004 24.500000000000004 33.500000000000007 7.6500000000000012 7.5000000000000009 5.5000000000000009 8.5000000000000018
decision_type=2 2 2 2 2 2 2 2 2 2 2 2 2 2
left_child=1 4 12 -3 5 -1 7 -4 9 -9 13 -7 -2 -8
right_child=2 3 6 -5 -6 11 10 8 -10 -11 -12 -13 -14 -15
leaf_value=0.0044323172568188846 -0.0045757349455795649 0.10064082447717565 -0.025130372499299631 -0.010357747160430466 -0.026792201007601064 0.095453095728428 0.0028549810850442984 0.032160414308069728 -0.01674882225925103 0.13100745987735296 0.0094878843820135287 0.044479468726230514 0.053789549286871054 -0.039422313789339053
leaf_weight=641 112 442 1241 112 416 180 166 233 240 76 176 283 298 1641
leaf_count=641 112 442 1241 112 416 180 166 233 240 76 176 283 298 1641
internal_value=0 0.0312382 -0.0154884 0.0782007 0.0141216 0.0295384 -0.0212841 -0.00991987 0.0244631 0.0564723 -0.0315422 0.0642964 0.0378459 -0.0355385
internal_weight=0 2074 4183 554 1520 1104 3773 1790 549 309 1983 463 410 1807
internal_count=6257 2074 4183 554 1520 1104 3773 1790 549 309 1983 463 410 1807
is_linear=0
shrinkage=0.1


Tree=6
num_leaves=15
num_cat=0
split_feature=3 15 12 16 15 12 18 15 16 20 16 7 16 18
split_gain=245.213 137.912 94.8901 61.4232 84.0847 55.1074 31.1334 30.6483 34.3449 30.03 35.1269 28.7621 28.452 27.4798
threshold=1.5000000000000002 13.500000000000002 8.5000000000000018 17.500000000000004 22.500000000000004 1.5000000000000002 29.500000000000004 55.500000000000007 31.500000000000004 8.5000000000000018 24.500000000000004 3.5000000000000004 5.5000000000000009 21.500000000000004
decision_type=2 2 2 2 2 2 2 2 2 2 2 2 2 2
left_child=1 5 13 4 -2 11 -6 -5 -9 -4 -11 -1 -13 -3
right_child=3 2 9 7 6 -7 -8 8 -10 10 -12 12 -14 -15
leaf_value=-0.065309487779935213 -0.0078221249777349969 0.058305336649629814 -0.016129231514618887 -0.026923921009449243 0.027318553287061932 -0.0040673454287599876 0.10841436283066641 0.1495728319599515 -0.017169561510284741 0.07314851785443359 -0.00090959607944663236 0.12345392708940542 0.022897456586360932 0.10304608548324395
leaf_weight=14.999999999999998 1735 251 151 2203 112 979 82 21 30 143 116 68 48 303
leaf_count=15 1735 251 151 2203 112 979 82 21 30 143 116 68 48 303
internal_value=0 0.0281144 0.0557851 -0.0139396 -0.000840711 0.00408322 0.0615962 -0.0251497 0.0514891 0.0193151 0.0399796 0.0649947 0.0818444 0.0827755
internal_weight=0 2074 964 4183 1929 1110 194 2254 51 410 259 131 116 554
internal_count=6257 2074 964 4183 1929 1110 194 2254 51 410 259 131 116 554
is_linear=0
shrinkage=0.1


Tree=7
num_leaves=15
num_cat=0
split_feature=14 15 2 12 14 16 15 10 12 16 16 5 14 7
split_gain=218.999 184.552 98.7073 134.371 64.8688 46.1449 75.8563 40.8041 40.4554 36.6198 34.3648 33.2665 26.3108 25.5799
threshold=7.5000000000000009 14.500000000000002 29.500000000000004 8.5000000000000018 3.5000000000000004 32.500000000000007 29.500000000000004 8.5000000000000018 1.5000000000000002 13.500000000000002 22.500000000000004 12.500000000000002 23.500000000000004 8.5000000000000018
decision_type=2 2 2 2 2 2 2 2 2 2 2 2 2 2
left_child=1 4 -2 10 7 6 -5 -1 -9 11 -4 -3 -8 -6
right_child=2 9 3 5 13 -7 12 8 -10 -11 -12 -13 -14 -15
leaf_value=-0.0027645276958401517 -0.033538589249164127 0.0020731629287729448 0.072840551194752121 -0.015472421373868089 -0.034505443661028576 -0.033053448171368231 0.06249914001994418 0.12737132096832449 0.036450040916836748 0.040181672802397712 -0.015231524604671406 0.098499008103161867 -0.018071484386920932 0.00029989636888045831
leaf_weight=254 1692 40 270 716 272 643 214 55 444 271 53 339 50 944
leaf_count=254 1692 40 270 716 272 643 214 55 444 271 53 339 50 944
internal_value=0 0.0220496 -0.0158736 -0.000514235 0.0067977 -0.0122368 0.00142142 0.0298633 0.0464714 0.0682513 0.0583891 0.0883221 0.0472396 -0.00748551
internal_weight=0 2619 3638 1946 1969 1623 980 753 499 650 323 379 264 1216
internal_count=6257 2619 3638 1946 1969 1623 980 753 499 650 323 379 264 1216
is_linear=0
shrinkage=0.1


Tree=8
num_leaves=15
num_cat=0
split_feature=3 15 12 16 15 20 3 2 12 16 7 2 11 5
split_gain=172.838 98.7265 84.9196 44.8623 67.2066 35.1302 38.1494 32.4819 35.5371 26.4917 42.2163 22.1469 29.7244 23.8168
threshold=1.5000000000000002 9.5000000000000018 6.5000000000000009 15.500000000000002 22.500000000000004 12.500000000000002 4.5000000000000009 39.500000000000007 15.500000000000002 6.5000000000000009 9.5000000000000018 16.500000000000004 4.5000000000000009 4.5000000000000009
decision_type=2 2 2 2 2 2 2 2 2 2 2 2 2 2
left_child=1 9 -3 4 11 -5 -7 -4 -9 10 -1 13 -13 -2
right_child=3 2 7 5 -6 6 -8 8 -10 -11 -12 12 -14 -15
leaf_value=-0.011827239981148301 0.017013112226323714 0.069363564218494697 0.0043006946474196178 -0.033210726204941581 0.070032745063519822 0.01667379975503477 -0.020038716935187967 0.083619371303915987 -0.010006556380540134 -0.019485473602684697 0.059260025983773328 0.042979090749644316 -0.0071066552865633502 -0.020656776821667455
leaf_weight=205 210 576 507 1132 130 398 980 125 60 460 141 195 302 836
leaf_count=205 210 576 507 1132 130 398 980 125 60 460 141 195 302 836
internal_value=0 0.0236035 0.0409983 -0.011703 0.000981864 -0.0201579 -0.00943525 0.017388 0.0532542 -0.00376208 0.0171418 -0.00483577 0.0125447 -0.013094
internal_weight=0 2074 1268 4183 1673 2510 1378 692 185 806 346 1543 497 1046
internal_count=6257 2074 1268 4183 1673 2510 1378 692 185 806 346 1543 497 1046
is_linear=0
shrinkage=0.1


Tree=9
num_leaves=15
num_cat=0
split_feature=14 15 2 12 14 10 16 15 2 5 0 9 0 3
split_gain=162.597 131.409 76.5098 88.4209 50.6661 41.5884 33.2607 44.4053 30.6473 30.5842 29.7527 27.7606 26.2092 25.9909
threshold=7.5000000000000009 14.500000000000002 30.500000000000004 9.5000000000000018 3.5000000000000004 41.500000000000007 32.500000000000007 29.500000000000004 9.5000000000000018 11.500000000000002 7.3000000000000016 10.500000000000002 7.3000000000000016 1.0000000180025095e-35
decision_type=2 2 2 2 2 2 2 2 2 2 2 2 2 2
left_child=1 4 -2 5 8 -4 7 -5 -1 -3 -8 -11 -10 -6
right_child=2 9 3 6 13 -7 10 -9 12 11 -12 -13 -14 -15
leaf_value=0.0072566094917013565 -0.028682579459810276 -0.017982667968703472 0.0057939790687112913 -0.01204726687204951 0.019513060853255226 0.071779626533132773 -0.032209530233648358 0.038283011841460199 0.036780002646330551 0.091000687120125656 0.11039487836261591 0.046957664326840981 0.11481860104203223 -0.014712449810804371
leaf_weight=394 1757 49 170 643 292 218 594 241 309 235 14.999999999999998 366 50 924
leaf_count=394 1757 49 170 643 292 218 594 241 309 235 15 366 50 924
internal_value=0 0.0189993 -0.0136776 0.00033823 0.00612929 0.0428684 -0.0107145 0.001674 0.026514 0.0579854 -0.0286971 0.0641791 0.0476489 -0.00649382
internal_weight=0 2619 3638 1881 1969 388 1493 884 753 650 609 601 359 1216
internal_count=6257 2619 3638 1881 1969 388 1493 884 753 650 609 601 359 1216
is_linear=0
shrinkage=0.1


Tree=10
num_leaves=15
num_cat=0
split_feature=12 15 16 16 15 10 7 4 12 7 16 16 20 20
split_gain=99.2762 100.994 45.2455 37.973 107.923 34.5098 28.3185 27.2013 26.8289 26.0053 41.8024 21.3022 30.5461 21.0876
threshold=5.5000000000000009 9.5000000000000018 17.500000000000004 30.500000000000004 27.500000000000004 31.500000000000004 8.5000000000000018 7.5000000000000009 16.500000000000004 17.500000000000004 7.5000000000000009 5.5000000000000009 3.5000000000000004 12.500000000000002
decision_type=2 2 2 2 2 2 2 2 2 2 2 2 2 2
left_child=1 6 9 4 13 -6 -1 11 -7 10 -3 12 -8 -2
right_child=3 2 -4 -5 5 8 7 -9 -10 -11 -12 -13 -14 -15
leaf_value=-0.022371149592697436 -0.013092058475176369 0.066432893966550874 -0.016160321867625629 -0.023196184296212678 -0.044724463025340812 0.070670584774309056 0.030577248865521923 -0.033405571787741527 0.01600327277278055 0.074164463171238704 -0.0084150700923777376 0.0063376322760221176 0.14028998412605789 0.0063846804537267118
leaf_weight=397 2439 177 98 1125 40 272 86 83 134 375 129 146 36 720
leaf_count=397 2439 177 98 1125 40 272 86 83 134 375 129 146 36 720
internal_value=0 0.0221692 0.0473698 -0.00715696 -0.00215165 0.0438965 -0.00407571 0.0166174 0.0526277 0.0565121 0.0348793 0.0321096 0.0629515 -0.00865292
internal_weight=0 1527 779 4730 3605 446 748 351 406 681 306 268 122 3159
internal_count=6257 1527 779 4730 3605 446 748 351 406 681 306 268 122 3159
is_linear=0
shrinkage=0.1


Tree=11
num_leaves=15
num_cat=0
split_feature=14 15 2 16 15 14 16 7 5 10 3 18 0 17
split_gain=125.59 91.9877 58.8278 56.5219 62.9266 39.3711 29.2486 51.3161 24.9006 24.5913 22.1378 21.0189 20.7658 21.676
threshold=7.5000000000000009 14.500000000000002 39.500000000000007 24.500000000000004 18.500000000000004 3.5000000000000004 13.500000000000002 20.500000000000004 14.500000000000002 8.5000000000000018 4.5000000000000009 6.5000000000000009 7.3000000000000016 8.5000000000000018
decision_type=2 2 2 2 2 2 2 2 2 2 2 2 2 2
left_child=1 5 6 4 -4 9 7 -2 -3 -1 -6 -7 13 -11
right_child=2 8 3 -5 10 11 -8 -9 -10 12 -12 -13 -14 -15
leaf_value=-0.0014301632420988535 -0.019714906699863685 0.0020084211945925888 -0.023896587554703756 -0.011529464484015803 0.070085394333045073 -0.042873728515185193 -0.027614094019209119 0.043640038668948777 0.057413957355279682 0.047136009432956261 0.0096394485959052298 -0.00060974226931024222 0.097923662344925111 0.00183728641446899
leaf_weight=254 482 95 139 725 260 132 1779 174 555 279 79 1084 50 170
leaf_count=254 482 95 139 725 260 132 1779 174 555 279 79 1084 50 170
internal_value=0 0.0166978 -0.0120207 0.00607085 0.0327659 0.00592987 -0.0209588 -0.00291039 0.0493162 0.0238993 0.0559992 -0.00519761 0.0367925 0.029985
internal_weight=0 2619 3638 1203 478 1969 2435 656 650 753 339 1216 499 449
internal_count=6257 2619 3638 1203 478 1969 2435 656 650 753 339 1216 499 449
is_linear=0
shrinkage=0.1


Tree=12
num_leaves=15
num_cat=0
split_feature=14 15 14 7 16 3 15 15 15 3 7 16 15 16
split_gain=102.515 128.58 68.7209 38.6311 36.7993 27.7024 27.3218 25.4338 25.003 24.285 20.627 28.2572 20.3153 20.1506
threshold=11.500000000000002 18.500000000000004 3.5000000000000004 35.500000000000007 24.500000000000004 1.0000000180025095e-35 11.500000000000002 30.500000000000004 5.5000000000000009 5.5000000000000009 5.5000000000000009 5.5000000000000009 60.500000000000007 4.5000000000000009
decision_type=2 2 2 2 2 2 2 2 2 2 2 2 2 2
left_child=1 2 8 -2 7 -4 -7 -5 -1 -3 -10 -12 -6 -8
right_child=3 9 5 4 12 6 13 -9 10 -11 11 -13 -14 -15
leaf_value=-0.0017519753298115151 -0.027052745419288621 0.052829483396584866 0.014281911943016007 0.0014252341651129273 -0.014010654511533927 -0.026450549362056649 0.13282989710569382 0.071031067161507408 -0.00046320883405765866 0.001409464902332369 0.087213494757975435 0.03127556445568884 0.075846703465168308 -0.0033534002917810328
leaf_weight=247 1388 688 431 106 779 884 10.999999999999998 104 123 106 121 356 26 887
leaf_count=247 1388 688 431 106 779 884 11 104 123 106 121 356 26 887
internal_value=0 0.0101072 0.000802975 -0.0162102 -0.00138323 -0.0084682 -0.0139706 0.0358967 0.0250262 0.0459648 0.0360499 0.0454653 -0.0111084 -0.00168523
internal_weight=0 3854 3060 2403 1015 2213 1782 210 847 794 600 477 805 898
internal_count=6257 3854 3060 2403 1015 2213 1782 210 847 794 600 477 805 898
is_linear=0
shrinkage=0.1


Tree=13
num_leaves=15
num_cat=0
split_feature=14 5 18 16 10 14 9 0 0 15 0 12 8 15
split_gain=85.0712 69.8169 47.7606 63.8545 44.2834 31.5173 27.762 26.7275 27.6257 27.4388 23.3662 19.0693 19.0582 16.0871
threshold=7.5000000000000009 12.500000000000002 23.500000000000004 21.500000000000004 48.500000000000007 1.5000000000000002 8.5000000000000018 7.3000000000000016 7.4500000000000011 60.500000000000007 6.9500000000000011 5.5000000000000009 12.500000000000002 10.500000000000002
decision_type=2 2 2 2 2 2 2 2 2 2 2 2 2 2
left_child=1 5 -2 4 11 10 -3 9 12 -5 -1 -4 -9 -8
right_child=2 6 3 7 -6 -7 13 8 -10 -11 -12 -13 -14 -15
leaf_value=-0.061741935852028078 -0.02271713725610524 0.062530046621684418 0.067131919905824483 -0.019977316589496842 0.070568197370457234 -0.0055274933070779365 0.0032520878723719055 0.24389347235361736 0.011550754109198974 0.073900340725958816 0.050031143781451286 0.0033626977238230323 0.00039389543235301971 0.0334050449277827
leaf_weight=21 1615 247 53 1151 169 1334 252 8.9999999999999982 197 32 171 407 4.9999999999999991 594
leaf_count=21 1615 247 53 1151 169 1334 252 9 197 32 171 407 5 594
internal_value=0 0.0137427 -0.00989338 0.000344075 0.0267927 -7.53153e-05 0.0330348 -0.0115901 0.0211967 -0.0174379 0.037806 0.01071 0.156929 0.0244233
internal_weight=0 2619 3638 2023 629 1526 1093 1394 211 1183 192 460 14 846
internal_count=6257 2619 3638 2023 629 1526 1093 1394 211 1183 192 460 14 846
is_linear=0
shrinkage=0.1


Tree=14
num_leaves=15
num_cat=0
split_feature=3 15 12 3 7 12 20 16 2 0 4 5 1 7
split_gain=66.2246 45.4879 29.4438 22.2135 20.9518 22.9984 19.8376 24.5182 21.8452 28.8147 24.1875 24.2053 22.6066 19.6178
threshold=1.5000000000000002 9.5000000000000018 5.5000000000000009 9.5000000000000018 27.500000000000004 15.500000000000002 14.500000000000002 15.500000000000002 16.500000000000004 6.9500000000000011 8.5000000000000018 11.500000000000002 147.50000000000003 26.500000000000004
decision_type=2 2 2 2 2 2 2 2 2 2 2 2 2 2
left_child=1 -1 -3 6 -4 -6 7 8 -2 -10 11 12 -11 -12
right_child=3 2 4 -5 5 -7 -8 -9 9 10 13 -13 -14 -15
leaf_value=-0.0039647571672916547 -0.008430621073169265 0.045210356553312889 -0.00046832562527722785 -0.025069359741570159 0.052636486877131988 -0.0021017287399930258 0.010148460561729503 -0.018480330736171745 -0.062291600087354349 0.067511895387856805 -0.0047255699675670775 0.10815321824930867 -0.045064391676957416 0.045511187064376749
leaf_weight=806 1018 503 432 599 213 120 754 1262 43 44 265 58 30 110
leaf_count=806 1018 503 432 599 213 120 754 1262 43 44 265 58 30 110
internal_value=0 0.0146105 0.0264179 -0.00724415 0.0140615 0.032911 -0.00426499 -0.00810518 0.000245231 0.0163034 0.0229693 0.0597839 0.0218729 0.0100105
internal_weight=0 2074 1268 4183 765 333 3584 2830 1568 550 507 132 74 375
internal_count=6257 2074 1268 4183 765 333 3584 2830 1568 550 507 132 74 375
is_linear=0
shrinkage=0.1


Tree=15
num_leaves=15
num_cat=0
split_feature=14 15 14 18 15 16 5 16 16 10 4 13 5 5
split_gain=67.0924 80.2156 47.2145 30.4614 21.5305 24.7973 20.3254 19.611 18.0845 21.8113 17.1147 18.0655 19.1276 16.9828
threshold=11.500000000000002 18.500000000000004 3.5000000000000004 22.500000000000004 47.500000000000007 40.500000000000007 7.5000000000000009 14.500000000000002 3.5000000000000004 12.500000000000002 8.5000000000000018 10.500000000000002 9.5000000000000018 10.500000000000002
decision_type=2 2 2 2 2 2 2 2 2 2 2 2 2 2
left_child=1 2 6 -2 7 -6 -1 -5 -4 -10 11 -11 -13 -3
right_child=3 13 8 4 5 -7 -8 -9 9 10 -12 12 -14 -15
leaf_value=0.0039768497992507213 -0.030293526364828349 -0.046340272296220064 0.028470409336253347 0.02944300070282866 0.065797544486953741 -0.024303292638311783 0.035080912742115271 -0.012328873006803178 -0.031663458493306026 0.00068253811482325984 -0.010367881060103888 -0.022750668913419037 0.071590583938656444 0.039080639268171846
leaf_weight=386 722 24 136 122 84 48 461 1427 357 330 1278 29 83 770
leaf_count=386 722 24 136 122 84 48 461 1427 357 330 1278 29 83 770
internal_value=0 0.00817663 0.000827719 -0.0131139 -0.00573517 0.0330336 0.020906 -0.0090389 -0.006857 -0.00917021 -0.00450155 0.0124604 0.0471629 0.0364986
internal_weight=0 3854 3060 2403 1681 132 847 1549 2213 2077 1720 442 112 794
internal_count=6257 3854 3060 2403 1681 132 847 1549 2213 2077 1720 442 112 794
is_linear=0
shrinkage=0.1


Tree=16
num_leaves=15
num_cat=0
split_feature=14 15 14 2 2 4 14 15 2 2 9 5 16 15
split_gain=54.3448 64.9747 38.2438 30.2742 19.7778 30.9179 18.1241 19.3283 17.3253 16.8808 16.8144 15.6376 13.878 13.0361
threshold=11.500000000000002 18.500000000000004 3.5000000000000004 43.500000000000007 14.500000000000002 7.5000000000000009 32.500000000000007 46.500000000000007 9.5000000000000018 32.500000000000007 10.500000000000002 12.500000000000002 6.5000000000000009 5.5000000000000009
decision_type=2 2 2 2 2 2 2 2 2 2 2 2 2 2
left_child=1 2 8 -2 -4 11 7 -5 10 -3 -1 -6 13 -10
right_child=3 9 4 6 5 -7 -8 -9 12 -11 -12 -13 -14 -15
leaf_value=-0.0097419993900361348 -0.019613299439188065 0.018120149925881974 -0.017905817352059959 0.0039068139066213078 0.012480251985788346 -0.0052763834541622858 -0.03179442429583583 0.053279254832507478 0.0067945124342655532 0.047283576712061071 0.03424651192072483 0.066304713369984378 0.019543535708699648 0.073698669266279632
leaf_weight=280 1619 393 871 574 125 1122 118 92 39 401 126 95 287 115
leaf_count=280 1619 393 871 574 125 1122 118 92 39 401 126 95 287 115
internal_value=0 0.00735897 0.000744947 -0.0118025 -0.0061713 0.00144477 0.00432712 0.010727 0.0188154 0.0328488 0.00390961 0.0357226 0.0325382 0.0567554
internal_weight=0 3854 3060 2403 2213 1342 784 666 847 794 406 220 441 154
internal_count=6257 3854 3060 2403 2213 1342 784 666 847 794 406 220 441 154
is_linear=0
shrinkage=0.1


Tree=17
num_leaves=15
num_cat=0
split_feature=14 5 18 3 15 12 14 16 20 15 0 4 0 16
split_gain=46.7231 37.6319 30.2012 38.6137 22.6163 22.9193 19.9626 18.6707 18.5842 20.4478 17.6604 20.7628 15.9434 14.3645
threshold=7.5000000000000009 12.500000000000002 23.500000000000004 3.5000000000000004 18.500000000000004 19.500000000000004 1.5000000000000002 7.5000000000000009 8.5000000000000018 15.500000000000002 7.3000000000000016 47.500000000000007 6.9500000000000011 19.500000000000004
decision_type=2 2 2 2 2 2 2 2 2 2 2 2 2 2
left_child=1 6 -2 4 -4 -6 12 -3 9 -9 -5 -12 -1 -11
right_child=2 7 3 10 5 -7 -8 8 -10 13 11 -13 -14 -15
leaf_value=-0.052041700553326381 -0.017529413163562484 0.045794714021030816 -0.0085522366166940617 -0.014236613677234092 0.042537638250386152 -0.0082625639989324234 -0.0042992805291134431 -0.023267625368609237 0.029352929694138354 0.038123624653962906 0.012367887943791053 0.20124584436416626 0.040286246625085675 -0.059712674057878112
leaf_weight=21 1615 296 203 1115 390 115 1334 189 463 128 194 5.9999999999999991 171 17
leaf_count=21 1615 296 203 1115 390 115 1334 189 463 128 194 6 171 17
internal_value=0 0.0101847 -0.00733194 0.000808898 0.0196375 0.0309693 3.98639e-05 0.0243484 0.0163834 -0.00159543 -0.0093285 0.0180342 0.0301879 0.0266532
internal_weight=0 2619 3638 2023 708 505 1526 1093 797 334 1315 200 192 145
internal_count=6257 2619 3638 2023 708 505 1526 1093 797 334 1315 200 192 145
is_linear=0
shrinkage=0.1


Tree=18
num_leaves=15
num_cat=0
split_feature=14 15 2 0 14 5 0 12 15 16 17 15 2 4
split_gain=39.4604 46.5328 24.3037 27.1531 22.704 20.4249 19.8207 18.3288 18.295 17.1065 13.9922 12.4201 13.3376 12.1513
threshold=9.5000000000000018 13.500000000000002 43.500000000000007 7.5500000000000007 3.5000000000000004 14.500000000000002 4.4500000000000011 12.500000000000002 11.500000000000002 11.500000000000002 8.5000000000000018 27.500000000000004 54.500000000000007 5.5000000000000009
decision_type=2 2 2 2 2 2 2 2 2 2 2 2 2 2
left_child=1 4 3 -2 -1 -3 -6 -4 -8 -7 -5 12 -11 -10
right_child=2 5 7 10 6 9 8 -9 13 11 -12 -13 -14 -15
leaf_value=0.013195773616391496 -0.01700771642959217 -0.00069632243575786597 0.030219426667064904 0.19049149751663208 -0.054997653340877486 0.047402040752640463 -0.0122703713197756 -0.0031633107964250708 0.087758576869964605 0.015500360439991118 0.031371425821312839 0.045028244955663349 -0.055982955052916498 0.009356517731060084
leaf_weight=725 1925 274 221 5.9999999999999991 86 360 1035 643 21 385 70 141 28 337
leaf_count=725 1925 274 221 6 86 360 1035 643 21 385 70 141 28 337
internal_value=0 0.00729847 -0.00864098 -0.0146931 -0.00130064 0.0232517 -0.00840673 0.00537556 -0.00553034 0.0304309 0.0439335 0.0194027 0.010654 0.0139555
internal_weight=0 3392 2865 2001 2204 1188 1479 864 1393 914 76 554 413 358
internal_count=6257 3392 2865 2001 2204 1188 1479 864 1393 914 76 554 413 358
is_linear=0
shrinkage=0.1


Tree=19
num_leaves=15
num_cat=0
split_feature=3 14 15 14 5 9 20 2 18 4 16 5 4 15
split_gain=32.4649 23.2493 21.2576 26.6009 22.8493 18.3874 21.4917 17.9927 15.4865 20.969 14.5826 22.5053 14.8036 14.34
threshold=1.0000000180025095e-35 3.5000000000000004 12.500000000000002 11.500000000000002 25.500000000000004 20.500000000000004 13.500000000000002 30.500000000000004 7.5000000000000009 7.5000000000000009 32.500000000000007 40.500000000000007 28.500000000000004 4.5000000000000009
decision_type=2 2 2 2 2 2 2 2 2 2 2 2 2 2
left_child=8 13 -3 4 -4 -6 -7 -5 -1 -10 11 -9 -13 -2
right_child=1 2 3 7 5 6 -8 10 9 -11 -12 12 -14 -15
leaf_value=-0.00926592871863007 -0.01685043558948212 -0.016775169694675584 0.00052847151184539135 -0.024137617551045727 0.05270329752788562 -0.028894178851925096 0.035125139165161683 -0.0035641495794008827 0.04082226596685179 0.0099527812802497478 -0.014791525838505291 0.064468744161881905 0.0070241527259349819 0.023194930438134496
leaf_weight=225 111 1301 903 567 182 87 132 532 322 695 560 95 85 460
leaf_count=225 111 1301 903 567 182 87 132 532 322 695 560 95 85 460
internal_value=0 -0.00358467 -0.00602529 -0.00157553 0.00934964 0.0292138 0.00969281 -0.00932236 0.0144743 0.0197266 -0.00271839 0.00677733 0.0373421 0.0154103
internal_weight=0 5015 4444 3143 1304 401 219 1839 1242 1017 1272 712 180 571
internal_count=6257 5015 4444 3143 1304 401 219 1839 1242 1017 1272 712 180 571
is_linear=0
shrinkage=0.1


Tree=20
num_leaves=15
num_cat=0
split_feature=14 15 0 17 2 0 14 16 1 13 11 15 3 14
split_gain=27.2257 34.8349 21.0416 17.7053 17.607 20.2631 16.6755 15.2937 17.7442 15.4008 14.5155 14.767 13.9709 13.4448
threshold=9.5000000000000018 10.500000000000002 4.3000000000000016 6.5000000000000009 43.500000000000007 7.5500000000000007 1.5000000000000002 11.500000000000002 247.50000000000003 8.5000000000000018 10.500000000000002 18.500000000000004 4.5000000000000009 30.500000000000004
decision_type=2 2 2 2 2 2 2 2 2 2 2 2 2 2
left_child=1 6 3 -3 5 -2 -1 9 -9 -4 11 -6 -10 -13
right_child=4 2 7 -5 10 -7 -8 8 12 -11 -12 13 -14 -15
leaf_value=0.023273330415168436 -0.014328242321571264 0.0099788220781717729 0.014342054185505763 -0.055218372004081133 -0.022890066232842704 0.038316442719415617 -0.0086147338898855275 -0.02029906519427091 0.024564800303093482 0.041842166574617083 -0.0051145354595922374 0.040522664606710695 -0.0094358344164292354 -0.030708552774061294
leaf_weight=186 1925 97 391 73 60 76 1386 162 514 425 547 227 158 30
leaf_count=186 1925 97 391 73 60 76 1386 162 514 425 547 227 158 30
internal_value=0 0.00606235 0.0154806 -0.0180176 -0.00717748 -0.0123287 -0.00484172 0.0189319 0.00940887 0.028665 0.0047527 0.0217791 0.0165706 0.0322077
internal_weight=0 3392 1820 170 2865 2001 1572 1650 834 816 864 317 672 257
internal_count=6257 3392 1820 170 2865 2001 1572 1650 834 816 864 317 672 257
is_linear=0
shrinkage=0.1


Tree=21
num_leaves=15
num_cat=0
split_feature=3 14 2 16 7 17 0 7 9 3 5 4 14 15
split_gain=24.3423 16.6384 17.4596 24.352 19.4957 24.6078 17.0448 16.296 16.5338 15.8406 13.8184 22.5334 21.3007 18.6646
threshold=1.0000000180025095e-35 3.5000000000000004 14.500000000000002 14.500000000000002 20.500000000000004 3.5000000000000004 6.9500000000000011 5.5000000000000009 7.5000000000000009 4.5000000000000009 30.500000000000004 47.500000000000007 18.500000000000004 34.500000000000007
decision_type=2 2 2 2 2 2 2 2 2 2 2 2 2 2
left_child=7 -2 -3 4 5 -4 -6 -1 -9 -8 11 -5 13 -12
right_child=1 2 3 10 6 -7 9 8 -10 -11 12 -13 -14 -15
leaf_value=-0.015289648676646015 0.01296503034419496 -0.018425053731409898 0.17463123500347139 -0.015359950583461901 -0.064342799939607329 -0.0017642538997915309 0.043445132872014763 0.037043023128016231 0.0093838810933122765 -0.0067250669887289408 0.0050929186436861982 0.17886447906494141 -0.010289178936577895 0.050915143141630759
leaf_weight=180 571 812 7.9999999999999991 1345 19 692 295 302 760 80 335 5.9999999999999991 731 121
leaf_count=180 571 812 8 1345 19 692 295 302 760 80 335 6 731 121
internal_value=0 -0.00310401 -0.00516869 -0.00220498 0.0102669 0.000251695 0.0280604 0.0125335 0.0172493 0.0327422 -0.00758096 -0.0144974 0.000291045 0.0172519
internal_weight=0 5015 4444 3632 1094 700 394 1242 1062 375 2538 1351 1187 456
internal_count=6257 5015 4444 3632 1094 700 394 1242 1062 375 2538 1351 1187 456
is_linear=0
shrinkage=0.1


Tree=22
num_leaves=15
num_cat=0
split_feature=14 20 9 2 18 3 0 8 1 4 15 14 4 2
split_gain=19.8372 28.0677 17.6796 26.3843 17.017 18.033 13.9753 12.9147 12.8322 12.1807 17.019 11.93 11.7189 11.7155
threshold=9.5000000000000018 12.500000000000002 23.500000000000004 16.500000000000004 22.500000000000004 3.5000000000000004 7.3000000000000016 2.5000000000000004 658.50000000000011 18.500000000000004 29.500000000000004 33.500000000000007 19.500000000000004 84.500000000000014
decision_type=2 2 2 2 2 2 2 2 2 2 2 2 2 2
left_child=1 2 3 7 -2 9 13 -1 -8 -6 -11 -12 -5 -7
right_child=4 -3 -4 12 5 6 8 -9 -10 10 11 -13 -14 -15
leaf_value=0.00356608251462112 -0.016907079860894108 0.028169324266275875 -0.025358552850550043 0.021569537818321813 0.032722344979993066 -0.013040276287325046 0.012513587453725692 -0.013733519250116148 0.16097803115844728 -0.016412893390948865 0.035207808961515701 -0.046827185675501828 -0.020016436380762104 0.068307159623752042
leaf_weight=1133 969 459 225 804 216 1077 196 697 5.9999999999999991 207 156 20 74 18
leaf_count=1133 969 459 225 804 216 1077 196 697 6 207 156 20 74 18
internal_value=0 0.00517478 0.00157624 0.00381418 -0.00612665 -0.000617028 -0.00724465 -0.00302289 0.0169234 0.0137336 0.00302456 0.0258857 0.0180646 -0.0117031
internal_weight=0 3392 2933 2708 2865 1896 1297 1830 202 599 383 176 878 1095
internal_count=6257 3392 2933 2708 2865 1896 1297 1830 202 599 383 176 878 1095
is_linear=0
shrinkage=0.1


Tree=23
num_leaves=15
num_cat=0
split_feature=16 10 20 3 14 0 16 18 0 18 18 18 0 11
split_gain=18.0203 29.7105 22.4668 27.5223 17.5166 16.1847 14.2181 13.1443 12.5379 11.8328 11.5731 11.4306 10.1926 10.0175
threshold=10.500000000000002 19.500000000000004 10.500000000000002 4.5000000000000009 18.500000000000004 7.3000000000000016 3.5000000000000004 7.5000000000000009 3.2250000000000005 29.500000000000004 16.500000000000004 35.500000000000007 6.9500000000000011 10.500000000000002
decision_type=2 2 2 2 2 2 2 2 2 2 2 2 2 2
left_child=1 6 5 4 11 -2 10 8 -8 -7 -1 -4 -5 -3
right_child=2 13 3 12 -6 9 7 -9 -10 -11 -12 -13 -14 -15
leaf_value=0.017710389561546074 -0.013424618586932177 0.030640607318744018 0.014836315795452238 0.065257445762031949 -0.012772957552975861 0.01868764171033304 0.073829474930579841 0.0017836119304387257 -0.026592156679304153 0.13604454576969147 0.12745369657874109 0.042871373131795711 -0.0085789212708346305 -0.035442449928571783
leaf_weight=246 1872 519 680 19 189 61 12.999999999999998 976 285 9.9999999999999982 9.9999999999999982 185 1168 24
leaf_count=246 1872 519 680 19 189 61 13 976 285 10 10 185 1168 24
internal_value=0 0.0076242 -0.00377748 0.00304575 0.0148063 -0.0116472 0.000492233 -0.00382902 -0.0222113 0.0352168 0.0219972 0.0208323 -0.00739704 0.0277198
internal_weight=0 2073 4184 2241 1054 1943 1530 1274 298 71 256 865 1187 543
internal_count=6257 2073 4184 2241 1054 1943 1530 1274 298 71 256 865 1187 543
is_linear=0
shrinkage=0.1


Tree=24
num_leaves=15
num_cat=0
split_feature=14 18 3 4 15 4 5 8 14 18 17 20 0 1
split_gain=16.2749 14.238 24.3462 14.3697 17.8731 12.2016 12.1561 10.8558 9.37876 11.9031 9.35076 10.5151 9.32441 10.6104
threshold=3.5000000000000004 22.500000000000004 3.5000000000000004 18.500000000000004 31.500000000000004 26.500000000000004 7.5000000000000009 2.5000000000000004 12.500000000000002 6.5000000000000009 5.5000000000000009 15.500000000000002 7.3000000000000016 658.50000000000011
decision_type=2 2 2 2 2 2 2 2 2 2 2 2 2 2
left_child=6 8 3 -3 -5 -6 7 -1 9 -2 -11 -12 -4 -14
right_child=1 2 12 4 5 -7 -8 -9 -10 10 11 -13 13 -15
leaf_value=0.0068041561750484814 -0.026816815168757998 0.028635602120095784 -0.0082083351774059222 -0.0090217453072379741 0.05780033980950669 0.0073981463599729503 0.021308633433765389 -0.034721079166931443 -0.018121724310370176 0.015856902956566596 -0.0063788973225186486 0.023800651167402976 0.010796333688523362 0.14573812484741211
leaf_weight=310 208 452 1227 350 83 114 569 79 595 264 1674 124 202 5.9999999999999991
leaf_count=310 208 452 1227 350 83 114 569 79 595 264 1674 124 202 6
internal_value=0 -0.00216851 0.00345528 0.0154419 0.00453968 0.0286336 0.0119947 -0.00162899 -0.00694628 -0.00401703 -0.00171715 -0.00429755 -0.00488943 0.0146889
internal_weight=0 5299 2434 999 547 197 958 389 2865 2270 2062 1798 1435 208
internal_count=6257 5299 2434 999 547 197 958 389 2865 2270 2062 1798 1435 208
is_linear=0
shrinkage=0.1


Tree=25
num_leaves=15
num_cat=0
split_feature=16 2 20 3 5 10 16 18 8 16 12 19 18 6
split_gain=13.9408 27.4695 17.6959 17.0147 11.3285 11.2196 14.1518 9.70906 9.22087 8.31312 13.624 9.5443 7.7299 7.88836
threshold=10.500000000000002 16.500000000000004 7.5000000000000009 3.5000000000000004 5.5000000000000009 40.500000000000007 24.500000000000004 17.500000000000004 1.5000000000000002 17.500000000000004 15.500000000000002 9.5000000000000018 51.500000000000007 6.5000000000000009
decision_type=2 2 2 2 2 2 2 2 2 2 2 2 2 2
left_child=1 7 4 5 -2 9 -7 8 -1 11 -11 -4 13 -8
right_child=2 -3 3 -5 -6 6 12 -9 -10 10 -12 -13 -14 -15
leaf_value=0.0050980861236547565 0.011305494760782046 0.024471175318766542 0.011980536026234985 -0.0059127789925883462 -0.017446256917878798 0.037875411594569482 0.1162813064455986 0.037332870831596664 -0.011193370940943411 -0.024676636098775753 0.0083981496025788485 0.12988437435456687 0.045850701968778267 -0.011346899874072959
leaf_weight=745 158 613 358 1674 1033 251 4.9999999999999991 64 651 215 296 6.9999999999999991 33 154
leaf_count=745 158 613 358 1674 1033 251 5 64 651 215 296 7 33 154
internal_value=0 0.0067059 -0.0033225 0.00077995 -0.013632 0.00927398 0.0222433 -0.000753087 -0.00249915 0.00271529 -0.00551786 0.0142417 0.00180759 -0.00733343
internal_weight=0 2073 4184 2993 1191 1319 443 1460 1396 876 511 365 192 159
internal_count=6257 2073 4184 2993 1191 1319 443 1460 1396 876 511 365 192 159
is_linear=0
shrinkage=0.1


Tree=26
num_leaves=15
num_cat=0
split_feature=14 18 16 16 2 20 12 20 14 0 0 15 15 16
split_gain=12.4573 11.2927 11.0106 10.4984 26.4553 16.2145 13.7017 11.6786 15.2773 13.3188 10.3552 10.2871 10.1365 9.71498
threshold=3.5000000000000004 47.500000000000007 30.500000000000004 14.500000000000002 18.500000000000004 8.5000000000000018 10.500000000000002 18.500000000000004 10.500000000000002 6.2500000000000009 7.3000000000000016 5.5000000000000009 29.500000000000004 7.5000000000000009
decision_type=2 2 2 2 2 2 2 2 2 2 2 2 2 2
left_child=11 3 -3 4 -2 6 -6 9 -9 -5 -4 -1 -10 -13
right_child=1 2 10 7 5 -7 -8 8 12 -11 -12 13 -14 -15
leaf_value=-0.0070872302988623298 -0.0064459856207216741 0.044555877687202566 -0.0019698580907039197 0.026132926427074994 0.013876940781644706 0.033972761653203634 -0.026007134728557008 0.035811899084758882 -0.018742559039850833 -0.011527843841419026 0.13175559043884277 0.031904146749391182 0.013194909093726892 0.0076725552172593487
leaf_weight=247 1325 99 166 98 397 320 110 133 206 2247 5.9999999999999991 262 192 449
leaf_count=247 1325 99 166 98 397 320 110 133 206 2247 6 262 192 449
internal_value=0 -0.00189721 0.0179873 -0.00296895 0.00231353 0.0163478 0.00522359 -0.00692163 0.00646975 -0.00995396 0.00269498 0.0104941 -0.00333554 0.0166018
internal_weight=0 5299 271 5028 2152 827 507 2876 531 2345 172 958 398 711
internal_count=6257 5299 271 5028 2152 827 507 2876 531 2345 172 958 398 711
is_linear=0
shrinkage=0.1


Tree=27
num_leaves=15
num_cat=0
split_feature=16 1 14 20 16 7 20 12 4 14 14 0 16 10
split_gain=10.8447 11.8993 14.2852 12.1145 12.0203 21.8246 12.046 9.96421 9.70922 12.9303 8.77091 8.45651 8.2806 11.3746
threshold=3.5000000000000004 96.500000000000014 3.5000000000000004 5.5000000000000009 21.500000000000004 27.500000000000004 25.500000000000004 1.5000000000000002 4.5000000000000009 2.5000000000000004 22.500000000000004 6.9500000000000011 8.5000000000000018 16.500000000000004
decision_type=2 2 2 2 2 2 2 2 2 2 2 2 2 2
left_child=-1 -2 7 12 5 -5 11 -3 9 -9 -8 -6 13 -4
right_child=1 2 3 4 6 -7 10 8 -10 -11 -12 -13 -14 -15
leaf_value=0.018782851981386899 -0.026921153695415163 0.051310528892903565 -0.015263917106387548 -0.00079538469610231999 0.057734804953399457 0.021594166829922101 0.027379848511323374 -0.059523852052556919 0.013446354493823535 0.032098465226590635 -0.010586653609750092 -0.009372201088260694 -0.01796827284111218 0.021437512219218711
leaf_weight=293 171 62 190 1527 19 609 176 43 596 24 93 1609 693 152
leaf_count=293 171 62 190 1527 19 609 176 43 596 24 93 1609 693 152
internal_value=0 -0.000922766 -0.000155335 -0.00203354 0.000443263 0.00558815 -0.00534982 0.012974 0.00938894 -0.0267039 0.0142539 -0.00858901 -0.0116847 0.00104783
internal_weight=0 5964 5793 5068 4033 2136 1897 725 663 67 269 1628 1035 342
internal_count=6257 5964 5793 5068 4033 2136 1897 725 663 67 269 1628 1035 342
is_linear=0
shrinkage=0.1


Tree=28
num_leaves=15
num_cat=0
split_feature=16 18 0 0 18 16 6 11 17 12 10 12 13 10
split_gain=9.57105 14.5864 17.9636 10.8089 10.5931 17.0032 10.7357 9.5508 9.82129 9.34011 13.5396 9.32695 12.7871 9.04968
threshold=8.5000000000000018 7.5000000000000009 3.0850000000000004 2.8150000000000004 22.500000000000004 21.500000000000004 4.5000000000000009 1.0000000180025095e-35 4.5000000000000009 11.500000000000002 49.500000000000007 13.500000000000002 16.500000000000004 9.5000000000000018
decision_type=2 2 2 2 2 2 2 2 2 2 2 2 2 2
left_child=1 13 3 -3 11 9 -7 -4 -9 -6 -11 -2 -13 -1
right_child=4 2 7 -5 5 6 -8 8 -10 10 -12 12 -14 -15
leaf_value=-0.022001787365908611 -0.011614375889407332 0.0019715676003476917 0.0961298079478244 -0.05030735201560535 0.022314264462594029 0.14233731031417848 -0.004432401619620276 0.036162120181931344 0.011093301094986687 -0.0052367368116028956 0.061135994407403117 0.0117333292798237 -0.016345775628209727 0.009704046025611722
leaf_weight=243 1536 101 14.999999999999998 65 506 4.9999999999999991 1535 192 840 320 34 476 246 143
leaf_count=243 1536 101 15 65 506 5 1535 192 840 320 34 476 246 143
internal_value=0 0.00667532 0.0120631 -0.0184991 -0.00229151 0.0023341 -0.00395588 0.0169087 0.0157573 0.0135975 0.00113805 -0.00720801 0.00216621 -0.0102558
internal_weight=0 1599 1213 166 4658 2400 1540 1047 1032 860 354 2258 722 386
internal_count=6257 1599 1213 166 4658 2400 1540 1047 1032 860 354 2258 722 386
is_linear=0
shrinkage=0.1


Tree=29
num_leaves=15
num_cat=0
split_feature=0 14 15 7 0 16 18 16 1 12 14 9 2 4
split_gain=9.04647 11.1258 15.4162 14.0062 12.6812 11.8895 14.1972 8.80921 10.5278 8.64477 10.9589 9.29071 9.4525 8.15852
threshold=7.6500000000000012 18.500000000000004 26.500000000000004 20.500000000000004 6.7900000000000009 8.5000000000000018 14.500000000000002 22.500000000000004 568.50000000000011 15.500000000000002 9.5000000000000018 21.500000000000004 35.500000000000007 9.5000000000000018
decision_type=2 2 2 2 2 2 2 2 2 2 2 2 2 2
left_child=1 2 5 -4 -3 6 -1 -5 -9 11 -11 12 -7 -14
right_child=-2 4 3 7 -6 9 -8 8 -10 10 -12 -13 13 -15
leaf_value=0.0016933143670232846 0.016943752326459314 0.046465662866830827 -0.034989936325699092 0.029424285946816609 -0.0123854902103906 -0.0080948291454705171 0.027305724768854674 -0.013514449326001564 0.033271026175077024 0.015452825515479518 -0.0084287559781172361 -0.022565931506766224 0.051914182748231619 0.0044627772531502198
leaf_weight=1222 300 38 50 370 1004 1430 263 131 76 407 364 371 45 186
leaf_count=1222 300 38 50 370 1004 1430 263 131 76 407 364 371 45 186
internal_value=0 -0.000853303 0.00113656 0.0157826 -0.0102393 -0.00100501 0.00622938 0.0201823 0.00366283 -0.00483772 0.00417799 -0.00825854 -0.00506285 0.0137066
internal_weight=0 5957 4915 627 1042 4288 1485 577 207 2803 771 2032 1661 231
internal_count=6257 5957 4915 627 1042 4288 1485 577 207 2803 771 2032 1661 231
is_linear=0
shrinkage=0.1


Tree=30
num_leaves=15
num_cat=0
split_feature=14 7 17 16 13 18 17 4 16 18 9 5 16 2
split_gain=7.90772 8.99007 12.8065 10.7766 13.2593 10.4493 9.40419 9.05165 7.05905 6.98001 6.63257 9.03301 10.4647 8.47871
threshold=1.5000000000000002 7.5000000000000009 1.5000000000000002 10.500000000000002 10.500000000000002 47.500000000000007 6.5000000000000009 19.500000000000004 30.500000000000004 21.500000000000004 36.500000000000007 26.500000000000004 31.500000000000004 28.500000000000004
decision_type=2 2 2 2 2 2 2 2 2 2 2 2 2 2
left_child=-1 -2 -3 4 6 10 -4 -6 -7 -8 11 -5 13 -13
right_child=1 2 3 5 7 8 9 -9 -10 -11 -12 12 -14 -15
leaf_value=0.016363905996845042 -0.012275888699686086 0.0960533092197563 0.013497721253079362 -0.0065185463572965093 0.026317265860721056 0.037913455129886163 -0.0086051776655181236 -0.029768498722584021 0.0042872694153122089 0.036134855278037691 -0.015828263635787865 -0.0065823740180348984 -0.011863940550233489 0.015424951565349586
leaf_weight=282 610 13.999999999999998 400 1982 401 98 606 31 172 37 413 236 297 678
leaf_count=282 610 14 400 1982 401 98 606 31 172 37 413 236 297 678
internal_value=0 -0.000772322 0.000535633 0.000285727 0.0075605 -0.00248267 0.00145862 0.0222926 0.0164923 -0.00603071 -0.00390342 -0.002361 0.00444351 0.00974253
internal_weight=0 5975 5365 5351 1475 3876 1043 432 270 643 3606 3193 1211 914
internal_count=6257 5975 5365 5351 1475 3876 1043 432 270 643 3606 3193 1211 914
is_linear=0
shrinkage=0.1


Tree=31
num_leaves=15
num_cat=0
split_feature=16 1 14 20 3 16 2 20 1 17 15 4 16 4
split_gain=7.0628 8.4169 7.98007 9.68473 10.6759 9.67423 11.7739 7.09853 7.04171 6.63762 7.61419 9.10252 8.22791 10.3298
threshold=3.5000000000000004 82.500000000000014 3.5000000000000004 7.5000000000000009 4.5000000000000009 17.500000000000004 18.500000000000004 16.500000000000004 196.50000000000003 2.5000000000000004 5.5000000000000009 9.5000000000000018 5.5000000000000009 4.5000000000000009
decision_type=2 2 2 2 2 2 2 2 2 2 2 2 2 2
left_child=-1 -2 9 -4 5 6 -5 -7 -8 -3 11 -11 -12 -14
right_child=1 2 3 4 -6 7 8 -9 -10 10 12 -13 13 -15
leaf_value=0.015157950921905937 -0.033810889518721715 0.054534527407057824 -0.0070422699446103304 -0.0037785368402861921 -0.004442493165742134 -0.0061965625746631644 0.13163271040345234 0.012679772571803034 0.022673417955437411 -0.026721642577137605 0.038558600646709761 0.042563591508761697 -0.054491468862845352 0.010228250435327952
leaf_weight=293 76 31 2060 217 1440 578 5.9999999999999991 304 518 108 98 23 26 479
leaf_count=293 76 31 2060 217 1440 578 6 304 518 108 98 23 26 479
internal_value=0 -0.000744681 -0.000317876 -0.00174049 0.00182518 0.00738615 0.0158093 0.000309567 0.023921 0.00920901 0.00729472 -0.0145571 0.012042 0.00689615
internal_weight=0 5964 5888 5123 3063 1623 741 882 524 765 734 131 603 505
internal_count=6257 5964 5888 5123 3063 1623 741 882 524 765 734 131 603 505
is_linear=0
shrinkage=0.1


Tree=32
num_leaves=15
num_cat=0
split_feature=2 18 9 3 20 14 14 9 2 7 16 18 12 4
split_gain=6.31632 7.16783 7.11131 5.67878 8.845 7.88185 7.43935 9.25241 9.15814 6.8217 12.142 6.87212 12.6319 8.30934
threshold=70.500000000000014 59.500000000000007 35.500000000000007 10.500000000000002 12.500000000000002 1.5000000000000002 12.500000000000002 34.500000000000007 30.500000000000004 7.5000000000000009 13.500000000000002 21.500000000000004 12.500000000000002 5.5000000000000009
decision_type=2 2 2 2 2 2 2 2 2 2 2 2 2 2
left_child=2 -2 3 4 5 -1 7 -6 -8 -7 11 13 -13 -11
right_child=1 -3 -4 -5 6 9 8 -9 -10 10 -12 12 -14 -15
leaf_value=0.01649900203713273 0.0095095646042632417 0.066629336474995526 -0.011354874167207547 -0.012948584750552151 0.016770358944922042 -0.011911000990860012 -0.015229930337606732 0.15348264157772065 0.0095625929173708511 0.017590607260993735 -0.0075459796478255974 0.024638867153946385 -0.03322107052040655 -0.0013812489360417275
leaf_weight=245 102 28 546 293 499 588 211 4.9999999999999991 507 282 1327 308 43 1273
leaf_count=245 102 28 546 293 499 588 211 5 507 282 1327 308 43 1273
internal_value=0 0.0218123 -0.000462803 0.000602789 0.00135365 -0.000888451 0.00881386 0.0181266 0.00227677 -0.00200332 -0.00020137 0.00491211 0.0175506 0.00205931
internal_weight=0 130 6127 5581 5288 4066 1222 504 718 3821 3233 1906 351 1555
internal_count=6257 130 6127 5581 5288 4066 1222 504 718 3821 3233 1906 351 1555
is_linear=0
shrinkage=0.1


Tree=33
num_leaves=15
num_cat=0
split_feature=0 0 18 16 18 0 20 16 2 13 0 4 5 11
split_gain=6.04448 8.00182 6.34031 7.20047 9.85094 12.2453 8.21179 9.48075 12.7368 9.89743 8.09212 7.10394 6.7631 6.67326
threshold=7.6500000000000012 7.9000000000000012 47.500000000000007 8.5000000000000018 7.5000000000000009 3.0850000000000004 7.5000000000000009 21.500000000000004 22.500000000000004 14.500000000000002 2.8150000000000004 12.500000000000002 17.500000000000004 1.0000000180025095e-35
decision_type=2 2 2 2 2 2 2 2 2 2 2 2 2 2
left_child=2 -2 3 4 -1 10 -5 8 -8 -9 -6 -10 -13 -7
right_child=1 -3 -4 6 5 13 7 9 11 -11 -12 12 -14 -15
leaf_value=-0.0095688450436518767 0.080485007342170276 0.0098471839718895816 0.014246270154917277 -0.009612668164775769 0.0014201554465153726 0.081567799087081644 -0.0052542816198993111 0.0089630218501928049 0.034330704230892788 -0.010651232690319446 -0.043814155115531044 -0.021914892743419234 0.013670811979532474 0.012045978587491766
leaf_weight=383 17 283 271 1465 101 13.999999999999998 555 339 150 1067 65 60 486 1001
leaf_count=383 17 283 271 1465 101 14 555 339 150 1067 65 60 486 1001
internal_value=0 0.01385 -0.000697498 -0.00140973 0.00436741 0.00888695 -0.00360174 -0.000287467 0.00604524 -0.00592205 -0.0162921 0.0150556 0.00976029 0.0130049
internal_weight=0 300 5957 5686 1564 1181 4122 2657 1251 1406 166 696 546 1015
internal_count=6257 300 5957 5686 1564 1181 4122 2657 1251 1406 166 696 546 1015
is_linear=0
shrinkage=0.1


Tree=34
num_leaves=15
num_cat=0
split_feature=16 18 5 0 4 16 20 18 4 5 0 14 5 8
split_gain=5.58273 8.16062 5.63715 6.75919 5.36627 5.33304 6.45296 7.64231 11.271 5.76664 5.41529 5.25876 6.28963 8.92233
threshold=57.500000000000007 47.500000000000007 65.500000000000014 7.3000000000000016 24.500000000000004 3.5000000000000004 3.5000000000000004 6.5000000000000009 7.5000000000000009 4.5000000000000009 3.2250000000000005 4.5000000000000009 7.5000000000000009 1.5000000000000002
decision_type=2 2 2 2 2 2 2 2 2 2 2 2 2 2
left_child=1 5 3 4 -3 -1 7 -7 10 -10 -9 12 13 -8
right_child=-2 2 -4 -5 -6 6 11 8 9 -11 -12 -13 -14 -15
leaf_value=0.012953358663543232 -0.017766683041740772 0.033441391544273273 0.049866173189366238 0.11515847444534302 -0.0056591425474767608 -0.028299666881849546 0.029076730200777886 -0.039914508412281675 0.078245994541794067 -0.020869344670834136 0.01269779998308025 -0.00097114233531278159 0.013042278161253335 -0.022325441206798077
leaf_weight=293 172 52 48 5.9999999999999991 108 168 46 21 5.9999999999999991 271 286 4067 586 127
leaf_count=293 172 52 48 6 108 168 46 21 6 271 286 4067 586 127
internal_value=0 0.000502197 0.0196836 0.0109561 0.00704853 -0.000196972 -0.00088773 -0.00950411 -0.00409718 -0.0187224 0.00909891 0.000454898 0.00809614 -0.00865781
internal_weight=0 6085 214 166 160 5871 5578 752 584 277 307 4826 759 173
internal_count=6257 6085 214 166 160 5871 5578 752 584 277 307 4826 759 173
is_linear=0
shrinkage=0.1


Tree=35
num_leaves=15
num_cat=0
split_feature=20 9 8 5 10 12 8 1 1 1 0 17 7 6
split_gain=5.07913 8.55334 5.40688 4.599 6.30128 5.3724 5.23359 7.48593 9.23942 6.18635 5.39541 12.3166 6.89654 7.94738
threshold=25.500000000000004 35.500000000000007 18.500000000000004 42.500000000000007 21.500000000000004 22.500000000000004 2.5000000000000004 410.50000000000006 425.50000000000006 130.50000000000003 3.6500000000000004 6.5000000000000009 9.5000000000000018 3.5000000000000004
decision_type=2 2 2 2 2 2 2 2 2 2 2 2 2 2
left_child=1 3 -2 6 -5 -6 7 10 -9 -8 11 -1 -12 -14
right_child=2 -3 -4 4 5 -7 9 8 -10 -11 12 -13 13 -15
leaf_value=0.0076185033351568315 0.01935903035307757 -0.013684037871624609 -0.015690265227911167 -0.086971559127171846 0.023274230871673768 -0.019819218150394807 -0.021340327389986702 0.15882631369999478 0.005642742084132301 -0.0013504794474062983 -0.0027946450514505679 -0.045982169748886546 0.032316794396319896 0.0071434714157731227
leaf_weight=116 238 463 54 5.9999999999999991 194 34 162 6.9999999999999991 8.9999999999999982 3491 546 68 152 717
leaf_count=116 238 463 54 6 194 34 162 7 9 3491 546 68 152 717
internal_value=0 -0.000630373 0.0128773 0.000468109 0.014186 0.016848 -0.000141227 0.00459918 0.0726606 -0.00223697 0.00391814 -0.0121904 0.00601282 0.0115466
internal_weight=0 5965 292 5502 234 228 5268 1615 16 3653 1599 184 1415 869
internal_count=6257 5965 292 5502 234 228 5268 1615 16 3653 1599 184 1415 869
is_linear=0
shrinkage=0.1


Tree=36
num_leaves=15
num_cat=0
split_feature=14 2 20 4 2 8 12 17 7 16 2 12 3 9
split_gain=4.58144 6.33702 4.63243 6.6382 8.23423 6.58306 6.15715 5.86204 10.0721 8.97171 9.63447 9.17794 7.75777 9.02856
threshold=1.0000000180025095e-35 5.5000000000000009 16.500000000000004 19.500000000000004 35.500000000000007 13.500000000000002 12.500000000000002 8.5000000000000018 5.5000000000000009 5.5000000000000009 11.500000000000002 10.500000000000002 1.5000000000000002 12.500000000000002
decision_type=2 2 2 2 2 2 2 2 2 2 2 2 2 2
left_child=1 -1 3 4 7 -4 -6 8 -2 10 -10 -11 -12 -14
right_child=2 -3 5 -5 6 -7 -8 -9 9 11 12 -13 13 -15
leaf_value=0.070095814493569469 -0.013349836700935196 0.003844209737144411 0.012200850316504225 -0.0079303432395432215 0.018655831574168068 -0.0051487939945596218 -0.0020495554752157493 -0.0050770186983764183 0.0048894921578066328 -0.0032854084082757414 0.025237134208088725 0.02374683078287726 0.057741184487867241 0.20047218680381773
leaf_weight=22 292 42 623 1213 394 337 226 1916 186 681 127 154 39 4.9999999999999991
leaf_count=22 292 42 623 1213 394 337 226 1916 186 681 127 154 39 5
internal_value=0 0.0266182 -0.000275079 -0.0014465 0.000509939 0.0061104 0.0111084 -0.00142272 0.00329537 0.00737288 0.020641 0.00170018 0.0377742 0.0739606
internal_weight=0 64 6193 5233 4020 960 620 3400 1484 1192 357 835 171 44
internal_count=6257 64 6193 5233 4020 960 620 3400 1484 1192 357 835 171 44
is_linear=0
shrinkage=0.1


Tree=37
num_leaves=15
num_cat=0
split_feature=0 0 14 0 20 3 12 15 9 14 2 1 0 17
split_gain=4.46345 6.51264 4.94626 10.3607 8.26107 10.2059 7.44161 7.57962 7.09432 5.21073 6.41888 11.6667 6.09858 9.98558
threshold=7.6500000000000012 7.9000000000000012 18.500000000000004 6.7900000000000009 10.500000000000002 4.5000000000000009 43.500000000000007 47.500000000000007 20.500000000000004 1.0000000180025095e-35 11.500000000000002 116.50000000000001 4.3000000000000016 6.5000000000000009
decision_type=2 2 2 2 2 2 2 2 2 2 2 2 2 2
left_child=2 -2 4 -4 8 -6 7 -7 9 -1 -11 -12 13 -13
right_child=1 -3 3 -5 5 6 -8 -9 -10 10 11 12 -14 -15
leaf_value=0.033262500495892827 0.07201711156350725 0.0082904194889330176 0.044397326627452126 -0.0087975485353260791 0.013321966076950714 -0.0079995733676313015 0.070275077911523681 0.09014708551112563 -0.013454424748964883 -0.0073842539113400107 0.039033053182287232 0.0076536924933496208 0.0028822084357906226 -0.03684853342672189
leaf_weight=46 17 283 38 1004 930 479 12.999999999999998 7.9999999999999991 461 960 84 97 1732 105
leaf_count=46 17 283 38 1004 930 479 13 8 461 960 84 97 1732 105
internal_value=0 0.0119016 -0.000599375 -0.00685762 0.000727398 0.00712754 -0.00439409 -0.00638731 -0.00189877 -0.000137148 -0.000653059 0.00254909 0.000964476 -0.0154787
internal_weight=0 300 5957 1042 4915 1430 500 487 3485 3024 2978 2018 1934 202
internal_count=6257 300 5957 1042 4915 1430 500 487 3485 3024 2978 2018 1934 202
is_linear=0
shrinkage=0.1


Tree=38
num_leaves=15
num_cat=0
split_feature=2 10 14 15 19 18 13 12 14 18 12 15 5 2
split_gain=3.9312 5.97344 4.06361 7.50223 6.1514 6.04582 7.87279 6.60885 6.42439 5.02881 5.14822 4.80787 11.1101 4.96449
threshold=70.500000000000014 62.500000000000007 9.5000000000000018 10.500000000000002 3.5000000000000004 7.5000000000000009 5.5000000000000009 15.500000000000002 1.0000000180025095e-35 1.0000000180025095e-35 3.5000000000000004 3.5000000000000004 4.5000000000000009 10.500000000000002
decision_type=2 2 2 2 2 2 2 2 2 2 2 2 2 2
left_child=2 -2 3 4 5 8 11 -8 -1 -10 -11 12 13 -7
right_child=1 -3 -4 -5 -6 6 7 -9 9 10 -12 -13 -14 -15
leaf_value=0.044183573197750819 -0.0078236107189546943 0.035564621929079297 -0.0032020777766832531 0.0063446648623273344 -0.016699669981280089 0.071607625537685002 -0.0083568772154610452 0.034773306754560994 0.040748019078198604 -0.02667905423863742 -0.0038828856176764204 0.0096671852056401299 0.020847172479355528 0.20207253873348235
leaf_weight=21 55 75 2768 1810 275 6.9999999999999982 399 39 17 190 207 327 62 5
leaf_count=21 55 75 2768 1810 275 7 399 39 17 190 207 327 62 5
internal_value=0 0.0172081 -0.000365113 0.0019727 -0.00313592 -0.000208109 0.00475218 -0.00451652 -0.00977519 -0.0125122 -0.0147929 0.0148761 0.0378938 0.125968
internal_weight=0 130 6127 3359 1549 1274 839 438 435 414 397 401 74 12
internal_count=6257 130 6127 3359 1549 1274 839 438 435 414 397 401 74 12
is_linear=0
shrinkage=0.1


Tree=39
num_leaves=15
num_cat=0
split_feature=0 0 18 0 5 1 8 16 18 0 3 17 10 18
split_gain=3.82155 5.35667 3.99961 5.01123 5.94482 5.54924 5.03103 4.6263 5.90038 7.35168 5.61194 5.87322 7.08173 6.70213
threshold=7.6500000000000012 7.9000000000000012 47.500000000000007 7.3000000000000016 55.500000000000007 467.50000000000006 14.500000000000002 8.5000000000000018 7.5000000000000009 3.0850000000000004 7.5000000000000009 4.5000000000000009 15.500000000000002 18.500000000000004
decision_type=2 2 2 2 2 2 2 2 2 2 2 2 2 2
left_child=2 -2 7 4 5 -4 -6 8 -1 -10 11 -11 13 -13
right_child=1 -3 3 -5 6 -7 -8 -9 9 10 -12 12 -14 -15
leaf_value=-0.0072752393487908983 0.06553259510546923 0.0077375518286423002 0.059641967900097376 0.10168659687042236 0.056973910694941877 -0.0058870905454525549 0.007701574973120736 -0.0028773159313111299 -0.012501310355153429 0.024403821418156557 0.048975001078926855 -0.013766070725620938 0.011341625837096083 0.049616543534729218
leaf_weight=383 17 283 13.999999999999998 5.9999999999999991 40 168 43 4122 166 193 36 228 540 18
leaf_count=383 17 283 14 6 40 168 43 4122 166 193 36 228 540 18
internal_value=0 0.0110126 -0.000554605 0.0113144 0.00926823 -0.000846394 0.0314473 -0.00112029 0.00351043 0.00700824 0.010199 0.00877308 0.004935 -0.00912832
internal_weight=0 300 5957 271 265 182 83 5686 1564 1181 1015 979 786 246
internal_count=6257 300 5957 271 265 182 83 5686 1564 1181 1015 979 786 246
is_linear=0
shrinkage=0.1


Tree=40
num_leaves=15
num_cat=0
split_feature=2 16 11 5 0 0 15 14 11 14 4 0 10 5
split_gain=3.56708 4.05767 5.1359 5.99443 4.64157 4.43598 5.479 7.4155 6.45316 8.48901 6.30621 6.08888 5.77691 5.77374
threshold=1.5000000000000002 3.5000000000000004 4.5000000000000009 7.5000000000000009 7.4500000000000011 7.0500000000000007 8.5000000000000018 9.5000000000000018 4.5000000000000009 2.5000000000000004 1.5000000000000002 6.7900000000000009 10.500000000000002 14.500000000000002
decision_type=2 2 2 2 2 2 2 2 2 2 2 2 2 2
left_child=-1 2 4 -4 -2 6 8 10 -3 12 -8 -9 -10 -12
right_child=1 5 3 -5 -6 -7 7 11 9 -11 13 -13 -14 -15
leaf_value=-0.050420330890587395 0.018451846582236222 -0.014680446507346501 -0.11718855698903395 -0.004952206495015518 -0.064105658781149294 0.0078542060563201021 0.076982387279470765 0.033705503091779214 0.080797246452420951 -0.0040273794357261151 -0.0019247772421827432 -0.0042717935274126555 0.013766249160592756 0.0089891374017068409
leaf_weight=13.999999999999998 251 594 6.0000000000000027 23 6.9999999999999991 581 11.999999999999998 43 20 376 854 2319 36 1121
leaf_count=14 251 594 6 23 7 581 12 43 20 376 854 2319 36 1121
internal_value=0 0.000113068 0.011727 -0.0281735 0.0162119 -0.000446568 -0.00134382 0.000206921 -0.00791711 0.00138249 0.00470903 -0.00358042 0.0377059 0.00426991
internal_weight=0 6243 287 29 258 5956 5375 4349 1026 432 1987 2362 56 1975
internal_count=6257 6243 287 29 258 5956 5375 4349 1026 432 1987 2362 56 1975
is_linear=0
shrinkage=0.1


Tree=41
num_leaves=15
num_cat=0
split_feature=20 16 0 9 15 8 17 1 16 18 17 0 11 2
split_gain=3.28685 5.53887 5.22341 5.09161 4.55306 5.6375 7.31579 4.22493 2.9828 9.04169 8.24354 7.87883 5.90812 8.43307
threshold=18.500000000000004 31.500000000000004 7.3000000000000016 35.500000000000007 29.500000000000004 3.5000000000000004 19.500000000000004 440.50000000000006 14.500000000000002 21.500000000000004 26.500000000000004 6.2500000000000009 3.5000000000000004 9.5000000000000018
decision_type=2 2 2 2 2 2 2 2 2 2 2 2 2 2
left_child=3 4 -3 8 5 6 -2 -5 9 12 -11 -10 13 -1
right_child=1 2 -4 7 -6 -7 -8 -9 11 10 -12 -13 -14 -15
leaf_value=-0.0049762929057044587 0.019534547467316896 -0.0032777260566318905 0.09073251485824585 -0.02906332330248498 0.027711294083551455 -0.0018915157984038759 0.14474112540483475 -0.0048566694009175718 0.027850100115217546 0.016547340858578462 -0.064159807476859829 -0.0039035928972144147 -0.0052428413739221379 0.012311972168676683
leaf_weight=504 21.000000000000004 395 5.9999999999999991 109 161 167 5.9999999999999991 213 81 478 12.999999999999998 2213 1249 641
leaf_count=504 21 395 6 109 161 167 6 213 81 478 13 2213 1249 641
internal_value=0 0.00618254 -0.00187109 -0.000849664 0.0152797 0.00496283 0.0473582 -0.0130508 -9.10654e-05 0.00204893 0.0144105 -0.00278239 -0.000486377 0.00470212
internal_weight=0 756 401 5501 355 194 27 322 5179 2885 491 2294 2394 1145
internal_count=6257 756 401 5501 355 194 27 322 5179 2885 491 2294 2394 1145
is_linear=0
shrinkage=0.1


Tree=42
num_leaves=15
num_cat=0
split_feature=16 20 8 20 0 20 7 3 16 17 10 10 19 9
split_gain=3.0897 4.31553 3.47933 5.35644 6.19291 4.15539 4.07173 8.08498 5.83732 6.43033 7.83486 5.13331 5.91505 5.14178
threshold=57.500000000000007 25.500000000000004 2.5000000000000004 3.5000000000000004 6.9500000000000011 19.500000000000004 21.500000000000004 4.5000000000000009 20.500000000000004 21.500000000000004 18.500000000000004 84.500000000000014 2.5000000000000004 11.500000000000002
decision_type=2 2 2 2 2 2 2 2 2 2 2 2 2 2
left_child=1 2 5 4 -4 -1 -5 8 9 10 -8 12 13 -10
right_child=-2 -3 3 6 -6 -7 7 -9 11 -11 -12 -13 -14 -15
leaf_value=0.003168436113817823 -0.013217250774425 0.01318605382662749 0.061635711662132636 -0.0046018965036853697 -0.014396950071274726 0.050206095509623232 -0.034480961315609793 -0.0041265626566674013 0.094885358001504633 -0.0054848246234339773 0.020684463936108826 0.045243436438233961 -0.012522412414191726 0.0074633359839073841
leaf_weight=1630 172 252 10.999999999999998 1480 410 19 27 1084 6.9999999999999991 144 554 23 271 173
leaf_count=1630 172 252 11 1480 410 19 27 1084 7 144 554 23 271 173
internal_value=0 0.000373602 -0.000179928 -0.00171319 -0.0124103 0.00371041 -0.000516404 0.0021321 0.00779047 0.0134323 0.0181208 -0.000838861 -0.00318896 0.0108631
internal_weight=0 6085 5833 4184 421 1649 3763 2283 1199 725 581 474 451 180
internal_count=6257 6085 5833 4184 421 1649 3763 2283 1199 725 581 474 451 180
is_linear=0
shrinkage=0.1


Tree=43
num_leaves=15
num_cat=0
split_feature=18 19 9 20 18 0 16 20 6 4 20 0 19 16
split_gain=2.96793 4.40611 3.33388 4.3106 3.48157 6.80862 5.99895 6.48412 5.46435 4.63064 4.6741 4.52471 4.40401 5.06915
threshold=60.500000000000007 7.5000000000000009 35.500000000000007 30.500000000000004 28.500000000000004 6.9500000000000011 24.500000000000004 4.5000000000000009 5.5000000000000009 26.500000000000004 12.500000000000002 7.5500000000000007 1.0000000180025095e-35 8.5000000000000018
decision_type=2 2 2 2 2 2 2 2 2 2 2 2 2 2
left_child=2 -2 4 -4 11 -6 7 -7 -8 -9 -11 12 -1 -14
right_child=1 -3 3 -5 5 6 8 9 -10 10 -12 -13 13 -15
leaf_value=0.0054824751918514571 0.048626639537753598 -0.0016013811971060934 -0.010782983083418206 0.016802661462861579 0.064473914727568624 -0.021883312880958398 0.092481201887130743 0.018301469379470549 -0.0033914739175492691 -0.037135230097919705 0.01062118783266398 0.01650664556896839 0.0023016824928411062 -0.0057656382009295378
leaf_weight=750 31 40 493 64 19 54 5.9999999999999991 476 648 32 57 145 1191 2251
leaf_count=750 31 40 493 64 19 54 6 476 648 32 57 145 1191 2251
internal_value=0 0.0203292 -0.000233329 -0.00761336 0.000496939 0.00505348 0.00416661 0.0112227 -0.00251191 0.0143869 -0.00654966 -0.000860463 -0.00146119 -0.00297419
internal_weight=0 71 6186 557 5629 1292 1273 619 654 565 89 4337 4192 3442
internal_count=6257 71 6186 557 5629 1292 1273 619 654 565 89 4337 4192 3442
is_linear=0
shrinkage=0.1


Tree=44
num_leaves=15
num_cat=0
split_feature=20 14 0 4 18 9 12 0 0 17 0 12 0 1
split_gain=2.5753 4.37226 5.09645 3.85494 4.55025 4.85806 4.64579 5.99348 9.26147 4.53944 8.42057 5.39802 6.45202 5.37524
threshold=16.500000000000004 15.500000000000002 7.3000000000000016 19.500000000000004 24.500000000000004 27.500000000000004 12.500000000000002 7.3000000000000016 7.9000000000000012 8.5000000000000018 4.8500000000000005 10.500000000000002 7.7500000000000009 142.50000000000003
decision_type=2 2 2 2 2 2 2 2 2 2 2 2 2 2
left_child=3 -2 -3 4 5 9 7 -6 -9 11 -11 -1 -13 -12
right_child=1 2 -4 -5 6 -7 -8 8 -10 10 13 12 -14 -15
leaf_value=0.0015006180918252742 0.011832995185177107 -0.0049261073683547138 0.029005719240450742 -0.0058077241939396406 0.01189737843158266 -0.027027122329787486 -0.0024428035109637699 0.1596877421651568 -0.0029816901577370504 -0.031069864407529898 -0.022862148774659325 0.016782977849798045 0.12240788241227468 -0.00052900801305964145
leaf_weight=1362 458 458 49 1216 443 70 279 6.9999999999999982 7 107 116 160 5.9999999999999991 1519
leaf_count=1362 458 458 49 1216 443 70 279 7 7 107 116 160 6 1519
internal_value=0 0.00475092 -0.0016467 -0.000866333 0.000607841 -0.000960593 0.00772546 0.0139332 0.078353 -0.000402594 -0.00389211 0.00357563 0.0206007 -0.0021135
internal_weight=0 965 507 5292 4076 3340 736 457 14 3270 1742 1528 166 1635
internal_count=6257 965 507 5292 4076 3340 736 457 14 3270 1742 1528 166 1635
is_linear=0
shrinkage=0.1


Tree=45
num_leaves=15
num_cat=0
split_feature=2 2 4 14 0 9 4 4 11 4 6 20 14 4
split_gain=2.86248 2.64823 3.61151 2.77321 7.9933 4.40046 3.63807 3.30728 4.08292 4.79099 4.01494 2.86936 5.46821 5.09168
threshold=1.5000000000000002 70.500000000000014 32.500000000000007 1.5000000000000002 6.9500000000000011 2.5000000000000004 5.5000000000000009 4.5000000000000009 3.5000000000000004 2.5000000000000004 5.5000000000000009 9.5000000000000018 15.500000000000002 7.5000000000000009
decision_type=2 2 2 2 2 2 2 2 2 2 2 2 2 2
left_child=-1 3 -3 4 6 -6 -2 8 9 -7 -9 13 -13 -5
right_child=1 2 -4 11 5 7 -8 10 -10 -11 -12 12 -14 -15
leaf_value=-0.045166956463695639 0.0033248412422835815 0.028724017124811842 -0.0049353477811174733 0.0031950712765574599 0.041390113517337922 0.056742597100409603 -0.082384518935130199 0.033471717069676117 -0.063177782526383036 -0.02472436930097285 0.0015050206034395257 0.0061784563022771744 -0.0031812359110116213 -0.0052405339882719004
leaf_weight=13.999999999999998 8.0000000000000018 74 56 1043 49 10.999999999999998 12.999999999999998 67 12.999999999999998 21 95 1361 1153 2279
leaf_count=14 8 74 56 1043 49 11 13 67 13 21 95 1361 1153 2279
internal_value=0 0.000101287 0.0142246 -0.000199061 0.00957741 0.0144427 -0.0497333 0.0080639 -0.015919 0.0032799 0.0147258 -0.000663092 0.00188581 -0.00259203
internal_weight=0 6243 130 6113 277 256 21 207 45 32 162 5836 2514 3322
internal_count=6257 6243 130 6113 277 256 21 207 45 32 162 5836 2514 3322
is_linear=0
shrinkage=0.1


Tree=46
num_leaves=15
num_cat=0
split_feature=18 8 11 16 8 1 0 17 18 6 16 17 0 11
split_gain=2.48105 3.11645 3.31749 2.8873 2.74766 3.94951 3.17759 6.0985 4.54642 4.99663 8.233 5.77749 5.56993 5.22898
threshold=47.500000000000007 10.500000000000002 9.5000000000000018 16.500000000000004 2.5000000000000004 130.50000000000003 3.6500000000000004 6.5000000000000009 6.5000000000000009 3.5000000000000004 4.5000000000000009 2.5000000000000004 6.3500000000000005 16.500000000000004
decision_type=2 2 2 2 2 2 2 2 2 2 2 2 2 2
left_child=4 2 3 -2 6 -6 7 -1 -8 10 11 -10 -12 -11
right_child=1 -3 -4 -5 5 -7 8 -9 9 13 12 -13 -14 -15
leaf_value=0.0045993999224798431 -0.0054968185722827911 0.0020472175678367273 0.0080200200163930355 0.062361399097175432 -0.01706534037826422 -0.0011511610982303097 -0.0067355566432601537 -0.033117598881397176 0.11088761710203612 0.0031807473220332189 0.097757300308772499 0.035565160242642495 0.0070734958081956267 0.10572830032557251
leaf_weight=116 7.9999999999999991 185 49 29 162 4173 285 68 12.999999999999998 901 6.9999999999999991 47 209 4.9999999999999991
leaf_count=116 8 185 49 29 162 4173 285 68 13 901 7 47 209 5
internal_value=0 0.00935875 0.0250871 0.0476894 -0.000423692 -0.00174588 0.00304795 -0.00933949 0.00460165 0.00733524 0.0191151 0.051885 0.0100123 0.00374668
internal_weight=0 271 86 37 5986 4335 1651 184 1467 1182 276 60 216 906
internal_count=6257 271 86 37 5986 4335 1651 184 1467 1182 276 60 216 906
is_linear=0
shrinkage=0.1


Tree=47
num_leaves=15
num_cat=0
split_feature=2 16 9 2 5 16 14 0 20 19 17 1 11 18
split_gain=2.26708 2.50884 4.39403 6.63081 6.27772 4.54513 6.14881 4.34804 4.0314 4.2164 5.59895 4.71448 4.51528 4.07784
threshold=1.5000000000000002 3.5000000000000004 7.5000000000000009 11.500000000000002 7.5000000000000009 1.5000000000000002 1.5000000000000002 7.4500000000000011 3.5000000000000004 1.5000000000000002 5.5000000000000009 144.50000000000003 1.5000000000000002 6.5000000000000009
decision_type=2 2 2 2 2 2 2 2 2 2 2 2 2 2
left_child=-1 2 7 5 -5 -4 -7 -2 13 10 12 -12 -10 -3
right_child=1 8 3 4 -6 6 -8 -9 9 -11 11 -13 -14 -15
leaf_value=-0.040196025158677789 0.022338632679921352 -0.021140074894746494 0.03662199195888307 0.11609815532962482 0.0073434784927445922 0.054633224010467531 -0.053137003700766294 -0.058099518077714109 -0.022607935240699185 -0.00096512688943683762 -0.016985616235223672 0.0053790611333947597 0.030934959691431785 -0.003304216709663041
leaf_weight=13.999999999999998 168 164 8.9999999999999982 5.9999999999999991 46 5.9999999999999991 45 6.9999999999999991 18 3951 104 1006 126 587
leaf_count=14 168 164 9 6 46 6 45 7 18 3951 104 1006 126 587
internal_value=0 9.01401e-05 0.00922235 -0.00624445 0.0198921 -0.0288961 -0.0404582 0.0191211 -0.000349911 0.000638324 0.00569035 0.00328363 0.0242421 -0.00719913
internal_weight=0 6243 287 112 52 60 51 175 5956 5205 1254 1110 144 751
internal_count=6257 6243 287 112 52 60 51 175 5956 5205 1254 1110 144 751
is_linear=0
shrinkage=0.1


Tree=48
num_leaves=15
num_cat=0
split_feature=18 12 4 9 12 20 3 7 4 0 18 0 9 15
split_gain=2.13252 3.73957 2.95515 3.30045 3.51295 3.31493 5.13809 4.0243 3.70417 4.51506 4.44006 13.2919 4.06282 2.82844
threshold=42.500000000000007 19.500000000000004 31.500000000000004 36.500000000000007 13.500000000000002 10.500000000000002 4.5000000000000009 50.500000000000007 18.500000000000004 6.9500000000000011 28.500000000000004 7.3000000000000016 15.500000000000002 26.500000000000004
decision_type=2 2 2 2 2 2 2 2 2 2 2 2 2 2
left_child=2 -2 3 5 -5 7 13 8 10 -10 12 -12 -1 -7
right_child=1 -3 -4 4 -6 6 -8 -9 9 -11 11 -13 -14 -15
leaf_value=0.0011335077074947676 0.016005296571941444 -0.0021205001002774899 -0.0089016518887974055 -0.035835378903895619 -0.0044364683239931065 0.0070156513356368234 -0.0015299533143305504 -0.042769627629414851 0.035025326636704532 -0.011395722588503387 0.0098691622712067332 0.15010695627757484 -0.00844318975098848 0.02178089419641055
leaf_weight=2487 219 237 392 50 124 621 736 23 22 440 196 6.9999999999999991 539 164
leaf_count=2487 219 237 392 50 124 621 736 23 22 440 196 7 539 164
internal_value=0 0.00658465 -0.000517601 9.00067e-05 -0.0134591 0.000540351 0.00447254 -0.00107001 -0.00081016 -0.0091852 0.000388126 0.0147049 -0.000572322 0.0101004
internal_weight=0 456 5801 5409 174 5235 1521 3714 3691 462 3229 203 3026 785
internal_count=6257 456 5801 5409 174 5235 1521 3714 3691 462 3229 203 3026 785
is_linear=0
shrinkage=0.1


Tree=49
num_leaves=15
num_cat=0
split_feature=0 0 20 2 18 4 18 8 5 2 10 18 18 15
split_gain=2.01145 3.44365 2.18238 2.03938 2.71183 2.45209 2.66488 2.34566 4.18766 3.26685 5.71682 3.38383 3.07211 4.24244
threshold=7.6500000000000012 7.9000000000000012 8.5000000000000018 70.500000000000014 59.500000000000007 19.500000000000004 30.500000000000004 2.5000000000000004 2.5000000000000004 39.500000000000007 29.500000000000004 29.500000000000004 10.500000000000002 30.500000000000004
decision_type=2 2 2 2 2 2 2 2 2 2 2 2 2 2
left_child=3 2 -2 7 5 -5 -7 9 -9 -1 11 -11 13 -10
right_child=1 -3 -4 4 -6 6 -8 8 12 10 -12 -13 -14 -15
leaf_value=0.001788706296735886 0.017922919491926825 0.0053636873562988088 0.08970623388886452 0.034868884654272174 0.039551639157746524 -0.049232896722175859 0.0037134945552263939 -0.066538404375314705 -0.0078315048455717233 0.016027232110500337 0.0066775684244930744 0.1186307105753157 -0.0007449984391868416 -0.081222505122423183
leaf_weight=1530 9.0000000000000018 283 7.9999999999999991 21 28 10.999999999999998 70 9.9999999999999982 510 4.9999999999999991 36 8.9999999999999982 3719 7.9999999999999991
leaf_count=1530 9 283 8 21 28 11 70 10 510 5 36 9 3719 8
internal_value=0 0.0079896 0.0517033 -0.000402364 0.0119852 0.00441793 -0.00347676 -0.000678729 -0.00190249 0.00261071 0.0277641 0.0819866 -0.00174994 -0.00896496
internal_weight=0 300 17 5957 130 102 81 5827 4247 1580 50 14 4237 518
internal_count=6257 300 17 5957 130 102 81 5827 4247 1580 50 14 4237 518
is_linear=0
shrinkage=0.1


Tree=50
num_leaves=15
num_cat=0
split_feature=0 14 20 10 8 7 18 19 15 14 0 8 12 18
split_gain=1.99621 1.90943 2.54784 3.41657 2.65244 2.55113 3.08151 3.06648 2.61131 2.32148 3.58344 9.49574 5.34828 4.65946
threshold=2.2500000000000004 32.500000000000007 25.500000000000004 25.500000000000004 16.500000000000004 80.500000000000014 60.500000000000007 7.5000000000000009 80.500000000000014 5.5000000000000009 4.4500000000000011 1.0000000180025095e-35 9.5000000000000018 7.5000000000000009
decision_type=2 2 2 2 2 2 2 2 2 2 2 2 2 2
left_child=-1 2 5 -4 -5 6 8 -8 9 10 11 -2 13 -12
right_child=1 -3 3 4 -6 -7 7 -9 -10 -11 12 -13 -14 -15
leaf_value=-0.03914526968907852 0.089202970638871198 -0.0084990506490082839 -0.054122670926153665 0.017208823858815624 -0.0093980737091244569 -0.060330095461436688 0.047203488246089331 -0.0091884336620569242 -0.072358959913253793 -0.0014692227948776293 -0.0097469556639212529 -0.024286509737213878 0.011635789750790857 0.0040769785500886918
leaf_weight=12.999999999999998 7.9999999999999991 249 7.9999999999999991 202 46 6.9999999999999991 27 14.999999999999998 4.9999999999999991 3824 347 94 592 820
leaf_count=13 8 249 8 202 46 7 27 15 5 3824 347 94 592 820
internal_value=0 8.15004e-05 0.00043789 0.0101988 0.0122737 2.48518e-06 7.61642e-05 0.0270635 -0.000123039 -5.95074e-05 0.00283719 -0.0153854 0.00389387 -3.348e-05
internal_weight=0 6244 5995 256 248 5739 5732 42 5690 5685 1861 102 1759 1167
internal_count=6257 6244 5995 256 248 5739 5732 42 5690 5685 1861 102 1759 1167
is_linear=0
shrinkage=0.1


Tree=51
num_leaves=15
num_cat=0
split_feature=2 16 6 7 1 9 5 12 12 9 9 0 14 1
split_gain=1.81781 2.20051 4.61645 4.81791 8.10613 4.94067 3.41427 3.88046 3.35765 3.1394 4.26068 3.91976 2.81962 2.65056
threshold=1.5000000000000002 3.5000000000000004 4.5000000000000009 7.5000000000000009 100.50000000000001 7.5000000000000009 6.5000000000000009 2.5000000000000004 1.5000000000000002 7.5000000000000009 9.5000000000000018 7.4500000000000011 1.5000000000000002 82.500000000000014
decision_type=2 2 2 2 2 2 2 2 2 2 2 2 2 2
left_child=-1 2 3 5 -5 6 7 8 -2 11 -11 -4 -7 -3
right_child=1 13 9 4 -6 12 -8 -9 -10 10 -12 -13 -14 -15
leaf_value=-0.035993511628891743 -0.0047712537326983018 -0.019011808980877204 0.012546412687595578 0.14629078321158887 0.02942041351627081 0.029068810409969753 0.041352575222651164 0.042742832687993844 -0.10023659586906433 -0.06107666902244091 -0.00064478952969823568 -0.078976653814315803 -0.034749512846271195 -9.3179246631725605e-05
leaf_weight=13.999999999999998 14.000000000000005 75 73 6.9999999999999991 39 8.9999999999999982 45 11.999999999999998 4.9999999999999991 20 28 4.9999999999999991 30 5881
leaf_count=14 14 75 73 7 39 9 45 12 5 20 28 5 30 5881
internal_value=0 8.07159e-05 0.00863339 0.0198532 0.047205 0.00891246 0.0237605 -0.00177634 -0.0298937 -0.00570304 -0.0258247 0.00667955 -0.0200222 -0.000331409
internal_weight=0 6243 287 161 46 115 76 31 19 126 48 78 39 5956
internal_count=6257 6243 287 161 46 115 76 31 19 126 48 78 39 5956
is_linear=0
shrinkage=0.1


Tree=52
num_leaves=15
num_cat=0
split_feature=0 10 4 16 16 8 15 4 13 15 14 10 1 7
split_gain=1.78996 4.16326 5.08228 3.26183 2.96414 4.66718 4.19107 3.67944 3.43635 3.25937 3.16285 4.836 3.12216 3.02572
threshold=7.0500000000000007 7.5000000000000009 5.5000000000000009 47.500000000000007 4.5000000000000009 3.5000000000000004 8.5000000000000018 8.5000000000000018 10.500000000000002 14.500000000000002 6.5000000000000009 12.500000000000002 85.500000000000014 1.5000000000000002
decision_type=2 2 2 2 2 2 2 2 2 2 2 2 2 2
left_child=4 -2 -3 -4 5 6 8 9 13 10 -8 -12 -6 -1
right_child=1 2 3 -5 12 -7 7 -9 -10 -11 11 -13 -14 -15
leaf_value=-0.055994256958365442 -0.016755026840915285 0.047058508160989734 0.0048308613784680144 0.069222180265933284 -0.026091861003078521 -0.0084624904373453731 0.066838970247079577 -0.013945342674851419 0.081082171698411309 0.0093309006498505671 -0.046073324339730409 0.076272797336181003 -0.00098245668726016202 0.0066334487093424989
leaf_weight=7.9999999999999991 75 32 473 7.9999999999999991 50 135 42 14.999999999999998 5.9999999999999991 24 6.9999999999999982 6 5160 216
leaf_count=8 75 32 473 8 50 135 42 15 6 24 7 6 5160 216
internal_value=0 0.00525173 0.0084691 0.00590182 -0.00054472 0.00715915 0.0136682 0.0314587 0.00639723 0.0400798 0.0534975 0.0103941 -0.00122343 0.00439674
internal_weight=0 588 513 481 5669 459 324 94 230 79 55 13 5210 224
internal_count=6257 588 513 481 5669 459 324 94 230 79 55 13 5210 224
is_linear=0
shrinkage=0.1


Tree=53
num_leaves=15
num_cat=0
split_feature=17 1 4 20 1 7 10 0 20 4 10 6 1 11
split_gain=1.64895 7.46588 2.26078 4.002 2.15098 1.88148 1.87621 1.87136 4.48885 3.33358 2.35934 6.10829 4.51122 2.46853
threshold=1.5000000000000002 77.500000000000014 4.5000000000000009 1.5000000000000002 54.000000000000007 4.5000000000000009 11.500000000000002 7.3000000000000016 1.5000000000000002 5.5000000000000009 17.500000000000004 6.5000000000000009 221.50000000000003 2.5000000000000004
decision_type=2 2 2 2 2 2 2 2 2 2 2 2 2 2
left_child=1 2 3 5 -2 -1 -3 -6 -9 -10 13 12 -12 -11
right_child=4 6 -4 -5 7 -7 -8 8 9 10 11 -13 -14 -15
leaf_value=-0.011082148978546744 -0.052002901583909994 0.10346637283052712 0.0513120710849762 -0.073902823527654024 -0.00064915074390373346 0.043312457203865055 0.042452941917710839 -0.06876085810363293 0.043119181269624579 0.065581959486007688 0.026437619226900019 0.0055716866268494918 0.10744242906570434 -0.0056203849443424783
leaf_weight=31 7.9999999999999991 7.0000000000000027 5.9999999999999991 8.9999999999999982 5642 7.9999999999999991 18 7.9999999999999991 24 4.9999999999999991 22 273 9.9999999999999982 186
leaf_count=31 8 7 6 9 5642 8 18 8 24 5 22 273 10 186
internal_value=0 0.0143559 -0.00656111 -0.0137953 -0.000183574 7.5719e-05 0.0595367 -0.000116385 0.00557654 0.00672019 0.00495895 0.0104168 0.0517516 -0.00375645
internal_weight=0 79 54 48 6178 39 25 6170 528 520 496 305 32 191
internal_count=6257 79 54 48 6178 39 25 6170 528 520 496 305 32 191
is_linear=0
shrinkage=0.1


Tree=54
num_leaves=15
num_cat=0
split_feature=16 5 13 14 12 15 9 12 5 4 15 2 12 17
split_gain=1.67508 2.90319 3.96429 2.36998 2.61652 2.93785 2.18304 2.88348 2.18433 4.90276 3.77714 4.202 2.8682 4.34419
threshold=57.500000000000007 52.500000000000007 19.500000000000004 32.500000000000007 4.5000000000000009 29.500000000000004 36.500000000000007 13.500000000000002 35.500000000000007 30.500000000000004 37.500000000000007 61.500000000000007 27.500000000000004 17.500000000000004
decision_type=2 2 2 2 2 2 2 2 2 2 2 2 2 2
left_child=1 6 -3 4 -4 -6 8 -8 10 -10 11 12 13 -1
right_child=-2 2 3 -5 5 -7 7 -9 9 -11 -12 -13 -14 -15
leaf_value=0.00075276039839685879 -0.0097319649577108317 -0.018219284759834409 -0.024157452041452584 -0.0079684741732974854 -0.0070552349259907559 0.032748725681597278 -0.030277514874935154 -0.0040874625740185151 0.011922006313398015 -0.012088016747420126 -0.022582830247469248 0.034554273177470479 0.011106509105280634 -0.0069221725602429439
leaf_weight=3819 172 37 10.999999999999998 30 22 118 50 264 387 109 75 35 214 914
leaf_count=3819 172 37 11 30 22 118 50 264 387 109 75 35 214 914
internal_value=0 0.000275086 0.0116066 0.0177036 0.022804 0.0264938 -0.000145958 -0.00825785 0.000312737 0.00664561 -0.000308403 2.69207e-05 -0.00021736 -0.000729363
internal_weight=0 6085 218 181 151 140 5867 314 5553 496 5057 4982 4947 4733
internal_count=6257 6085 218 181 151 140 5867 314 5553 496 5057 4982 4947 4733
is_linear=0
shrinkage=0.1


Tree=55
num_leaves=15
num_cat=0
split_feature=0 16 11 18 3 11 1 7 19 3 12 7 12 7
split_gain=1.60802 1.52723 4.5714 4.31791 7.21408 6.33355 8.24569 4.36284 3.88351 3.73259 3.6195 3.1808 3.17836 3.03792
threshold=2.2500000000000004 9.5000000000000018 10.500000000000002 17.500000000000004 1.5000000000000002 4.5000000000000009 237.50000000000003 27.500000000000004 6.5000000000000009 8.5000000000000018 7.5000000000000009 28.500000000000004 13.500000000000002 27.500000000000004
decision_type=2 2 2 2 2 2 2 2 2 2 2 2 2 2
left_child=-1 2 3 8 10 6 -6 -7 9 -2 11 -5 -12 -3
right_child=1 13 -4 4 5 7 -8 -9 -10 -11 12 -13 -14 -15
leaf_value=-0.035133540186171347 0.0017713687249521397 -0.0034014721106246158 -0.045062209106981756 0.005213196809241964 0.12124099135398865 0.00071817575022578247 0.024125857775410018 0.071830261684954169 -0.051494895912972953 -0.066714030504226682 0.044334982948437816 -0.027951989667245044 -0.041583508253097534 0.001866260500012923
leaf_weight=12.999999999999998 1523 2343 20 121 17 40 18 10.999999999999998 13.999999999999998 7.9999999999999991 31 38 4.9999999999999991 2055
leaf_count=13 1523 2343 20 121 17 40 18 11 14 8 31 38 5 2055
internal_value=0 7.3148e-05 0.00248712 0.00300792 0.0144104 0.0385375 0.0712961 0.0160561 0.00093408 0.00141351 0.00376968 -0.00271307 0.0324019 -0.000940083
internal_weight=0 6244 1846 1826 281 86 35 51 1545 1531 195 159 36 4398
internal_count=6257 6244 1846 1826 281 86 35 51 1545 1531 195 159 36 4398
is_linear=0
shrinkage=0.1


Tree=56
num_leaves=15
num_cat=0
split_feature=20 19 0 13 16 9 15 11 13 9 7 7 16 12
split_gain=1.43682 3.72488 6.33308 3.98776 3.63188 3.59747 3.52748 4.12484 3.51363 3.24233 3.91162 4.34125 3.46105 3.19421
threshold=7.5000000000000009 2.5000000000000004 7.3000000000000016 29.500000000000004 8.5000000000000018 2.5000000000000004 26.500000000000004 8.5000000000000018 1.5000000000000002 5.5000000000000009 17.500000000000004 22.500000000000004 11.500000000000002 5.5000000000000009
decision_type=2 2 2 2 2 2 2 2 2 2 2 2 2 2
left_child=4 2 3 5 -1 -2 9 13 -6 10 12 -12 -3 -8
right_child=1 6 -4 -5 8 -7 7 -9 -10 -11 11 -13 -14 -15
leaf_value=0.0020722577132006649 -0.021618554289395946 0.047648488233486788 0.10117398244994028 -0.017857840256296349 0.036661984585225585 0.0086508740875804683 -0.0024173008558684836 -0.00022724132070213151 -0.0055286783223761765 -0.0046331328272041549 0.12288284065822752 0.025310881553511872 -0.046769929812713107 0.022484274542757445
leaf_weight=1397 41 6.0000000000000027 6.9999999999999991 67 20 927 73 587 1512 1409 6.0000000000000027 19 10.999999999999998 175
leaf_count=1397 41 6 7 67 20 927 73 587 1512 1409 6 19 11 175
internal_value=0 0.00142163 0.00637691 0.00573577 -0.00161529 0.0073688 -0.00083708 0.00434119 -0.00497789 -0.00381699 0.0235625 0.0487282 -0.0134458 0.0151544
internal_weight=0 3328 1042 1035 2929 968 2286 835 1532 1451 42 25 17 248
internal_count=6257 3328 1042 1035 2929 968 2286 835 1532 1451 42 25 17 248
is_linear=0
shrinkage=0.1


Tree=57
num_leaves=15
num_cat=0
split_feature=8 12 19 0 5 12 4 5 9 5 15 4 2 10
split_gain=1.38785 1.97557 3.72913 1.76912 1.74757 1.73081 1.5748 3.29403 2.87667 2.57881 3.74612 4.61705 3.7869 3.45257
threshold=20.500000000000004 38.500000000000007 16.500000000000004 7.3000000000000016 31.500000000000004 25.500000000000004 31.500000000000004 45.500000000000007 36.500000000000007 27.500000000000004 29.500000000000004 28.500000000000004 18.500000000000004 58.500000000000007
decision_type=2 2 2 2 2 2 2 2 2 2 2 2 2 2
left_child=1 6 3 -3 -2 -6 7 8 9 10 11 -1 -12 -11
right_child=4 2 -4 -5 5 -7 -8 -9 -10 13 12 -13 -14 -15
leaf_value=-0.0006735102316456432 -0.031299350112676622 0.0062814815383884408 0.097921451330184942 0.062219369411468509 0.012128304289767473 -0.01410956035869626 -0.0057443468700675822 0.014061058894189639 -0.013940698213830023 0.00684328552502697 -0.085888145305216324 0.025600740762756154 -0.014126282890268427 -0.012550998059824077
leaf_weight=4065 30 98 4.9999999999999991 5.9999999999999991 41 65 445 172 144 917 7.9999999999999991 68 91 102
leaf_count=4065 30 98 5 6 41 65 445 172 144 917 8 68 91 102
internal_value=0 0.000221997 0.0135643 0.00950867 -0.00999148 -0.00396095 -1.99048e-05 0.00043768 3.34844e-06 0.000385741 -0.000701693 -0.000241222 -0.0199252 0.00490195
internal_weight=0 6121 109 104 136 106 6012 5567 5395 5251 4232 4133 99 1019
internal_count=6257 6121 109 104 136 106 6012 5567 5395 5251 4232 4133 99 1019
is_linear=0
shrinkage=0.1


Tree=58
num_leaves=15
num_cat=0
split_feature=4 11 10 10 20 9 15 11 8 20 9 9 5 12
split_gain=1.3925 6.17963 7.51449 3.96765 3.5686 4.52802 5.46018 5.74669 3.57693 3.54264 3.48018 7.28855 3.39898 3.11799
threshold=6.5000000000000009 6.5000000000000009 14.500000000000002 66.500000000000014 6.5000000000000009 7.5000000000000009 14.500000000000002 3.5000000000000004 3.5000000000000004 3.5000000000000004 15.500000000000002 14.500000000000002 2.5000000000000004 4.5000000000000009
decision_type=2 2 2 2 2 2 2 2 2 2 2 2 2 2
left_child=1 2 10 -3 8 6 7 -6 -4 -2 11 12 13 -1
right_child=9 3 4 -5 5 -7 -8 -9 -10 -11 -12 -13 -14 -15
leaf_value=-0.04641071885824203 -0.0091263614955047773 -0.032415509625123094 0.02492169619848331 0.046821378810065137 0.16257726682557003 0.015270847838484881 0.029262571979094956 0.036232434647778672 -0.0058489852274457611 0.00015008724284258898 -0.032864872807015978 0.10346361611570631 0.0024899004952374636 0.040094572305679324
leaf_weight=25.000000000000004 450 65 102 6.9999999999999991 8.9999999999999982 33 17 5.9999999999999991 60 4835 30 6.9999999999999991 606 4.9999999999999991
leaf_count=25 450 65 102 7 9 33 17 6 60 4835 30 7 606 5
internal_value=0 0.00347859 0.00573383 -0.0247119 0.0214672 0.0412614 0.0680642 0.112039 0.0135251 -0.000639771 0.000427019 0.0019803 0.000863341 -0.0319932
internal_weight=0 972 900 72 227 65 32 15 162 5285 673 643 636 30
internal_count=6257 972 900 72 227 65 32 15 162 5285 673 643 636 30
is_linear=0
shrinkage=0.1


Tree=59
num_leaves=15
num_cat=0
split_feature=0 14 0 4 16 18 1 13 16 4 11 4 0 0
split_gain=1.31013 1.43748 3.67491 3.75592 7.69196 6.5031 5.34651 4.20264 3.28355 2.76463 2.05457 2.34617 3.05082 1.80704
threshold=2.2500000000000004 1.5000000000000002 6.9500000000000011 4.5000000000000009 4.5000000000000009 2.5000000000000004 153.50000000000003 1.5000000000000002 2.5000000000000004 5.5000000000000009 2.5000000000000004 5.5000000000000009 9.2500000000000018 6.9500000000000011
decision_type=2 2 2 2 2 2 2 2 2 2 2 2 2 2
left_child=-1 2 9 4 5 -4 8 -7 -5 -2 -10 -12 -13 -3
right_child=1 13 3 6 -6 7 -8 -9 10 -11 11 12 -14 -15
leaf_value=-0.031712764043074389 0.0093371945200487957 0.0048111873662828146 -0.058783816297849026 -0.029208208620548251 -0.062515764723066233 -0.043386873006820648 4.1883247835321891e-05 0.058178702252916992 0.007020241689557831 -0.06792260787703773 0.087304325537248095 0.046931467441442824 -0.010672877593473955 -0.00085989002318660735
leaf_weight=12.999999999999998 8 628 8.9999999999999982 7.9999999999999991 20 5.0000000000000027 101 22 18 11 10.999999999999998 56 10.999999999999998 5336
leaf_count=13 8 628 9 8 20 5 101 22 18 11 11 56 11 5336
internal_value=0 6.60259e-05 0.00706862 0.0101596 -0.0127924 0.0148317 0.0164294 0.0393703 0.0323443 -0.0353922 0.0374737 0.0445014 0.037474 -0.000262734
internal_weight=0 6244 280 261 56 36 205 27 104 19 96 78 67 5964
internal_count=6257 6244 280 261 56 36 205 27 104 19 96 78 67 5964
is_linear=0
shrinkage=0.1


Tree=60
num_leaves=15
num_cat=0
split_feature=18 5 8 16 19 13 8 5 12 5 13 8 14 19
split_gain=1.32926 4.77698 4.74396 5.45552 3.74585 6.02092 5.95809 3.29981 3.76773 2.97851 3.49777 4.64611 6.97967 6.57531
threshold=22.500000000000004 9.5000000000000018 8.5000000000000018 18.500000000000004 6.5000000000000009 33.500000000000007 3.5000000000000004 26.500000000000004 40.500000000000007 38.500000000000007 16.500000000000004 6.5000000000000009 14.500000000000002 3.5000000000000004
decision_type=2 2 2 2 2 2 2 2 2 2 2 2 2 2
left_child=-1 -2 3 4 -3 6 -6 8 -4 10 11 -5 -13 -14
right_child=1 2 7 9 5 -7 -8 -9 -10 -11 -12 12 13 -15
leaf_value=-0.0011941266334679701 -0.027100374020769133 0.01246310890350929 -0.01229910824280921 -0.0069039628953086567 0.13716670994181188 -0.026689559128135445 0.039687887258056942 0.0013818924727177974 0.04073277791695936 0.015850105857932752 -0.012860527395940008 -0.002690941393375397 0.12252464511177757 0.028522618009668328
leaf_weight=3744 56 442 311 108 7.9999999999999991 9.9999999999999982 29 1164 13.999999999999998 98 199 40 10.999999999999998 23
leaf_count=3744 56 442 311 108 8 10 29 1164 14 98 199 40 11 23
internal_value=0 0.00177907 0.00243729 0.00788706 0.0153171 0.0421572 0.0607644 -0.0011056 -0.0100147 0.00030186 -0.00369743 0.00632157 0.0256237 0.058935
internal_weight=0 2513 2457 968 489 47 37 1489 325 479 381 182 74 34
internal_count=6257 2513 2457 968 489 47 37 1489 325 479 381 182 74 34
is_linear=0
shrinkage=0.1


Tree=61
num_leaves=15
num_cat=0
split_feature=17 1 3 4 20 1 2 15 15 19 1 9 18 16
split_gain=1.26214 5.67944 1.92042 1.68949 2.88329 1.40951 1.61511 1.97645 2.84155 2.63444 2.11811 1.98748 1.7577 3.1405
threshold=1.5000000000000002 77.500000000000014 2.5000000000000004 4.5000000000000009 1.5000000000000002 54.000000000000007 3.5000000000000004 5.5000000000000009 1.5000000000000002 1.5000000000000002 100.50000000000001 8.5000000000000018 10.500000000000002 10.500000000000002
decision_type=2 2 2 2 2 2 2 2 2 2 2 2 2 2
left_child=1 3 -3 4 -1 -2 7 8 -7 10 -10 -9 -8 -14
right_child=5 2 -4 -5 -6 6 12 11 9 -11 -12 -13 13 -15
leaf_value=-0.00016391084362299014 -0.042108269780874258 0.038108177818357937 0.10739770650863648 0.044345545768737796 -0.062956903709305664 -0.023846985585987569 -0.0035209164882044476 -0.030211398312274148 0.033255175600061193 -0.021737912510122574 0.09078386314213277 0.016854000248407063 0.0058044045997416773 -0.00067590000129942878
leaf_weight=39 7.9999999999999991 20.000000000000004 4.9999999999999991 5.9999999999999991 8.9999999999999982 9.9999999999999982 1329 17 32 6.9999999999999991 7.9999999999999991 19 930 3818
leaf_count=39 8 20 5 6 9 10 1329 17 32 7 8 19 930 3818
internal_value=0 0.0125598 0.0519661 -0.00568391 -0.0119376 -0.000160605 -0.000106216 0.0129724 0.0245579 0.0348568 0.0447609 -0.00537133 -0.000306366 0.00059341
internal_weight=0 79 25 54 48 6178 6170 93 57 47 40 36 6077 4748
internal_count=6257 79 25 54 48 6178 6170 93 57 47 40 36 6077 4748
is_linear=0
shrinkage=0.1


Tree=62
num_leaves=15
num_cat=0
split_feature=20 14 16 0 5 14 1 1 2 19 17 5 4 5
split_gain=1.30633 2.43756 2.51077 2.72519 3.58909 2.64175 2.27701 3.9152 4.38635 2.76442 2.4014 2.71444 2.07622 2.66642
threshold=16.500000000000004 15.500000000000002 17.500000000000004 7.3000000000000016 53.500000000000007 16.500000000000004 405.50000000000006 425.50000000000006 39.500000000000007 7.5000000000000009 23.500000000000004 50.500000000000007 19.500000000000004 26.500000000000004
decision_type=2 2 2 2 2 2 2 2 2 2 2 2 2 2
left_child=12 6 5 4 -4 -3 9 8 -8 -2 -9 -12 13 -1
right_child=1 2 3 -5 -6 -7 7 10 -10 -11 11 -13 -14 -15
leaf_value=-0.00060088990276285607 0.0043910925162253447 -0.028123769201338272 -0.01009377476579526 0.019586007412979192 0.011699636798524827 0.056554892446313593 0.024905569314723833 0.022038442610753974 0.11251900997012854 -0.0349503106251359 -0.0051953439407788956 0.029163887775663672 -0.0042434264573023781 0.0066030523745981345
leaf_weight=3473 167 5.0000000000000027 342 49 97 13.999999999999998 20.000000000000004 103 7.9999999999999991 20 111 29 1216 603
leaf_count=3473 167 5 342 49 97 14 20 103 8 20 111 29 1216 603
internal_value=0 0.00338369 -0.00139318 -0.00278175 -0.00527837 0.034271 0.00867161 0.0145288 0.049938 0.000183456 0.0104487 0.00192193 -0.000617018 0.000464855
internal_weight=0 965 507 488 439 19 458 271 28 187 243 140 5292 4076
internal_count=6257 965 507 488 439 19 458 271 28 187 243 140 5292 4076
is_linear=0
shrinkage=0.1


Tree=63
num_leaves=15
num_cat=0
split_feature=4 11 2 15 9 20 15 10 16 15 20 11 15 16
split_gain=1.19644 4.8392 5.88324 3.7847 4.0693 6.79236 5.03466 3.19624 2.89101 3.17091 2.82314 2.77925 2.66031 7.71103
threshold=6.5000000000000009 6.5000000000000009 11.500000000000002 1.5000000000000002 7.5000000000000009 6.5000000000000009 16.500000000000004 66.500000000000014 5.5000000000000009 17.500000000000004 3.5000000000000004 3.5000000000000004 8.5000000000000018 7.5000000000000009
decision_type=2 2 2 2 2 2 2 2 2 2 2 2 2 2
left_child=1 2 12 -4 5 8 11 -3 9 -5 -2 -7 -1 -14
right_child=10 7 3 4 -6 6 -8 -9 -10 -11 -12 -13 13 -15
leaf_value=-0.0061479832007845479 -0.0081689526433021669 -0.028636296352801419 0.10020325660705567 0.037893898628482768 0.0024291994299112571 0.12911952788179568 0.015462238513506378 0.042481867756162375 0.0043921114457351673 -0.02009819725697691 0.00011207735996992899 0.054188566960187423 0.041674099149911298 -0.016548513389296002
leaf_weight=381 450 65 4.9999999999999991 66 202 11.000000000000002 12.999999999999998 6.9999999999999991 111 10.999999999999998 4835 8.9999999999999982 46 45
leaf_count=381 450 65 5 66 202 11 13 7 111 11 4835 9 46 45
internal_value=0 0.00322442 0.00522013 0.0137107 0.0126883 0.0220654 0.0639097 -0.021722 0.0147204 0.0296093 -0.000593025 0.0954006 -0.00247893 0.0128827
internal_weight=0 972 900 428 423 221 33 72 188 77 5285 20 472 91
internal_count=6257 972 900 428 423 221 33 72 188 77 5285 20 472 91
is_linear=0
shrinkage=0.1


Tree=64
num_leaves=15
num_cat=0
split_feature=7 12 17 7 4 9 4 3 2 11 6 12 9 15
split_gain=1.16306 2.20884 1.55383 3.85263 3.14546 1.56353 1.23796 5.56053 4.23051 3.57261 4.01777 4.07954 3.1282 3.81689
threshold=1.5000000000000002 3.5000000000000004 1.5000000000000002 7.5000000000000009 4.5000000000000009 6.5000000000000009 6.5000000000000009 7.5000000000000009 16.500000000000004 6.5000000000000009 16.500000000000004 8.5000000000000018 7.5000000000000009 1.5000000000000002
decision_type=2 2 2 2 2 2 2 2 2 2 2 2 2 2
left_child=1 -1 3 4 -2 -6 7 9 -9 10 11 12 13 -4
right_child=2 -3 6 -5 5 -7 -8 8 -10 -11 -12 -13 -14 -15
leaf_value=-0.04690484606793948 -0.011018675370988521 0.018964740913361311 -0.024599984406183165 0.056251507077146982 0.07682085633277895 0.0099835642746516629 -0.00067692741061251948 0.022192590644205864 0.11704264104366302 -0.020785005159809123 0.055913166169609341 -0.027332244875530404 -0.0040377165241335415 0.012537763092382512
leaf_weight=14.000000000000002 44 7.9999999999999991 30 17 6.9999999999999982 7 5267 79 4.9999999999999991 70 13.999999999999998 45 293 357
leaf_count=14 44 8 30 17 7 7 5267 79 5 70 14 45 293 357
internal_value=0 -0.0229523 8.09864e-05 0.0143878 0.0021174 0.0434022 -9.32037e-05 0.00334965 0.0278384 0.000806939 0.00285218 0.00182756 0.00375725 0.00965887
internal_weight=0 22 6235 75 58 14 6160 893 84 809 739 725 680 387
internal_count=6257 22 6235 75 58 14 6160 893 84 809 739 725 680 387
is_linear=0
shrinkage=0.1


Tree=65
num_leaves=15
num_cat=0
split_feature=18 5 11 10 3 16 17 7 9 16 16 13 11 2
split_gain=1.2006 2.62797 3.30205 3.54649 2.39371 3.60923 3.3693 2.3764 3.16323 2.21764 3.27584 1.76195 1.71752 1.6922
threshold=42.500000000000007 55.500000000000007 10.500000000000002 51.500000000000007 1.5000000000000002 22.500000000000004 29.500000000000004 39.500000000000007 34.500000000000007 23.500000000000004 18.500000000000004 32.500000000000007 28.500000000000004 39.500000000000007
decision_type=2 2 2 2 2 2 2 2 2 2 2 2 2 2
left_child=12 2 3 7 5 -3 -6 -2 13 10 -4 -8 -1 -9
right_child=1 4 9 -5 6 -7 11 8 -10 -11 -12 -13 -14 -15
leaf_value=-0.00032054433638457604 0.0021681851762182574 -0.042243026196956628 -0.023614013652232552 -0.0010994725712183595 0.060524678049312733 0.03249462976430853 0.040751996626042661 0.011187114566564552 -0.0042367993543545408 -0.010239351362812565 0.045653212903481392 0.0032206500993996138 -0.0440391779359844 0.075375450345809059
leaf_weight=5792 17 14.000000000000002 11.000000000000002 69 22 11.999999999999998 18 5.0000000000000027 8.9999999999999982 197 18 41 8.9999999999999982 23
leaf_count=5792 17 14 11 69 22 12 18 5 9 197 18 41 9 23
internal_value=0 0.00494067 0.000737211 0.0139222 0.018651 -0.00774872 0.027125 0.0331166 0.0473362 -0.00643871 0.0193794 0.0146709 -0.000388372 0.0639132
internal_weight=0 456 349 123 107 26 81 54 37 226 29 59 5801 28
internal_count=6257 456 349 123 107 26 81 54 37 226 29 59 5801 28
is_linear=0
shrinkage=0.1


Tree=66
num_leaves=15
num_cat=0
split_feature=0 14 5 3 4 16 12 13 7 1 1 16 8 8
split_gain=1.21695 1.15409 1.96266 4.26743 3.18401 2.09391 2.75921 1.95385 1.72234 1.60037 1.93004 1.42828 1.42416 1.37963
threshold=2.2500000000000004 32.500000000000007 52.500000000000007 1.5000000000000002 34.500000000000007 42.500000000000007 14.500000000000002 8.5000000000000018 80.500000000000014 727.50000000000011 757.50000000000011 28.500000000000004 14.500000000000002 18.500000000000004
decision_type=2 2 2 2 2 2 2 2 2 2 2 2 2 2
left_child=-1 2 8 -4 5 6 -5 -3 13 -6 -11 -9 -12 -2
right_child=1 7 3 4 9 -7 -8 11 -10 10 12 -13 -14 -15
