tree
version=v3
num_class=1
num_tree_per_iteration=1
label_index=0
max_feature_idx=44
objective=regression
feature_names=Column_0 Column_1 Column_2 Column_3 Column_4 Column_5 Column_6 Column_7 Column_8 Column_9 Column_10 Column_11 Column_12 Column_13 Column_14 Column_15 Column_16 Column_17 Column_18 Column_19 Column_20 Column_21 Column_22 Column_23 Column_24 Column_25 Column_26 Column_27 Column_28 Column_29 Column_30 Column_31 Column_32 Column_33 Column_34 Column_35 Column_36 Column_37 Column_38 Column_39 Column_40 Column_41 Column_42 Column_43 Column_44
feature_infos=[0.10000000000000001:11] [16:851] [0:127] [0:72] [0:96] [0:179] [0:68] [0:157] [0:63] [0:109] [0:172] [0:47] [0:120] [0:121] [0:171] [0:109] [0:121] [0:122] [0:79] [0:31] [0:62] [50.529710798877517:104.97821405180137] [47.908592450143296:110.1325355041503] [49.193394660142779:121.50765070975632] [45.940535165028976:114.4603955802642] [47.650996861033619:115.52684989952282] [50.944421944586495:109.98458091181917] [48.121051788330078:101.02265167236328] [44.907820386687575:111.00114027774424] [47.35662858861145:97.259175005816942] [46.426725236214779:107.89735173406571] [48.714900970458984:111.27973175048828] [49.627423948118583:93.621960508459637] [46.352882385253906:101.13035583496094] [44.530808590319573:98.042253894674133] [55.828701810521245:86.110784577188298] [57.100405007552517:84.874425203904806] [57.030492917517627:85.054998068746642] [56.771516393442646:86.707142857142841] [12.126994212447556:113.35221218448729] [56.480106322633759:81.818863263617288] [56.827606057927255:104.91280899008939] [56.692324349135774:81.69303508468721] [59.511475862068941:77.180050188205712] [59.511475862069055:77.18005018820574]
tree_sizes=5840 5729 5842 5867 5794 5856 5815 5901 5917 5844 5882 5807 5809 5819 5976 5851 5914 5968 5932 5887 5875 5888 5993 5900 5946 5987 5889 5994 6002 5973 6072 5932 5899 5944 6080 5941 5925 5976 5986 6047 5981 5867 6020 5972 5886 6044 5923 5986 5903 5983 5972 6022 6018 5908 6062 6028 5962 6030 5962 6051

Tree=0
num_leaves=63
num_cat=0
split_feature=21 21 21 21 21 21 22 12 9 34 40 21 30 7 34 40 23 39 33 39 40 39 28 39 39 12 1 30 14 3 23 28 23 22 36 44 23 6 41 41 34 37 35 28 35 9 34 25 7 20 32 32 6 23 26 31 17 33 16 5 34 22
split_gain=3492.15 501.182 350.302 38.7934 25.1987 20.7768 19.6011 12.5082 10.9743 11.0028 10.8516 10.315 9.98767 9.63133 8.59451 10.6819 8.08126 6.94918 6.72738 6.62808 6.40644 6.23082 6.21014 5.9189 5.8777 6.05629 7.28271 5.77927 5.596 5.52408 5.35429 5.07904 5.03665 4.69669 4.63057 4.58058 5.52481 4.28378 4.2514 4.27043 5.66581 4.51611 4.51614 5.4094 4.06935 3.91123 3.75367 4.69025 3.54048 3.53203 3.98211 6.23012 3.52257 3.50405 3.49127 3.47887 3.44235 3.41732 3.69405 3.39013 3.36406 4.63598
threshold=67.145813490315433 77.657605697141562 60.492221248889742 63.094204588513584 56.083069632423076 70.582272646539593 89.706416221611931 11.500000000000002 3.5000000000000004 66.194334778740938 63.826492435954044 83.395818113218567 66.437407333653638 21.500000000000004 75.356298297344793 66.301956588451233 63.886160383467903 67.660049935954262 60.624242782592781 68.348690469680861 64.786559930230723 67.848432048057049 59.031064668067025 73.608369949205169 70.848703309836182 14.500000000000002 157.50000000000003 72.756878718428553 17.500000000000004 1.0000000180025095e-35 64.429881171787699 64.286634552583692 81.025446653068499 73.458932245864816 70.223798744121623 59.659535197191389 72.33255560925123 3.5000000000000004 68.091951365483325 66.828539292588644 63.134007034490942 71.472548423669465 67.100468496052301 62.073435658151404 66.425730751570924 16.500000000000004 63.974901440423075 70.114868365039072 53.500000000000007 3.5000000000000004 59.72247538590932 58.486539297299693 2.5000000000000004 60.745453575466705 59.816298300234934 63.844013214111335 7.5000000000000009 74.697841644287124 10.500000000000002 7.5000000000000009 62.699601545665523 61.759175761204467
decision_type=2 2 2 2 2 2 2 2 2 2 2 2 2 2 2 2 2 2 2 2 2 2 2 2 2 2 2 2 2 2 2 2 2 2 2 2 2 2 2 2 2 2 2 2 2 2 2 2 2 2 2 2 2 2 2 2 2 2 2 2 2 2
left_child=2 5 4 10 -1 14 11 12 -5 16 31 24 -7 27 15 46 20 59 -18 30 -10 -8 -6 28 25 26 -3 33 -9 56 37 48 -28 44 -19 -15 -37 -11 39 41 -41 42 43 55 -14 -44 47 -2 49 -4 51 54 -29 -52 -51 -20 -12 58 -54 -17 -31 -62
right_child=1 6 3 8 22 7 21 23 9 19 29 -13 13 35 -16 17 18 34 38 -21 -22 -23 -24 -25 -26 -27 32 52 -30 60 -32 -33 -34 -35 -36 36 -38 -39 -40 40 -42 -43 45 -45 -46 -47 -48 -49 -50 50 53 -53 57 -55 -56 -57 -58 -59 -60 -61 61 -63
leaf_value=-0.037921205085705637 0.0015401579842600416 0.077379914082318535 -0.03515379888801895 -0.025214263870431006 -0.031083774039706105 0.095606906108892012 0.14461578321016164 0.034275317771734815 0.00022898290478463239 0.031116984723300333 -0.017252697862454338 0.092154788354320172 0.065483822570574821 0.042490500381362102 0.066605968383819866 -0.022341339183322984 -0.029476513393905442 0.011169914615589695 0.051464274532072148 0.043357318534279064 -0.022810912947090603 0.10725449768622684 -0.024348271181381477 0.071902502312574099 0.085738830456889542 0.10275741792987403 0.067647200053069623 0.068933979420757949 -0.00064802817696003217 -0.029466409253469338 0.023779201543694298 0.011943222218176189 0.032118095639999143 0.017306949370022875 0.051344772568866479 0.048290930193166756 0.08446827086653963 -0.0035449178301283535 -0.014299970602692242 0.059023463244799075 0.0057984375984105668 -0.020280253245102815 0.045034701254467978 0.0055261302245556143 0.032723548548412223 0.0051732420579228009 0.032104738911487463 0.035866690741279343 -0.035797940594572322 0.020052908811036069 -0.025492984452934919 0.018689868400349082 0.044687826922755657 -0.0074444540166321493 -0.012109955709447911 0.010716646987262686 -0.001891473862403811 0.036822056431882903 0.071235626901749102 0.0062464951049932662 -0.026628397923645061 0.0028011214310041518
leaf_weight=1475 24 72 10.999999999999998 28 976 10.999999999999998 13.999999999999998 260 96 10.999999999999998 93 410 12.999999999999998 18 12.999999999999998 13.999999999999998 11.999999999999998 16.000000000000004 11.000000000000002 23 44 55 527 9.9999999999999982 186 13.999999999999998 21 18 11.999999999999998 110 67 35 19 34 12.999999999999998 15.999999999999998 31 47 19 10.000000000000002 9.9999999999999982 12.999999999999998 16.000000000000004 225 35 9.9999999999999982 248 17 10.999999999999998 9.9999999999999982 29 37 38 370 54 9.9999999999999982 60 60 20 40 32 23
leaf_count=1475 24 72 11 28 976 11 14 260 96 11 93 410 13 18 13 14 12 16 11 23 44 55 527 10 186 14 21 18 12 110 67 35 19 34 13 16 31 47 19 10 10 13 16 225 35 10 248 17 11 10 29 37 38 370 54 10 60 60 20 40 32 23
internal_value=4.88317e-09 0.0598982 -0.0232945 -0.00382355 -0.0332784 0.0356362 0.0893746 0.0416468 0.00540875 0.00678285 -0.0107029 0.0869414 0.048863 0.0470461 0.0266437 0.0252472 0.00308067 0.00943713 0.00728601 0.0186899 -0.00701213 0.114835 -0.0287221 0.0341235 0.0800904 0.0717523 0.0678767 0.0420093 0.0327346 -0.0180723 0.0141511 -0.00649566 0.0507709 0.031525 0.0291793 0.0639385 0.0721526 0.00302889 0.00864758 0.0100771 0.032411 0.00850981 0.00988581 0.00779127 0.0415961 0.0297034 0.0297878 0.0157731 -0.00773199 -0.00712783 -0.00651126 0.00235759 0.0483308 -0.00875625 -0.00708451 0.0320606 -0.0112287 0.0451879 0.0538422 -0.00116517 -0.0244181 -0.0143215
internal_weight=0 1752 4505 1527 2978 961 791 576 652 624 875 722 294 283 385 372 476 83 336 148 140 69 1503 282 312 126 112 218 272 318 125 557 40 82 29 65 47 58 324 305 20 285 272 246 48 26 289 41 522 511 500 101 136 399 64 21 153 118 58 54 165 55
internal_count=6257 1752 4505 1527 2978 961 791 576 652 624 875 722 294 283 385 372 476 83 336 148 140 69 1503 282 312 126 112 218 272 318 125 557 40 82 29 65 47 58 324 305 20 285 272 246 48 26 289 41 522 511 500 101 136 399 64 21 153 118 58 54 165 55
is_linear=0
shrinkage=1


Tree=1
num_leaves=63
num_cat=0
split_feature=21 21 21 21 21 21 22 27 30 9 34 40 21 34 40 17 33 23 14 39 39 43 15 39 12 1 25 40 3 23 28 23 32 27 7 3 42 32 20 6 35 9 30 4 31 15 27 42 12 23 20 15 9 18 39 22 34 42 9 33 7 24
split_gain=3151.67 452.316 316.148 35.011 22.9032 18.7511 17.69 12.3513 12.3996 9.9043 9.93007 9.79361 9.3093 7.75654 9.64045 7.5518 7.32103 7.29896 6.30338 6.27164 5.98185 5.67373 5.40741 5.30463 5.4658 6.57264 5.11963 5.01147 4.98548 4.83225 4.58384 4.54557 4.42361 4.40618 4.67136 4.19007 4.17443 4.09024 4.6093 3.86611 3.66675 6.41137 5.30471 4.32547 4.62457 4.78822 4.25969 4.19956 5.31638 7.63002 3.78693 4.14295 3.50014 3.37807 3.37745 3.51928 8.63359 3.28284 4.6938 3.23888 3.23169 3.31945
threshold=67.145813490315433 77.657605697141562 60.492221248889742 63.094204588513584 56.610584231886712 70.582272646539593 89.706416221611931 77.340118408203139 66.437407333653638 3.5000000000000004 66.194334778740938 63.826492435954044 83.395818113218567 75.356298297344793 66.301956588451233 30.500000000000004 60.624242782592781 63.886160383467903 9.5000000000000018 67.660049935954262 68.348690469680861 65.397000612119996 11.500000000000002 70.848703309836182 14.500000000000002 157.50000000000003 57.088363412360621 64.786559930230723 1.0000000180025095e-35 64.429881171787699 64.286634552583692 81.025446653068499 68.019588156286005 69.052242279052749 8.5000000000000018 1.0000000180025095e-35 65.011298530571807 70.754984331767815 4.5000000000000009 3.5000000000000004 67.100468496052301 16.500000000000004 65.631688376400675 31.500000000000004 67.217967987060561 6.5000000000000009 65.851490020751967 65.350123435767557 9.5000000000000018 65.216722648330446 2.5000000000000004 19.500000000000004 4.5000000000000009 10.500000000000002 64.953461441452006 61.759175761204467 62.699601545665523 64.115893272045113 12.500000000000002 78.035934448242202 13.500000000000002 73.598672053967235
decision_type=2 2 2 2 2 2 2 2 2 2 2 2 2 2 2 2 2 2 2 2 2 2 2 2 2 2 2 2 2 2 2 2 2 2 2 2 2 2 2 2 2 2 2 2 2 2 2 2 2 2 2 2 2 2 2 2 2 2 2 2 2 2
left_child=2 5 4 11 -1 13 12 8 -7 -5 16 30 23 14 33 18 -11 27 37 -16 29 -8 -9 24 25 59 -6 -18 53 39 -4 -27 -21 34 -2 -28 -36 38 -10 -12 43 42 -42 44 47 -46 -45 48 49 -19 -49 -52 -39 -13 55 -30 -57 58 -35 -3 -40 -62
right_child=1 6 3 9 26 7 21 22 15 10 20 28 -14 -15 19 -17 17 40 -20 32 -22 -23 -24 -25 -26 31 35 -29 54 -31 -32 -33 -34 57 36 -37 -38 52 60 -41 41 -43 -44 46 45 -47 -48 50 -50 -51 51 -53 -54 -55 -56 56 -58 -59 -60 -61 61 -63
leaf_value=-0.035351602744149127 0.056445691511034971 0.087616564677311826 -0.0073453923480022824 -0.023953555780462921 -0.032008285141779114 0.085557458435113615 0.14034160971641541 0.045175293557853866 0.061607117592184638 -0.02835209559545749 0.02956113151528619 -0.018243877752373617 0.087547046187810784 0.063275665689546332 -0.0011069126125356113 0.0051778917445948255 0.00076121407735001265 0.046164795821127688 0.055141944732103092 0.00080277882516384099 0.041189446964341667 0.1025146966440636 0.078569385312773576 0.081451884525958251 0.097619540350777773 0.064264834618994168 -0.016994618264255145 -0.02022197759914689 -0.027459001396782697 0.022590236768904908 0.011346056216529439 0.030512186527056132 0.041887511509029494 0.061576358377933509 0.035977915114732369 -0.026085737396566628 0.016718653220540055 0.0098288551671430469 0.025572390318142648 -0.0033676764903035256 0.016012297215109519 0.00091388505932531866 0.065116599202156067 0.0098061268560980484 0.01744435727596283 -0.019025660771876576 0.048903407156467439 0.0096264558915908523 0.0058031409191159171 0.0033477545568817539 -0.031615865789353846 0.0063120172203828886 0.03380308716059633 -0.0033820488922990479 -0.030844688324814108 -0.018255989469195665 0.033958918452262878 0.01443662820647037 0.023780209018403425 0.065538151950939844 0.039172336878255012 0.068573695172866198
leaf_weight=1725 20 26 522 28 313 12.999999999999998 11.999999999999998 22 27 18 10.999999999999998 75 410 12.999999999999998 54 19 93 23 45 10.000000000000002 23 57 27 186 13.999999999999998 21 151 41 40 67 35 19 19 9.9999999999999982 101 789 39 15.999999999999998 33 47 11.000000000000002 19 10.999999999999998 19.000000000000004 11.999999999999998 36 10.999999999999998 26 107 19 18.000000000000004 11.999999999999998 314 78 77 38 9.9999999999999982 73 46 46 48 11.999999999999998
leaf_count=1725 20 26 522 28 313 13 12 22 27 18 11 75 410 13 54 19 93 23 45 10 23 57 27 186 14 21 151 41 40 67 35 19 19 10 101 789 39 16 33 47 11 19 11 19 12 36 11 26 107 19 18 12 314 78 77 38 10 73 46 46 48 12
internal_value=0 0.0569033 -0.0221298 -0.00363238 -0.0316145 0.0338544 0.0849059 0.0395644 0.0373318 0.0051383 0.00644371 -0.0101678 0.0825943 0.0253115 0.0239848 0.0361121 0.00292664 0.00415593 0.0372995 0.00896527 0.0177554 0.109093 0.0635761 0.0760859 0.0681647 0.0644828 -0.0264696 -0.00565902 -0.0171686 0.0134435 -0.00617088 0.0482323 0.0277204 0.0282984 0.0338419 -0.0246254 0.0306128 0.0355153 0.0434203 0.00287744 0.0082152 0.0221898 0.0405644 0.00619061 0.00406201 -0.00990816 0.0241418 0.00733307 0.0117204 0.0267952 -0.00434024 -0.0164447 0.0326407 -0.0106673 -0.0231972 -0.0165057 -0.00737788 0.0214227 0.0305295 0.0735109 0.0381403 0.0450526
internal_weight=0 1752 4505 1527 2978 961 791 576 527 652 624 875 722 385 372 514 476 458 495 83 148 69 49 312 126 112 1253 134 318 125 557 40 29 289 160 940 140 450 120 58 324 41 22 283 253 48 30 205 149 42 56 30 330 153 165 88 48 129 56 72 93 60
internal_count=6257 1752 4505 1527 2978 961 791 576 527 652 624 875 722 385 372 514 476 458 495 83 148 69 49 312 126 112 1253 134 318 125 557 40 29 289 160 940 140 450 120 58 324 41 22 283 253 48 30 205 149 42 56 30 330 153 165 88 48 129 56 72 93 60
is_linear=0
shrinkage=0.05


Tree=2
num_leaves=63
num_cat=0
split_feature=21 21 21 21 21 21 22 27 30 9 34 40 21 34 40 17 33 23 26 19 14 31 39 39 28 28 15 39 14 15 31 40 27 7 39 19 26 23 34 42 41 42 35 9 28 27 24 27 15 41 28 22 28 16 10 16 27 29 33 26 13 4
split_gain=2844.38 408.216 285.323 31.5975 20.8558 16.9229 15.9652 11.1471 11.1906 8.93863 8.96189 8.84235 8.40164 7.00028 8.70051 6.8155 6.60723 6.58731 5.8463 8.43726 5.6888 5.57577 6.00855 5.38082 5.35845 5.23597 4.88019 4.78742 5.07165 9.99162 4.70397 4.52285 3.97658 4.2159 3.96613 3.92753 4.7952 4.56503 3.77149 3.76742 3.70265 3.98533 4.67685 6.82448 4.35707 3.76563 3.6706 3.39507 3.3432 3.31037 3.22158 3.16467 3.83785 3.15527 3.11252 3.08644 3.76742 3.07881 3.98235 3.90639 3.21718 3.04834
threshold=67.145813490315433 77.657605697141562 60.492221248889742 63.094204588513584 56.083069632423076 70.582272646539593 89.706416221611931 77.340118408203139 66.437407333653638 3.5000000000000004 66.194334778740938 63.755049405079411 83.395818113218567 75.356298297344793 66.301956588451233 30.500000000000004 60.624242782592781 63.886160383467903 66.417076538120895 4.5000000000000009 9.5000000000000018 68.84448623657228 68.348690469680861 67.848432048057049 64.38152803456255 59.031064668067025 11.500000000000002 70.848703309836182 14.500000000000002 15.500000000000002 75.335193634033217 64.786559930230723 69.052242279052749 8.5000000000000018 65.909619365630022 2.5000000000000004 62.91664149560976 60.074896927360562 79.939728418206997 65.011298530571807 68.091951365483325 66.956018676478166 67.287657471316919 17.500000000000004 62.073435658151404 63.113672256469734 64.730442922741489 63.875089645385749 17.500000000000004 66.879874553330467 75.005002424147008 62.481615286509324 60.686209809050901 12.500000000000002 17.500000000000004 13.500000000000002 57.137870788574226 75.598741992360488 75.887775421142592 76.551219923320772 12.500000000000002 4.5000000000000009
decision_type=2 2 2 2 2 2 2 2 2 2 2 2 2 2 2 2 2 2 2 2 2 2 2 2 2 2 2 2 2 2 2 2 2 2 2 2 2 2 2 2 2 2 2 2 2 2 2 2 2 2 2 2 2 2 2 2 2 2 2 2 2 2
left_child=2 5 4 11 -1 13 12 8 -7 -5 16 35 27 14 32 20 -11 31 -16 -20 38 22 24 -8 34 55 -9 28 29 30 -3 -18 33 -2 -12 36 51 -37 57 -35 41 42 44 -44 47 46 -46 -19 -38 -47 -28 52 -4 -54 -41 56 -6 59 60 -10 -59 -34
right_child=1 6 3 9 25 7 23 26 15 10 21 -13 -14 -15 18 -17 17 40 19 -21 -22 -23 -24 -25 -26 -27 50 -29 -30 -31 -32 -33 61 39 -36 37 48 -39 -40 54 -42 -43 43 -45 45 49 -48 -49 -50 -51 -52 -53 53 -55 -56 -57 -58 58 -60 -61 -62 -63
leaf_value=-0.034257568983061211 0.05362340621650219 0.099795301394029104 -0.0068083436693996196 -0.022755877986284243 -0.02994067284999943 0.081279585410196045 0.13131358197757179 0.042916528685865082 0.033349738217096796 -0.026934490973750752 0.017793778007706772 -0.016230194293893874 0.083169693207231971 0.06011188242656107 -0.019737018644809725 0.0049189974112730274 0.00072315373129846019 0.051073081754147986 0.0074363957544596035 0.05716556810308248 0.05238484772129192 -0.013157194924341248 0.044564736687711312 0.096594090244986802 0.02567346125220259 -0.021872501133331869 0.093950715661048859 0.077379290337213677 0.091058875247836124 0.033844681411014439 0.064721407465738789 -0.019210879552382522 -0.0036483441246673467 0.034179019118373351 -0.0095666524919646775 -0.02842245835065842 -0.035732387344945549 -0.0064579277349879373 0.064102629423141474 0.029650229755789043 -0.013611003246746564 -0.015992227767904599 0.047676110944073452 0.0016694342185344015 0.0043063975072332788 0.0072397425512058869 -0.028745684400200845 0.010819230702790348 0.0032501022924076427 0.034321993961930274 0.0591930779030857 -0.0070623323114381896 0.049695692807435993 0.016464027542620895 0.0013906053414470272 -0.03028784176392655 -0.019910130616706597 0.021525315984207039 0.034008689768448036 0.053431568667292595 -0.014215544052422048 0.022813083618679324
leaf_weight=1475 20 10.999999999999998 11.999999999999998 28 173 12.999999999999998 13.999999999999998 22 353 18 26 323 410 12.999999999999998 14.999999999999998 19 93 10.000000000000002 58 9.9999999999999982 45 13.999999999999998 21 55 60 527 12.000000000000002 186 15.999999999999998 26 73 41 11.999999999999998 101 27 25 11.000000000000002 440 9.9999999999999982 20 19 14.999999999999998 19 13.999999999999998 21 189 13.999999999999998 10.999999999999998 10.999999999999998 11.999999999999998 14.999999999999998 18 9.9999999999999982 25 19 599 204 17.000000000000004 34 26 9.9999999999999982 117
leaf_count=1475 20 11 12 28 173 13 14 22 353 18 26 323 410 13 15 19 93 10 58 10 45 14 21 55 60 527 12 186 16 26 73 41 12 101 27 25 11 440 10 20 19 15 19 14 21 189 14 11 11 12 15 18 10 25 19 599 204 17 34 26 10 117
internal_value=0 0.0540581 -0.0210233 -0.00345076 -0.0300338 0.0321617 0.0806606 0.0375862 0.0354653 0.00488139 0.00612152 -0.0096594 0.0784646 0.024046 0.0227856 0.0343065 0.0027803 0.00394813 0.008517 0.0147495 0.0354345 0.0168676 0.0200045 0.103639 0.0154402 -0.0258886 0.0603973 0.0722816 0.0647565 0.0609307 0.0693144 -0.00537607 0.0268835 0.0321498 0.00385545 -0.00581453 0.00393598 -0.00763882 0.0337395 0.0290822 0.00780444 0.00913852 0.0104384 0.0281581 0.00816308 0.00622106 -0.00891444 0.0299877 -0.0162411 0.00885659 0.0746409 0.0107652 0.0175927 0.0259588 0.0158827 -0.0280572 -0.024513 0.0330494 0.0226241 0.0347274 0.00828796 0.0203516
internal_weight=0 1752 4505 1527 2978 961 791 576 527 652 624 875 722 385 372 514 476 458 83 68 495 148 134 69 113 1503 49 312 126 110 84 134 289 160 53 552 87 465 450 140 324 305 290 33 257 236 35 21 22 201 27 65 47 35 39 976 377 440 61 379 27 129
internal_count=6257 1752 4505 1527 2978 961 791 576 527 652 624 875 722 385 372 514 476 458 83 68 495 148 134 69 113 1503 49 312 126 110 84 134 289 160 53 552 87 465 450 140 324 305 290 33 257 236 35 21 22 201 27 65 47 35 39 976 377 440 61 379 27 129
is_linear=0
shrinkage=0.05


Tree=3
num_leaves=63
num_cat=0
split_feature=22 23 22 26 26 29 32 22 5 13 26 34 34 34 42 39 24 34 13 34 16 15 1 36 23 27 34 34 32 24 34 4 2 43 34 11 39 26 31 36 41 4 3 41 24 40 23 23 8 23 22 5 40 19 36 24 32 4 18 34 40 17
split_gain=2511.39 412.336 214.642 31.8259 26.2898 25.6868 20.0726 11.9268 10.5821 11.2948 10.0144 9.82695 9.18074 9.14609 8.74841 7.69133 7.28313 7.19349 8.44128 6.44086 5.95858 5.75397 5.79239 5.14762 4.71718 4.64219 4.55815 4.54729 4.25107 4.03779 9.00294 4.53436 3.97166 4.56869 8.97606 3.89659 5.00262 3.58359 3.5549 3.53685 3.53597 3.53459 3.74161 3.91016 3.49659 4.75816 3.63479 3.48119 4.17876 3.4405 4.58832 3.43186 3.40687 4.92599 3.96043 3.80151 3.36551 3.34862 3.34244 3.33471 4.2679 3.85943
threshold=66.248555613237102 76.149574986874853 60.353866549392251 78.860553845372849 67.911035767681412 64.119870162109535 55.159067569116381 89.706416221611931 7.5000000000000009 5.5000000000000009 77.210769489122427 65.58651415926937 78.821603347350262 60.612633827592767 65.406448472634466 74.595814454047186 61.882846056079671 63.739062034322458 24.500000000000004 65.008894685051615 1.5000000000000002 2.5000000000000004 142.50000000000003 74.919069324493321 72.33255560925123 76.712329864501967 79.46506972249243 74.37451743894718 86.662580506315109 64.122586748243165 66.414377582139636 10.500000000000002 5.5000000000000009 59.565424227126918 70.668992044789476 8.5000000000000018 65.44416014093963 55.340105330131287 75.017223358154311 66.623277049954012 70.551822053733488 6.5000000000000009 1.0000000180025095e-35 63.93969652731996 61.793138862861291 63.939300505716567 64.11748329249771 64.429881171787699 1.5000000000000002 64.91734603573488 66.597269617854138 23.500000000000004 65.93537755670171 1.0000000180025095e-35 65.156780102729059 60.690634856262882 58.486539297299693 22.500000000000004 30.500000000000004 65.250414327189475 63.610212599465477 30.500000000000004
decision_type=2 2 2 2 2 2 2 2 2 2 2 2 2 2 2 2 2 2 2 2 2 2 2 2 2 2 2 2 2 2 2 2 2 2 2 2 2 2 2 2 2 2 2 2 2 2 2 2 2 2 2 2 2 2 2 2 2 2 2 2 2 2
left_child=2 4 6 12 8 13 -1 28 9 -2 20 14 15 41 21 57 37 18 58 -18 -6 -7 -23 -9 -12 -26 49 35 -5 52 39 -32 -19 34 -34 36 -13 -8 51 -31 -35 -4 43 -43 -44 46 -46 -16 -49 -22 -51 -14 53 54 -15 -55 -39 -3 -10 60 -52 -61
right_child=1 3 5 7 10 11 16 23 17 -11 24 27 38 29 47 -17 19 32 -20 -21 26 22 -24 -25 25 -27 -28 -29 -30 30 31 -33 33 40 -36 -37 -38 56 -40 -41 -42 42 44 -45 45 -47 -48 48 -50 50 59 -53 -54 55 -56 -57 -58 -59 -60 61 -62 -63
leaf_value=-0.032453412091095542 0.017861334834661749 0.045219247278414282 -0.029961250813374685 0.073880712756436304 0.062208335527351923 0.039835239066319035 -0.032228165997122853 0.1298159962350672 -0.013705716240737173 -0.036114009185915903 0.02992961684862773 0.025523473235682166 0.098691620031992569 0.031313008836780974 -0.024359385904279496 0.084944956411014905 -0.016112324811518194 0.046638721413910393 0.044906534701585774 0.02265452047189077 0.0041931013975824629 -0.021049970064474191 0.0052026397235779703 0.092509241864599037 0.047174628902422758 0.084383674487471583 0.05980971353128553 0.048722172379493715 0.083007963978581956 0.00077960046884768157 0.057357663512229901 0.0097427562065422538 0.0083492665551602816 0.011237088382395722 0.068317415622564465 0.02923428377447029 0.0002987599397291903 -0.02550023980032326 0.059245061271247415 -0.033047537133097653 0.033700493486090138 -0.01496927518058907 -0.022760469355900988 0.015995717479994422 -0.007757424406947629 -0.026946431087950869 0.024727357886731624 0.018151242711714335 -0.017114597166489279 0.059876770130358636 0.042091673043453036 0.064869220095376184 -0.024203507152610812 -0.020089590325951576 -0.0093093700706958771 -0.0061934335802783236 -0.018469038657794336 0.020671412863713854 0.013760071923024954 0.031252621439933091 0.015113461816306168 0.014327357109222148
leaf_weight=1496 18 76 43 438 13.999999999999998 10.999999999999998 161 10.999999999999998 36 21 14.999999999999998 29 15.000000000000002 15.000000000000002 42 10.999999999999998 100 15.999999999999998 9.9999999999999982 11.999999999999998 13.999999999999998 23 243 58 19 14.999999999999998 11.999999999999998 9.9999999999999982 180 34 10.000000000000002 9.9999999999999982 12.000000000000002 86 12.999999999999998 30 61 979 42 9.9999999999999982 22 22 122 19 62 30 9.9999999999999982 13.999999999999998 21 11.999999999999998 18 14.999999999999998 29 55 9.9999999999999982 468 206 17 15.999999999999998 523 79 36
leaf_count=1496 18 76 43 438 14 11 161 11 36 21 15 29 15 15 42 11 100 16 10 12 14 23 243 58 19 15 12 10 180 34 10 10 12 86 13 30 61 979 42 10 22 22 122 19 62 30 10 14 21 12 18 15 29 55 10 468 206 17 16 523 79 36
internal_value=0 0.0485185 -0.0206815 0.0738805 0.0267832 -0.00480235 -0.0283845 0.0787405 0.0127251 -0.0112023 0.0314259 0.00457139 0.0549101 -0.00958305 0.000253945 0.0454084 -0.0242095 0.0171477 0.00283582 -0.0119587 0.029913 0.00439812 0.00293268 0.0984567 0.0532861 0.0635904 0.0292615 0.0163281 0.0765391 -0.00618053 0.00573493 0.0335502 0.0231029 0.0202716 0.0395327 0.0136286 0.00842672 -0.0252289 0.0686348 -0.00690839 0.015813 -0.0166643 -0.0145067 -0.000619644 -0.0170485 -0.0102165 -0.00324565 -0.0146543 -0.00300826 0.028724 0.0292381 0.0817804 -0.00750217 -0.00661834 0.0150641 -0.00765479 -0.0242779 0.040732 -0.0052547 0.0286776 0.0201197 0.0301626
internal_weight=0 1870 4387 863 1007 1433 2954 687 250 39 757 484 176 949 354 104 1458 211 62 112 708 277 266 69 49 34 694 130 618 641 64 20 149 133 25 120 90 1346 72 44 108 308 265 41 224 102 72 77 35 682 668 30 577 548 25 523 1185 93 52 656 97 559
internal_count=6257 1870 4387 863 1007 1433 2954 687 250 39 757 484 176 949 354 104 1458 211 62 112 708 277 266 69 49 34 694 130 618 641 64 20 149 133 25 120 90 1346 72 44 108 308 265 41 224 102 72 77 35 682 668 30 577 548 25 523 1185 93 52 656 97 559
is_linear=0
shrinkage=0.05


Tree=4
num_leaves=63
num_cat=0
split_feature=21 21 21 21 21 21 22 27 30 4 9 34 39 34 40 17 33 23 39 25 34 18 7 14 42 28 18 31 24 21 38 40 36 18 27 7 9 7 34 4 40 26 41 42 35 9 28 42 30 27 24 27 42 9 41 25 31 24 40 25 3 22
split_gain=2316.84 332.865 232.649 25.9944 17.2809 14.029 12.986 9.21007 10.0593 7.69888 7.54183 7.30784 7.22616 6.05432 7.61298 5.85133 5.72061 5.53592 5.2885 5.22773 6.05176 6.08512 5.04647 4.9775 4.93537 4.42385 4.41346 4.22255 3.9902 3.93114 4.36325 3.87112 3.86474 3.65771 3.54761 3.69813 3.54715 3.45494 4.53433 3.43819 3.66611 3.33915 3.32254 3.50098 4.16359 6.05166 3.89243 3.26917 3.16283 3.12429 3.19803 2.99955 2.90308 4.07884 2.8955 3.67333 3.04514 3.02383 2.96446 3.7543 2.89144 2.84239
threshold=67.145813490315433 77.657605697141562 60.492221248889742 63.094204588513584 56.083069632423076 70.582272646539593 89.706416221611931 77.340118408203139 66.437407333653638 7.5000000000000009 3.5000000000000004 66.194334778740938 70.848703309836182 75.356298297344793 66.301956588451233 30.500000000000004 60.624242782592781 63.886160383467903 67.660049935954262 80.109718982377856 82.928227377518468 17.500000000000004 39.500000000000007 9.5000000000000018 67.999666767986255 59.031064668067025 12.500000000000002 68.84448623657228 64.23672353290894 62.157728815133233 66.60546717935307 64.786559930230723 70.223798744121623 31.500000000000004 69.052242279052749 8.5000000000000018 16.500000000000004 52.500000000000007 65.008894685051615 2.5000000000000004 66.546531177240794 63.725592554717956 68.091951365483325 66.956018676478166 67.100468496052301 17.500000000000004 62.073435658151404 65.011298530571807 59.015544286887753 63.113672256469734 64.730442922741489 63.875089645385749 64.115893272045113 12.500000000000002 66.879874553330467 65.438993329142704 64.061862945556655 64.122586748243165 62.865008485739089 68.250522977718404 1.0000000180025095e-35 70.016228159006545
decision_type=2 2 2 2 2 2 2 2 2 2 2 2 2 2 2 2 2 2 2 2 2 2 2 2 2 2 2 2 2 2 2 2 2 2 2 2 2 2 2 2 2 2 2 2 2 2 2 2 2 2 2 2 2 2 2 2 2 2 2 2 2 2
left_child=2 5 4 9 -1 13 12 8 -7 48 -5 16 19 14 34 23 -12 31 -16 20 21 -3 27 39 -8 -6 -9 28 -13 30 37 -18 -20 -31 35 -2 -28 38 -11 40 -10 -30 43 44 46 -46 51 -37 -4 50 -48 -19 53 -36 55 56 -51 -58 -57 -60 -27 -54
right_child=1 6 3 10 25 7 24 26 15 29 11 22 -14 -15 18 -17 17 42 32 -21 -22 -23 -24 -25 -26 60 36 -29 41 33 -32 -33 -34 -35 52 47 -38 -39 -40 -41 -42 -43 -44 -45 45 -47 49 -49 -50 54 -52 -53 61 -55 -56 58 57 -59 59 -61 -62 -63
leaf_value=-0.030954972642905993 0.049373396430164578 0.055062598859270423 0.0012090519084321225 -0.020934865094854364 -0.025330279268263308 0.075463591444377726 0.1212879790709569 0.034101429806255239 0.034590149564402442 -0.0084782111314074867 -0.025076004034943051 0.0039224736311513448 0.073434405666316913 0.055167007532257298 -0.002141965392338871 0.0036985351808222107 0.00075488763908925719 0.047897739633917795 0.0078766820020973669 0.069523277422961077 0.079094053904215506 0.019457345437775886 0.049592650644481186 0.047828587361921866 0.087090939389807845 -0.0114844643842015 0.076850042136555372 -0.014311776496469975 0.037554063268005852 -0.0042004365997606935 -0.028232155843027709 -0.017687072950165448 0.044579315644044146 0.012519341457243028 0.055623439848423009 0.031136379869525683 0.040935232257470491 -0.032610538721616782 0.017186666445599665 0.029199023222666612 0.071372902840375896 0.015451911347055878 -0.013091307510866932 -0.015095309714476269 0.043853798937052491 0.0018410948663949969 0.004171291206564222 0.014092844977783851 -0.021704346038203575 0.0042509938010527768 -0.026679885946214201 0.010061185671524569 0.018668627546867357 0.020390131352874249 0.03183868620544672 0.011209363445232157 0.04367101093133291 0.014880377995340447 -0.014268613047897817 0.018316994539716028 -0.021326169377411743 -0.0021227044016122821
leaf_weight=1475 20 36 17 28 976 12.999999999999998 12.999999999999998 17 21.000000000000004 392 18 46 568 12.999999999999998 54 19 93 10.000000000000002 16.000000000000004 85 14.999999999999998 18 9.9999999999999982 45 56 90 22 12.999999999999998 25 235 29 41 12.999999999999998 38 9.9999999999999982 101 9.9999999999999982 13.999999999999998 18 419 9.9999999999999982 54 19 14.999999999999998 20 14.999999999999998 21 39 132 49 13.999999999999998 10.999999999999998 48 46 11.999999999999998 32 11.999999999999998 38 45 10.999999999999998 437 25
leaf_count=1475 20 36 17 28 976 13 13 17 21 392 18 46 568 13 54 19 93 10 16 85 15 18 10 45 56 90 22 13 25 235 29 41 13 38 10 101 10 14 18 419 10 54 19 15 20 15 21 39 132 49 14 11 48 46 12 32 12 38 45 11 437 25
internal_value=0 0.0487882 -0.0189738 -0.00310602 -0.0271102 0.0290156 0.0728103 0.0339546 0.0320268 -0.00873733 0.00445135 0.00559047 0.0708298 0.0216263 0.0204542 0.0309282 0.0025733 0.00365996 0.00710713 0.0612232 0.0509985 0.0431942 0.0152943 0.0319733 0.0935339 -0.023337 0.0546893 0.012809 0.0156295 -0.0066126 -0.00946883 -0.0048878 0.0243296 -0.00187314 0.0242874 0.0292616 0.0656267 -0.00818549 -0.00735146 0.0303878 0.0464556 0.0224463 0.00719514 0.00845889 0.00967721 0.0258484 0.00745764 0.0263885 -0.0190901 0.00560704 -0.00816918 0.0280786 0.0181179 0.0266818 0.00802999 0.00650216 0.0131091 0.0217901 -0.000930693 -0.00786787 -0.0196454 0.0115483
internal_weight=0 1752 4505 1527 2978 961 791 576 527 875 652 624 722 385 372 514 476 458 83 154 69 54 148 495 69 1503 49 138 125 726 453 134 29 273 289 160 32 424 410 450 31 79 324 305 290 35 255 140 149 234 35 21 129 56 199 187 99 50 88 56 527 73
internal_count=6257 1752 4505 1527 2978 961 791 576 527 875 652 624 722 385 372 514 476 458 83 154 69 54 148 495 69 1503 49 138 125 726 453 134 29 273 289 160 32 424 410 450 31 79 324 305 290 35 255 140 149 234 35 21 129 56 199 187 99 50 88 56 527 73
is_linear=0
shrinkage=0.05


Tree=5
num_leaves=63
num_cat=0
split_feature=21 21 21 21 21 21 22 12 32 40 30 9 7 39 29 30 23 43 1 26 42 39 40 30 27 2 39 3 14 15 22 4 13 41 38 39 33 31 28 20 42 28 14 43 23 9 39 30 41 37 39 26 29 38 21 32 23 30 18 20 7 32
split_gain=2090.95 300.411 209.966 23.4599 15.6228 12.6612 12.1147 8.71266 7.38187 7.00394 6.82673 6.8065 6.74253 6.29311 6.4763 7.72444 5.58735 5.1667 6.74098 5.69603 5.16499 5.04519 4.88278 4.86208 4.53712 5.37096 4.41373 4.30614 4.25879 5.54976 4.24109 4.20535 5.87278 4.84983 5.13528 4.12533 4.08521 4.04688 4.03939 3.99969 3.96904 3.79229 3.78761 3.5093 4.13471 3.22523 3.2229 3.1967 3.15734 3.15588 3.08991 3.21358 3.06033 4.835 4.02605 3.39924 3.65839 3.22339 4.05394 2.92543 2.97082 3.39542
threshold=67.145813490315433 77.657605697141562 60.492221248889742 63.094204588513584 55.974189426348069 70.582272646539593 86.36288342918148 11.500000000000002 81.479161966319609 63.826492435954044 66.437407333653638 3.5000000000000004 21.500000000000004 68.348690469680861 63.447889515741757 66.115924598905977 64.429881171787699 59.65953519719131 239.50000000000003 66.84281131903856 65.293967963382158 71.102669952107703 66.301956588451233 72.756878718428553 67.039234161376967 10.500000000000002 73.608369949205169 1.0000000180025095e-35 14.500000000000002 15.500000000000002 73.458932245864816 33.500000000000007 13.500000000000002 61.496663464274576 71.758446163765328 69.108715635978839 65.551353454589858 75.335193634033217 59.031064668067025 10.500000000000002 66.032183621143091 64.286634552583692 17.500000000000004 59.65953519719131 72.33255560925123 21.500000000000004 67.250124792467872 67.129857641283351 64.091523241304742 71.090319582008092 64.953461441452006 60.381503019384944 65.184390852385391 69.393807619732272 65.408252261304213 63.080568995927941 66.18602061788873 63.803434219698772 5.5000000000000009 3.5000000000000004 53.500000000000007 59.72247538590932
decision_type=2 2 2 2 2 2 2 2 2 2 2 2 2 2 2 2 2 2 2 2 2 2 2 2 2 2 2 2 2 2 2 2 2 2 2 2 2 2 2 2 2 2 2 2 2 2 2 2 2 2 2 2 2 2 2 2 2 2 2 2 2 2
left_child=2 5 4 9 -1 17 21 10 -8 41 -7 -5 23 16 -15 -16 20 18 -2 22 -13 28 47 30 25 -21 42 -11 29 37 40 32 52 -34 39 -31 -26 -3 -6 -35 -12 59 -9 -14 -45 48 -42 -19 -23 -46 51 -29 53 54 55 -18 -57 -54 -59 -4 61 -61
right_child=1 6 3 11 38 7 8 26 -10 27 12 13 43 14 15 -17 31 19 -20 24 -22 45 -24 -25 36 -27 -28 50 -30 35 -32 -33 33 34 -36 -37 -38 -39 -40 -41 46 -43 -44 44 49 -47 -48 -49 -50 -51 -52 -53 57 -55 -56 56 -58 58 -60 60 -62 -63
leaf_value=-0.029535293345846106 0.061106018535792832 0.086503742979123055 -0.031500682370229204 -0.019888121388586505 -0.024118446777674763 0.076925075799226764 0.12011538863182068 0.026046187656242045 0.076309088430556657 -0.0081786446011582626 0.049528956525027756 0.002168030478558279 0.03213812474471827 -0.0112738755277612 0.048547666517086335 0.0010301753162191465 0.023922602459788323 0.027931557564685738 0.024514854263703704 0.06243209047959402 -0.014910604480397086 0.077229736051937142 -0.017007475494756365 0.038361350271631692 -0.0083768572126116086 0.023542151962673025 0.058601678162813191 0.0061033836182426008 0.081667997315526014 0.012171699868684466 0.0094358707052272037 0.029211211953820156 -0.036182914538816974 -0.023432731965468044 0.032675677090883253 0.048698989717433083 0.019530835404884126 0.05663865699192111 -0.01873778133348972 0.0043206225628690687 -0.0023933823034167283 0.011012462925698076 -0.0026854013471165673 0.037458314374089245 0.086334814769881085 0.057011380059677257 0.0330092844242851 -0.0073269067704677593 0.066528015801777488 0.054277827546877024 -0.027138368216911696 -0.01809868463446242 0.03458813791604419 -0.025835414246345563 0.02710003689641044 0.0029443409914771718 -0.029447243227200076 0.041168095510114328 0.0092195057374078269 0.0033154361722973584 -0.031142664531415162 -0.0069470934661450727
leaf_weight=1425 15.999999999999998 12.999999999999998 10.999999999999998 28 1024 10.999999999999998 9.9999999999999982 260 251 153 20 187 18 10.999999999999998 25 12.999999999999998 13.999999999999998 18.000000000000004 59 12.999999999999998 58 101 20 136 13.999999999999998 28 9.9999999999999982 17 15.999999999999998 10.999999999999998 34 22 10.999999999999998 21 9.9999999999999982 26 207 89 529 34 10.000000000000002 35 11.999999999999998 15.999999999999998 14.000000000000002 57 18 9.9999999999999982 217 17 77 71 19 11.999999999999998 21 42 10.999999999999998 10.999999999999998 102 101 10.999999999999998 399
leaf_count=1425 16 13 11 28 1024 11 10 260 251 153 20 187 18 11 25 13 14 18 59 13 58 101 20 136 14 28 10 17 16 11 34 22 11 21 10 26 207 89 529 34 10 35 12 16 14 57 18 10 217 17 77 71 19 12 21 42 11 11 102 101 11 399
internal_value=0 0.0463488 -0.0180251 -0.00295072 -0.0257547 0.0275648 0.0691698 0.0322569 0.0779875 -0.00830047 0.0382795 0.00422878 0.0367774 0.00531095 0.0225117 0.0322917 0.00384515 0.020545 0.032321 0.017696 -0.00187507 0.0648275 0.00186145 0.0325632 0.020597 0.0358731 0.025978 -0.0142209 0.0572396 0.0544277 0.0229467 0.00809198 0.00658346 -0.00547949 -0.00028353 0.0378395 0.0177629 0.060445 -0.0222856 -0.00627611 0.0325169 -0.00492042 0.0247786 0.0509112 0.0581009 0.0679638 0.0203655 0.0153392 0.069927 0.0687552 -0.0198237 -0.0134233 0.0105351 0.00393735 0.00799727 0.00200984 -0.00377844 0.0155334 0.0123295 -0.00598871 -0.00543953 -0.00487406
internal_weight=0 1752 4505 1527 2978 961 791 576 261 875 294 652 283 624 49 38 575 385 75 310 245 530 48 218 262 41 282 318 155 139 82 330 308 76 65 37 221 102 1553 55 48 557 272 65 47 375 28 28 318 31 165 88 232 100 88 67 53 132 113 522 511 500
internal_count=6257 1752 4505 1527 2978 961 791 576 261 875 294 652 283 624 49 38 575 385 75 310 245 530 48 218 262 41 282 318 155 139 82 330 308 76 65 37 221 102 1553 55 48 557 272 65 47 375 28 28 318 31 165 88 232 100 88 67 53 132 113 522 511 500
is_linear=0
shrinkage=0.05


Tree=6
num_leaves=63
num_cat=0
split_feature=21 21 21 21 21 21 21 32 12 4 13 9 39 29 30 32 19 7 23 43 1 26 42 12 28 2 40 37 37 25 39 43 39 25 4 13 41 38 23 20 29 14 3 16 21 14 30 16 32 22 9 26 16 24 30 18 11 33 16 28 32 28
split_gain=1887.08 271.121 189.494 21.1726 14.1792 11.4267 11.2699 8.22278 7.86318 6.66332 6.42728 6.14287 5.67954 5.84486 6.9713 5.59452 6.64109 7.02871 5.04258 4.66295 6.08374 5.14067 4.66141 4.61255 4.57127 4.48287 4.21303 8.90671 4.9079 6.73493 4.1055 4.66233 3.98339 3.90522 3.79533 5.30019 4.37697 4.63459 3.78228 3.60972 3.46282 3.41832 3.32693 3.18603 3.04009 2.99763 4.61518 4.48304 4.11351 3.73482 5.12418 3.59853 3.42902 2.95596 2.8635 2.83045 4.20674 3.48585 3.33406 3.26821 2.87208 2.82141
threshold=67.145813490315433 77.657605697141562 60.492221248889742 63.094204588513584 56.610584231886712 70.582272646539593 90.165949075909438 86.662580506315109 11.500000000000002 7.5000000000000009 22.500000000000004 3.5000000000000004 68.348690469680861 63.447889515741757 66.115924598905977 70.754984331767815 1.0000000180025095e-35 7.5000000000000009 64.429881171787699 59.65953519719131 239.50000000000003 66.84281131903856 65.293967963382158 8.5000000000000018 66.418268956623493 8.5000000000000018 67.13005401072688 67.064468791645524 66.301502779802931 72.447669199590919 69.80676594408537 72.310735955801604 73.608369949205169 57.088363412360621 33.500000000000007 13.500000000000002 61.496663464274576 71.758446163765328 60.258168990500543 10.500000000000002 91.331007206867312 17.500000000000004 1.0000000180025095e-35 10.500000000000002 83.195334406985793 2.5000000000000004 69.710486891933542 5.5000000000000009 65.777302219291172 70.302836005207055 17.500000000000004 68.945489113511613 8.5000000000000018 73.598672053967235 59.015544286887753 31.500000000000004 14.500000000000002 66.86017227172853 25.500000000000004 61.683101998367142 57.61566148198105 64.286634552583692
decision_type=2 2 2 2 2 2 2 2 2 2 2 2 2 2 2 2 2 2 2 2 2 2 2 2 2 2 2 2 2 2 2 2 2 2 2 2 2 2 2 2 2 2 2 2 2 2 2 2 2 2 2 2 2 2 2 2 2 2 2 2 2 2
left_child=2 5 4 9 -1 19 7 30 10 54 15 -5 18 -14 -15 16 25 -18 22 20 -2 23 -13 24 -21 -7 27 -17 -28 -30 31 44 41 -6 35 -20 -37 39 -11 -38 -8 -10 -35 -19 -3 46 52 -48 51 -50 -51 -47 -23 -45 -4 57 59 58 60 -57 -40 -61
right_child=1 6 3 11 33 8 40 -9 32 38 -12 12 13 14 -16 26 17 43 34 21 -22 45 -24 -25 -26 -27 28 -29 29 -31 -32 -33 -34 42 -36 36 37 -39 55 -41 -42 -43 -44 53 -46 48 47 -49 49 50 -52 -53 -54 -55 -56 56 -58 -59 -60 61 -62 -63
leaf_value=-0.02740738234291042 0.058050717692822218 0.053441323453889182 0.0017979156499838131 -0.018893715925514698 -0.025256176329801417 7.8204770882924388e-05 0.12272679328918455 0.072792055801960395 0.024743878054880323 -0.018639879432265406 0.064491011418010058 0.0020596290794126491 -0.010710181803865867 0.046120283141732221 0.00097866647948439316 0.032796251343450315 0.087016445522507035 0.032453765620098073 0.010008365221939789 0.018838634155690672 0.023289111998500464 0.061861032371719686 -0.014165074474595744 0.023688079346902671 -0.021932437376711855 0.044268301146274266 0.014332023087061115 0.00065264154254691682 0.07604828588664532 0.035961111592715263 0.063550535930090982 0.024582842379235303 0.055671593695878985 -0.012008554578777281 0.02775065175003626 -0.034373768825422639 -0.022261095384047146 0.031041894201189281 0.013094938120671681 0.0041045914402382229 0.082888021568457274 -0.0025511311910425623 -0.020109367561989899 0.042403970351990526 0.082586420774459837 0.019803500444524821 -0.013810352049767965 0.027943753285540475 0.024926246944232844 -0.0098191757065554455 0.026536181926106413 -0.0095162732899189001 0.029915117222948803 0.074076571831336396 -0.020004279702676066 0.027716637607663869 -0.010797356789493387 -0.035450752582401039 -0.028931944767634072 -0.0050406982544167296 -0.0057567370795023644 0.025758276544511318
leaf_weight=1725 15.999999999999998 85 17 28 313 12.000000000000002 10 223 260 54 19 187 10.999999999999998 25 12.999999999999998 66 11.999999999999998 27 232 9.9999999999999982 59 11.999999999999998 58 15.999999999999998 22 10.999999999999998 18 32 12.999999999999998 54 438 12.999999999999998 9.9999999999999982 151 22 10.999999999999998 21 9.9999999999999982 21 34 12 11.999999999999998 789 17.000000000000004 9.9999999999999982 18 10.000000000000002 18 112 21 18 25 28 12.999999999999998 132 20 34 9.9999999999999982 14.999999999999998 29 533 9.9999999999999982
leaf_count=1725 16 85 17 28 313 12 10 223 260 54 19 187 11 25 13 66 12 27 232 10 59 12 58 16 22 11 18 32 13 54 438 13 10 151 22 11 21 10 21 34 12 12 789 17 10 18 10 18 112 21 18 25 28 13 132 20 34 10 15 29 533 10
internal_value=0 0.0440314 -0.0171239 -0.00280318 -0.0244669 0.0261866 0.0657113 0.0647018 0.0306441 -0.00788544 0.0363656 0.00401734 0.0050454 0.0213861 0.0306771 0.0344223 0.0444805 0.0522364 0.00365289 0.0195178 0.0307049 0.0168112 -0.00178132 0.00176837 -0.00919148 0.0212126 0.0293658 0.0223004 0.0375118 0.0437392 0.0613976 0.0526662 0.0246791 -0.0204188 0.00768738 0.00625429 -0.00520552 -0.000269353 -0.00590876 -0.00596231 0.100997 0.0235397 -0.0188081 0.0449143 0.0565092 0.0195671 0.0286006 0.0130316 0.0164007 0.020286 0.00696022 0.00275712 0.0394989 0.0561288 -0.0175168 -0.00488573 0.00321102 -0.00618624 -0.00567193 0.0112836 -0.00504214 0.00285647
internal_weight=0 1752 4505 1527 2978 961 791 769 576 875 294 652 624 49 38 275 92 69 575 385 75 310 245 48 32 23 183 98 85 67 546 108 282 1253 330 308 76 65 726 55 22 272 940 57 95 262 68 28 194 151 39 43 40 30 149 672 93 579 569 59 554 39
internal_count=6257 1752 4505 1527 2978 961 791 769 576 875 294 652 624 49 38 275 92 69 575 385 75 310 245 48 32 23 183 98 85 67 546 108 282 1253 330 308 76 65 726 55 22 272 940 57 95 262 68 28 194 151 39 43 40 30 149 672 93 579 569 59 554 39
is_linear=0
shrinkage=0.05


Tree=7
num_leaves=63
num_cat=0
split_feature=21 21 21 29 21 21 21 21 39 32 20 26 37 42 34 42 38 22 14 9 9 15 13 4 40 32 3 19 26 34 24 32 15 31 21 9 1 39 16 19 18 27 17 6 22 38 28 32 18 20 1 43 29 25 26 28 2 25 2 42 22 29
split_gain=1703.76 277.527 142.529 14.1721 12.9688 12.9103 12.1332 8.48949 7.20106 6.84467 7.54555 6.35519 5.91755 5.89547 5.84998 6.25852 8.06339 5.24286 5.62188 5.36736 5.09117 5.03526 4.84746 6.28425 4.83127 4.58596 4.05669 3.97703 3.92614 3.91581 3.90984 3.88692 3.77534 3.74541 4.0492 4.23808 3.66856 3.65069 3.58071 3.52325 3.47969 3.40539 3.39994 4.30448 3.38736 3.38472 3.38281 3.26538 4.35861 4.62073 4.51145 4.4888 3.26709 3.23967 3.20766 3.19692 4.44769 3.06349 3.02582 2.7902 2.77276 2.75329
threshold=66.211314340528745 76.042425746659276 60.492221248889742 80.442053909096444 55.974189426348069 62.341951936593354 70.582272646539593 90.165949075909438 69.612150975542605 70.754984331767815 4.5000000000000009 72.287586240109292 75.975261208098672 65.350123435767557 75.356298297344793 64.905398767059339 60.758310819565871 70.016228159006545 17.500000000000004 13.500000000000002 10.500000000000002 4.5000000000000009 22.500000000000004 21.500000000000004 63.755049405079411 68.52827445892828 1.0000000180025095e-35 2.5000000000000004 62.91664149560976 87.582238442688023 61.222466302685298 89.266787060135456 15.500000000000002 67.999408721923842 64.143056678483759 11.500000000000002 99.500000000000014 67.660049935954262 30.500000000000004 2.5000000000000004 4.5000000000000009 76.712329864501967 4.5000000000000009 7.5000000000000009 66.108504232500465 65.342120799273388 59.031064668067025 62.611448454733967 31.500000000000004 5.5000000000000009 121.50000000000001 65.397000612119996 68.444369047461876 62.170323454701702 67.519902790187473 62.304595538997248 36.500000000000007 63.500049612228402 6.5000000000000009 68.122314481026962 58.593781746671546 62.362073142010466
decision_type=2 2 2 2 2 2 2 2 2 2 2 2 2 2 2 2 2 2 2 2 2 2 2 2 2 2 2 2 2 2 2 2 2 2 2 2 2 2 2 2 2 2 2 2 2 2 2 2 2 2 2 2 2 2 2 2 2 2 2 2 2 2
left_child=2 6 4 8 -1 24 14 31 32 10 11 -8 36 21 15 -2 39 18 47 -19 -10 45 23 59 27 30 57 28 53 -9 -23 -5 -3 34 40 44 -11 -14 -32 54 -15 -12 -42 -44 -36 -7 -6 -18 49 50 51 -49 -51 55 -17 56 -4 -26 -53 -22 -48 -62
right_child=1 3 5 7 46 13 9 29 20 12 41 -13 37 33 -16 16 17 19 -20 -21 22 25 -24 -25 26 -27 -28 -29 -30 -31 38 -33 -34 -35 35 -37 -38 -39 -40 -41 42 -43 43 -45 -46 -47 60 48 -50 52 -52 58 -54 -55 -56 -57 -58 -59 -60 -61 61 -63
leaf_value=-0.026688160846826806 0.021471761555984192 0.045586293569843596 -0.012102267294275486 0.062937373261494456 -0.021760165422813317 0.0073475163868244944 0.08969217598438263 0.11704122857613992 0.06868214641438157 0.038741309394439066 0.027548999783485434 0.043852083222572544 0.033527537671705854 -0.033642717031762005 0.050147657153698115 -0.015906836465001101 -0.0048593195663257085 -0.012233457858524015 -0.017514777062460778 0.026042332500219346 0.025531613132916395 -0.019987529437792931 0.062448441382983458 0.0066652736118571329 -0.011517711252366242 -0.028933181613683703 -0.021344473460027255 -0.0081929950614253056 -0.019486198803553217 0.074852225455370819 0.0017907996589586789 0.076806599753243596 0.021372211529788646 -0.029249943218504389 0.0027531940967608724 0.021161632758119834 0.020411486862298017 0.069076124131679545 0.015835986146703365 -0.029903984082241854 0.0069865456894040116 0.058047797866165644 -0.029842332093976437 0.0012785281240940095 -0.02671805683236856 0.040546438417264394 -0.021193742387846146 0.047249536893584514 0.053622373125769875 0.020271753248843283 0.044403990302924759 0.019813523953780533 -0.0080326850084882044 -0.0036493707384744828 0.022436063811182978 0.043111472238193865 0.033971152603626258 0.012131567939650268 -0.011135630817575889 0.055479069820472175 -0.016159723059446331 -0.0043935464834043338
leaf_weight=1425 261 60 11.000000000000002 516 1024 17.000000000000004 9.9999999999999982 11.000000000000002 61 30 108 31 26 15.999999999999998 12.999999999999998 12.000000000000002 10.999999999999998 31 9.9999999999999982 12.999999999999998 9.9999999999999982 19 46 10.999999999999998 95 11.999999999999998 121 326 12.999999999999998 10.999999999999998 491 56 22 18 39 23 303 9.9999999999999982 50 14.999999999999998 25 9.9999999999999982 25 20 12.999999999999998 13.999999999999998 216 10.999999999999998 10.999999999999998 22 27 28 19 22 9.9999999999999982 10.999999999999998 9.9999999999999982 15.999999999999998 10.999999999999998 35 251 62
leaf_count=1425 261 60 11 516 1024 17 10 11 61 30 108 31 26 16 13 12 11 31 10 13 10 19 46 11 95 12 121 326 13 11 491 56 22 18 39 23 303 10 50 15 25 10 25 20 13 14 216 11 11 22 27 28 19 22 10 11 10 16 11 35 251 62
internal_value=0 0.0399322 -0.0170474 0.061294 -0.0232436 -0.00393294 0.0225821 0.0654675 0.0511755 0.0278816 0.0365541 0.0550326 0.0241447 0.000348887 0.0170412 0.0161665 0.0101722 0.0142518 0.0187036 -0.000924702 0.0572555 0.00271423 0.0504219 0.0405429 -0.00929035 0.00165056 -0.0150119 -0.00591275 0.00518218 0.0959467 0.00230593 0.0642952 0.0390898 -0.00761927 -0.00520093 0.0032901 0.0220628 0.0434021 0.00308888 -0.0112184 -0.0126059 0.0301336 -0.00779749 -0.0160108 -0.00461462 0.0223406 -0.0200829 0.0212906 0.0235205 0.0207144 0.0279343 0.0190406 0.00715506 0.0111209 0.00152175 0.0212754 0.00983746 -0.00810881 0.0110843 0.0488241 -0.0168362 -0.013829
internal_weight=0 1872 4385 839 2978 1407 1033 594 245 528 159 41 369 782 505 492 231 194 150 44 163 603 102 56 625 572 232 393 67 22 560 572 82 179 161 75 333 36 541 37 86 118 70 45 52 31 1553 140 129 118 77 50 41 54 22 32 21 111 39 45 529 313
internal_count=6257 1872 4385 839 2978 1407 1033 594 245 528 159 41 369 782 505 492 231 194 150 44 163 603 102 56 625 572 232 393 67 22 560 572 82 179 161 75 333 36 541 37 86 118 70 45 52 31 1553 140 129 118 77 50 41 54 22 32 21 111 39 45 529 313
is_linear=0
shrinkage=0.05


Tree=8
num_leaves=63
num_cat=0
split_feature=21 21 21 29 32 21 21 21 30 39 42 34 42 38 22 14 26 9 9 15 20 13 17 32 34 31 29 32 3 34 24 13 23 31 42 38 15 39 27 35 42 14 27 9 31 21 41 34 35 19 40 14 25 17 23 32 18 20 1 41 23 23
split_gain=1537.64 250.468 128.632 12.7903 12.0021 11.6516 10.9502 7.66176 7.11936 6.49896 5.32066 5.2796 5.6652 7.35566 5.58144 5.18055 5.10685 4.94993 4.59478 4.54432 4.4764 4.4163 4.36346 4.13883 4.06106 3.67795 4.21628 3.62804 3.57319 3.53402 3.52863 3.4779 3.45624 3.43225 3.93983 3.41005 3.40724 3.39045 3.37511 3.36293 5.50917 3.33837 3.59489 3.29418 3.188 3.56152 3.82678 3.83512 3.2974 3.17973 3.14818 5.33981 5.19747 3.09116 3.05411 3.0201 3.84029 4.35681 3.83077 4.38444 2.97952 3.34064
threshold=66.211314340528745 76.042425746659276 60.492221248889742 80.442053909096444 55.159067569116381 62.341951936593354 70.582272646539593 90.165949075909438 66.437407333653638 69.612150975542605 65.350123435767557 75.356298297344793 64.889830691872234 60.758310819565871 70.016228159006545 17.500000000000004 76.551219923320772 13.500000000000002 10.500000000000002 4.5000000000000009 3.5000000000000004 21.500000000000004 30.500000000000004 68.52827445892828 56.669604062496923 77.719535827636733 75.287993310995688 86.913323790215159 1.0000000180025095e-35 87.582238442688023 61.222466302685298 5.5000000000000009 63.658723702054907 67.217967987060561 64.305551723757972 66.60546717935307 15.500000000000002 68.151348244187176 58.759923934936531 65.626065975697742 64.889830691872234 9.5000000000000018 70.767101287841811 9.5000000000000018 67.999408721923842 64.143056678483759 66.207087423427865 61.681737926888921 63.903036158953284 2.5000000000000004 64.566070046024308 6.5000000000000009 61.870684128441319 7.5000000000000009 82.371834681174334 62.611448454733967 31.500000000000004 5.5000000000000009 121.50000000000001 64.091523241304742 64.429881171787699 66.447474459642095
decision_type=2 2 2 2 2 2 2 2 2 2 2 2 2 2 2 2 2 2 2 2 2 2 2 2 2 2 2 2 2 2 2 2 2 2 2 2 2 2 2 2 2 2 2 2 2 2 2 2 2 2 2 2 2 2 2 2 2 2 2 2 2 2
left_child=2 6 4 9 -1 20 11 27 -8 36 19 12 60 49 15 55 22 -16 -11 53 38 28 41 30 -6 26 -18 31 -20 -9 -21 -5 -32 39 -35 -22 -3 44 -4 -34 -41 -10 -43 -27 45 48 47 -47 -12 -14 -26 -52 -53 -7 -30 -15 57 58 59 -57 -2 -62
right_child=1 3 5 7 24 10 8 29 16 18 37 -13 13 14 17 -17 25 -19 21 23 35 -23 -24 -25 50 43 -28 -29 54 -31 32 -33 33 34 -36 -37 -38 -39 -40 40 -42 42 -44 -45 -46 46 -48 -49 -50 -51 51 52 -54 -55 -56 56 -58 -59 -60 -61 61 -63
leaf_value=-0.025232249556280052 -0.0061747540906071669 0.043306978757803642 0.0076027922332286835 0.035454070009291176 -0.021551080094586249 0.034641468897461884 0.063030656140584215 0.11118916598233307 0.023593609460478532 0.065248039438099162 0.0077450684830546379 0.047640274465084079 0.0014456667852672663 -0.0046163531697609207 -0.011534779017572017 -0.016639037397835638 0.034457058567357694 0.024740216021354386 0.056789498031139377 -0.018988153181577982 -0.0061601026631866113 0.058721064806592706 0.00092161203734576714 -0.027486522247393924 -0.017675962076678604 0.0026077824737876648 0.069918115437030789 0.066726725077942792 0.019943887398291667 0.071109614047137171 -0.00074232675297242993 0.059269586388693486 0.0070014425074660745 -0.025296861171955239 0.01471007687970996 -0.022745810415257108 0.020303601187399843 0.02105055525433272 -0.023370816392428564 0.047593533141272404 0.0023913703948402637 0.020584189734206747 0.055089475711186733 0.039190026186406615 -0.029446664167677657 -0.01601895591752096 -0.015853904436031976 0.017714515504323774 -0.018120681497173895 -0.028408785363038383 -0.015562228900437923 -0.0057325656695122072 0.036360972544009038 0.0026448912058885284 0.052458368241786957 0.032554552909629102 0.050941255316138273 0.0067973095423928126 0.042183791100978855 0.0042782396507950937 0.037294701311426863 0.019473477397163229
leaf_weight=1500 9.9999999999999982 60 9.9999999999999982 15.999999999999998 726 18.000000000000004 12.999999999999998 11.000000000000002 404 61 14.999999999999998 12.999999999999998 22 10.999999999999998 34 9.9999999999999982 19 12.999999999999998 17 19 509 49 20 11.999999999999998 638 10.000000000000002 14.999999999999998 190 26 10.999999999999998 293 366 195 16.000000000000004 9.9999999999999982 33 22 9.9999999999999982 73 14.000000000000002 12.999999999999998 13.000000000000002 18 15.999999999999998 17 10.999999999999998 21 36 69 14.999999999999998 81 22 10.999999999999998 12.999999999999998 9.9999999999999982 29 10.999999999999998 41 27 26 30 213
leaf_count=1500 10 60 10 16 726 18 13 11 404 61 15 13 22 11 34 10 19 13 17 19 509 49 20 12 638 10 15 190 26 11 293 366 195 16 10 33 22 10 73 14 13 13 18 16 17 11 21 36 69 15 81 22 11 13 10 29 11 41 27 26 30 213
internal_value=0 0.0379356 -0.0161951 0.0582293 -0.0220814 -0.00373629 0.021453 0.0621941 0.0264876 0.0486168 0.000331442 0.0161892 0.0153581 0.00983793 0.013592 0.0181687 0.0255651 -0.00150127 0.0543927 0.00257852 -0.00882583 0.0479008 0.023757 0.00156803 -0.0188836 0.0392762 0.0501016 0.0610804 0.0378971 0.0911494 0.00219063 0.0582721 0.00293443 0.00727834 -0.00990958 -0.00716993 0.0371353 -0.00723831 -0.0196391 0.00929134 0.0258295 0.024807 0.0406195 0.0251199 -0.0089122 -0.00661559 0.00189091 0.00981945 -0.0135018 -0.0106575 -0.0163084 -0.00865514 0.00829861 0.0212235 0.0289757 0.0205693 0.0226367 0.0201054 0.0267595 0.0191876 0.0205729 0.0216736
internal_weight=0 1872 4385 839 2978 1407 1033 594 528 245 782 505 492 239 202 155 515 47 163 603 625 102 455 572 1478 60 34 572 53 22 560 382 541 248 26 542 82 179 83 222 27 435 31 26 169 152 68 47 84 37 752 114 33 31 36 145 134 123 82 55 253 243
internal_count=6257 1872 4385 839 2978 1407 1033 594 528 245 782 505 492 239 202 155 515 47 163 603 625 102 455 572 1478 60 34 572 53 22 560 382 541 248 26 542 82 179 83 222 27 435 31 26 169 152 68 47 84 37 752 114 33 31 36 145 134 123 82 55 253 243
is_linear=0
shrinkage=0.05


Tree=9
num_leaves=63
num_cat=0
split_feature=21 21 21 21 21 22 21 27 30 4 9 34 29 34 40 39 17 33 19 31 39 25 39 18 31 14 18 39 37 25 5 38 19 27 31 35 26 7 31 13 32 4 9 13 24 26 31 5 13 25 9 29 22 12 31 17 33 38 29 0 8 22
split_gain=1388.42 199.301 139.004 15.6614 10.8432 8.6994 8.22353 6.269 6.61335 5.36939 5.09852 5.70063 4.70174 4.35509 5.2409 4.14646 4.09207 4.08193 3.90974 3.85044 4.00329 4.12682 3.74333 4.14747 3.88137 3.3989 3.36982 3.34943 3.29505 2.97377 4.05453 2.93596 3.4027 2.92983 3.29355 3.6479 3.24573 3.17069 2.89759 3.13874 2.88479 3.28064 2.93059 2.82395 2.78612 4.60025 8.31155 3.01608 3.23205 2.77926 2.7606 2.7387 3.21417 5.51377 2.71182 2.8271 3.32809 3.05284 6.37326 2.89732 2.68686 2.67483
threshold=67.145813490315433 77.657605697141562 60.492221248889742 63.094204588513584 55.974189426348069 89.706416221611931 70.582272646539593 77.340118408203139 66.437407333653638 7.5000000000000009 3.5000000000000004 66.194334778740938 80.442053909096444 75.356298297344793 66.301956588451233 67.848432048057049 30.500000000000004 60.624242782592781 4.5000000000000009 68.84448623657228 68.348690469680861 63.936476708828344 70.848703309836182 22.500000000000004 75.335193634033217 9.5000000000000018 12.500000000000002 66.536789062068848 67.88406165995228 78.711512306855724 22.500000000000004 66.032343262935299 2.5000000000000004 69.052242279052749 66.455657958984389 66.095058958569282 65.516659162051113 8.5000000000000018 69.003738403320327 8.5000000000000018 70.754984331767815 4.5000000000000009 4.5000000000000009 5.5000000000000009 60.690634856262882 60.196044081832049 61.226024627685554 22.500000000000004 7.5000000000000009 76.4581252926057 16.500000000000004 61.558808278372773 67.912439015299626 2.5000000000000004 58.383392333984382 14.500000000000002 56.996088027954109 59.629702812524911 61.558808278372773 7.4500000000000011 4.5000000000000009 67.448143620615852
decision_type=2 2 2 2 2 2 2 2 2 2 2 2 2 2 2 2 2 2 2 2 2 2 2 2 2 2 2 2 2 2 2 2 2 2 2 2 2 2 2 2 2 2 2 2 2 2 2 2 2 2 2 2 2 2 2 2 2 2 2 2 2 2
left_child=2 6 4 9 -1 12 13 8 -8 -4 -5 17 22 14 33 -7 25 -12 38 20 21 27 23 24 -3 40 -9 -13 44 49 -31 32 -23 34 35 36 -2 -36 39 -16 41 -10 -42 -14 -11 46 47 48 -46 -24 -28 -19 53 -53 -6 56 -56 58 -58 -57 -54 -55
right_child=1 5 3 10 54 15 7 26 16 28 11 19 43 -15 18 -17 -18 51 -20 -21 -22 31 29 -25 -26 -27 50 -29 -30 30 -32 -33 -34 -35 37 -37 -38 -39 -40 -41 42 -43 -44 -45 45 -47 -48 -49 -50 -51 -52 52 60 61 55 59 57 -59 -60 -61 -62 -63
leaf_value=-0.024126999253096679 0.043125748498873281 0.070637263472263637 -0.015439632157998274 -0.017429624418062822 -0.019945778719541882 0.097612186414854862 0.05987912273177734 0.025366885105476661 0.05477292547390486 -0.012998784168473918 -0.021640830362836521 0.0089957146883188257 0.03924206353369214 0.045258261148746204 0.0031918079406023018 0.067134079093282881 0.00099747613758633009 -0.014579458763314922 0.029924407551208367 -0.012000279667388116 0.035604516079738024 0.034335885427015669 0.046589587979456962 0.020640168472060138 0.039541453504088248 0.037744695113764874 0.062814892083406446 -0.024118348397314551 -0.020455732027238067 0.066661986002796575 0.039528645009268081 0.0056026735653479896 0.00637391998898238 0.013390815661960218 0.048657057899981739 -0.0102851289897584 0.0095987196701268363 0.024667719290638813 0.0083723311955552736 -0.030374950342453445 4.4912379235029223e-05 0.027215557916227869 0.02198205221834397 0.057955473664933671 0.0085106104827271031 -0.0044932150609893274 0.049538325450637126 0.017443429438999909 -0.026111616686518704 0.071474613418633301 0.031131217731162911 -0.026413538982160392 0.0048809609034409117 0.0042996800280417557 -0.023943428322672846 -0.020249093672485841 -0.0091858417441647855 -0.0126395932605504 0.036719374023377896 0.0015787557844305412 0.035337575172473282 -0.018767198733985427
leaf_weight=1425 10.999999999999998 12.999999999999998 149 28 867 13.999999999999998 12.999999999999998 17 11.999999999999998 81 18 21 21 12.999999999999998 15.000000000000002 55 19 22 12.999999999999998 13.999999999999998 21 34 17 21 44 45 22 11.999999999999998 33 19 50 30 15.999999999999998 129 15.999999999999998 12.999999999999998 21 99 42 12.999999999999998 15.999999999999998 108 314 504 13.000000000000002 557 10.999999999999998 17 13.999999999999998 33 9.9999999999999982 15.999999999999998 15.000000000000002 378 56 305 31 268 9.9999999999999982 15.999999999999998 13.999999999999998 12.999999999999998
leaf_count=1425 11 13 149 28 867 14 13 17 12 81 18 21 21 13 15 55 19 22 13 14 21 34 17 21 44 45 22 12 33 19 50 30 16 129 16 13 21 99 42 13 16 108 314 504 13 557 11 17 14 33 10 16 15 378 56 305 31 268 10 16 14 13
internal_value=0 0.0377683 -0.0146882 -0.00242282 -0.0209773 0.0563563 0.0224686 0.02625 0.0246595 -0.00679386 0.00344322 0.00437982 0.0547353 0.0168112 0.015817 0.073318 0.0237687 0.00171501 0.00474287 0.0129504 0.0155572 0.0118316 0.0481485 0.0396353 0.0466335 0.0246427 0.0433567 -0.00304576 -0.00501946 0.0537285 0.0470001 0.0179685 0.0253881 0.0189975 0.0235179 0.01205 0.0211236 0.0280054 6.62954e-05 -0.0123928 0.0233325 0.0299713 0.0209184 0.0572069 -0.0042844 -0.00313102 0.0106643 0.000945764 -0.00944166 0.0630137 0.0529137 0.00263293 0.00350144 0.0023555 -0.0180873 -0.0157384 -0.0127282 -0.0106957 0.00201055 -0.0191611 0.0195842 0.00353275
internal_weight=0 1752 4505 1527 2978 791 961 576 527 875 652 624 722 385 372 69 514 476 83 148 134 113 197 78 57 495 49 33 726 119 69 80 50 289 160 45 32 115 70 28 450 120 330 525 693 612 55 44 27 50 32 458 436 407 1553 686 365 309 41 321 29 391
internal_count=6257 1752 4505 1527 2978 791 961 576 527 875 652 624 722 385 372 69 514 476 83 148 134 113 197 78 57 495 49 33 726 119 69 80 50 289 160 45 32 115 70 28 450 120 330 525 693 612 55 44 27 50 32 458 436 407 1553 686 365 309 41 321 29 391
is_linear=0
shrinkage=0.05


Tree=10
num_leaves=63
num_cat=0
split_feature=21 21 21 25 32 21 21 39 38 30 37 31 34 23 36 38 37 32 5 15 21 22 26 18 4 17 23 40 20 19 3 9 34 35 9 26 26 13 40 23 1 26 35 34 40 27 30 32 41 37 15 9 13 4 25 21 33 23 40 14 25 18
split_gain=1253.67 203.792 104.484 10.6772 10.0461 9.65026 8.77559 6.93076 6.88875 5.80288 4.679 4.62246 4.48489 5.0724 4.82627 4.82751 7.45144 4.43375 4.39512 4.11205 4.08474 4.65135 4.59502 3.99645 3.8557 4.16237 3.91519 3.8145 3.81328 3.63569 3.62121 3.56595 3.51566 3.47973 3.4249 3.39646 3.35309 3.1768 3.02568 3.01952 2.93091 4.9664 4.23242 2.9165 2.88945 2.85285 2.8265 2.96766 3.50608 3.03267 2.78143 5.14985 2.76696 9.32207 2.761 2.75657 3.35338 3.17673 2.7102 4.70018 4.49766 2.69689
threshold=66.211314340528745 76.042425746659276 60.492221248889742 84.666731030714189 55.159067569116381 62.341951936593354 70.582272646539593 69.612150975542605 60.784249789230216 66.437407333653638 75.975261208098672 67.217967987060561 70.668992044789476 66.784765696738575 74.174141431208511 60.70896565656566 60.197405984155623 70.754984331767815 11.500000000000002 15.500000000000002 64.888515433159398 60.862775819016285 63.84229522105062 6.5000000000000009 4.5000000000000009 5.5000000000000009 65.505742174885754 63.755049405079411 17.500000000000004 2.5000000000000004 1.0000000180025095e-35 8.5000000000000018 56.669604062496923 60.475929695778177 16.500000000000004 62.91664149560976 77.210769489122427 5.5000000000000009 65.200474703304323 60.074896927360562 191.50000000000003 61.963418498174384 60.952729078023431 66.973164029047908 62.829347787856832 72.502239227294936 60.252618886429978 58.606928899312429 65.947850779650395 68.827625265376199 12.500000000000002 7.5000000000000009 21.500000000000004 21.500000000000004 63.500049612228402 77.657605697141562 79.513206481933608 83.177898734474795 64.566070046024308 6.5000000000000009 61.870684128441319 31.500000000000004
decision_type=2 2 2 2 2 2 2 2 2 2 2 2 2 2 2 2 2 2 2 2 2 2 2 2 2 2 2 2 2 2 2 2 2 2 2 2 2 2 2 2 2 2 2 2 2 2 2 2 2 2 2 2 2 2 2 2 2 2 2 2 2 2
left_child=2 6 4 7 -1 27 12 19 -5 -8 17 20 14 -14 15 16 -2 36 37 55 21 -7 -22 -24 43 38 -27 29 46 35 54 -9 -6 -25 -12 40 -11 -15 -26 -31 -4 42 -42 -17 -30 -28 -23 -48 49 -49 -19 -52 53 61 -29 -3 -57 -58 -34 -60 -61 -33
right_child=1 3 5 8 32 11 9 31 -10 10 34 -13 13 18 -16 24 -18 50 -20 -21 22 28 23 33 25 26 45 30 44 39 -32 52 58 -35 -36 -37 -38 -39 -40 -41 41 -43 -44 -45 -46 -47 47 48 -50 -51 51 -53 -54 -55 -56 56 57 -59 59 60 -62 -63
leaf_value=-0.022811152395198587 0.017953262735452308 0.022050198316574097 0.03554066427052021 0.099654509425163282 -0.019484721968952984 -0.026805125246755782 0.056885166953389465 0.057959141361258792 0.057604127642972507 0.025939549458771943 0.057107217679731551 -0.011324736583590895 0.037337393195527362 0.019326937198638913 -0.020638559894128283 0.012025167952690806 -0.012780791211010115 0.023918816715186992 0.023244443036423163 0.01827446152456105 0.025084784382155962 -0.017351849966992936 0.028506358174074976 0.022190302294412895 0.018791328269340421 -0.008506265340838582 0.018758903389929662 -0.0098247243433357469 0.0065433135946039809 -0.023902776777744297 -0.019093574923347713 0.050466405748423329 -0.015875648691459066 -0.0052539757975010263 0.028108354143166384 -0.01736134339410525 0.048484126547057381 -0.017571358938169267 0.044169545546174055 -0.0058187670084652483 0.0094117538796530814 0.030143203918955159 -0.028923484683036807 -0.014734984142705798 0.036030784808099271 -0.0086995566636323945 0.019595654633227051 0.0015440783950371887 -0.014002713704989714 -0.022975610468823179 -0.01017427453281064 0.017241114906260166 0.052826044893496342 4.7805346548557287e-05 0.012626654285850237 0.054101249045795864 0.045234596729278556 0.011128927479413422 -0.013986022761206569 -0.0046522658615933991 0.034505016255107795 0.029116953847308953
leaf_weight=1500 38 14.999999999999998 9.9999999999999982 9.9999999999999982 726 15.999999999999998 12.999999999999998 118 374 125 15.999999999999998 77 41 10.000000000000002 10.999999999999998 28 41 134 58 24 35 24 13.999999999999998 13.999999999999998 23 15.999999999999998 175 95 27 25 121 83 638 66 28 12.999999999999998 19 13.999999999999998 24 301 18.000000000000004 13.999999999999998 11.999999999999998 15.999999999999998 11.999999999999998 9.9999999999999982 19 421 44 12.999999999999998 19 174 111 11.999999999999998 15.999999999999998 45 18.000000000000004 10.999999999999998 81 22 10.999999999999998 18
leaf_count=1500 38 15 10 10 726 16 13 118 374 125 16 77 41 10 11 28 41 134 58 24 35 24 14 14 23 16 175 95 27 25 121 83 638 66 28 13 19 14 24 301 18 14 12 16 12 10 19 421 44 13 19 174 111 12 16 45 18 11 81 22 11 18
internal_value=0 0.0342539 -0.0146233 0.0525593 -0.0199285 -0.00339473 0.0193863 0.0473776 0.0586992 0.0238933 0.0230605 0.00030721 0.0146741 0.0229779 0.0120003 0.012968 0.00200268 0.0216038 0.0157981 0.0366419 0.00157765 -0.000223464 0.00961983 0.0038616 0.0159347 0.0183548 0.0152224 -0.00802659 0.000536012 -0.00502538 -0.0131105 0.0509247 -0.0170029 -0.000451227 0.0386534 0.00558274 0.0289142 -0.00219707 0.0317504 -0.00720558 0.0111063 0.00555306 -0.00592234 0.0022942 0.0156164 0.0172747 -0.000592845 0.000216443 -0.000553861 0.000809618 0.0183846 0.0145422 0.0472191 0.0417114 -0.00658849 0.0415949 0.0455567 0.032298 -0.0146068 -0.00750581 0.00840016 0.0466616
internal_weight=0 1872 4385 839 2978 1407 1033 455 384 528 515 782 505 123 382 371 79 471 82 113 705 576 129 94 292 248 201 625 560 393 232 342 1478 80 44 67 144 24 47 326 54 44 30 44 39 185 521 497 478 434 327 193 224 113 111 89 74 29 752 114 33 101
internal_count=6257 1872 4385 839 2978 1407 1033 455 384 528 515 782 505 123 382 371 79 471 82 113 705 576 129 94 292 248 201 625 560 393 232 342 1478 80 44 67 144 24 47 326 54 44 30 44 39 185 521 497 478 434 327 193 224 113 111 89 74 29 752 114 33 101
is_linear=0
shrinkage=0.05


Tree=11
num_leaves=63
num_cat=0
split_feature=21 21 21 21 25 21 21 32 27 30 37 1 10 34 40 38 37 40 20 17 3 33 24 32 22 27 9 32 27 26 32 23 34 29 29 19 31 29 18 38 13 29 29 15 9 35 41 39 7 9 34 41 33 19 29 34 40 4 25 1 26 11
split_gain=1131.44 183.935 94.2971 10.2277 9.31683 8.70936 7.54659 5.59025 5.22591 5.39308 4.24267 5.49382 6.49853 4.14818 4.02521 5.23682 4.45527 3.76181 3.61183 3.60957 3.48261 3.31898 3.30433 3.22178 3.21876 4.86983 3.68401 3.13547 3.10499 4.04743 3.88913 3.0519 3.14355 3.03811 2.99802 2.97971 2.88311 2.79618 3.73337 2.76599 2.74485 2.70646 5.1983 4.47518 3.62268 3.05373 3.02057 2.70617 3.15485 3.37105 2.62106 2.61459 2.42904 2.39507 2.59338 2.38108 3.39917 2.46308 2.69268 2.31196 2.28561 2.84224
threshold=66.211314340528745 77.657605697141562 60.492221248889742 70.582272646539593 57.153031471497016 62.341951936593354 90.165949075909438 86.913323790215159 77.340118408203139 66.437407333653638 66.412693913629866 178.50000000000003 17.500000000000004 75.356298297344793 64.67794750946733 60.758310819565871 60.197405984155623 66.034421203533512 3.5000000000000004 30.500000000000004 1.0000000180025095e-35 63.365598678588874 64.122586748243165 62.369522117054807 70.016228159006545 71.859367370605483 14.500000000000002 54.031283773968696 62.852092742919929 64.498650247213746 59.037127455949239 68.886262945172589 79.46506972249243 74.370084644977865 91.331007206867312 1.0000000180025095e-35 78.784515380859389 75.598741992360488 9.5000000000000018 66.60546717935307 5.5000000000000009 65.184390852385391 67.667986196177893 5.5000000000000009 11.500000000000002 65.626065975697742 64.091523241304742 59.85383655398001 53.500000000000007 23.500000000000004 84.061218512645198 64.091523241304742 81.326145172119155 4.5000000000000009 63.542120966094323 71.969607374648106 64.045061590972963 32.500000000000007 68.793845522410948 307.50000000000006 74.139405773191086 3.5000000000000004
decision_type=2 2 2 2 2 2 2 2 2 2 2 2 2 2 2 2 2 2 2 2 2 2 2 2 2 2 2 2 2 2 2 2 2 2 2 2 2 2 2 2 2 2 2 2 2 2 2 2 2 2 2 2 2 2 2 2 2 2 2 2 2 2
left_child=2 3 4 13 27 18 7 40 9 -5 28 -12 -13 14 55 16 -16 21 22 31 -6 -14 -4 -17 25 -25 -26 -1 29 30 -7 -11 37 -10 -8 -32 -35 60 -39 47 -3 45 43 -43 -45 -30 -44 -20 49 -49 51 -42 -52 54 -51 57 -57 58 -2 -23 -33 -62
right_child=1 6 5 8 20 10 34 -9 33 19 11 12 17 -15 15 23 -18 -19 39 -21 -22 59 -24 24 26 -27 -28 -29 41 -31 35 32 -34 36 -36 -37 -38 38 -40 -41 50 42 46 44 -46 -47 -48 48 -50 53 52 -53 -54 -55 -56 56 -58 -59 -60 -61 61 -63
leaf_value=-0.023756411337840597 0.0088929521981426472 0.033741930431193293 -0.021237723777691522 0.054040908627212052 -0.0083423878003214338 0.025518891694290297 0.099956701397895809 0.057252155616411463 0.014720051139593125 0.049594167843461039 -0.01497856514951032 0.038604118471795866 -0.030184326267668177 0.041818496900109144 0.018171052949037404 -0.013660507970912892 -0.012938407388311335 0.017729695261839561 -0.016526802872734458 4.5083198500306987e-05 -0.016397091164127662 -0.013669845899567008 0.0081853456541218558 0.020125710858652991 -0.0065197795210063794 -0.011775237816171005 0.020524350926280022 -0.019520226076730134 -0.00030967013756677726 -0.019897305058186938 0.018722325249109419 0.020264641056261305 0.043482801620848478 0.053594516551700139 0.062887946640451747 -0.0039017254376772399 0.022460563555359844 0.026150840118527415 0.0012720706603048665 -0.020165914161638779 0.051866880135658461 0.038711518991519422 0.011194601928194365 -0.0064822140919125601 0.015942926271201439 0.02062676347007877 -0.017645494882827222 -0.0051098312216976936 -0.029353183197478455 0.0069209022723414285 0.063711679833275942 0.042672537982855974 0.050097657131943731 -0.0049174364190548662 0.035722503201528026 0.018366779095958918 0.055527410618960861 0.033026770600117744 0.021984161660143667 0.010685879918348387 0.040983284837707426 0.02322377457355582
leaf_weight=682 93 34 72 12.999999999999998 157 13.999999999999998 10 199 9.9999999999999982 9.9999999999999982 92 10.999999999999998 13.999999999999998 12.999999999999998 15.999999999999998 10.999999999999998 41 17 48 19 924 20 10.999999999999998 150 34 12.999999999999998 20 1215 209 29 15.999999999999998 302 15.999999999999998 29 12 161 9.9999999999999982 25 38 33 117 17 14.999999999999998 23 83 19 23 387 11.999999999999998 27 42 228 149 24 10.999999999999998 16.000000000000004 9.9999999999999982 20 68 19 33 71
leaf_count=682 93 34 72 13 157 14 10 199 10 10 92 11 14 13 16 11 41 17 48 19 924 20 11 150 34 13 20 1215 209 29 16 302 16 29 12 161 10 25 38 33 117 17 15 23 83 19 23 387 12 27 42 228 149 24 11 16 10 20 68 19 33 71
internal_value=0 0.0325412 -0.0138922 0.0191345 -0.018932 -0.00322499 0.0508633 0.0500372 0.0236883 0.0222361 0.000291849 -0.00661806 0.00287783 0.0139403 0.0132037 0.00934944 -0.00420593 -0.0027363 -0.00762526 0.0214317 -0.0152273 -0.00930086 -0.0173383 0.0127383 0.0140765 0.0175815 0.00349657 -0.0210432 0.00225476 -0.00249263 0.000149968 0.0222526 0.0216889 0.0393071 0.0797374 -0.00185661 0.0456115 0.0209453 0.0111446 -0.00613784 0.0475183 0.00493966 0.00990274 0.0148965 0.0110771 0.00143503 -0.00626125 -0.00522836 -0.00405195 -0.00337575 0.0483922 0.0457906 0.0530913 0.00744828 0.0152582 0.0185104 0.0326593 0.0164779 0.0144222 -0.00180424 0.0224662 0.028859
internal_weight=0 1872 4385 1081 2978 1407 791 769 576 527 782 173 81 505 492 285 57 70 625 514 1081 53 83 228 217 163 54 1897 609 220 191 495 485 49 22 177 39 469 63 542 570 389 161 123 106 228 38 509 461 449 536 345 191 62 38 207 26 181 161 39 406 104
internal_count=6257 1872 4385 1081 2978 1407 791 769 576 527 782 173 81 505 492 285 57 70 625 514 1081 53 83 228 217 163 54 1897 609 220 191 495 485 49 22 177 39 469 63 542 570 389 161 123 106 228 38 509 461 449 536 345 191 62 38 207 26 181 161 39 406 104
is_linear=0
shrinkage=0.05


Tree=12
num_leaves=63
num_cat=0
split_feature=21 21 21 21 32 22 2 27 4 9 34 26 29 34 22 21 42 22 33 31 39 28 34 40 16 39 41 27 30 41 28 29 28 34 26 24 34 4 14 13 27 32 36 28 35 35 9 30 11 26 36 34 21 26 2 29 28 18 28 28 39 28
split_gain=1021.65 146.234 101.94 11.5684 8.38436 6.98229 6.61969 7.08547 4.35357 4.29725 4.66272 4.13724 7.17445 4.78619 4.73715 3.63508 3.63186 3.42437 3.42125 3.28944 3.45497 3.57314 3.10444 3.07926 4.70535 3.04127 2.91548 2.96045 3.59705 3.07107 2.94285 2.9295 2.90819 2.84611 3.71648 2.75045 2.7431 6.50782 3.68283 3.84139 3.04788 3.39682 4.69385 3.70848 2.90161 3.46399 2.80582 2.56556 2.5627 3.01251 5.79533 2.54291 2.62758 2.52813 2.45985 2.44588 2.43873 2.39942 3.232 4.67012 2.33221 2.76326
threshold=67.145813490315433 77.657605697141562 60.492221248889742 63.094204588513584 55.159067569116381 89.706416221611931 2.5000000000000004 77.340118408203139 7.5000000000000009 3.5000000000000004 66.194334778740938 66.417076538120895 69.936099583947637 79.46506972249243 72.942685346018379 83.395818113218567 67.999666767986255 68.776264340261548 60.624242782592781 68.84448623657228 68.348690469680861 64.38152803456255 56.669604062496923 68.157277589824929 9.5000000000000018 65.909619365630022 68.207520540725511 64.872249603271499 65.631688376400675 66.828539292588644 66.287982931344558 62.795552721113729 61.229095968276262 64.894389580958531 60.196044081832049 60.760461934063805 71.969607374648106 4.5000000000000009 9.5000000000000018 16.500000000000004 65.402534484863295 65.94046480129127 66.426724764173557 69.898999570770272 66.885882844207444 66.301723329953333 6.5000000000000009 59.015544286887753 2.5000000000000004 59.971975147350328 60.406697824266956 63.016451566879276 74.284635558683931 63.537955644852467 35.500000000000007 70.521892214119916 60.27034825070151 31.500000000000004 61.621869808845595 63.302535681945301 64.90214028517812 64.552871818725123
decision_type=2 2 2 2 2 2 2 2 2 2 2 2 2 2 2 2 2 2 2 2 2 2 2 2 2 2 2 2 2 2 2 2 2 2 2 2 2 2 2 2 2 2 2 2 2 2 2 2 2 2 2 2 2 2 2 2 2 2 2 2 2 2
left_child=2 6 4 8 -1 15 -2 11 47 -5 18 12 14 36 17 -3 -7 -8 -11 20 21 25 -6 24 -9 -12 27 28 30 31 32 -29 -20 35 -35 -10 40 -38 44 -40 -13 42 43 -42 45 -39 -46 -4 -37 50 -50 -43 -53 -24 -22 60 -51 -58 -59 -60 61 -33
right_child=1 5 3 9 22 16 7 23 33 10 19 13 -14 -15 -16 -17 -18 -19 26 -21 54 -23 53 -25 -26 -27 -28 29 -30 -31 -32 55 -34 34 -36 48 37 38 39 -41 41 51 -44 -45 46 -47 -48 -49 49 56 -52 52 -54 -55 -56 -57 57 58 59 -61 -62 -63
leaf_value=-0.020618942952433522 0.052247869484126568 0.042800867978187926 0.0046445036635679362 -0.016217018131698884 -0.017644930924186505 0.087324448961478021 0.021423988421692661 0.009139852540101856 -0.013687335086941891 -0.019986950274970799 0.01325044081806062 0.03876742977382882 -0.026207282473998412 0.042838610969483853 0.045091812163591385 0.049962733035975294 0.057988950796425347 -0.0085951638481530698 0.026083186818286776 -0.011504885687359743 0.048906115747310887 0.018861398108613991 -0.013397727416127901 0.056985219248703547 0.045518138892948631 -0.010708450581188557 -0.015523457307029854 0.030601172047582545 -0.016107111517339946 0.027138663067792852 0.022293489699950444 0.02310509436025188 -0.0016809395226370823 0.023835591096431019 -0.0029164766351616866 -0.021552062486298384 0.047954587653194644 0.013527316493472379 0.01632140912115574 0.05016928705337801 -0.00055725774048672372 0.0026622249791398646 -0.018241070824510913 0.02859510684385896 -0.0013812410246048655 -0.019546722546219825 0.021780502579746432 -0.015992333367555119 -0.014282455735585904 -0.020071801004688378 0.033498377998669941 0.018634037493060571 -0.0014627247884431305 0.011911375131458044 0.014642127752304078 -0.017786718470354877 -0.0046195143479420475 0.03063607080416246 -0.016067528707737273 0.016155414878512207 -0.0024629415419363115 0.0051479996852122432
leaf_weight=1500 14.999999999999998 312 17 28 726 12.999999999999998 19 15.999999999999998 83 18 26 13.999999999999998 13.999999999999998 20 9.9999999999999982 410 56 19 9.9999999999999982 13.999999999999998 11.000000000000002 60 742 13.999999999999998 20 27 22 10.999999999999998 33 18 15.999999999999998 29 166 20 37 20 22 38 14.999999999999998 19 24 30 17 20 13.999999999999998 9.9999999999999982 198 132 11.000000000000002 23 14.999999999999998 376 17 9.9999999999999982 9.9999999999999982 11.999999999999998 461 10.999999999999998 22 23 59 82
leaf_count=1500 15 312 17 28 726 13 19 16 83 18 26 14 14 20 10 410 56 19 10 14 11 60 742 14 20 27 22 11 33 18 16 29 166 20 37 20 22 38 15 19 24 30 17 20 14 10 198 132 11 23 15 376 17 10 10 12 461 11 22 23 59 82
internal_value=0 0.032398 -0.0125996 -0.002096 -0.0179854 0.0483201 0.0192924 0.0187699 -0.0058527 0.00294559 0.00380545 0.0177477 0.00528651 0.018674 0.0144722 0.0468679 0.0635159 0.00641441 0.00139541 0.0115567 0.0139661 0.010505 -0.0153127 0.0370879 0.02935 0.00104497 0.00223576 0.00313187 -0.000857969 0.00738644 0.00176298 0.00554426 -0.000103432 -0.00425493 0.00647021 -0.00516873 0.0180803 0.0217241 0.0197613 0.0352364 0.0157682 0.015103 0.00407262 0.0126938 0.0177376 0.00663689 0.020251 -0.0136378 -0.00396217 -0.00334062 0.0132834 0.0166936 0.0177647 -0.0130612 0.0325899 0.00402983 -0.00414104 -0.00343232 0.00634082 0.000401976 0.00556982 0.00983949
internal_weight=0 1752 4505 1527 2978 791 961 946 875 652 624 896 62 834 48 722 69 38 476 148 134 113 1478 50 36 53 458 436 225 211 192 193 176 726 57 669 814 316 294 34 498 484 61 44 260 48 212 149 586 566 26 423 393 752 21 182 540 517 56 45 170 111
internal_count=6257 1752 4505 1527 2978 791 961 946 875 652 624 896 62 834 48 722 69 38 476 148 134 113 1478 50 36 53 458 436 225 211 192 193 176 726 57 669 814 316 294 34 498 484 61 44 260 48 212 149 586 566 26 423 393 752 21 182 540 517 56 45 170 111
is_linear=0
shrinkage=0.05


Tree=13
num_leaves=63
num_cat=0
split_feature=21 21 21 25 25 21 21 38 39 6 19 42 15 32 34 42 38 22 14 9 15 17 38 32 40 19 37 9 18 37 32 16 15 32 34 23 24 1 22 9 32 19 31 21 9 18 21 26 19 25 22 16 30 26 29 33 32 30 31 13 4 1
split_gain=922.405 149.659 76.612 8.2735 7.93356 7.2035 6.4516 5.91954 5.76443 5.10598 6.91816 4.2504 3.6673 3.60108 3.54621 4.18166 5.40148 3.86271 4.26902 3.73378 3.46988 3.42361 3.114 3.33255 3.1063 3.7516 3.2297 3.09942 3.06588 3.08676 3.1169 2.91618 4.61897 2.93741 2.87364 2.79541 2.72637 2.70744 3.09734 3.33653 2.72593 2.68562 2.64097 2.67941 3.02325 2.72778 3.04512 4.58476 2.61008 2.55696 2.55275 2.52974 2.53719 2.46521 2.45934 4.32672 3.49002 3.41832 2.47999 2.4533 8.25521 2.45281
threshold=66.211314340528745 76.042425746659276 60.492221248889742 84.666731030714189 56.979417822629536 62.341951936593354 70.582272646539593 60.784249789230216 69.612150975542605 2.5000000000000004 1.0000000180025095e-35 65.350123435767557 15.500000000000002 68.52827445892828 75.356298297344793 64.905398767059339 60.758310819565871 70.016228159006545 17.500000000000004 13.500000000000002 4.5000000000000009 30.500000000000004 69.307057212416325 65.568929009825993 63.755049405079411 2.5000000000000004 62.515872806708224 8.5000000000000018 42.500000000000007 75.975261208098672 70.754984331767815 11.500000000000002 15.500000000000002 55.441161946045021 67.399612278062335 60.074896927360562 61.222466302685298 99.500000000000014 75.397576838164909 10.500000000000002 75.913609997738618 1.0000000180025095e-35 67.999408721923842 64.143056678483759 11.500000000000002 4.5000000000000009 63.244430774287828 63.088019434931404 2.5000000000000004 78.711512306855724 66.108504232500465 30.500000000000004 60.442955937314856 53.41857995408084 67.349200001154898 70.027755737304702 66.436652707822347 67.34929300148697 66.455657958984389 21.500000000000004 21.500000000000004 150.50000000000003
decision_type=2 2 2 2 2 2 2 2 2 2 2 2 2 2 2 2 2 2 2 2 2 2 2 2 2 2 2 2 2 2 2 2 2 2 2 2 2 2 2 2 2 2 2 2 2 2 2 2 2 2 2 2 2 2 2 2 2 2 2 2 2 2
left_child=2 6 4 8 53 22 14 -5 12 10 -8 13 -3 20 15 -2 48 18 54 -19 41 28 23 24 25 -4 -26 49 29 30 34 32 -6 -33 -11 -27 -22 -32 40 -40 -39 -7 43 45 50 -13 47 -47 -17 -10 -45 52 -38 -1 58 56 -56 -58 -18 60 -29 -28
right_child=1 3 5 7 31 11 9 -9 27 21 -12 42 -14 -15 -16 16 17 19 -20 -21 36 -23 -24 -25 26 35 61 59 -30 -31 37 33 -34 -35 -36 -37 51 38 39 -41 -42 -43 -44 44 -46 46 -48 -49 -50 -51 -52 -53 -54 -55 55 -57 57 -59 -60 -61 -62 -63
leaf_value=-0.025325930257000636 0.016256117207886674 0.035394202331813535 0.0073354788145215642 0.088438594341278084 -0.011161862597980424 0.040575192496180523 0.017983233038749959 0.049458425776300864 0.064496444344520565 0.040623797281928692 0.063169704575557262 -0.029114439338445666 0.013370940745032082 -0.023752122945510424 0.038376732184909862 0.00047795063054019757 0.0083155662504335245 -0.012100024521350861 -0.017381181418895723 0.019824025951899017 -0.016651737533117595 -0.0005391897456276985 -0.020801520327988425 0.021229483593593945 -0.021942181200508708 -0.022158327311277391 -0.011446340997288232 0.039759824406280703 0.04618060847913677 0.032395501553851534 0.030354428401699773 -0.020878932323943767 0.019211294845892832 -0.013804428612039536 0.021159173802745367 -0.0047401711196120543 -0.017451717185459154 0.014796101533630418 -0.018704391936106343 0.011374599079566974 0.040330033546144312 0.0088402553088963026 -0.024659361059053076 0.0021617537234515814 0.017536383865239182 -0.0088731111849055556 -0.014494973583536786 0.033793268203735349 -0.026570391903320952 0.046484449369612567 -0.023422430914181933 0.013332542262971401 0.002207819679086411 -0.018593803248486359 -0.015432736277580262 0.024921715730387303 0.032025384593110245 -5.1487314150385241e-05 0.032615248757813659 0.045567258087045572 -0.0041055668455859031 0.0038196404624198164
leaf_weight=148 261 89 62 9.9999999999999982 337 10.000000000000002 18 374 25 23 15.999999999999998 15.999999999999998 24 12.999999999999998 12.999999999999998 22 14.999999999999998 31 9.9999999999999982 12.999999999999998 19 21 38 10.999999999999998 55 25 106 101 10.999999999999998 42 27 193 12.999999999999998 612 108 293 17 210 13.999999999999998 27 10.999999999999998 20 18 39 23 17.000000000000004 43 9.9999999999999982 14.999999999999998 93 12.999999999999998 50 474 1675 18 36 12.999999999999998 23 35 111 11.999999999999998 35
leaf_count=148 261 89 62 10 337 10 18 374 25 23 16 16 24 13 13 22 15 31 10 13 19 21 38 11 55 25 106 101 11 42 27 193 13 612 108 293 17 210 14 27 11 20 18 39 23 17 43 10 15 93 13 50 474 1675 18 36 13 23 35 111 12 35
internal_value=0 0.0293819 -0.0125434 0.0450688 -0.0170862 -0.00292843 0.016641 0.0504735 0.0405075 0.0205054 0.0392475 0.000269963 0.0307167 0.00227836 0.0126006 0.0119195 0.00701976 0.0103588 0.01418 -0.00266792 0.00285191 0.0192155 -0.00693025 -0.00603228 -0.00655291 -0.00391586 -0.0116655 0.0437424 0.0200925 0.0194714 0.018179 -0.0138439 -0.0100337 -0.0155006 0.0245766 -0.00610952 0.00196441 0.015279 0.0137254 0.00110372 0.016067 0.0194186 -0.00649575 -0.00446504 0.00244205 -0.0104887 -0.00623134 0.00692925 -0.0104876 0.0503005 -0.00423429 0.00261822 0.00152714 -0.0191404 0.0164343 0.0114949 0.00254364 0.0115318 0.0253253 0.0402877 0.0351016 -0.00765691
internal_weight=0 1872 4385 839 2978 1407 1033 384 455 528 34 782 113 603 505 492 231 194 150 44 590 494 625 587 576 380 196 342 473 462 420 1155 350 805 131 318 560 289 262 41 221 30 179 161 75 86 70 27 37 118 52 541 491 1823 140 90 54 36 50 224 113 141
internal_count=6257 1872 4385 839 2978 1407 1033 384 455 528 34 782 113 603 505 492 231 194 150 44 590 494 625 587 576 380 196 342 473 462 420 1155 350 805 131 318 560 289 262 41 221 30 179 161 75 86 70 27 37 118 52 541 491 1823 140 90 54 36 50 224 113 141
is_linear=0
shrinkage=0.05


Tree=14
num_leaves=63
num_cat=0
split_feature=22 23 22 26 29 26 32 13 22 13 5 34 42 15 9 23 34 39 42 28 36 32 24 39 31 34 10 28 31 23 12 30 22 31 33 42 34 22 15 10 22 35 31 26 14 40 41 36 24 5 39 26 13 30 22 31 18 32 30 15 12 19
split_gain=819.136 133.141 70.9077 11.7436 10.6454 10.4242 6.0529 5.85839 4.93714 4.71686 6.28001 4.41208 5.06382 4.44772 4.76354 4.71827 4.13766 4.13713 4.13355 3.93477 3.77573 3.77569 3.43084 3.27597 3.22637 3.19127 3.16439 3.15962 3.10035 2.9599 3.40206 2.90785 2.86412 3.41787 3.24665 3.61381 3.52123 2.86308 2.85894 2.83171 2.79096 2.7108 2.60064 4.52824 4.60163 2.56558 3.61627 5.02632 2.53603 2.51651 2.45269 2.40782 2.37523 2.37382 2.34482 2.60984 3.6744 2.53195 3.31127 2.44014 2.33093 2.3416
threshold=66.248555613237102 76.149574986874853 59.889211657545843 78.860553845372849 64.119870162109535 67.699230375664257 55.159067569116381 25.500000000000004 89.706416221611931 3.5000000000000004 7.5000000000000009 70.668992044789476 66.622956595255104 2.5000000000000004 11.500000000000002 64.429881171787699 79.46506972249243 68.348690469680861 65.995528443787677 64.178372814306599 78.641810383707039 66.836496920503521 61.793138862861291 67.848432048057049 67.570335388183608 56.669604062496923 56.500000000000007 66.884755015528256 66.121360778808608 66.447474459642095 10.500000000000002 64.14145170094821 63.041971103819407 61.73369216918946 66.043941497802749 63.289512354522266 61.168614035021839 66.597269617854138 15.500000000000002 13.500000000000002 60.775236709207348 65.885424677668468 79.939228057861342 77.210769489122427 2.5000000000000004 64.510081182035108 63.558755086587233 65.377237254558523 68.248541777987967 53.500000000000007 63.334866272053794 63.84229522105062 5.5000000000000009 62.430620679236149 64.275406561932996 65.857048034667983 27.500000000000004 65.777302219291172 66.937231139084645 11.500000000000002 5.5000000000000009 2.5000000000000004
decision_type=2 2 2 2 2 2 2 2 2 2 2 2 2 2 2 2 2 2 2 2 2 2 2 2 2 2 2 2 2 2 2 2 2 2 2 2 2 2 2 2 2 2 2 2 2 2 2 2 2 2 2 2 2 2 2 2 2 2 2 2 2 2
left_child=2 5 6 17 22 7 -1 9 -5 39 41 12 13 -6 15 -15 20 38 19 -12 31 24 51 -10 27 -8 54 -17 32 30 -21 -7 34 53 35 40 -37 -33 -3 -2 -24 -11 43 -39 -45 49 -47 50 -20 -27 -48 -4 -49 -34 55 60 -57 59 -59 -56 -16 -62
right_child=1 3 4 8 11 16 25 -9 23 10 18 -13 -14 14 26 21 -18 -19 48 29 -22 -23 28 -25 -26 45 -28 -29 -30 -31 -32 37 33 -35 -36 36 -38 42 -40 -41 -42 -43 -44 44 -46 46 47 52 -50 -51 -52 -53 -54 -55 57 56 -58 58 -60 -61 61 -63
leaf_value=-0.018718143112714972 0.029945416361093519 0.024371733306310116 -0.0084555622979868329 0.043656976906749238 0.024420326170714005 0.041482547701646888 -0.01666562708724317 0.036401778037349383 0.07935252083199365 -0.0052355517478038854 -0.0092414181834707659 0.019643755429165646 -0.016015105312199972 -0.013238060412681605 -0.015086393468081952 -0.0028753076288849117 0.040062935295559113 0.035359229361565096 -0.019737651870430761 0.047449108927200223 0.043282844871282582 0.033435616977512843 0.017464928811087327 0.05226188372481954 -0.025577206611633305 -0.013574914522928262 -0.014475463434225982 0.030379256977466868 -0.01782314876892737 0.0087342837245952803 0.0079614068684168166 0.036358081104440824 0.0075161600044291264 -0.00039113934449985522 0.023113042861223222 -0.024001011565666308 -0.006391128983523231 0.01571783380200446 -0.0055949265509843832 -0.0015363240987062456 -0.0036021050176044049 -0.03819092214107514 -0.0091527125984430316 0.061498065157370121 0.01948816685471684 -0.015231040912699334 0.00038835817947983729 -0.017366233468055724 0.00768258236348629 0.009558543656021358 0.031954249783302656 -0.027603881674654347 0.0081785620057157112 0.036702618070624096 -0.021996376464764281 0.041567297639946134 0.0035213862122459847 0.030672744847834107 -0.0051203456707298763 0.00094495197557205096 0.020464953345248976 0.0052534174686297772
leaf_weight=1492 25 39 479 618 23 11.999999999999998 632 14.999999999999998 13.999999999999998 12.000000000000002 24 36 38 83 9.9999999999999982 25 21 127 24 12.000000000000002 13.999999999999998 9.9999999999999982 17 55 9.9999999999999982 578 18 9.9999999999999982 35 78 9.9999999999999982 18 19.000000000000004 139 9.9999999999999982 44 80 669 9.9999999999999982 9.9999999999999982 209 12.999999999999998 9.9999999999999982 11.000000000000002 15.999999999999998 49 10.000000000000002 26 12.999999999999998 11.999999999999998 15.999999999999998 17 13.999999999999998 10.999999999999998 14.999999999999998 15.000000000000002 10.999999999999998 14.000000000000002 11.999999999999998 51 37 80
leaf_count=1492 25 39 479 618 23 12 632 15 14 12 24 36 38 83 10 25 21 127 24 12 14 10 17 55 10 578 18 10 35 78 10 18 19 139 10 44 80 669 10 10 209 13 10 11 16 49 10 26 13 12 16 17 14 11 15 15 11 14 12 51 37 80
internal_value=0 0.0277095 -0.0118114 0.0421211 -0.00324566 0.0153586 -0.0165288 0.00616374 0.0450733 0.00411139 0.000942714 0.00278418 0.00147045 0.00303755 0.00181111 -0.00571207 0.0181732 0.0305976 0.00456306 0.00893938 0.0175603 0.00564535 -0.00607855 0.0577585 -0.000530271 -0.0140856 0.00575863 0.006626 -0.00341096 0.0133028 0.0295002 0.017071 -0.00245742 0.00291223 -0.00497817 -0.00578077 -0.0126398 0.0166664 0.0182561 0.0209506 -0.00201742 -0.0223723 0.0161643 0.016528 0.0366033 -0.0117728 -0.0049408 0.00269893 -0.0101035 -0.0131044 0.0198135 -0.00911186 -0.00842556 0.0182179 0.00724522 0.0110383 0.025471 0.000937187 0.0141529 -0.00426899 0.00808356 0.0100639
internal_weight=0 1870 4387 863 1558 1007 2829 236 687 221 186 498 462 424 401 138 771 176 161 124 750 55 1060 69 45 1337 263 35 564 100 22 736 529 169 360 350 124 724 49 35 226 25 706 696 27 705 115 66 37 590 26 496 40 30 245 153 26 92 26 66 127 117
internal_count=6257 1870 4387 863 1558 1007 2829 236 687 221 186 498 462 424 401 138 771 176 161 124 750 55 1060 69 45 1337 263 35 564 100 22 736 529 169 360 350 124 724 49 35 226 25 706 696 27 705 115 66 37 590 26 496 40 30 245 153 26 92 26 66 127 117
is_linear=0
shrinkage=0.05


Tree=15
num_leaves=63
num_cat=0
split_feature=21 21 21 21 27 21 21 32 30 27 31 1 32 34 23 36 38 37 5 4 17 39 28 23 17 38 32 28 31 40 38 27 31 7 29 24 16 23 34 29 5 32 40 13 26 18 30 27 29 39 15 31 3 28 10 34 9 40 25 34 29 18
split_gain=752.386 121.919 62.3659 6.88293 6.67222 5.89526 5.78348 4.20593 4.1299 3.97467 3.65191 3.42608 3.56614 3.25567 4.18343 3.96439 3.53251 5.51333 3.53228 3.21272 3.62449 3.08781 4.46917 2.93634 2.92704 2.73067 2.94758 2.70987 3.63901 2.68451 3.05992 3.01306 3.62329 2.74247 3.19553 2.67795 2.94784 2.66957 2.66404 2.64963 7.61425 7.76168 2.61 2.54748 2.53589 2.51663 2.46254 2.88797 2.73799 3.26632 5.38946 2.83811 3.03934 2.92252 3.3882 2.49531 2.3945 2.71783 2.38929 2.36798 2.49588 3.10194
threshold=66.211314340528745 77.657605697141562 60.492221248889742 70.582272646539593 56.505022048950202 90.165949075909438 62.341951936593354 86.913323790215159 66.437407333653638 77.340118408203139 67.050750732421889 333.50000000000006 58.715475749169372 70.668992044789476 66.784765696738575 74.174141431208511 60.70896565656566 60.158399962415366 11.500000000000002 4.5000000000000009 5.5000000000000009 68.348690469680861 63.75413941571162 65.505742174885754 30.500000000000004 69.307057212416325 65.568929009825993 75.005002424147008 77.147472381591811 63.755049405079411 66.032343262935299 61.83558654785157 60.534830093383796 9.5000000000000018 62.995969944417446 61.980960441934506 30.500000000000004 68.886262945172589 86.507324425654488 62.362073142010466 13.500000000000002 57.61566148198105 65.200474703304323 6.5000000000000009 62.91664149560976 63.500000000000007 60.442955937314856 67.700645446777358 65.184390852385391 63.986104311524578 4.5000000000000009 65.178184509277358 1.0000000180025095e-35 65.996375601178286 21.500000000000004 66.194334778740938 12.500000000000002 65.434982782647396 66.832255008765074 79.46506972249243 75.598741992360488 9.5000000000000018
decision_type=2 2 2 2 2 2 2 2 2 2 2 2 2 2 2 2 2 2 2 2 2 2 2 2 2 2 2 2 2 2 2 2 2 2 2 2 2 2 2 2 2 2 2 2 2 2 2 2 2 2 2 2 2 2 2 2 2 2 2 2 2 2
left_child=2 3 4 13 -1 7 25 -3 -5 24 21 39 45 15 -15 16 17 -2 43 58 42 35 -23 -22 37 26 29 -11 -29 33 -31 32 -32 -4 -35 -8 46 -10 -7 -6 -41 -42 -21 -16 -36 -13 -37 48 51 50 -50 53 -53 -48 -55 -51 -12 -58 -18 60 -39 -62
right_child=1 5 6 8 11 38 10 -9 9 27 56 12 -14 14 18 -17 19 -19 -20 20 23 22 -24 -25 -26 -27 -28 28 -30 30 31 -33 -34 34 44 36 -38 59 -40 40 41 -43 -44 -45 -46 -47 47 -49 49 55 -52 52 -54 54 -56 -57 57 -59 -60 -61 61 -63
leaf_value=-0.017623630569451054 0.01465217582142056 0.038538086298085229 0.020085914991796017 0.047218795923086317 -0.011714784983287039 0.086033164858818026 -0.0086810284341429025 0.046981149923112531 0.043727282695472242 0.045897513117996003 -0.018418047800660135 -0.018568540932234479 -0.0068718270324593924 0.031475736187180373 0.0095499019271561066 -0.020499188825488093 -0.021438511759042739 -0.011818495211680005 0.018590262426306285 0.015170168423134348 -0.008766415610443801 0.03652797594511261 0.0011341670972549102 0.013560322530369427 -0.0018423792955122498 -0.019228725968615006 0.020240515402772212 0.040162410374198633 0.0041117928123899873 -0.014740652518931533 -0.018982506468892098 -0.01689946053083986 0.0159198804132255 -0.0061147227363258097 0.016368869245014784 -0.015589701765301554 0.015199748897238782 0.018419903531966483 0.051090106647461657 -0.017336645201944254 0.03946331232128774 -0.011859724556024258 0.038740713211397333 -0.023492128737270832 -0.0058274455029856077 0.0037654405388121421 -6.6076225547186975e-05 -0.018790313497404842 0.045256920932577209 -0.0052327701076865206 0.0091195693758782011 0.0096932967007160187 -0.022922170311212541 0.03193533299490809 -0.0024301203397604134 0.01466684296079304 -0.01066450346711903 0.014212388808236404 0.0063644513816517936 0.036543723894283175 0.021402041576802731 -0.001275441256247608
leaf_weight=1600 37 570 11.999999999999998 12.999999999999998 789 10.000000000000002 69 199 9.9999999999999982 21 40 424 88 41 14.000000000000002 10.999999999999998 9.9999999999999982 42 58 23 15.999999999999998 14.999999999999998 22 185 19 38 10.999999999999998 14.000000000000002 13.999999999999998 137 9.9999999999999982 20 29 315 31 22 38 406 11.999999999999998 34 17.000000000000004 12.999999999999998 24 9.9999999999999982 22 12.999999999999998 311 17 12.999999999999998 50 50 9.9999999999999982 25 16.000000000000004 12.999999999999998 23 31 17 34 15.999999999999998 25 38
leaf_count=1600 37 570 12 13 789 10 69 199 10 21 40 424 88 41 14 11 10 42 58 23 16 15 22 185 19 38 11 14 14 137 10 20 29 315 31 22 38 406 12 34 17 13 24 10 22 13 311 17 13 50 50 10 25 16 13 23 31 17 34 16 25 38
internal_value=0 0.0265362 -0.0113286 0.0156211 -0.0154273 0.0414531 -0.00265349 0.040723 0.0193569 0.0187135 0.000212367 -0.012877 -0.0160549 0.0113601 0.0184351 0.00908209 0.00995916 0.000579161 0.0119148 0.0124969 0.014706 0.00142908 0.015483 0.0117831 0.0174164 -0.00623925 -0.00539836 0.0323201 0.0221371 -0.00588799 -0.0106409 -0.00112098 0.00697055 -0.00343651 -0.00420355 0.000637612 0.00173113 0.0181556 0.0669733 -0.0109211 -0.00113666 0.0172233 0.0272062 -0.00421761 0.0071553 -0.0179041 0.000800566 0.00148349 0.00215796 0.00823542 0.0165765 -4.6126e-05 -0.0136035 0.00134948 0.0165301 0.00103697 -0.00938308 -0.00185394 4.55961e-05 0.0176284 0.0169831 0.00772356
internal_weight=0 1872 4385 1081 2978 791 1407 769 576 563 782 1378 525 505 123 382 371 79 82 292 248 694 37 201 514 625 587 49 28 576 196 59 39 380 368 657 588 495 22 853 64 30 47 24 53 437 550 528 511 136 63 375 35 340 29 73 88 48 44 485 469 63
internal_count=6257 1872 4385 1081 2978 791 1407 769 576 563 782 1378 525 505 123 382 371 79 82 292 248 694 37 201 514 625 587 49 28 576 196 59 39 380 368 657 588 495 22 853 64 30 47 24 53 437 550 528 511 136 63 375 35 340 29 73 88 48 44 485 469 63
is_linear=0
shrinkage=0.05


Tree=16
num_leaves=63
num_cat=0
split_feature=21 21 21 21 25 21 21 10 34 37 9 12 27 4 32 22 37 1 10 28 33 34 40 38 20 10 27 20 4 34 32 29 21 30 16 32 38 22 27 32 9 7 5 35 43 15 22 20 33 5 7 9 33 13 17 9 13 22 16 12 37 38
split_gain=679.028 110.032 56.2852 6.21184 6.11628 5.32047 5.23992 3.85133 6.26231 4.06505 5.47491 4.2743 4.71553 4.51799 3.80274 3.69066 3.61823 3.88374 4.56344 3.23104 3.33453 3.10644 3.00381 3.88029 3.46755 2.84375 2.74111 2.61573 3.70507 3.5815 2.68399 2.57742 2.47733 3.29931 2.45602 3.89083 2.41557 3.04738 3.37555 3.20274 2.62238 2.41565 3.89109 2.82823 2.41129 2.39969 2.39072 2.38707 2.96056 2.80468 2.60685 2.30255 2.41224 2.25341 2.22089 2.17828 3.9743 3.51417 4.27888 3.05363 2.81961 2.29961
threshold=66.211314340528745 77.657605697141562 60.492221248889742 70.582272646539593 56.979417822629536 90.165949075909438 62.216024570169637 3.5000000000000004 67.836652897281823 75.975261208098672 9.5000000000000018 1.5000000000000002 78.719409942626967 2.5000000000000004 86.662580506315109 71.325639162025055 66.412693913629866 178.50000000000003 17.500000000000004 63.039675524616726 63.365598678588874 75.356298297344793 64.67794750946733 60.758310819565871 10.500000000000002 31.500000000000004 68.82132720947267 3.5000000000000004 8.5000000000000018 74.127131578415941 77.900143911341885 91.331007206867312 65.637455620209195 63.296299271964926 16.500000000000004 61.184813148700904 62.11456140350878 70.016228159006545 71.859367370605483 64.407972837614196 14.500000000000002 6.5000000000000009 7.5000000000000009 66.885882844207444 68.452190470624942 7.5000000000000009 63.188474958552554 3.5000000000000004 57.792232513427741 4.5000000000000009 51.500000000000007 16.500000000000004 71.007514953613295 5.5000000000000009 30.500000000000004 12.500000000000002 15.500000000000002 79.734901429584241 9.5000000000000018 4.5000000000000009 76.434881639261803 84.646556484295871
decision_type=2 2 2 2 2 2 2 2 2 2 2 2 2 2 2 2 2 2 2 2 2 2 2 2 2 2 2 2 2 2 2 2 2 2 2 2 2 2 2 2 2 2 2 2 2 2 2 2 2 2 2 2 2 2 2 2 2 2 2 2 2 2
left_child=2 3 4 21 -1 14 47 8 -5 11 -11 -9 13 -13 53 26 32 -18 -19 -20 -21 22 -2 24 -24 -12 -15 44 29 -29 54 -7 -8 -34 -6 -36 -25 38 39 -38 -39 -41 45 -44 -17 -43 -22 48 -4 -50 -49 52 -45 -3 -30 61 57 -57 60 -58 -59 -55
right_child=1 5 6 7 34 31 16 9 -10 10 25 12 -14 15 -16 27 17 18 19 20 46 -23 23 36 -26 -27 -28 28 30 -31 -32 -33 33 -35 35 -37 37 40 -40 41 -42 42 43 51 -46 -47 -48 50 49 -51 -52 -53 -54 55 -56 56 59 58 -60 -61 -62 -63
leaf_value=-0.016459524157154109 0.014738867641707822 0.023974859473459863 0.011161895357072354 0.018356652820811548 -0.0093992928204238851 0.082372098565101609 0.00093417812582437796 -0.01030269963045915 0.06822150647640228 0.061642616445367983 0.014990789864179014 0.047595336830074136 0.045393351518682075 0.042634047579485926 0.044188537856046067 0.029892690210162026 -0.013129214591511604 0.028810905607847066 -0.023192316223867238 -0.019904918818233107 0.029102014614777134 0.034917104846009843 -0.012882904824218715 0.030671765504834744 0.014073652894619634 0.041654198776398393 0.020031771258098994 0.0077695107571780679 0.013218746092315999 -0.023816930555871557 0.036072634284694989 0.048001774478082848 0.038512238115072255 0.0057284698553496244 -0.014850403682920305 0.0052968487767502672 -0.0026325793956251194 -0.010555549276371798 -0.010070386622101069 0.030872416610901173 0.013616940028527202 0.011365561224520204 0.003506799689917402 0.046602335922858285 0.0093808627687394629 -0.023273185640573502 0.0020812912727706137 -0.0042437051862604372 0.0065374102070927618 -0.022098456168452563 -0.024759495857870208 0.014384924540965066 0.017322799190878868 0.042597899648889499 -0.0050485408244033657 0.042587577977350785 0.023868818553712437 0.010550231471742416 -0.0063026559015270326 0.040685690799550304 0.047234336882829665 0.032420168066636439
