tree
version=v3
num_class=1
num_tree_per_iteration=1
label_index=0
max_feature_idx=20
objective=regression
feature_names=Column_0 Column_1 Column_2 Column_3 Column_4 Column_5 Column_6 Column_7 Column_8 Column_9 Column_10 Column_11 Column_12 Column_13 Column_14 Column_15 Column_16 Column_17 Column_18 Column_19 Column_20
feature_infos=[0.10000000000000001:11] [19:851] [0:123] [0:75] [0:79] [0:179] [0:68] [0:157] [0:63] [0:109] [0:148] [0:47] [0:115] [0:121] [0:171] [0:109] [0:120] [0:93] [0:82] [0:31] [0:62]
tree_sizes=1439 1431 1445 1424 1434 1439 1466 1436 1438 1431 1436 1458 1453 1451 1461 1445 1446 1436 1480 1461 1464 1440 1451 1452 1471 1446 1455 1444 1483 1454 1444 1471 1457 1449 1462 1462 1489 1472 1517 1477 1469 1459 1484 1499 1467 1481 1485 1468 1506 1474 1495 1490 1514 1517 1534 1498 1455 1481 1487 1479 1435 1469 1498 1507 1493 1501 1506 1520 1528 1480 1510 1474 1490 1562 1480 1561 1491 1518 1471 1506 1502 1479 1549 1475 1517 1491 1500 1523 1561 1513 1454 1516 1546 1475 1486 1500 1511 1459 1508 1484 1448 1484 1502 1538 1504 1533 1528 1520 1466 1567 1510 1528 1508 1514 1495 1578 1472 1509 1478 1540 1499 1568 1513 1534 1567 1503 1520 1536 1502 1546 1537 1494 1526 1589 1492 1511 1498 1472 1494 1528 1530 1511 1560 1561 1538 1563 1517 1499 1470 1493 1517 1548 1476 1543 1548 1606 1520 1517 1526 1557 1514 1515 1499 1528 1539 1534 1522 1511 1552 1556 1557 1498 1485 1556 1499 1560 1595 1515 1550 1598 1526 1500 1535 1483 1525 1488 1468 1561 1488 1546 1528 1585 1474 1573 1552 1570 1515 1547 1577 1516 1538 1481 1509 1527 1469 1493 1597 1540 1517 1545 1569 1545 1534 1566 1525 1504 1543 1551 1543 1589 1552 1534 1577 1542 1529 1561 1560 1516 1520 1554 1492 1565 1480 1497 1524 1548 1512 1502 1514 1489 1558 1548 1547 1510 1523 1520 1512 1549 1478 1525 1525 1505 1514 1564 1498 1545 1574 1550 1506 1484 1529 1497 1546 1535 1535 1506 1572 1583 1517 1491 1563 1639 1566 1577 1549 1524 1558 1481 1532 1472 1552 1548 1547 1601 1533 1559 1533 1565 1518 1556 1543 1536 1583 1500 1590 1563 1536 1471 1553 1541 1525 1582 1565 1534 1513 1547 1585 1498 1564 1551 1565 1532 1571 1501 1551 1513 1619 1528 1550 1551 1504 1519 1531 1561 1522 1561 1554 1532 1534 1519 1530 1539 1546 1549 1537 1596 1580 1572 1577 1528 1530 1516 1531 1503 1525 1585 1530 1544 1527 1550 1501 1568 1534 1581 1607 1603 1545 1543 1568 1504 1468 1564 1571 1585 1537 1556 1545 1534 1477 1560 1525 1536 1530 1480 1533 1544 1548 1576 1560 1545 1553 1541 1526 1533 1561 1559 1537 1544 1574 1501 1550 1544 1507 1598 1503 1540 1515 1544 1530 1537 1543 1567 1615 1536 1590 1544 1495 1624 1522 1522 1566 1538 1545 1555 1564 1531 1548 1532 1525 1541

Tree=0
num_leaves=15
num_cat=0
split_feature=3 15 14 12 12 16 15 14 10 16 14 7 10 15
split_gain=906.923 419.836 261.982 254.965 144.337 80.4409 238.571 64.2216 59.9292 71.0324 52.1638 51.1668 49.1946 45.5095
threshold=1.5000000000000002 15.500000000000002 4.5000000000000009 9.5000000000000018 1.5000000000000002 17.500000000000004 27.500000000000004 7.5000000000000009 31.500000000000004 13.500000000000002 18.500000000000004 42.500000000000007 48.500000000000007 10.500000000000002
decision_type=2 2 2 2 2 2 2 2 2 2 2 2 2 2
left_child=1 4 -2 8 -1 6 -4 13 9 -3 12 -7 -5 -6
right_child=2 3 5 10 7 11 -8 -9 -10 -11 -12 -13 -14 -15
leaf_value=0.10985896296119958 0.036117970314799977 0.13388814024584092 -0.029540751586897031 0.034498047934249758 0.0080722147464406379 -0.059511015298897955 0.12965530329422106 -0.030473869799495051 0.17714447795949353 -0.041468516610776267 -0.020885796185359747 -0.02623147731391802 0.14719135781029638 0.064640670924041507
leaf_weight=152 574 132 1385 131 584 1464 101 337 348 28 103 675 55 188
leaf_count=152 574 132 1385 131 584 1464 101 337 348 28 103 675 55 188
internal_value=2.66618e-11 0.0543816 -0.0266533 0.111194 0.0184738 -0.0365929 -0.0187206 0.00594854 0.153855 0.103201 0.036206 -0.0490091 0.0678213 0.021848
internal_weight=0 2058 4199 797 1261 3625 1486 1109 508 160 289 2139 186 772
internal_count=6257 2058 4199 797 1261 3625 1486 1109 508 160 289 2139 186 772
is_linear=0
shrinkage=1


Tree=1
num_leaves=15
num_cat=0
split_feature=3 15 12 16 15 12 0 15 10 16 12 20 3 0
split_gain=734.607 340.068 206.522 124.551 181.082 116.913 57.9312 60.0577 48.5426 57.5362 46.1729 44.3434 66.7805 53.461
threshold=1.5000000000000002 15.500000000000002 9.5000000000000018 17.500000000000004 28.500000000000004 1.5000000000000002 7.7500000000000009 18.500000000000004 31.500000000000004 13.500000000000002 6.5000000000000009 11.500000000000002 5.5000000000000009 7.9000000000000012
decision_type=2 2 2 2 2 2 2 2 2 2 2 2 2 2
left_child=1 5 8 4 6 -1 7 -2 9 -3 -9 -5 -13 -14
right_child=3 2 -4 11 -6 -7 -8 10 -10 -11 -12 12 13 -15
leaf_value=0.098873064451311776 -0.022229318116689684 0.12049932587666042 0.032585394044779219 -0.058340550182822894 0.12829933992082562 0.0053536820746294825 0.091552965744183618 0.097844693634180802 0.15943002594399386 -0.037321665880777538 0.00088018174378890293 -0.0048872398434918422 -0.055331814918824655 0.0594207861352452
leaf_weight=152 1600 132 289 838 96 1109 52 74 348 28 146 623 727 43
leaf_count=152 1600 132 289 838 96 1109 52 74 348 28 146 623 727 43
internal_value=0 0.0489435 0.100075 -0.023988 -0.00565061 0.0166264 -0.0125198 -0.0154933 0.13847 0.0928807 0.0334955 -0.0401637 -0.0292289 -0.0489236
internal_weight=0 2058 797 4199 1968 1261 1872 1820 508 160 220 2231 1393 770
internal_count=6257 2058 797 4199 1968 1261 1872 1820 508 160 220 2231 1393 770
is_linear=0
shrinkage=0.1


Tree=2
num_leaves=15
num_cat=0
split_feature=3 10 16 16 7 16 10 0 20 7 3 20 0 10
split_gain=595.032 236.405 178.382 129.759 109.329 100.886 119.301 45.3185 39.0801 35.8689 35.1545 42.8325 31.0449 30.4092
threshold=1.5000000000000002 34.500000000000007 23.500000000000004 7.5000000000000009 10.500000000000002 17.500000000000004 50.500000000000007 7.7500000000000009 25.500000000000004 24.500000000000004 5.5000000000000009 11.500000000000002 7.3000000000000016 15.500000000000002
decision_type=2 2 2 2 2 2 2 2 2 2 2 2 2 2
left_child=1 3 -3 4 13 6 7 -2 10 -8 11 -7 -10 -1
right_child=5 2 -4 -5 -6 8 9 -9 12 -11 -12 -13 -14 -15
leaf_value=0.010268987655459394 -0.01225989788692646 0.13112170299140857 0.00343993478232906 -0.0023011465488807117 0.10798286174588344 -0.050252343187810258 -0.047366701215505604 0.082397668436169635 -0.015974078776521818 0.15823992088969266 -0.053748722058803877 -0.0084981177671313614 0.074537883274024358 0.08804521444253624
leaf_weight=310 1850 428 147 858 255 446 9.9999999999999982 52 180 56 1010 547 48 60
leaf_count=310 1850 428 147 858 255 446 10 52 180 56 1010 547 48 60
internal_value=0 0.0440491 0.0984796 0.0229449 0.0576028 -0.0215892 -0.00508555 -0.00967199 -0.0361474 0.127087 -0.0406127 -0.0272518 0.00308107 0.0228813
internal_weight=0 2058 575 1483 625 4199 1968 1902 2231 66 2003 993 228 370
internal_count=6257 2058 575 1483 625 4199 1968 1902 2231 66 2003 993 228 370
is_linear=0
shrinkage=0.1


Tree=3
num_leaves=15
num_cat=0
split_feature=3 15 14 12 14 15 16 15 12 14 10 5 10 14
split_gain=481.976 247.609 191.602 166.094 76.3149 52.601 75.8471 126.698 49.597 47.5737 42.0439 42.0248 38.383 57.1467
threshold=1.5000000000000002 13.500000000000002 4.5000000000000009 8.5000000000000018 6.5000000000000009 12.500000000000002 18.500000000000004 30.500000000000004 1.5000000000000002 11.500000000000002 59.500000000000007 12.500000000000002 31.500000000000004 9.5000000000000018
decision_type=2 2 2 2 2 2 2 2 2 2 2 2 2 2
left_child=1 4 11 12 8 -4 7 -7 -1 -5 -11 -2 13 -3
right_child=2 3 5 9 -6 6 -8 -9 -10 10 -12 -13 -14 -15
leaf_value=0.083169833710789676 0.014464385414192264 0.10706907133741868 -0.047623933638043126 0.065101072119126996 -0.03079340859788603 -0.01004796410974626 -0.033398154405343855 0.11276532001392817 0.01435472148932998 -0.024180795524311675 0.10042887628078462 0.071252562570385633 0.13407857501879336 -0.018890336641798851
leaf_weight=125 374 166 987 181 350 868 1677 93 646 176 32 200 336 46
leaf_count=125 374 166 987 181 350 868 1677 93 646 176 32 200 336 46
internal_value=0 0.0396442 -0.0194303 0.0775839 0.00793192 -0.0279305 -0.0205622 0.00183719 0.0255115 0.0276123 -0.00501008 0.0342512 0.113056 0.0797383
internal_weight=0 2058 4199 937 1121 3625 2638 961 771 389 208 574 548 212
internal_count=6257 2058 4199 937 1121 3625 2638 961 771 389 208 574 548 212
is_linear=0
shrinkage=0.1


Tree=4
num_leaves=15
num_cat=0
split_feature=3 15 14 14 10 14 15 3 15 14 0 16 15 5
split_gain=390.4 200.563 155.197 130.463 74.1416 61.8151 46.5635 40.4596 76.9597 93.0493 35.7719 34.8558 34.4976 32.8634
threshold=1.5000000000000002 13.500000000000002 4.5000000000000009 11.500000000000002 48.500000000000007 6.5000000000000009 57.500000000000007 5.5000000000000009 18.500000000000004 11.500000000000002 7.6500000000000012 33.500000000000007 10.500000000000002 6.5000000000000009
decision_type=2 2 2 2 2 2 2 2 2 2 2 2 2 2
left_child=1 5 12 -3 -5 13 7 8 -4 -10 -9 -8 -2 -1
right_child=2 3 6 4 -6 -7 11 10 9 -11 -12 -13 -14 -15
leaf_value=-0.014449561604221043 0.011213787133140224 0.095747331788014076 -0.031833599370429372 -0.021712105316252443 0.080379721964091322 -0.027714069333409759 0.15453465723991394 -0.04174734066446173 0.067488952287548809 -0.012755772464019668 0.044274388633668421 -0.018051200969652695 0.061470302585595549 0.034354251133618396
leaf_weight=180 350 632 1324 192 113 350 25 1458 196 550 50 22 224 591
leaf_count=180 350 632 1324 192 113 350 25 1458 196 550 50 22 224 591
internal_value=0 0.0356798 -0.0174873 0.0698255 0.0161121 0.00713873 -0.0251374 -0.0264364 -0.0173602 0.00832729 -0.0388952 0.0737498 0.0308261 0.0229604
internal_weight=0 2058 4199 937 305 1121 3625 3578 2070 746 1508 47 574 771
internal_count=6257 2058 4199 937 305 1121 3625 3578 2070 746 1508 47 574 771
is_linear=0
shrinkage=0.1


Tree=5
num_leaves=15
num_cat=0
split_feature=3 15 14 16 16 2 3 15 16 10 14 18 20 0
split_gain=316.224 163.371 130.313 110.755 61.9597 53.6703 42.6097 92.5243 74.0773 39.4806 50.5525 38.0327 26.1452 25.764
threshold=1.5000000000000002 15.500000000000002 3.5000000000000004 22.500000000000004 6.5000000000000009 9.5000000000000018 4.5000000000000009 18.500000000000004 18.500000000000004 32.500000000000007 6.5000000000000009 28.500000000000004 8.5000000000000018 7.6500000000000012
decision_type=2 2 2 2 2 2 2 2 2 2 2 2 2 2
left_child=1 4 -2 9 5 -1 7 -4 11 10 -3 -9 -6 -8
right_child=2 3 6 -5 12 -7 13 8 -10 -11 -12 -13 -14 -15
leaf_value=0.008215818066009373 0.035949461970763874 0.098852224322448001 -0.025340932983998799 -0.0009739819272538996 -0.021940589838519101 0.075809505239221753 -0.035489624023888874 0.031159384128332669 -0.0057531781871340342 0.10627388644138749 0.0012360065174289048 0.11652108266296768 0.015593426436977927 0.0046057013064538218
leaf_weight=265 437 113 1262 182 484 211 1792 113 322 402 100 97 301 176
leaf_count=265 437 113 1262 182 484 211 1792 113 322 402 100 97 301 176
internal_value=0 0.0321118 -0.0157385 0.0675517 0.00971243 0.0381786 -0.0217427 -0.010596 0.0243816 0.0878309 0.053023 0.0705884 -0.00754857 -0.0319039
internal_weight=0 2058 4199 797 1261 476 3762 1794 532 615 213 210 785 1968
internal_count=6257 2058 4199 797 1261 476 3762 1794 532 615 213 210 785 1968
is_linear=0
shrinkage=0.1


Tree=6
num_leaves=15
num_cat=0
split_feature=3 15 12 16 15 16 7 20 3 10 10 16 2 4
split_gain=256.142 135.729 117.936 57.7509 86.4973 37.5766 46.6242 35.6895 49.9421 34.7185 34.1753 31.7921 24.8469 33.2131
threshold=1.5000000000000002 11.500000000000002 8.5000000000000018 15.500000000000002 22.500000000000004 6.5000000000000009 9.5000000000000018 11.500000000000002 3.5000000000000004 18.500000000000004 63.500000000000007 1.0000000180025095e-35 16.500000000000004 9.5000000000000018
decision_type=2 2 2 2 2 2 2 2 2 2 2 2 2 2
left_child=1 5 9 4 11 6 -1 -5 -9 -3 -4 -2 -13 -14
right_child=3 2 10 7 -6 -7 -8 8 -10 -11 -12 12 13 -15
leaf_value=-0.0040095938732140233 0.24511796236038208 0.028790120124772545 0.0055011856999951838 -0.038486803091094438 0.076472127931607681 -0.015103288972314527 0.064386160374445806 0.020651729559311341 -0.023763361302588864 0.09179081626837178 0.096368725808418321 -0.01600149025517884 0.046103864371776583 -0.0079607667490541028
leaf_weight=237 4.9999999999999991 105 413 1002 136 561 172 324 1158 524 46 1075 175 324
leaf_count=237 5 105 413 1002 136 561 172 324 1158 524 46 1075 175 324
internal_value=0 0.0289006 0.0531492 -0.0141647 -5.06793e-05 0.00170227 0.0247534 -0.0239093 -0.0140532 0.081274 0.0146077 -0.00664162 -0.00744137 0.0109998
internal_weight=0 2058 1088 4199 1715 970 409 2484 1482 629 459 1579 1574 499
internal_count=6257 2058 1088 4199 1715 970 409 2484 1482 629 459 1579 1574 499
is_linear=0
shrinkage=0.1


Tree=7
num_leaves=15
num_cat=0
split_feature=14 15 15 16 14 16 2 2 12 12 14 10 16 2
split_gain=217.335 185.239 98.8996 191.112 69.4092 39.1273 34.0042 33.2675 49.9158 31.0159 27.3969 25.7448 22.9381 33.3231
threshold=7.5000000000000009 14.500000000000002 29.500000000000004 24.500000000000004 3.5000000000000004 12.500000000000002 9.5000000000000018 32.500000000000007 8.5000000000000018 1.5000000000000002 22.500000000000004 47.500000000000007 13.500000000000002 14.500000000000002
decision_type=2 2 2 2 2 2 2 2 2 2 2 2 2 2
left_child=1 4 7 11 6 -3 -1 12 -9 -8 -5 -4 13 -2
right_child=2 5 3 10 -6 -7 9 8 -10 -11 -12 -13 -14 -15
leaf_value=0.010205384558881913 -0.044292806116519153 0.089868090377518528 0.03702190464193171 0.0034120706251864748 -0.0080864964971797248 0.040477256896742302 0.12591383481512264 0.047423471640437274 -0.019040069652820187 0.040549542477108645 -0.043894969206303362 0.099530566739022441 -0.040818606477597857 0.0048927335263043749
leaf_weight=417 243 362 99 220 1242 288 49 130 864 324 276 197 1228 318
leaf_count=417 243 362 99 220 1242 288 49 130 864 324 276 197 1228 318
internal_value=0 0.0215174 -0.0161426 0.0150358 0.00665357 0.0679842 0.0298272 -0.0250155 -0.0103477 0.0517636 -0.022912 0.078624 -0.0331652 -0.0164122
internal_weight=0 2682 3575 792 2032 650 790 2783 994 373 496 296 1789 561
internal_count=6257 2682 3575 792 2032 650 790 2783 994 373 496 296 1789 561
is_linear=0
shrinkage=0.1


Tree=8
num_leaves=15
num_cat=0
split_feature=3 15 12 3 15 16 2 16 13 16 12 7 2 11
split_gain=177.556 97.7337 80.5616 40.3479 38.5969 77.5147 31.0628 42.3277 28.237 27.7313 23.5115 29.0519 21.4507 26.4074
threshold=1.5000000000000002 9.5000000000000018 6.5000000000000009 9.5000000000000018 28.500000000000004 24.500000000000004 39.500000000000007 25.500000000000004 27.500000000000004 3.5000000000000004 1.5000000000000002 3.5000000000000004 18.500000000000004 4.5000000000000009
decision_type=2 2 2 2 2 2 2 2 2 2 2 2 2 2
left_child=1 10 12 4 9 8 -4 -8 -6 -2 11 -1 13 -3
right_child=3 2 6 -5 5 -7 7 -9 -10 -11 -12 -13 -14 -15
leaf_value=-0.10441389853755634 0.045969927494908559 0.066293389133352323 0.0041828690700916734 -0.03566200280680764 0.039193859562277798 -0.011581963643205453 0.087957914276909438 -0.012891743366890297 0.12235640496879384 -0.01331512658452874 -0.0092748049416887576 0.06112290358037821 0.081841925267936266 -0.014570140818102381
leaf_weight=11.999999999999998 81 128 474 606 100 299 119 64 69 3044 713 91 398 59
leaf_count=12 81 128 474 606 100 299 119 64 69 3044 713 91 398 59
internal_value=0 0.0240621 0.0417259 -0.0117933 -0.00776752 0.0190149 0.0176935 0.0526881 0.0731478 -0.0117785 -0.00282318 0.0418371 0.0687162 0.0407803
internal_weight=0 2058 1242 4199 3593 468 657 183 169 3125 816 103 585 187
internal_count=6257 2058 1242 4199 3593 468 657 183 169 3125 816 103 585 187
is_linear=0
shrinkage=0.1


Tree=9
num_leaves=15
num_cat=0
split_feature=14 15 15 16 14 14 0 16 7 5 10 12 15 10
split_gain=167.491 125.123 78.547 156.61 43.0176 31.7026 29.9505 28.8801 58.0054 28.4869 27.0484 28.9464 26.1884 25.519
threshold=6.5000000000000009 13.500000000000002 26.500000000000004 24.500000000000004 3.5000000000000004 18.500000000000004 4.5500000000000007 10.500000000000002 21.500000000000004 12.500000000000002 8.5000000000000018 1.5000000000000002 11.500000000000002 31.500000000000004
decision_type=2 2 2 2 2 2 2 2 2 2 2 2 2 2
left_child=1 4 7 5 10 13 -6 8 12 -3 -1 -12 -2 -4
right_child=2 9 3 -5 6 -7 -8 -9 -10 -11 11 -13 -14 -15
leaf_value=-0.00086836375066853518 -0.032618255038815477 0.002582750622540304 -0.0071375157076141076 -0.019682513609352189 -0.069454462434047126 -0.00066944241860053609 -0.0017779738456826289 -0.025723756845958453 0.076347594985356898 0.069268602307041821 0.11185495524990315 0.030909806624586946 0.011899781292143825 0.081949045662102968
leaf_weight=261 307 73 36 639 71 72 828 2333 83 523 49 449 232 301
leaf_count=261 307 73 36 639 71 72 828 2333 83 523 49 449 232 301
internal_value=0 0.0218036 -0.0122771 0.0112446 0.00767752 0.0595636 -0.00712284 -0.0206192 -0.001473 0.0611007 0.0252078 0.0388743 -0.0134565 0.0724324
internal_weight=0 2254 4003 1048 1658 409 899 2955 622 596 759 498 539 337
internal_count=6257 2254 4003 1048 1658 409 899 2955 622 596 759 498 539 337
is_linear=0
shrinkage=0.1


Tree=10
num_leaves=15
num_cat=0
split_feature=12 15 16 16 15 16 13 16 7 20 13 20 19 16
split_gain=111.105 122.157 41.4041 39.258 93.6153 31.0054 28.143 33.619 25.499 24.9545 24.7334 20.8331 32.4803 23.0917
threshold=5.5000000000000009 9.5000000000000018 17.500000000000004 31.500000000000004 27.500000000000004 5.5000000000000009 9.5000000000000018 7.5000000000000009 5.5000000000000009 26.500000000000004 36.500000000000007 11.500000000000002 2.5000000000000004 11.500000000000002
decision_type=2 2 2 2 2 2 2 2 2 2 2 2 2 2
left_child=1 5 6 4 11 8 7 -3 -1 -5 -6 13 -13 -2
right_child=3 2 -4 9 10 -7 -8 -9 -10 -11 -12 12 -14 -15
leaf_value=-0.019563352198354783 -0.0033624334908461382 0.0622890154959337 -0.014813463595860145 -0.031384898045608949 0.030648313365829523 -0.023446883701743852 0.073383546394816965 -0.015009143885813262 0.036318870281182428 0.013007179125231012 0.10006203076533847 0.03077745141665026 -0.0093003365383434022 -0.023398502215292761
leaf_weight=126 1094 138 85 877 395 418 463 95 232 148 59 302 612 1213
leaf_count=126 1094 138 85 877 395 418 463 95 232 148 59 302 612 1213
internal_value=0 0.023152 0.0510723 -0.00766971 -0.00284304 -0.0049482 0.0591187 0.0307726 0.0166508 -0.0249751 0.039669 -0.00883511 0.003942 -0.0138972
internal_weight=0 1557 781 4700 3675 776 696 233 358 1025 454 3221 914 2307
internal_count=6257 1557 781 4700 3675 776 696 233 358 1025 454 3221 914 2307
is_linear=0
shrinkage=0.1


Tree=11
num_leaves=15
num_cat=0
split_feature=14 5 15 14 14 2 15 16 15 2 0 18 0 0
split_gain=125.296 89.6503 60.325 103.954 34.6226 32.6896 32.4682 31.2726 45.1768 21.2242 20.4904 33.4116 20.2894 19.4713
threshold=6.5000000000000009 12.500000000000002 18.500000000000004 11.500000000000002 3.5000000000000004 28.500000000000004 13.500000000000002 30.500000000000004 36.500000000000007 29.500000000000004 7.3000000000000016 33.500000000000007 7.9000000000000012 4.5500000000000007
decision_type=2 2 2 2 2 2 2 2 2 2 2 2 2 2
left_child=1 4 -2 5 12 -4 -3 8 9 -5 -9 -12 -1 -6
right_child=2 6 3 7 13 -7 -8 10 -10 -11 11 -13 -14 -15
leaf_value=0.015521648734725352 -0.023002425560734112 0.02127728164652834 0.0074052570945012473 -0.032671355856022925 -0.06242696664606532 0.064396603602124222 0.059261289127812103 -0.029155788867375555 0.053322265762996313 0.0041254634225239397 -0.012542894482612608 0.23107466250658037 0.10922945564767968 -0.0074869613423488197
leaf_weight=620 1984 395 155 233 72 287 523 693 145 479 19.000000000000004 7.9999999999999991 24 620
leaf_count=620 1984 395 155 233 72 287 523 693 145 479 19 8 24 620
internal_value=0 0.0188582 -0.0106186 0.00155045 0.00232655 0.044411 0.0429174 -0.0104624 0.00244504 -0.00791619 -0.0258259 0.0596401 0.0190139 -0.0132033
internal_weight=0 2254 4003 2019 1336 442 918 1577 857 712 720 27 644 692
internal_count=6257 2254 4003 2019 1336 442 918 1577 857 712 720 27 644 692
is_linear=0
shrinkage=0.1


Tree=12
num_leaves=15
num_cat=0
split_feature=14 15 7 16 15 14 4 3 0 20 14 18 7 0
split_gain=104.472 76.6873 48.2559 74.699 48.0523 35.9315 32.4203 25.5614 23.8124 21.352 25.3648 20.3114 20.2805 26.7491
threshold=7.5000000000000009 14.500000000000002 21.500000000000004 22.500000000000004 27.500000000000004 3.5000000000000004 15.500000000000002 1.0000000180025095e-35 7.5500000000000007 25.500000000000004 22.500000000000004 8.5000000000000018 4.5000000000000009 7.3000000000000016
decision_type=2 2 2 2 2 2 2 2 2 2 2 2 2 2
left_child=1 5 -2 4 6 12 8 -7 -4 -5 -11 -9 -1 -14
right_child=2 -3 3 9 -6 7 -8 11 -10 10 -12 -13 13 -15
leaf_value=-0.0082302156030308101 -0.027243890335190014 0.044816211949998082 0.027052193171449846 -0.020787153635492103 0.054067754995116263 0.019731498400487199 -0.014985638145392772 -0.040294500521045135 0.17239282789329691 0.040091741628440702 -0.031447476680284435 -0.005376127823155291 0.024329200975021604 0.1006284529566765
leaf_weight=173 1229 650 186 1303 291 308 342 217 11.999999999999998 133 79 717 567 50
leaf_count=173 1229 650 186 1303 291 308 342 217 12 133 79 717 567 50
internal_value=0 0.0149185 -0.011192 -0.00278293 0.0213105 0.0053548 0.00365803 -0.00525064 0.0358607 -0.0159986 0.0134333 -0.0134889 0.0220282 0.0305123
internal_weight=0 2682 3575 2346 831 2032 540 1242 198 1515 212 934 790 617
internal_count=6257 2682 3575 2346 831 2032 540 1242 198 1515 212 934 790 617
is_linear=0
shrinkage=0.1


Tree=13
num_leaves=15
num_cat=0
split_feature=14 15 14 18 16 12 0 15 20 15 18 16 20 16
split_gain=86.7536 111.972 57.6254 32.3662 28.951 25.5149 23.041 22.9825 22.6661 20.9786 20.8235 24.4212 20.6786 19.1191
threshold=11.500000000000002 18.500000000000004 3.5000000000000004 22.500000000000004 17.500000000000004 12.500000000000002 7.3000000000000016 9.5000000000000018 13.500000000000002 33.500000000000007 6.5000000000000009 3.5000000000000004 13.500000000000002 14.500000000000002
decision_type=2 2 2 2 2 2 2 2 2 2 2 2 2 2
left_child=1 2 7 -2 -3 9 -7 -1 10 13 -4 -12 -6 -5
right_child=3 4 8 5 12 6 -8 -9 -10 -11 11 -13 -14 -15
leaf_value=0.011220623919135118 -0.033560985653347093 0.057315399648591718 -0.042668893813626263 0.051023306000778194 -0.012835131649903598 -0.020129462163445511 0.016327432763663313 0.045765013064404857 0.026248065254961452 0.049901676577116763 0.03493090714097008 -0.010649567447256161 0.042637099608934179 -0.014906714619364499
leaf_weight=594 679 505 186 56 126 1094 206 285 180 119 126 1752 144 205
leaf_count=594 679 505 186 56 126 1094 206 285 180 119 126 1752 144 205
internal_value=0 0.00916017 0.000717121 -0.0151362 0.043183 -0.00768955 -0.0143524 0.022421 -0.00778454 0.0151045 -0.0107525 -0.00759145 0.0167501 -0.00076081
internal_weight=0 3898 3123 2359 775 1680 1300 879 2244 380 2064 1878 270 261
internal_count=6257 3898 3123 2359 775 1680 1300 879 2244 380 2064 1878 270 261
is_linear=0
shrinkage=0.1


Tree=14
num_leaves=15
num_cat=0
split_feature=3 15 16 7 16 16 17 0 3 7 16 0 0 20
split_gain=69.6631 44.0182 30.9571 22.7649 28.9837 21.3098 17.8984 22.5113 22.9328 25.3731 24.0486 29.2119 17.4454 16.3439
threshold=1.5000000000000002 9.5000000000000018 22.500000000000004 23.500000000000004 7.5000000000000009 1.0000000180025095e-35 7.5000000000000009 4.6500000000000012 4.5000000000000009 20.500000000000004 18.500000000000004 6.9500000000000011 7.6500000000000012 15.500000000000002
decision_type=2 2 2 2 2 2 2 2 2 2 2 2 2 2
left_child=1 -1 3 4 -3 -2 -7 -8 9 -9 11 -11 -10 -4
right_child=5 2 13 -5 -6 6 7 8 12 10 -12 -13 -14 -15
leaf_value=-0.0029711098096466982 0.19893541038036347 0.048485305532908501 -0.025271365959301365 0.052897742917034821 0.0033706488217889576 0.0088391686570340484 -0.052997441639920241 -0.011264290810383853 -0.019612864243272798 -0.073325556516647336 -0.001657895443145845 0.043862561441549881 0.013237215893202613 0.02750054190303975
leaf_weight=816 4.9999999999999991 244 151 409 342 570 119 923 1669 23 428 283 179 96
leaf_count=816 5 244 151 409 342 570 119 923 1669 23 428 283 179 96
internal_value=0 0.0150719 0.0269263 0.0347923 0.0221556 -0.007387 -0.00763297 -0.0102238 -0.00877156 -0.000229271 0.0136472 0.0350543 -0.016431 -0.00476083
internal_weight=0 2058 1242 995 586 4199 4194 3624 3505 1657 734 306 1848 247
internal_count=6257 2058 1242 995 586 4199 4194 3624 3505 1657 734 306 1848 247
is_linear=0
shrinkage=0.1


Tree=15
num_leaves=15
num_cat=0
split_feature=14 5 18 16 10 16 20 15 14 7 17 13 16 15
split_gain=66.435 58.8178 34.3499 43.4495 35.5534 29.6711 23.4143 21.9835 19.5154 21.1066 23.0277 19.4788 17.0192 16.6091
threshold=7.5000000000000009 10.500000000000002 24.500000000000004 23.500000000000004 43.500000000000007 7.5000000000000009 7.5000000000000009 15.500000000000002 1.5000000000000002 7.5000000000000009 7.5000000000000009 6.5000000000000009 15.500000000000002 54.500000000000007
decision_type=2 2 2 2 2 2 2 2 2 2 2 2 2 2
left_child=1 8 -2 4 -4 11 7 -7 -1 -10 -11 -3 -9 -5
right_child=2 5 3 13 -6 6 -8 12 9 10 -12 -13 -14 -15
leaf_value=0.029345248339796917 -0.019459116648695762 0.020728253692362485 0.0015999860694618001 -0.01300815172973465 0.04828478922288526 -0.022439884212820633 0.029827839401997232 0.046792068838895785 -0.027974439246242336 0.019518954805651974 -0.01323444723026997 0.067036335073957551 -0.048184497824505623 0.053302107522120848
leaf_weight=169 1659 143 401 1201 275 219 563 105 342 387 482 249 23 39
leaf_count=169 1659 143 401 1201 275 219 563 105 342 387 482 249 23 39
internal_value=0 0.0118966 -0.00892497 0.000196192 0.0205916 0.0271427 0.0172348 -0.00319715 -0.00248774 -0.00693016 0.00135194 0.0501433 0.029726 -0.0109226
internal_weight=0 2682 3575 1916 676 1302 910 347 1380 1211 869 392 128 1240
internal_count=6257 2682 3575 1916 676 1302 910 347 1380 1211 869 392 128 1240
is_linear=0
shrinkage=0.1


Tree=16
num_leaves=15
num_cat=0
split_feature=14 15 14 2 3 15 14 2 15 2 16 15 14 9
split_gain=56.5115 69.6382 39.2484 24.0838 22.8003 25.3325 22.5121 18.965 17.4274 16.6245 15.6074 17.8217 13.2673 16.3459
threshold=11.500000000000002 18.500000000000004 3.5000000000000004 43.500000000000007 1.0000000180025095e-35 10.500000000000002 29.500000000000004 32.500000000000007 48.500000000000007 9.5000000000000018 6.5000000000000009 5.5000000000000009 1.5000000000000002 10.500000000000002
decision_type=2 2 2 2 2 2 2 2 2 2 2 2 2 2
left_child=1 2 9 -2 -4 -6 8 -3 -5 12 11 -11 -1 -14
right_child=3 7 4 6 5 -7 -8 -9 -10 10 -12 -13 13 -15
leaf_value=0.032096951638138103 -0.019162061131745636 0.018999286757515343 0.014128818525826897 0.0054299603629034609 -0.024475432410998393 -0.00063418483065615875 -0.030056252822571673 0.050297175872554035 0.059245102452662061 -0.0023055220709035274 0.018383188867450211 0.076275968790675219 -0.021397449887756791 0.029906532958406829
leaf_weight=124 1602 398 440 523 804 1000 166 377 68 38 293 120 217 87
leaf_count=124 1602 398 440 523 804 1000 166 377 68 38 293 120 217 87
internal_value=0 0.00739313 0.000734765 -0.0122164 -0.00628153 -0.0112597 0.00248243 0.0342242 0.0116219 0.0186467 0.0320439 0.0573766 0.00452954 -0.00671506
internal_weight=0 3898 3123 2359 2244 1804 757 775 591 879 451 158 428 304
internal_count=6257 3898 3123 2359 2244 1804 757 775 591 879 451 158 428 304
is_linear=0
shrinkage=0.1


Tree=17
num_leaves=15
num_cat=0
split_feature=14 5 15 16 7 16 10 20 10 7 16 3 0 10
split_gain=45.8497 39.6212 27.3505 38.4687 28.0899 17.5442 16.9965 15.2806 16.0552 14.8017 13.425 13.7182 16.262 19.2187
threshold=6.5000000000000009 10.500000000000002 18.500000000000004 22.500000000000004 23.500000000000004 7.5000000000000009 12.500000000000002 7.5000000000000009 28.500000000000004 45.500000000000007 3.5000000000000004 7.5000000000000009 4.6500000000000012 8.5000000000000018
decision_type=2 2 2 2 2 2 2 2 2 2 2 2 2 2
left_child=1 10 -2 4 -4 6 -3 8 -7 -5 -1 12 -12 -14
right_child=2 5 3 9 -6 7 -8 -9 -10 -11 11 -13 13 -15
leaf_value=0.02224987502442673 -0.014761954958184135 0.001277749235364231 -0.01168537867246288 -0.016861241516535449 0.032127768320089345 -0.017206250040937742 0.055330425019458153 0.027486072443726084 0.037387644768868751 0.0053676770013070816 -0.047948466477991669 0.036773229973471683 -0.027951374531896306 0.0055241042787457064
leaf_weight=200 1984 74 202 811 531 198 272 465 74 475 98 69 248 556
leaf_count=200 1984 74 202 811 531 198 272 465 74 475 98 69 248 556
internal_value=0 0.0114078 -0.00642347 0.00177047 0.0200537 0.0251942 0.04377 0.0164734 -0.0023535 -0.00865072 -0.00134258 -0.00620199 -0.00948946 -0.00480167
internal_weight=0 2254 4003 2019 733 1083 346 737 272 1286 1171 971 902 804
internal_count=6257 2254 4003 2019 733 1083 346 737 272 1286 1171 971 902 804
is_linear=0
shrinkage=0.1


Tree=18
num_leaves=15
num_cat=0
split_feature=14 15 14 18 15 3 0 4 3 0 12 2 0 16
split_gain=41.2155 48.2208 28.259 18.489 17.5193 15.9772 18.8827 18.316 15.3219 15.8527 16.1242 14.2933 13.4402 13.1418
threshold=11.500000000000002 18.500000000000004 3.5000000000000004 22.500000000000004 11.500000000000002 3.5000000000000004 7.3000000000000016 47.500000000000007 1.0000000180025095e-35 7.4500000000000011 13.500000000000002 27.500000000000004 6.9500000000000011 3.5000000000000004
decision_type=2 2 2 2 2 2 2 2 2 2 2 2 2 2
left_child=1 2 -1 -2 8 -5 12 -8 -4 -10 -11 -3 -7 -6
right_child=3 11 4 5 13 6 7 -9 9 10 -12 -13 -14 -15
leaf_value=0.015971939514636935 -0.024358448037563044 0.011412181243338067 0.0052655714768816992 0.010659832789161522 0.076123514279723178 0.060638647323304963 0.011440754750714405 0.18876078724861145 -0.02228246112681518 -0.00034166599404724198 0.1651893734931946 0.039345673281923732 -0.018400339905298803 0.0027133753027146533
leaf_weight=879 679 297 328 478 25 22 200 5.9999999999999991 872 17.000000000000004 8.9999999999999982 478 974 993
leaf_count=879 679 297 328 478 25 22 200 6 872 17 9 478 974 993
internal_value=0 0.00631379 0.000773135 -0.0104329 -0.00518041 -0.00480462 -0.0109544 0.0166054 -0.0132319 -0.0199882 0.0569575 0.0286408 -0.0166545 0.00451618
internal_weight=0 3898 3123 2359 2244 1680 1202 206 1226 898 26 775 996 1018
internal_count=6257 3898 3123 2359 2244 1680 1202 206 1226 898 26 775 996 1018
is_linear=0
shrinkage=0.1


Tree=19
num_leaves=15
num_cat=0
split_feature=3 10 14 14 5 10 4 16 19 5 12 16 5 16
split_gain=34.9111 39.7633 24.1976 23.4573 20.6844 16.5706 16.5963 15.9947 13.8943 12.3453 12.0628 11.9425 11.8781 15.8102
threshold=2.5000000000000004 34.500000000000007 18.500000000000004 7.5000000000000009 9.5000000000000018 12.500000000000002 5.5000000000000009 1.0000000180025095e-35 5.5000000000000009 5.5000000000000009 3.5000000000000004 3.5000000000000004 10.500000000000002 10.500000000000002
decision_type=2 2 2 2 2 2 2 2 2 2 2 2 2 2
left_child=1 3 8 4 11 -6 -7 -2 -3 10 -9 -1 -11 -14
right_child=7 2 -4 -5 5 6 -8 9 -10 12 -12 -13 13 -15
leaf_value=0.021690586082861299 0.1713289184868336 0.026865306480638226 -0.0061192231813827196 -0.013722895705822739 -0.011134116598437507 0.068825490034564771 0.020358560676349641 -0.065831705908242028 0.06025653092526935 -0.02810303453585139 0.016425620839338118 -0.0088465409519473924 0.014957086023808059 -0.010235517686836559
leaf_weight=158 4.9999999999999991 405 166 731 143 81 553 19 180 313 289 676 280 2258
leaf_count=158 5 405 166 731 143 81 553 19 180 313 289 676 280 2258
internal_value=0 0.00755487 0.0275777 0.00113424 0.00787574 0.0196151 0.0265507 -0.00738534 0.0371395 -0.00766821 0.0113513 -0.00306133 -0.00972293 -0.00745619
internal_weight=0 3093 751 2342 1611 777 634 3164 585 3159 308 834 2851 2538
internal_count=6257 3093 751 2342 1611 777 634 3164 585 3159 308 834 2851 2538
is_linear=0
shrinkage=0.1


Tree=20
num_leaves=15
num_cat=0
split_feature=14 15 12 2 14 0 14 15 3 7 10 1 11 0
split_gain=29.6187 40.2133 24.8944 19.0605 17.5247 21.6541 16.8821 23.2498 14.4135 14.5763 13.8345 13.2168 12.6157 12.4373
threshold=9.5000000000000018 10.500000000000002 5.5000000000000009 30.500000000000004 1.5000000000000002 6.9500000000000011 22.500000000000004 28.500000000000004 1.0000000180025095e-35 5.5000000000000009 13.500000000000002 650.50000000000011 4.5000000000000009 7.5500000000000007
decision_type=2 2 2 2 2 2 2 2 2 2 2 2 2 2
left_child=1 4 10 13 5 -1 7 11 9 -6 -3 -5 -12 -2
right_child=3 2 -4 6 8 -7 -8 -9 -10 -11 12 -13 -14 -15
leaf_value=-0.060884178774776289 -0.019041385403475775 -0.0033693900848009504 0.008752318120251552 -0.0068577305379811234 -0.02431178854624411 0.035405678730565687 -0.013234819806415558 0.026474278663116069 -0.016486699896702022 0.015134880874309715 0.051777682670127646 0.11527149925629299 0.015764129549104104 0.039856908802647854
leaf_weight=27 1156 83 1290 574 127 173 635 394 932 357 324 8.9999999999999982 139 37
leaf_count=27 1156 83 1290 574 127 173 635 394 932 357 324 9 139 37
internal_value=0 0.00620199 0.0163279 -0.00763254 -0.00530244 0.0224065 -0.000541029 0.00770929 -0.00921614 0.00478421 0.0342262 -0.00497237 0.0409658 -0.0172147
internal_weight=0 3452 1836 2805 1616 200 1612 977 1416 484 546 583 463 1193
internal_count=6257 3452 1836 2805 1616 200 1612 977 1416 484 546 583 463 1193
is_linear=0
shrinkage=0.1


Tree=21
num_leaves=15
num_cat=0
split_feature=14 10 12 5 15 15 16 10 7 16 14 10 4 16
split_gain=25.1881 18.8895 28.5084 13.5976 13.3861 13.3563 12.7651 13.2465 12.5004 19.1753 14.1808 11.5477 11.5267 11.4782
threshold=3.5000000000000004 12.500000000000002 5.5000000000000009 12.500000000000002 5.5000000000000009 2.5000000000000004 7.5000000000000009 3.5000000000000004 42.500000000000007 23.500000000000004 14.500000000000002 38.500000000000007 5.5000000000000009 17.500000000000004
decision_type=2 2 2 2 2 2 2 2 2 2 2 2 2 2
left_child=4 5 3 -3 12 -2 7 -6 10 11 -4 -10 -1 -5
right_child=1 2 8 13 6 -7 -8 -9 9 -11 -12 -13 -14 -15
leaf_value=-0.025455543383451781 0.01442205568754606 -0.0075899929848994548 -0.0021853814432247851 0.031465252874439339 -0.032363296967620657 -0.028129056937508546 0.01132499771824204 0.045413647058233621 -0.020691767886281014 9.427646370489656e-05 -0.016321922899190874 0.054296517391972568 0.016838754519820212 -0.012272899892127169
leaf_weight=133 89 159 2229 460 24 431 459 250 25 648 1041 115 125 69
leaf_count=133 89 159 2229 460 24 431 459 250 25 648 1041 115 125 69
internal_value=0 -0.0027524 -0.000769925 0.0180529 0.0146258 -0.0208463 0.021521 0.0386011 -0.00396117 0.00734505 -0.00668573 0.0409058 -0.00496412 0.0257603
internal_weight=0 5266 4746 688 991 520 733 274 4058 788 3270 140 258 529
internal_count=6257 5266 4746 688 991 520 733 274 4058 788 3270 140 258 529
is_linear=0
shrinkage=0.1


Tree=22
num_leaves=15
num_cat=0
split_feature=3 10 0 11 14 7 14 7 4 0 15 9 14 0
split_gain=21.507 27.4631 18.0824 18.3702 16.1604 16.8441 15.254 12.0064 13.7698 10.1804 10.627 16.124 14.5367 10.081
threshold=2.5000000000000004 35.500000000000007 7.5500000000000007 3.5000000000000004 3.5000000000000004 4.5000000000000009 32.500000000000007 5.5000000000000009 5.5000000000000009 4.3000000000000016 7.5000000000000009 37.500000000000007 9.5000000000000018 7.4500000000000011
decision_type=2 2 2 2 2 2 2 2 2 2 2 2 2 2
left_child=1 4 -2 -4 5 -1 -3 -6 13 -10 -11 12 -12 -9
right_child=2 6 3 -5 7 -7 -8 8 9 10 11 -13 -14 -15
leaf_value=-0.014582314940727023 -0.0079527268010924669 0.026952988398009345 0.095293642965884051 0.010361337392149788 -0.034958358282633759 0.023577665392557651 -0.035189125570468605 0.026389593901299874 -0.043470967002213007 -0.017457871037595513 0.013462371006642713 -0.057788195547669431 -0.01338085740230827 -0.095708660568509796
leaf_weight=152 2926 664 29 209 118 484 42 199 67 391 629 43 297 6.9999999999999991
leaf_count=152 2926 664 29 209 118 484 42 199 67 391 629 43 297 7
internal_value=0 0.00592973 -0.00579666 0.0207102 0.000805112 0.0144577 0.0232561 -0.00415378 -0.00192786 -0.00541679 -0.00354206 0.00207309 0.00485283 0.0222406
internal_weight=0 3093 3164 238 2387 636 706 1751 1633 1427 1360 969 926 206
internal_count=6257 3093 3164 238 2387 636 706 1751 1633 1427 1360 969 926 206
is_linear=0
shrinkage=0.1


Tree=23
num_leaves=15
num_cat=0
split_feature=16 20 20 14 15 18 4 0 11 10 3 0 15 9
split_gain=19.2197 32.0695 21.3695 20.5445 17.1598 14.3517 16.8808 13.8162 13.3162 13.1237 13.1852 13.0163 12.6542 15.6608
threshold=14.500000000000002 8.5000000000000018 16.500000000000004 22.500000000000004 39.500000000000007 6.5000000000000009 5.5000000000000009 6.4500000000000011 6.5000000000000009 7.5000000000000009 2.5000000000000004 7.4500000000000011 13.500000000000002 29.500000000000004
decision_type=2 2 2 2 2 2 2 2 2 2 2 2 2 2
left_child=1 5 7 4 -4 -1 8 -2 9 -7 -11 -3 -8 -14
right_child=2 11 3 -5 -6 6 12 -9 -10 10 -12 -13 13 -15
leaf_value=-0.01688569440901172 0.024059463244559862 0.025593855493151692 0.011389292314634982 -0.016699949082905105 0.062012076853333334 0.0024971239972603684 -0.0063016703558299069 -0.0119186774060588 -0.058208943236815303 0.05472588176167878 -0.0042953896879528962 0.13092801198363305 0.015839013680620271 -0.055072093436099367
leaf_weight=381 112 524 563 244 76 131 1110 2271 19 179 48 11.999999999999998 554 33
leaf_count=381 112 524 563 244 76 131 1110 2271 19 179 48 12 554 33
internal_value=0 0.00579149 -0.00530384 0.00798449 0.0174102 0.000953172 0.00423023 -0.0102277 0.0233711 0.0277008 0.0422456 0.0279521 -2.20504e-05 0.0118525
internal_weight=0 2991 3266 883 639 2455 2074 2383 377 358 227 536 1697 587
internal_count=6257 2991 3266 883 639 2455 2074 2383 377 358 227 536 1697 587
is_linear=0
shrinkage=0.1


Tree=24
num_leaves=15
num_cat=0
split_feature=14 20 18 14 0 15 11 0 0 6 0 17 2 6
split_gain=17.7166 26.8507 14.4106 14.2871 18.4269 17.3598 13.6927 12.7121 12.4014 23.8649 12.1343 11.6599 17.2702 12.3122
threshold=9.5000000000000018 10.500000000000002 47.500000000000007 1.5000000000000002 6.9500000000000011 10.500000000000002 4.5000000000000009 6.7900000000000009 7.3000000000000016 6.5000000000000009 7.3000000000000016 6.5000000000000009 10.500000000000002 3.5000000000000004
decision_type=2 2 2 2 2 2 2 2 2 2 2 2 2 2
left_child=1 3 7 4 -1 11 -7 -2 -9 -10 -4 12 -5 -14
right_child=2 -3 10 5 -6 6 -8 8 9 -11 -12 -13 13 -15
leaf_value=-0.054547091062974055 0.040960078944380474 0.023283376256822523 0.014819271835050425 -0.011162813599115843 0.032944813099278658 0.018005231473843097 -0.0026996674673450591 -0.011535668881519839 0.1483566130201022 0.0043955478841732993 0.15902802348136902 -0.018707682859887859 0.060520239056539582 0.0064194761477571367
leaf_weight=27 52 640 212 397 222 576 717 2238 11.999999999999998 285 5.9999999999999991 691 66 116
leaf_count=27 52 640 212 397 222 576 717 2238 12 285 6 691 66 116
internal_value=0 0.00479665 -0.00590304 0.000589146 0.0234577 -0.00163258 0.00652386 -0.00798372 -0.0089877 0.0102122 0.0187883 -0.00993673 0.000530843 0.0260384
internal_weight=0 3452 2805 2812 249 2563 1293 2587 2535 297 218 1270 579 182
internal_count=6257 3452 2805 2812 249 2563 1293 2587 2535 297 218 1270 579 182
is_linear=0
shrinkage=0.1


Tree=25
num_leaves=15
num_cat=0
split_feature=16 2 0 20 3 16 12 20 0 18 11 4 1 8
split_gain=14.6612 30.5069 17.1487 16.104 12.4748 12.4132 10.9809 14.0746 9.87834 9.5742 13.4078 9.53207 9.43184 9.14876
threshold=14.500000000000002 16.500000000000004 6.9500000000000011 16.500000000000004 9.5000000000000018 3.5000000000000004 9.5000000000000018 8.5000000000000018 6.4500000000000011 21.500000000000004 4.5000000000000009 7.5000000000000009 98.500000000000014 1.5000000000000002
decision_type=2 2 2 2 2 2 2 2 2 2 2 2 2 2
left_child=1 5 -3 8 -5 -1 9 -8 -2 10 11 -4 -7 -14
right_child=3 2 6 4 -6 12 7 -9 -10 -11 -12 -13 13 -15
leaf_value=0.016852372342937703 0.020085310611674297 -0.035462209801510748 0.043880201876887313 0.013563545359284036 -0.014308689628458491 -0.027338987156378194 -0.024051830755023845 0.022908550997642031 -0.010336596315171679 0.038974040662479441 -0.0038327349032914143 0.010016193455930366 0.0058927699703530505 -0.010723218878033543
leaf_weight=266 112 58 193 672 211 191 114 145 2271 334 191 146 580 773
leaf_count=266 112 58 193 672 211 191 114 145 2271 334 191 146 580 773
internal_value=0 0.00505827 0.017561 -0.00463236 0.00690325 -0.00309959 0.0202995 0.00223873 -0.00890678 0.0257136 0.017357 0.0292957 -0.00653691 -0.00360033
internal_weight=0 2991 1181 3266 883 1810 1123 259 2383 864 530 339 1544 1353
internal_count=6257 2991 1181 3266 883 1810 1123 259 2383 864 530 339 1544 1353
is_linear=0
shrinkage=0.1


Tree=26
num_leaves=15
num_cat=0
split_feature=14 2 12 16 1 20 14 15 15 3 16 6 8 14
split_gain=13.4988 14.6414 31.441 10.0487 17.7 8.53151 16.2463 14.1164 8.38633 9.43822 8.60116 8.50781 8.36643 8.23774
threshold=3.5000000000000004 28.500000000000004 9.5000000000000018 15.500000000000002 383.50000000000006 16.500000000000004 22.500000000000004 42.500000000000007 5.5000000000000009 7.5000000000000009 7.5000000000000009 3.5000000000000004 17.500000000000004 9.5000000000000018
decision_type=2 2 2 2 2 2 2 2 2 2 2 2 2 2
left_child=8 13 3 -3 -5 -4 7 12 9 11 -10 -1 -7 -2
right_child=1 2 5 4 -6 6 -8 -9 10 -11 -12 -13 -14 -15
leaf_value=0.010560219158140715 -0.0028520663438984053 0.034358644587892957 -0.0079969016888382215 -0.021695747060531921 0.032525330198634614 0.018593194596251368 -0.014873061459382764 0.079086329393451005 0.030184986117809173 0.075049671317849842 0.0077952541974738391 -0.026866324804365061 -0.033080995305042181 -0.013973756561633053
leaf_weight=114 1926 356 1136 110 133 299 217 36 274 13.999999999999998 459 130 35 1018
leaf_count=114 1926 356 1136 110 133 299 217 36 274 14 459 130 35 1018
internal_value=0 -0.00201493 0.00392236 0.0236578 0.00798081 -0.00293865 0.0068504 0.0195909 0.010707 -0.00479869 0.0161647 -0.00938015 0.0131782 -0.00669781
internal_weight=0 5266 2322 599 243 1723 587 370 991 258 733 244 334 2944
internal_count=6257 5266 2322 599 243 1723 587 370 991 258 733 244 334 2944
is_linear=0
shrinkage=0.1


Tree=27
num_leaves=15
num_cat=0
split_feature=14 10 16 20 13 3 10 12 14 1 16 20 4 15
split_gain=10.934 12.3124 14.8693 14.9106 14.8581 12.0409 14.571 10.6649 9.27381 9.21862 8.80134 8.93973 8.86191 8.63505
threshold=3.5000000000000004 12.500000000000002 10.500000000000002 7.5000000000000009 8.5000000000000018 3.5000000000000004 56.500000000000007 22.500000000000004 18.500000000000004 239.50000000000003 17.500000000000004 13.500000000000002 21.500000000000004 2.5000000000000004
decision_type=2 2 2 2 2 2 2 2 2 2 2 2 2 2
left_child=-1 13 4 -4 -3 6 8 -8 9 -5 12 -12 -11 -2
right_child=1 2 3 5 -6 -7 7 -9 -10 10 11 -13 -14 -15
leaf_value=0.0096363081233918971 0.011936402454804838 0.00052579369807203246 -0.014301572102394739 -0.013437315383926035 0.02410209704212567 -0.0051333780389600254 0.045042586470530797 -0.016109940595924854 -0.020170212051199451 0.039742839257550344 -0.01364014284925056 0.017595960546698965 -0.0032249615224304072 -0.022277329462254095
leaf_weight=991 89 674 922 165 443 1598 154 35 143 176 167 203 66 431
leaf_count=991 89 674 922 165 443 1598 154 35 143 176 167 203 66 431
internal_value=0 -0.00181344 -0.000212893 -0.00331827 0.00987611 0.000422624 0.00842848 0.033718 0.00323312 0.0075403 0.013196 0.0034975 0.0280243 -0.0164215
internal_weight=0 5266 4746 3629 1117 2707 1109 189 920 777 612 370 242 520
internal_count=6257 5266 4746 3629 1117 2707 1109 189 920 777 612 370 242 520
is_linear=0
shrinkage=0.1


Tree=28
num_leaves=15
num_cat=0
split_feature=18 11 16 2 4 16 1 11 18 4 11 2 12 0
split_gain=10.7181 11.5089 11.5045 18.4768 13.9206 8.52505 8.16924 9.62939 7.88587 7.84432 7.118 6.44408 12.4901 10.1286
threshold=47.500000000000007 9.5000000000000018 13.500000000000002 16.500000000000004 19.500000000000004 3.5000000000000004 98.500000000000014 1.0000000180025095e-35 21.500000000000004 8.5000000000000018 14.500000000000002 39.500000000000007 12.500000000000002 7.9000000000000012
decision_type=2 2 2 2 2 2 2 2 2 2 2 2 2 2
left_child=2 -2 3 5 8 -1 -7 -8 9 -5 -10 13 -13 -4
right_child=1 -3 11 4 -6 6 7 -9 10 -11 -12 12 -14 -15
leaf_value=0.014200447753064782 0.057037628992111428 0.0075182352290457033 -0.0088618171102345603 0.024599159064713272 -0.014227513636713133 -0.024544385723015101 0.086770614360769605 -0.0032258681745696047 0.033834243965678877 0.00067484701321901465 -0.08642668843269348 0.022167615468930851 -0.0047004708160806692 0.026296692857628364
leaf_weight=266 64 176 2275 264 143 191 11.999999999999998 1286 314 285 4.9999999999999991 235 656 85
leaf_count=266 64 176 2275 264 143 191 12 1286 314 285 5 235 656 85
internal_value=0 0.0207234 -0.000826594 0.00391392 0.0146823 -0.00228939 -0.00523519 -0.00239385 0.0194451 0.0121794 0.0319493 -0.0048599 0.00238595 -0.00759551
internal_weight=0 240 6017 2766 1011 1755 1489 1298 868 549 319 3251 891 2360
internal_count=6257 240 6017 2766 1011 1755 1489 1298 868 549 319 3251 891 2360
is_linear=0
shrinkage=0.1


Tree=29
num_leaves=15
num_cat=0
split_feature=14 15 0 18 4 0 15 16 1 0 14 0 3 1
split_gain=9.26396 15.2877 12.0119 10.0178 8.44021 9.57277 9.59492 8.20309 9.4325 7.7138 7.70217 11.6927 7.59207 7.13322
threshold=9.5000000000000018 10.500000000000002 4.3000000000000016 22.500000000000004 17.500000000000004 7.3000000000000016 45.500000000000007 11.500000000000002 248.50000000000003 6.9500000000000011 1.5000000000000002 6.9500000000000011 3.5000000000000004 660.50000000000011
decision_type=2 2 2 2 2 2 2 2 2 2 2 2 2 2
left_child=1 10 -3 -2 12 6 9 -4 -9 -6 11 -1 -5 -7
right_child=3 2 7 4 5 13 -8 8 -10 -11 -12 -13 -14 -15
leaf_value=-0.046459720780452095 -0.012808994329094443 -0.015366080267667082 0.019281010766218378 0.026692751322116237 0.04816620068057724 0.021231573064708048 0.017704409399690726 -0.016477901754200875 0.010506161658448374 -0.010327801559091493 -0.0062193994026642297 0.024297075312735374 0.0012438117639406081 0.13471911648909252
leaf_weight=27 922 173 839 192 23 72 150 161 663 1139 1416 173 301 5.9999999999999991
leaf_count=27 922 173 839 192 23 72 150 161 663 1139 1416 173 301 6
internal_value=0 0.00346854 0.00971192 -0.00426859 -8.68287e-05 -0.00407402 -0.00609747 0.0123208 0.00523379 -0.00917 -0.00362481 0.0147449 0.011155 0.0299614
internal_weight=0 3452 1836 2805 1883 1390 1312 1663 824 1162 1616 200 493 78
internal_count=6257 3452 1836 2805 1883 1390 1312 1663 824 1162 1616 200 493 78
is_linear=0
shrinkage=0.1


Tree=30
num_leaves=15
num_cat=0
split_feature=9 18 16 9 9 2 12 18 10 14 10 16 13 15
split_gain=8.40713 12.5229 7.58949 8.89484 13.3773 8.62624 14.3826 7.89947 8.63643 7.21418 8.74938 9.61123 11.7629 7.72334
threshold=35.500000000000007 47.500000000000007 3.5000000000000004 7.5000000000000009 13.500000000000002 35.500000000000007 12.500000000000002 8.5000000000000018 17.500000000000004 3.5000000000000004 12.500000000000002 10.500000000000002 10.500000000000002 5.5000000000000009
decision_type=2 2 2 2 2 2 2 2 2 2 2 2 2 2
left_child=1 2 3 7 -5 9 -7 -1 -9 13 -11 12 -12 -4
right_child=-2 -3 5 4 -6 6 -8 8 -10 10 11 -13 -14 -15
leaf_value=0.016657024221819788 -0.011567144368688744 0.031602976679233973 -0.012481944486917404 -0.025745748621777871 0.051469388330976175 0.019440850273838045 -0.003021339872877179 0.098057353740622258 0.01496868890456178 -0.018663860669394933 -0.0010809363498683576 -0.0068301258862112193 0.024427571075435712 0.011141451867774557
leaf_weight=150 571 132 178 89 30 522 628 29 22 395 706 1940 243 622
leaf_count=150 571 132 178 89 30 522 628 29 22 395 706 1940 243 622
internal_value=0 0.0011616 0.000438107 0.0153882 -0.00627975 -0.000475925 0.00717454 0.0282166 0.0622152 -0.00263019 -0.0047046 -0.00279601 0.00545075 0.00588525
internal_weight=0 5686 5554 320 119 5234 1150 201 51 4084 3284 2889 949 800
internal_count=6257 5686 5554 320 119 5234 1150 201 51 4084 3284 2889 949 800
is_linear=0
shrinkage=0.1


Tree=31
num_leaves=15
num_cat=0
split_feature=16 20 14 2 9 2 17 14 4 7 16 11 16 7
split_gain=7.73667 9.33291 15.8007 9.45647 9.28688 7.43938 12.2968 8.81645 7.75546 10.616 10.5803 6.83303 10.0346 7.60893
threshold=57.500000000000007 10.500000000000002 9.5000000000000018 30.500000000000004 20.500000000000004 10.500000000000002 4.5000000000000009 1.5000000000000002 18.500000000000004 20.500000000000004 13.500000000000002 3.5000000000000004 5.5000000000000009 7.5000000000000009
decision_type=2 2 2 2 2 2 2 2 2 2 2 2 2 2
left_child=1 4 -3 -4 5 7 -7 -1 9 11 -11 12 13 -8
right_child=-2 2 3 -5 -6 6 8 -9 -10 10 -12 -13 -14 -15
leaf_value=0.017456815969045008 -0.021776545285935509 0.019126087755934405 -0.011095242984137686 0.005719739626663594 -0.013541571056787195 0.029096446705445873 -0.018483589153038337 -0.011457171821596678 -0.016500805607085632 0.027712395317177209 -0.00021847062909198325 -0.0067467681870731523 0.0018928276108443201 0.05971052905827362
leaf_weight=121 159 633 491 1049 623 165 15.999999999999998 821 232 291 254 931 415 56
leaf_count=121 159 633 491 1049 623 165 16 821 232 291 254 931 415 56
internal_value=0 0.000567804 0.00582561 0.000358599 -0.00234308 -0.00023022 0.00276859 -0.00774317 0.000789505 0.00283299 0.0146951 -0.00172614 0.00787182 0.0423341
internal_weight=0 6098 2173 1540 3925 3302 2360 942 2195 1963 545 1418 487 72
internal_count=6257 6098 2173 1540 3925 3302 2360 942 2195 1963 545 1418 487 72
is_linear=0
shrinkage=0.1


Tree=32
num_leaves=15
num_cat=0
split_feature=18 14 9 20 20 16 16 20 9 9 1 18 3 20
split_gain=7.19231 9.6581 7.97459 7.08112 6.09 7.49663 5.80875 9.68311 7.11115 10.7808 7.56908 5.93369 5.82838 7.46542
threshold=47.500000000000007 22.500000000000004 35.500000000000007 31.500000000000004 26.500000000000004 38.500000000000007 3.5000000000000004 1.5000000000000002 7.5000000000000009 13.500000000000002 100.50000000000001 7.5000000000000009 10.500000000000002 10.500000000000002
decision_type=2 2 2 2 2 2 2 2 2 2 2 2 2 2
left_child=2 4 6 -4 5 -2 8 -8 11 -10 -11 -1 13 -9
right_child=1 -3 3 -5 -6 -7 7 12 9 10 -12 -13 -14 -15
leaf_value=0.0086576402538789902 0.04040875777559863 -0.0037646308645670271 -0.017140758377102633 0.026389715593399074 0.093955640989588585 -0.027416060125688091 -0.021948800616855946 -0.001505989960246847 -0.023395830777400498 0.15823874086141576 0.023458175085484981 0.043072465691029245 -0.013533906237464166 0.0069377808761058148
leaf_weight=106 88 116 422 41 15.999999999999998 20 201 3193 89 5.0000000000000027 25 95 282 1558
leaf_count=106 88 116 422 41 16 20 201 3193 89 5 25 95 282 1558
internal_value=0 0.016976 -0.000677122 -0.013286 0.0363785 0.0278486 0.000373997 -0.000425647 0.0134532 -0.00592085 0.0459216 0.0249234 0.000433911 0.00126298
internal_weight=0 240 6017 463 124 108 5554 5234 320 119 30 201 5033 4751
internal_count=6257 240 6017 463 124 108 5554 5234 320 119 30 201 5033 4751
is_linear=0
shrinkage=0.1


Tree=33
num_leaves=15
num_cat=0
split_feature=18 11 16 2 20 8 13 0 18 20 13 1 7 16
split_gain=5.82577 7.14885 6.1271 11.4486 6.27955 8.18204 10.662 10.2853 6.88528 6.16872 11.8479 7.31866 6.16667 5.68669
threshold=47.500000000000007 9.5000000000000018 10.500000000000002 16.500000000000004 10.500000000000002 1.5000000000000002 3.5000000000000004 7.3000000000000016 17.500000000000004 7.5000000000000009 5.5000000000000009 135.50000000000003 13.500000000000002 30.500000000000004
decision_type=2 2 2 2 2 2 2 2 2 2 2 2 2 2
left_child=2 -2 3 4 5 6 -1 -8 -7 10 -4 -11 -12 -13
right_child=1 -3 9 -5 -6 8 7 -9 -10 11 12 13 -14 -15
leaf_value=-0.0020470678396412732 0.043899016915383983 0.0048709158154410532 0.012744444842423194 0.014976699777185846 0.038531421141949698 -0.012417730671023737 0.016746827699954354 0.087831090888737348 0.028005892847561178 -0.063905503807796374 -0.028970358181960771 0.0031610332540809153 -0.0095012299892014689 -0.0067506323564093338
leaf_weight=549 64 176 206 633 39 662 177 23 45 18 207 1857 760 841
leaf_count=549 64 176 206 633 39 662 177 23 45 18 207 1857 760 841
internal_value=0 0.0152784 -0.00060941 0.0037045 -0.00106828 -0.00212899 0.00515416 0.0249215 -0.0098448 -0.00296991 -0.00903022 -0.000352556 -0.0136689 7.14444e-05
internal_weight=0 240 6017 2128 1495 1456 749 200 707 3889 1173 2716 967 2698
internal_count=6257 240 6017 2128 1495 1456 749 200 707 3889 1173 2716 967 2698
is_linear=0
shrinkage=0.1


Tree=34
num_leaves=15
num_cat=0
split_feature=16 18 14 20 0 16 2 0 8 0 6 13 0 10
split_gain=5.63586 7.40739 5.50647 12.9882 8.90578 7.43949 10.4061 8.93261 7.04858 6.72281 16.5823 5.96213 9.50015 6.30409
threshold=57.500000000000007 47.500000000000007 9.5000000000000018 12.500000000000002 6.7900000000000009 16.500000000000004 16.500000000000004 6.9500000000000011 1.5000000000000002 7.3000000000000016 6.5000000000000009 3.5000000000000004 7.3000000000000016 7.5000000000000009
decision_type=2 2 2 2 2 2 2 2 2 2 2 2 2 2
left_child=1 2 3 5 -4 6 8 -8 11 -6 -11 -1 13 -13
right_child=-2 -3 4 -5 9 -7 7 -9 -10 10 -12 12 -14 -15
leaf_value=-0.00071645420034833303 -0.018586264502069672 0.019660614077957012 0.037210968638268803 0.018789262904639645 -0.0065784610613291968 -0.011266434226928593 -0.027412298328622627 0.014730908769855625 -0.0083179224744176321 0.12463420381148656 0.0046324013853282263 -0.014265182674650781 0.079047981908787868 0.022976634530860879
leaf_weight=616 159 195 52 426 2131 481 54 733 878 11.999999999999998 285 66 23 146
leaf_count=616 159 195 52 426 2131 481 54 733 878 12 285 66 23 146
internal_value=0 0.000484621 -0.00014884 0.00245086 -0.00373705 0.00012848 0.00230692 0.0118393 -0.00203197 -0.00461403 0.00948096 0.00445341 0.0180051 0.0113825
internal_weight=0 6098 5903 3423 2480 2997 2516 787 1729 2428 297 851 235 212
internal_count=6257 6098 5903 3423 2480 2997 2516 787 1729 2428 297 851 235 212
is_linear=0
shrinkage=0.1


Tree=35
num_leaves=15
num_cat=0
split_feature=9 5 10 20 16 16 20 7 17 0 15 8 20 7
split_gain=4.80898 7.22917 5.85316 5.63741 5.44345 5.28116 12.6585 6.22488 9.78068 11.0933 8.05483 5.9007 8.51995 6.26827
threshold=36.500000000000007 40.500000000000007 19.500000000000004 30.500000000000004 45.500000000000007 13.500000000000002 8.5000000000000018 5.5000000000000009 6.5000000000000009 5.2500000000000009 11.500000000000002 1.0000000180025095e-35 2.5000000000000004 9.5000000000000018
decision_type=2 2 2 2 2 2 2 2 2 2 2 2 2 2
left_child=1 5 -3 -2 -4 6 7 -1 11 -10 -11 12 -9 -13
right_child=3 2 4 -5 -6 -7 -8 8 9 10 -12 13 -14 -15
leaf_value=-0.012714598303239236 -0.013021610703575527 -0.083760941028594979 0.020303643799881151 0.019339684348603042 -0.016799339167773725 -0.0032690534215430635 0.018872399882820901 -0.012270565554499627 -0.03277773140322255 -0.0093953349926323426 0.0076410660469288273 -0.0048486401904353571 0.067341075403752129 0.015773409040459204
leaf_weight=327 458 5.9999999999999991 326 61 45 2661 424 20 115 512 606 224 41 431
leaf_count=327 458 6 326 61 45 2661 424 20 115 512 606 224 41 431
internal_value=0 0.000833771 0.0142187 -0.00921807 0.0158033 -0.000107494 0.0030084 5.30661e-05 0.0021952 -0.00320305 -0.000160935 0.0114914 0.0412389 0.00872098
internal_weight=0 5738 377 519 371 5361 2700 2276 1949 1233 1118 716 61 655
internal_count=6257 5738 377 519 371 5361 2700 2276 1949 1233 1118 716 61 655
is_linear=0
shrinkage=0.1


Tree=36
num_leaves=15
num_cat=0
split_feature=2 9 2 14 7 10 16 3 3 5 6 16 6 17
split_gain=4.60505 5.12911 5.0837 5.7328 5.31421 4.92831 4.77241 4.90116 9.49713 7.14476 5.48743 4.73337 5.68329 4.72476
threshold=72.500000000000014 35.500000000000007 39.500000000000007 3.5000000000000004 1.5000000000000002 62.500000000000007 1.0000000180025095e-35 7.5000000000000009 8.5000000000000018 3.5000000000000004 1.5000000000000002 24.500000000000004 4.5000000000000009 6.5000000000000009
decision_type=2 2 2 2 2 2 2 2 2 2 2 2 2 2
left_child=1 2 3 4 -1 -2 -6 9 -9 10 -8 -4 -13 -11
right_child=5 -3 11 -5 6 -7 7 8 -10 13 -12 12 -14 -15
leaf_value=-0.06007945475478968 -0.0036946468090392512 -0.0098739800453650807 0.014053487950301057 -0.0026255689114102047 0.062845058434953291 0.036853066451199679 0.024223952763713898 0.077903406266812927 0.0018857995136862711 0.013150456614539932 -0.062492929440405631 0.10584762483835219 -0.001363795166207331 -0.0019955991909273853
leaf_weight=11.999999999999998 53 521 487 3719 14.999999999999998 69 9.9999999999999982 27 42 428 27 4.9999999999999991 445 397
leaf_count=12 53 521 487 3719 15 69 10 27 42 428 27 5 445 397
internal_value=0 -0.000382567 0.000498272 -0.000848642 0.00604947 0.0192381 0.00688831 0.00598675 0.0316318 0.00393396 -0.0390559 0.00722134 -0.000172557 0.00586199
internal_weight=0 6135 5614 4677 958 122 946 931 69 862 37 937 450 825
internal_count=6257 6135 5614 4677 958 122 946 931 69 862 37 937 450 825
is_linear=0
shrinkage=0.1


Tree=37
num_leaves=15
num_cat=0
split_feature=18 0 11 14 20 0 18 16 0 14 9 18 12 14
split_gain=4.3637 6.53382 6.48329 5.57675 9.91668 7.22661 7.16123 6.92691 8.5577 5.91533 5.51563 7.11735 5.21961 5.68632
threshold=6.5000000000000009 4.5500000000000007 1.0000000180025095e-35 9.5000000000000018 12.500000000000002 6.7900000000000009 22.500000000000004 16.500000000000004 3.6500000000000004 6.5000000000000009 29.500000000000004 25.500000000000004 9.5000000000000018 4.5000000000000009
decision_type=2 2 2 2 2 2 2 2 2 2 2 2 2 2
left_child=1 -1 -2 4 7 -5 -7 8 9 -4 11 -10 -9 -14
right_child=2 -3 3 5 -6 6 -8 12 10 -11 -12 -13 13 -15
leaf_value=0.055498850444952653 0.03813425397662365 -0.011610788341671676 -0.039056386994772069 0.034141197571387664 0.017473542274423205 -0.011025760570323456 2.3637097266793279e-06 -0.026521487035514681 0.0041897636602251471 -0.0028401237762517347 -0.03775776180213896 0.025154817024214644 0.026127919192341243 -0.0092286430437829581
leaf_weight=14.999999999999998 46 442 73 52 431 862 1858 136 1698 118 29 179 55 263
leaf_count=15 46 442 73 52 431 862 1858 136 1698 118 29 179 55 263
internal_value=0 -0.00940806 0.000741291 0.000442355 0.00344392 -0.00278661 -0.00349258 0.00107357 0.00349819 -0.0166819 0.00552044 0.00618909 -0.0101256 -0.00311351
internal_weight=0 457 5800 5754 2982 2772 2720 2551 2097 191 1906 1877 454 318
internal_count=6257 457 5800 5754 2982 2772 2720 2551 2097 191 1906 1877 454 318
is_linear=0
shrinkage=0.1


Tree=38
num_leaves=15
num_cat=0
split_feature=16 1 17 9 9 1 9 13 15 2 4 15 7 19
split_gain=4.26284 6.23935 5.79276 5.73545 7.94823 6.58378 5.37516 4.78966 4.267 7.06429 6.39621 4.42959 5.28974 4.12504
threshold=3.5000000000000004 98.500000000000014 1.5000000000000002 7.5000000000000009 13.500000000000002 100.50000000000001 8.5000000000000018 1.5000000000000002 1.5000000000000002 1.5000000000000002 2.5000000000000004 15.500000000000002 14.500000000000002 1.5000000000000002
decision_type=2 2 2 2 2 2 2 2 2 2 2 2 2 2
left_child=3 6 -3 8 -5 -6 -2 -8 10 -10 -1 12 -11 -4
right_child=1 2 13 4 5 -7 7 -9 9 11 -12 -13 -14 -15
leaf_value=-0.029926303241934096 -0.024793424259128408 0.05511363162904194 0.0042723095183977468 -0.021264407103567314 0.14262118771672239 0.017322401551959608 0.078357483446598028 -0.0098649147024843856 -0.089071472883224492 0.033314485136106929 0.092861264199018481 -0.020179815304776035 0.13795381784439087 -0.0018078616071303005
leaf_weight=28 168 19 1519 89 5.0000000000000027 26 10.000000000000002 15.999999999999998 4.9999999999999991 143 4.9999999999999991 14.999999999999998 4.9999999999999991 4204
leaf_count=28 168 19 1519 89 5 26 10 16 5 143 5 15 5 4204
internal_value=0 -0.000606976 -1.10507e-05 0.0112243 -0.00607537 0.0375319 -0.0182451 0.0240668 0.0215525 0.02801 -0.0113221 0.0316015 0.0368496 -0.000194061
internal_weight=0 5936 5742 321 120 31 194 26 201 168 33 163 148 5723
internal_count=6257 5936 5742 321 120 31 194 26 201 168 33 163 148 5723
is_linear=0
shrinkage=0.1


Tree=39
num_leaves=15
num_cat=0
split_feature=0 2 3 20 16 7 4 18 5 16 15 15 2 16
split_gain=4.26022 6.82218 4.70594 11.4093 5.42871 5.38492 8.1494 8.28647 5.98052 6.81174 5.37689 5.04025 6.18151 6.57966
threshold=7.5500000000000007 31.500000000000004 2.5000000000000004 13.500000000000002 52.500000000000007 5.5000000000000009 5.5000000000000009 7.5000000000000009 6.5000000000000009 3.5000000000000004 11.500000000000002 14.500000000000002 22.500000000000004 6.5000000000000009
decision_type=2 2 2 2 2 2 2 2 2 2 2 2 2 2
left_child=2 -2 3 5 -5 -1 7 10 9 -9 -7 12 13 -10
right_child=1 -3 -4 4 -6 6 -8 8 11 -11 -12 -13 -14 -15
leaf_value=-0.012929586843134134 0.027530862886825921 -0.0027175853616160572 -0.003445429378132451 0.019444363004858106 -0.030432911848892338 -0.016505876487819478 -0.0014385380713187136 0.063254650849848978 0.045261402719801197 -0.030329247154295448 0.047699112395445505 0.0056564092838403881 0.09832329638302327 -0.0018775068502873183
leaf_weight=302 142 157 2926 426 23 100 1890 9.9999999999999982 114 35 14.999999999999998 61 15.999999999999998 40
leaf_count=302 142 157 2926 426 23 100 1890 10 114 35 15 61 16 40
internal_value=0 0.0116479 -0.000584545 0.00217632 0.0168894 -0.000381238 0.00128014 0.0144216 0.0238186 -0.00953283 -0.00813131 0.0303156 0.039164 0.0330175
internal_weight=0 299 5958 3032 449 2583 2281 391 276 45 115 231 170 154
internal_count=6257 299 5958 3032 449 2583 2281 391 276 45 115 231 170 154
is_linear=0
shrinkage=0.1


Tree=40
num_leaves=15
num_cat=0
split_feature=8 7 7 3 14 17 2 4 5 2 12 0 0 0
split_gain=3.92839 7.61228 5.66886 5.10328 6.27122 4.89336 5.64085 4.88602 7.9179 4.74749 4.74357 8.65614 5.21734 4.57907
threshold=2.5000000000000004 16.500000000000004 10.500000000000002 4.5000000000000009 17.500000000000004 4.5000000000000009 15.500000000000002 5.5000000000000009 4.5000000000000009 77.500000000000014 8.5000000000000018 4.3000000000000016 4.5500000000000007 6.4500000000000011
decision_type=2 2 2 2 2 2 2 2 2 2 2 2 2 2
left_child=2 -2 5 4 13 -1 10 8 -4 -6 12 -12 -7 -3
right_child=1 3 7 -5 9 6 -8 -9 -10 -11 11 -13 -14 -15
leaf_value=0.0079910486210359351 -0.0080804955134826158 -0.033148173987865452 -0.040057308838835792 -0.0031726350750128232 -0.010173821566181466 0.061271226737234334 -0.030084277868919665 0.0072624244948491547 0.040497654503897619 0.041240346549372926 -0.029354539434783736 0.016564387708054618 -0.016473931995864905 0.0084315009281180006
leaf_weight=357 1274 27 13.999999999999998 1550 328 8.9999999999999982 89 646 95 19 52 195 211 1391
leaf_count=357 1274 27 14 1550 328 9 89 646 95 19 52 195 211 1391
internal_value=0 -0.00151065 0.00415609 0.00101423 0.00469109 -0.00114527 -0.00701158 0.0105669 0.0301511 -0.00735864 -0.00261443 0.00689725 -0.0132934 0.00763979
internal_weight=0 4589 1668 3315 1765 913 556 755 109 347 467 247 220 1418
internal_count=6257 4589 1668 3315 1765 913 556 755 109 347 467 247 220 1418
is_linear=0
shrinkage=0.1


Tree=41
num_leaves=15
num_cat=0
split_feature=18 16 8 20 9 18 12 0 11 17 0 1 11 7
split_gain=3.90326 4.91478 4.69824 5.68433 7.4428 6.103 10.342 7.15595 7.02583 5.84568 6.99212 6.81311 8.60997 7.43462
threshold=56.500000000000007 44.500000000000007 17.500000000000004 16.500000000000004 21.500000000000004 22.500000000000004 12.500000000000002 6.9500000000000011 15.500000000000002 6.5000000000000009 4.8500000000000005 141.50000000000003 1.5000000000000002 4.5000000000000009
decision_type=2 2 2 2 2 2 2 2 2 2 2 2 2 2
left_child=2 -2 3 4 5 9 8 -8 -7 -1 -11 12 13 -12
right_child=1 -3 -4 -5 -6 6 7 -9 -10 10 11 -13 -14 -15
leaf_value=0.0048076155434750717 0.04063748788800748 -0.010922540772449354 -0.013657053264730152 0.008464460163082662 -0.0083221041542090556 0.01780920257893618 0.056510524314621259 -0.0080772502131501774 -0.043963639173460634 -0.026638994085645119 0.094486676984363138 -0.00062578489410156427 -0.033253742215918917 -0.0030879028701870626
leaf_weight=1081 51 29 252 743 1069 595 18 365 19 131 8.9999999999999982 1690 146 59
leaf_count=1081 51 29 252 743 1069 595 18 365 19 131 9 1690 146 59
internal_value=0 0.021947 -0.000284241 0.000284526 -0.00088832 0.00104378 0.00785372 -0.00504179 0.0158977 -0.00113514 -0.00429196 -0.00275443 -0.0195647 0.00982638
internal_weight=0 80 6177 5925 5182 4113 997 383 614 3116 2035 1904 214 68
internal_count=6257 80 6177 5925 5182 4113 997 383 614 3116 2035 1904 214 68
is_linear=0
shrinkage=0.1


Tree=42
num_leaves=15
num_cat=0
split_feature=0 11 14 20 3 7 0 9 12 0 0 0 4 7
split_gain=3.63151 4.41801 4.03348 9.59252 8.28745 8.06386 7.88219 5.94446 5.00437 3.85919 5.00864 3.67981 3.48952 4.26488
threshold=7.6500000000000012 3.5000000000000004 17.500000000000004 10.500000000000002 4.5000000000000009 56.500000000000007 6.7900000000000009 20.500000000000004 35.500000000000007 5.4750000000000005 5.9000000000000012 9.9500000000000011 22.500000000000004 20.500000000000004
decision_type=2 2 2 2 2 2 2 2 2 2 2 2 2 2
left_child=2 11 3 7 9 8 -4 12 -6 -5 -11 -2 13 -1
right_child=1 -3 6 4 5 -7 -8 -9 -10 10 -12 -13 -14 -15
leaf_value=-0.001763974123355136 0.049767420189031825 0.0047801510025375377 0.036625763445737813 -0.025863870757166299 -0.0082652503364201036 0.066609512723516673 -0.0075167697749147118 -0.012641015959520472 0.03968341842941616 0.09903825691768102 0.014098102410429247 -0.0090947214514017112 -0.024088199980190544 0.0078452330191666891
leaf_weight=2417 44 238 42 24 406 15.999999999999998 1097 457 23 6.9999999999999991 840 13.999999999999998 61 571
leaf_count=2417 44 238 42 24 406 16 1097 457 23 7 840 14 61 571
internal_value=0 0.0108112 -0.000536842 0.000727395 0.00800739 -0.00309488 -0.00588904 -0.0020052 -0.00569458 0.0136796 0.0148001 0.0355593 -0.000411045 7.23235e-05
internal_weight=0 296 5961 4822 1316 445 1139 3506 429 871 847 58 3049 2988
internal_count=6257 296 5961 4822 1316 445 1139 3506 429 871 847 58 3049 2988
is_linear=0
shrinkage=0.1


Tree=43
num_leaves=15
num_cat=0
split_feature=8 1 3 5 18 18 7 11 4 5 1 2 20 16
split_gain=3.34052 6.52969 4.99231 7.65626 4.51708 6.09535 4.22295 4.55973 4.46419 7.42333 4.69656 3.76854 3.5053 7.69053
threshold=2.5000000000000004 130.50000000000003 7.5000000000000009 3.5000000000000004 11.500000000000002 12.500000000000002 10.500000000000002 16.500000000000004 8.5000000000000018 6.5000000000000009 194.50000000000003 15.500000000000002 5.5000000000000009 9.5000000000000018
decision_type=2 2 2 2 2 2 2 2 2 2 2 2 2 2
left_child=6 2 4 -4 11 -6 -1 8 9 -8 -10 -2 -3 -14
right_child=1 12 3 -5 5 -7 7 -9 10 -11 -12 -13 13 -15
leaf_value=-0.00074307672761476061 -0.032001056644896213 -0.0063299946121954838 0.10075249671936037 -0.056990470439195619 0.11915467217564585 -0.021592910541221502 0.0049752576648010105 0.10454480580985547 -0.019556989691798286 0.033120328285280741 0.0071476915794960825 0.043021242134273052 0.015957432341738988 -0.00065366840976526256
leaf_weight=913 154 863 7.9999999999999982 5 4.9999999999999991 7.9999999999999991 237 4.9999999999999991 87 155 271 6.9999999999999991 305 3234
leaf_count=913 154 863 8 5 5 8 237 5 87 155 271 7 305 3234
internal_value=0 -0.00139304 -0.0196947 0.0400821 -0.0241608 0.0325408 0.00383252 0.00936567 0.00873114 0.016104 0.000658006 -0.0287392 -0.000615568 0.000777918
internal_weight=0 4589 187 13 174 13 1668 755 750 392 358 161 4402 3539
internal_count=6257 4589 187 13 174 13 1668 755 750 392 358 161 4402 3539
is_linear=0
shrinkage=0.1


Tree=44
num_leaves=15
num_cat=0
split_feature=18 14 0 15 13 3 10 7 1 14 0 20 14 3
split_gain=3.25258 5.21467 6.71165 4.20761 3.57399 3.5486 3.02087 4.40218 4.25628 3.00265 6.85964 3.78711 5.90997 3.6594
threshold=43.500000000000007 18.500000000000004 7.3000000000000016 58.500000000000007 33.500000000000007 5.5000000000000009 68.500000000000014 60.500000000000007 625.00000000000011 1.5000000000000002 6.9500000000000011 10.500000000000002 9.5000000000000018 8.5000000000000018
decision_type=2 2 2 2 2 2 2 2 2 2 2 2 2 2
left_child=4 5 3 -3 9 6 7 -2 -8 10 -1 -11 13 -13
right_child=1 2 -4 -5 -6 -7 8 -9 -10 11 -12 12 -14 -15
leaf_value=-0.038211638314856425 0.036257012414209776 -0.0085401199029379159 0.10303965210914612 0.043399140414069684 -0.010479033553026585 -0.0014838197914948316 -0.028065694430295159 0.11965857318469458 0.036282745326081146 -0.002351588855407719 0.014661904830411146 0.013389239790153976 -0.00071784566077717467 -0.035152531007770452
leaf_weight=27 66 189 5.9999999999999991 17 343 44 17 6.9999999999999991 26 3573 269 529 1128 15.999999999999998
leaf_count=27 66 189 6 17 343 44 17 7 26 3573 269 529 1128 16
internal_value=0 0.00906844 -0.00121726 -0.00425387 -0.00057323 0.022697 0.031869 0.0442544 0.0108427 3.985e-05 0.00983898 -0.000513056 0.00341347 0.0119642
internal_weight=0 372 212 206 5885 160 116 73 43 5542 296 5246 1673 545
internal_count=6257 372 212 206 5885 160 116 73 43 5542 296 5246 1673 545
is_linear=0
shrinkage=0.1


Tree=45
num_leaves=15
num_cat=0
split_feature=0 2 2 17 1 18 0 14 14 20 0 3 9 18
split_gain=2.90679 4.49969 4.01073 3.53337 7.18902 3.10423 4.16006 4.69229 3.41311 6.85513 6.68224 5.49216 5.42741 4.68284
threshold=7.5500000000000007 31.500000000000004 1.5000000000000002 1.5000000000000002 76.500000000000014 47.500000000000007 7.3000000000000016 20.500000000000004 15.500000000000002 13.500000000000002 6.7900000000000009 5.5000000000000009 21.500000000000004 23.500000000000004
decision_type=2 2 2 2 2 2 2 2 2 2 2 2 2 2
left_child=2 -2 -1 4 -4 8 7 -7 9 12 -10 -11 13 -5
right_child=1 -3 3 5 -6 6 -8 -9 10 11 -12 -13 -14 -15
leaf_value=-0.050482585758436477 0.022520553877390267 -0.0020453527673580658 -0.0043700549116527498 -0.001582727305890859 0.059113858938217169 0.02508937363555579 0.092735687891642257 -0.0036130111116268807 0.033434922283604028 0.014979839087787689 -0.0071538505308937506 -0.0060245901827901205 -0.011214953064772409 0.008937392855831422
leaf_weight=15.999999999999998 142 157 44 2752 30 98 5.9999999999999991 136 42 489 1184 167 494 500
leaf_count=16 142 157 44 2752 30 98 6 136 42 489 1184 167 494 500
internal_value=0 0.0096214 -0.000482846 -0.000348212 0.0213667 -0.000622054 0.0105158 0.00840765 -0.00109702 0.000202608 -0.00576337 0.00963267 -0.00144879 3.47573e-05
internal_weight=0 299 5958 5942 74 5868 240 234 5628 4402 1226 656 3746 3252
internal_count=6257 299 5958 5942 74 5868 240 234 5628 4402 1226 656 3746 3252
is_linear=0
shrinkage=0.1


Tree=46
num_leaves=15
num_cat=0
split_feature=8 1 17 20 12 2 9 7 20 15 7 1 11 9
split_gain=2.81005 5.21721 4.48527 4.46843 7.02614 5.67256 4.68516 3.90074 3.65485 4.9319 4.17856 4.54575 3.90708 3.8834
threshold=2.5000000000000004 130.50000000000003 3.5000000000000004 6.5000000000000009 7.5000000000000009 16.500000000000004 2.5000000000000004 1.5000000000000002 1.0000000180025095e-35 2.5000000000000004 10.500000000000002 104.50000000000001 1.0000000180025095e-35 14.500000000000002
decision_type=2 2 2 2 2 2 2 2 2 2 2 2 2 2
left_child=7 3 -3 4 5 6 -2 -1 -9 13 -11 -12 -13 -10
right_child=1 2 -4 -5 -6 -7 -8 8 9 10 11 12 -14 -15
leaf_value=-0.041536368586515132 0.051600841060280803 0.03155601023328166 -0.00089973716534954911 -0.056986877322196962 0.047339729799164669 0.085720520615577708 -0.027228701809147472 -0.01768529758146788 0.022671233879423939 -0.001623137152120997 0.049265912533910189 0.06953118026256562 0.006581537218967779 0.11332642793655397
leaf_weight=19 7.9999999999999991 43 4359 25 18 4.9999999999999991 131 74 86 744 27 9.9999999999999982 703 4.9999999999999991
leaf_count=19 8 43 4359 25 18 5 131 74 86 744 27 10 703 5
internal_value=0 -0.00127765 -0.0005827 -0.0176369 -0.0115644 -0.0189274 -0.0226917 0.00351508 0.00403417 0.00505464 0.00366893 0.00898961 0.00746442 0.0276523
internal_weight=0 4589 4402 187 162 144 139 1668 1649 1575 1484 740 713 91
internal_count=6257 4589 4402 187 162 144 139 1668 1649 1575 1484 740 713 91
is_linear=0
shrinkage=0.1


Tree=47
num_leaves=15
num_cat=0
split_feature=16 20 11 9 9 1 0 2 0 14 17 1 3 19
split_gain=2.67493 4.76923 4.61617 3.84083 6.04356 5.23366 3.78514 3.94888 4.28192 4.97236 4.09304 5.28761 6.40577 4.58649
threshold=3.5000000000000004 1.5000000000000002 1.0000000180025095e-35 7.5000000000000009 13.500000000000002 100.50000000000001 7.3000000000000016 72.500000000000014 5.4750000000000005 29.500000000000004 3.5000000000000004 130.50000000000003 7.5000000000000009 1.5000000000000002
decision_type=2 2 2 2 2 2 2 2 2 2 2 2 2 2
left_child=3 2 -2 -1 -5 -6 7 10 -9 -10 -3 12 -12 -13
right_child=1 6 -4 4 5 -7 -8 8 9 -11 11 13 -14 -15
leaf_value=0.017343208014927992 0.047456864436919044 0.016636822221011649 -0.019153552051041821 -0.018510209212571467 0.12645610541105262 0.014740976949150747 0.0082754567960121993 -0.024479924208717422 0.039359263921829146 -0.01404953024795522 -0.019450355972634562 0.0044519429132191448 0.039338039159774782 -0.0026731394054288499
leaf_weight=201 10.999999999999998 126 192 89 5.0000000000000027 26 510 20 72 23 253 1219 20 3490
leaf_count=201 11 126 192 89 5 26 510 20 72 23 253 1219 20 3490
internal_value=0 -0.000480816 -0.0155441 0.00889135 -0.00526552 0.0327595 5.25614e-05 -0.000750363 0.017575 0.0264287 -0.00116294 -0.00161311 -0.0151435 -0.000828698
internal_weight=0 5936 203 321 120 31 5733 5223 115 95 5108 4982 273 4709
internal_count=6257 5936 203 321 120 31 5733 5223 115 95 5108 4982 273 4709
is_linear=0
shrinkage=0.1


Tree=48
num_leaves=15
num_cat=0
split_feature=13 18 19 9 12 2 0 0 3 20 12 14 7 2
split_gain=2.44878 2.37722 2.83821 2.68559 3.34671 3.20576 5.16261 5.02029 4.23589 4.89782 5.27376 3.53921 4.83345 3.67684
threshold=88.500000000000014 56.500000000000007 1.5000000000000002 35.500000000000007 12.500000000000002 39.500000000000007 7.5500000000000007 6.7900000000000009 8.5000000000000018 16.500000000000004 15.500000000000002 9.5000000000000018 53.500000000000007 1.5000000000000002
decision_type=2 2 2 2 2 2 2 2 2 2 2 2 2 2
left_child=1 3 -3 5 -5 6 11 -7 9 10 -9 12 13 -1
right_child=-2 2 -4 4 -6 7 -8 8 -10 -11 -12 -13 -14 -15
leaf_value=-0.04841849654912949 -0.041775770264212045 0.083369071284929916 0.011857647021502458 -0.027667658559649307 -0.0038896124615615205 0.055329647138714792 0.01767503015914311 0.0076871505589757435 -0.013111245880922318 0.022932580006745414 -0.015157801814888034 -0.0051787348067050994 -0.082223350022520347 0.0012145061356359764
leaf_weight=14.999999999999998 13.999999999999998 5.9999999999999991 74 68 457 20 150 546 117 160 124 1487 6.9999999999999991 3012
leaf_count=15 14 6 74 68 457 20 150 546 117 160 124 1487 7 3012
internal_value=0 9.36827e-05 0.017221 -0.000128642 -0.00696944 0.00050836 -0.000576594 0.00574913 0.00470202 0.00721305 0.00345913 -0.00118216 0.000776616 0.000968555
internal_weight=0 6243 80 6163 525 5638 4671 967 947 830 670 4521 3034 3027
internal_count=6257 6243 80 6163 525 5638 4671 967 947 830 670 4521 3034 3027
is_linear=0
shrinkage=0.1


Tree=49
num_leaves=15
num_cat=0
split_feature=8 5 4 5 9 7 20 9 15 5 14 0 1 15
split_gain=2.33499 4.03377 3.91219 6.13709 6.08325 4.07839 4.92465 5.94484 4.8377 4.15236 6.75381 6.40942 6.55628 4.83965
threshold=1.5000000000000002 2.5000000000000004 2.5000000000000004 5.5000000000000009 8.5000000000000018 20.500000000000004 3.5000000000000004 5.5000000000000009 24.500000000000004 26.500000000000004 17.500000000000004 6.7900000000000009 261.50000000000006 15.500000000000002
decision_type=2 2 2 2 2 2 2 2 2 2 2 2 2 2
left_child=-1 -2 3 -3 -5 8 -7 -8 -4 11 13 -9 -13 -11
right_child=1 2 5 4 -6 6 7 9 -10 10 -12 12 -14 -15
leaf_value=0.0041920017368356904 -0.040961303316056734 -0.029549059917529426 -0.0031554907512021954 0.066241652745520699 -0.023113063834607601 -0.02046624064925268 0.030194434169931589 0.034116700850427152 -0.024233164668245162 -0.012309489174984702 -0.0016410528224039666 0.014455378679011253 -0.0080514151135587519 0.013753423778841801
leaf_weight=1096 25 14.999999999999998 2050 32 9.9999999999999982 99 74 44 115 79 835 151 906 726
leaf_count=1096 25 15 2050 32 10 99 74 44 115 79 835 151 906 726
internal_value=0 -0.000890222 -0.000695172 0.0253573 0.0449667 -0.00098755 0.00145498 0.00222592 -0.00427509 0.00147084 0.00465991 -0.00327946 -0.00483616 0.0111957
internal_weight=0 5161 5136 57 42 5079 2914 2815 2165 2741 1640 1101 1057 805
internal_count=6257 5161 5136 57 42 5079 2914 2815 2165 2741 1640 1101 1057 805
is_linear=0
shrinkage=0.1


Tree=50
num_leaves=15
num_cat=0
split_feature=0 8 1 20 12 2 18 10 4 1 11 18 3 4
split_gain=2.1155 2.29461 3.79981 3.52161 5.42742 4.36612 4.40149 3.26509 4.60272 6.03718 3.42633 4.25872 5.17685 4.76973
threshold=2.4000000000000004 2.5000000000000004 130.50000000000003 6.5000000000000009 7.5000000000000009 16.500000000000004 11.500000000000002 7.5000000000000009 5.5000000000000009 66.500000000000014 3.5000000000000004 6.5000000000000009 3.5000000000000004 4.5000000000000009
decision_type=2 2 2 2 2 2 2 2 2 2 2 2 2 2
left_child=-1 7 3 4 5 6 -3 -2 9 -9 11 12 -11 -13
right_child=1 2 -4 -5 -6 -7 -8 8 -10 10 -12 13 -14 -15
leaf_value=-0.038829028499977936 -0.0055855313772290947 -0.024878061552510017 -0.00047081617334485121 -0.049958339683711529 0.042136419771446124 0.075704211592674264 0.038481878101204833 -0.080548614263534546 0.0028132887428389758 -0.0063358073640200829 0.0035379754480075196 0.062993351090699437 0.076745314730538264 0.017684324078505769
leaf_weight=13.999999999999998 332 127 4402 25 18 4.9999999999999991 11.999999999999998 5.9999999999999991 1094 45 74 52 8.9999999999999982 42
leaf_count=14 332 127 4402 25 18 5 12 6 1094 45 74 52 9 42
internal_value=0 8.70745e-05 -0.0010639 -0.0150252 -0.00963429 -0.0161056 -0.0194081 0.00328044 0.005507 0.0184321 0.0211072 0.0298918 0.00751105 0.0427489
internal_weight=0 6243 4589 187 162 144 139 1654 1322 228 222 148 54 94
internal_count=6257 6243 4589 187 162 144 139 1654 1322 228 222 148 54 94
is_linear=0
shrinkage=0.1


Tree=51
num_leaves=15
num_cat=0
split_feature=16 18 1 3 9 5 0 14 7 6 18 4 12 16
split_gain=2.03292 2.99783 10.0308 5.02582 4.60231 4.82608 5.46303 5.11577 4.04469 4.0213 3.65765 4.30082 7.14991 3.56944
threshold=3.5000000000000004 22.500000000000004 216.50000000000003 1.5000000000000002 6.5000000000000009 26.500000000000004 6.9500000000000011 17.500000000000004 69.500000000000014 6.5000000000000009 41.500000000000007 18.500000000000004 5.5000000000000009 15.500000000000002
decision_type=2 2 2 2 2 2 2 2 2 2 2 2 2 2
left_child=-1 -2 3 -3 9 6 -6 10 13 -4 11 12 -7 -8
right_child=1 2 4 -5 5 7 8 -9 -10 -11 -12 -13 -14 -15
leaf_value=0.0077512391882069475 -0.0023314322967185239 0.038617361286147067 -0.019719838661452136 0.15239471991856893 0.046399253181298263 -0.0063691350216785935 0.0039493032769461157 -0.0012349957356116539 0.064245409751310947 0.038367976457009033 0.024884564229084749 0.00091948605443440226 0.032685114537845172 -0.011205447988971374
leaf_weight=321 3443 11.000000000000002 14.999999999999998 5.9999999999999991 20 73 211 825 7.9999999999999991 58 138 407 131 590
leaf_count=321 3443 11 15 6 20 73 211 825 8 58 138 407 131 590
internal_value=0 -0.000419162 0.00222181 0.0787741 0.00169621 0.000944765 -0.00523035 0.0041971 -0.00650673 0.0264321 0.0101804 0.0068593 0.0187098 -0.00721337
internal_weight=0 5936 2493 17 2476 2403 829 1574 809 73 749 611 204 801
internal_count=6257 5936 2493 17 2476 2403 829 1574 809 73 749 611 204 801
is_linear=0
shrinkage=0.1


Tree=52
num_leaves=15
num_cat=0
split_feature=13 16 18 12 8 3 4 5 15 10 16 18 5 6
split_gain=1.89531 1.90631 2.66071 2.55806 3.39096 2.51834 2.44018 2.8794 4.41144 3.64006 3.68178 8.45502 4.9787 6.20023
threshold=88.500000000000014 57.500000000000007 56.500000000000007 35.500000000000007 14.500000000000002 1.5000000000000002 31.500000000000004 30.500000000000004 29.500000000000004 85.500000000000014 13.500000000000002 21.500000000000004 9.5000000000000018 18.500000000000004
decision_type=2 2 2 2 2 2 2 2 2 2 2 2 2 2
left_child=1 2 3 6 5 -5 7 8 9 10 11 -1 -13 -14
right_child=-2 -3 -4 4 -6 -7 -8 -9 -10 -11 -12 12 13 -15
leaf_value=0.00019952921800635791 -0.036752775763826712 -0.010797255114907292 0.020645194700045978 -0.0058766520582139497 -0.015641121992289467 0.034776283883729775 -0.0080897865967454585 0.0052425414373865357 -0.018558944117472467 0.054859828444508221 -0.0036475108071474353 -0.041452787028482332 0.018852920242611634 0.099172617457807075
leaf_weight=2257 13.999999999999998 157 64 20 27 64 362 1000 134 11.999999999999998 1876 12.999999999999998 247 9.9999999999999982
leaf_count=2257 14 157 64 20 27 64 362 1000 134 12 1876 13 247 10
internal_value=0 8.24185e-05 0.00036308 0.000147528 0.0151877 0.025097 -0.000134905 0.000384047 -0.000683988 -0.000141464 -0.000291365 0.00220018 0.0189241 0.0219782
internal_weight=0 6243 6086 6022 111 84 5911 5549 4549 4415 4403 2527 270 257
internal_count=6257 6243 6086 6022 111 84 5911 5549 4549 4415 4403 2527 270 257
is_linear=0
shrinkage=0.1


Tree=53
num_leaves=15
num_cat=0
split_feature=20 0 8 15 7 5 8 6 6 11 10 6 0 7
split_gain=2.01282 5.31426 2.85132 4.44687 4.32232 4.79896 3.73861 3.5222 7.16466 3.41942 3.84618 3.39679 3.22398 5.00354
threshold=1.0000000180025095e-35 7.4500000000000011 1.5000000000000002 2.5000000000000004 2.5000000000000004 6.5000000000000009 1.0000000180025095e-35 2.5000000000000004 3.5000000000000004 1.0000000180025095e-35 8.5000000000000018 6.5000000000000009 3.0250000000000004 9.5000000000000018
decision_type=2 2 2 2 2 2 2 2 2 2 2 2 2 2
left_child=1 -1 3 4 -2 6 -6 -8 -9 -5 11 -11 13 -12
right_child=2 -3 -4 9 5 -7 7 8 -10 10 12 -13 -14 -15
leaf_value=-0.0072737386822328961 -0.046972189630780904 -0.092174659669399264 -0.0007306293458858884 0.047600676448029636 0.13947116633256271 0.016223719388084569 -0.007448624180895938 0.17323504090309147 0.016504201718739099 -0.0090794170231173008 0.074741017179829741 -0.069821591973304759 0.0080281448683723108 -0.011741808234769481
leaf_weight=94 6.9999999999999991 7.9999999999999991 5131 17 6.0000000000000027 46 7.0000000000000027 4.9999999999999982 7 116 6.9999999999999991 9.9999999999999982 645 151
leaf_count=94 7 8 5131 17 6 46 7 5 7 116 7 10 645 151
internal_value=0 -0.0139326 0.00023089 0.00504882 0.0279984 0.0353899 0.0706556 0.0489244 0.0818087 0.00315657 0.00234327 -0.0139002 0.00489206 -0.00791029
internal_weight=0 102 6155 1024 78 71 25 19 12 946 929 126 803 158
internal_count=6257 102 6155 1024 78 71 25 19 12 946 929 126 803 158
is_linear=0
shrinkage=0.1


Tree=54
num_leaves=15
num_cat=0
split_feature=18 16 18 20 17 13 5 15 11 2 9 11 10 13
split_gain=1.90959 3.89448 3.59313 2.73931 5.83473 4.1352 4.36194 4.46161 2.56884 2.55693 2.4275 2.3634 3.20157 2.28937
threshold=3.5000000000000004 1.5000000000000002 10.500000000000002 1.5000000000000002 3.5000000000000004 1.5000000000000002 8.5000000000000018 3.5000000000000004 1.0000000180025095e-35 1.5000000000000002 8.5000000000000018 2.5000000000000004 2.5000000000000004 1.0000000180025095e-35
decision_type=2 2 2 2 2 2 2 2 2 2 2 2 2 2
left_child=9 2 11 8 5 10 7 -7 -3 -1 -5 12 -2 -11
right_child=1 3 -4 4 -6 6 -8 -9 -10 13 -12 -13 -14 -15
leaf_value=-0.063792761498027373 0.10317724347114549 0.035839842942853771 -0.010947543730338415 0.021287265978753557 -1.6399671267490313e-05 0.057378727528784014 0.029657047346087276 -0.019475802206533388 -0.011415892395504128 0.025388808154007972 0.098068505674600612 0.095489344047382477 0.012723952185155618 -0.01452176328397967
leaf_weight=8.9999999999999982 5.0000000000000062 11.999999999999998 14.999999999999998 7.0000000000000027 5653 8.9999999999999982 76 47 278 17 9.9999999999999982 7.9999999999999991 18 93
leaf_count=9 5 12 15 7 5653 9 76 47 278 17 10 8 18 93
internal_value=0 0.000243247 0.0292308 2.43647e-05 0.000498444 0.0200314 0.0140529 -0.00712418 -0.00946048 -0.0125466 0.0664527 0.048672 0.0323877 -0.00835377
internal_weight=0 6138 46 6092 5802 149 132 56 290 119 17 31 23 110
internal_count=6257 6138 46 6092 5802 149 132 56 290 119 17 31 23 110
is_linear=0
shrinkage=0.1


Tree=55
num_leaves=15
num_cat=0
split_feature=11 18 16 5 14 9 12 8 18 1 3 5 17 0
split_gain=1.73257 1.68809 3.84146 3.31645 2.21825 2.16805 3.89489 2.05731 2.08775 5.89837 5.68972 3.49262 4.14193 5.19352
threshold=28.500000000000004 41.500000000000007 30.500000000000004 66.500000000000014 35.500000000000007 35.500000000000007 16.500000000000004 18.500000000000004 22.500000000000004 216.50000000000003 1.5000000000000002 26.500000000000004 15.500000000000002 6.9500000000000011
decision_type=2 2 2 2 2 2 2 2 2 2 2 2 2 2
left_child=1 5 -3 -4 -5 7 -7 8 -1 10 -10 12 -11 -14
right_child=-2 2 3 4 -6 6 -8 -9 9 11 -12 -13 13 -15
leaf_value=-0.0009284874353238195 -0.02938565135467798 0.017673674568458531 -0.0048772387920313935 0.05752485965689022 -0.0076798389665782459 -0.025135618742359311 -0.0019743026261801479 -0.015647328493219835 0.020736854069400575 0.0074396035063834104 0.12883050697190421 0.0070223015026241453 0.042198782768100504 -0.0098191773843219771
leaf_weight=3648 20 173 244 15.000000000000002 7.9999999999999991 95 308 81 16.000000000000004 283 6.9999999999999991 863 20 476
leaf_count=3648 20 173 244 15 8 95 308 81 16 283 7 863 20 476
internal_value=0 9.42301e-05 0.00606576 -0.00145548 0.034845 -0.000359017 -0.00743417 0.000169586 0.000410725 0.00334493 0.0536349 0.0026405 -0.00221379 -0.00772168
internal_weight=0 6237 440 267 23 5797 403 5394 5313 1665 23 1642 779 496
internal_count=6257 6237 440 267 23 5797 403 5394 5313 1665 23 1642 779 496
is_linear=0
shrinkage=0.1


Tree=56
num_leaves=15
num_cat=0
split_feature=14 0 6 1 7 6 15 20 19 8 15 1 14 11
split_gain=1.65081 5.38154 3.12532 3.86324 3.60253 2.84639 2.75317 2.49023 3.83131 4.75972 4.59308 3.75549 5.51507 3.70663
threshold=1.5000000000000002 6.9500000000000011 7.5000000000000009 122.50000000000001 15.500000000000002 8.5000000000000018 9.5000000000000018 3.5000000000000004 1.0000000180025095e-35 1.5000000000000002 3.5000000000000004 242.50000000000003 5.5000000000000009 3.5000000000000004
decision_type=2 2 2 2 2 2 2 2 2 2 2 2 2 2
left_child=1 -1 3 -3 6 -4 -5 13 9 10 -9 12 -12 -2
right_child=7 2 5 4 -6 -7 -8 8 -10 -11 11 -13 -14 -15
leaf_value=-0.03529089367086137 0.00053849042679216951 0.003386292703863647 -0.050047789824505653 0.059227668400853875 0.0034975566360498631 0.0028372407751852901 0.017838246727362277 0.10206405706703664 -0.00042662467574612541 0.0042373417434857499 0.034256819034503269 0.071884925376910422 -0.025336541354772635 -0.012788675092389817
leaf_weight=27 469 90 11.999999999999998 45 31 67 25 7.9999999999999991 4621 405 44 12.999999999999998 24 376
leaf_count=27 469 90 12 45 31 67 25 8 4621 405 44 13 24 376
internal_value=0 0.00727629 0.011533 0.0184523 0.0318775 -0.00519593 0.0444457 -0.000362594 0.000468217 0.00883879 0.029778 0.0226386 0.0132239 -0.0053917
internal_weight=0 297 270 191 101 79 70 5960 5115 494 89 81 68 845
internal_count=6257 297 270 191 101 79 70 5960 5115 494 89 81 68 845
is_linear=0
shrinkage=0.1


Tree=57
num_leaves=15
num_cat=0
split_feature=17 7 18 18 12 0 16 4 4 7 8 9 5 15
split_gain=1.71484 4.97164 3.59982 2.22801 3.1999 2.76777 2.88327 3.2287 2.52793 4.19737 4.70238 3.99397 5.39605 4.42383
threshold=1.5000000000000002 7.5000000000000009 7.5000000000000009 6.5000000000000009 7.5000000000000009 3.3500000000000005 4.5000000000000009 4.5000000000000009 5.5000000000000009 9.5000000000000018 6.5000000000000009 8.5000000000000018 4.5000000000000009 7.5000000000000009
decision_type=2 2 2 2 2 2 2 2 2 2 2 2 2 2
left_child=1 2 -1 4 5 -2 -7 -8 9 -5 11 12 -11 -13
right_child=3 -3 -4 8 -6 6 7 -9 -10 10 -12 13 -14 -15
leaf_value=-0.0096817305609583851 0.043400454686747664 0.053775552757408307 0.079310373067855836 -0.0031593957022638419 0.013089915885939264 -0.00056081836704503405 -0.039770713098094629 -0.012078155520796573 -0.00030438758429442777 -0.040272606164216997 -0.031901667659219944 0.043285093526355928 0.032077412348149752 -0.017760744462113665
leaf_weight=50 8.9999999999999982 23 4.9999999999999991 208 64 121 59 147 5315 10.999999999999998 19 15.999999999999998 164 46
leaf_count=50 9 23 5 208 64 121 59 147 5315 11 19 16 164 46
internal_value=0 0.0147347 -0.00159154 -0.000186001 -0.00740365 -0.0113072 -0.0128129 -0.0200095 0.000313576 0.00739219 0.0159654 0.0198028 0.0275297 -0.00200698
internal_weight=0 78 55 6179 400 336 327 206 5779 464 256 237 175 62
internal_count=6257 78 55 6179 400 336 327 206 5779 464 256 237 175 62
is_linear=0
shrinkage=0.1


Tree=58
num_leaves=15
num_cat=0
split_feature=0 20 14 10 7 9 5 12 14 2 2 14 5 15
split_gain=1.64556 1.53345 3.04324 2.76805 3.1604 2.40851 2.34491 1.94856 2.46005 1.83586 3.86785 2.88896 1.63788 3.94713
threshold=2.4000000000000004 24.500000000000004 22.500000000000004 27.500000000000004 69.500000000000014 35.500000000000007 36.500000000000007 42.500000000000007 7.5000000000000009 30.500000000000004 31.500000000000004 12.500000000000002 42.500000000000007 39.500000000000007
decision_type=2 2 2 2 2 2 2 2 2 2 2 2 2 2
left_child=-1 5 3 -3 7 12 -7 9 -9 11 -11 -5 13 -2
right_child=1 2 -4 4 -6 6 -8 8 -10 10 -12 -13 -14 -15
leaf_value=-0.034245779791048599 0.00027923586704244134 -0.048516135343483521 -0.0079027857208989333 0.012590647856459806 0.063170101400464779 -0.018636279085022644 -0.0026240674557898923 -0.0062219810113310816 0.053596534749323681 0.042719773575663568 0.0020787356421351432 -0.030190653215955807 0.0085411719867514221 -0.020960527141526176
leaf_weight=13.999999999999998 5173 6.9999999999999991 97 38 12.999999999999998 131 303 9.9999999999999982 22 36 67 27 230 89
leaf_count=14 5173 7 97 38 13 131 303 10 22 36 67 27 230 89
internal_value=0 7.67966e-05 0.00685305 0.013359 0.0153925 -0.000285686 -0.00745725 0.0122869 0.0349032 0.00797907 0.0162834 -0.00518005 0.00028104 -8.00076e-05
internal_weight=0 6243 317 220 213 5926 434 200 32 168 103 65 5492 5262
internal_count=6257 6243 317 220 213 5926 434 200 32 168 103 65 5492 5262
is_linear=0
shrinkage=0.1


Tree=59
num_leaves=15
num_cat=0
split_feature=20 19 13 17 1 3 0 13 0 0 9 6 14 12
split_gain=1.46585 4.01423 3.75032 3.44024 4.78877 3.57481 3.89916 3.34858 3.33812 6.24627 3.28052 3.72334 4.07345 3.02579
threshold=7.5000000000000009 2.5000000000000004 46.500000000000007 11.500000000000002 237.50000000000003 6.5000000000000009 3.6500000000000004 3.5000000000000004 2.7500000000000004 4.5500000000000007 3.5000000000000004 4.5000000000000009 26.500000000000004 11.500000000000002
decision_type=2 2 2 2 2 2 2 2 2 2 2 2 2 2
left_child=3 2 10 5 -5 6 -1 -6 -7 -10 -2 12 13 -12
right_child=1 -3 -4 4 7 8 -8 -9 9 -11 11 -13 -14 -15
leaf_value=-0.021124819705184605 -0.016441456810994581 -0.00092581440862164396 -0.041469884151592855 -0.021511553466041153 0.061268475279212004 -0.0042514313763121567 -0.00012427925305636173 -0.0038636915137285361 0.067323006462791699 0.011776873855107636 0.042984936482301263 0.0071485814773630894 0.1199941748380661 -0.008945661257295047
leaf_weight=93 55 2254 15.999999999999998 182 7.9999999999999991 98 1792 593 23 169 33 919 4.9999999999999991 17
leaf_count=93 55 2254 16 182 8 98 1792 593 23 169 33 919 5 17
internal_value=0 0.00144934 0.00657239 -0.00161642 -0.00730029 0.000429777 -0.00116038 -0.00299671 0.0107658 0.0184308 0.0073194 0.00866113 0.0339345 0.0253285
internal_weight=0 3299 1045 2958 783 2175 1885 601 290 192 1029 974 55 50
internal_count=6257 3299 1045 2958 783 2175 1885 601 290 192 1029 974 55 50
is_linear=0
shrinkage=0.1


Tree=60
num_leaves=15
num_cat=0
split_feature=18 16 18 3 7 7 20 17 13 18 7 2 14 0
split_gain=1.50144 3.12288 2.81282 2.74768 3.08258 2.64519 1.92036 4.10056 2.99277 3.74379 3.35073 3.22463 4.89606 2.66192
threshold=3.5000000000000004 1.5000000000000002 10.500000000000002 1.5000000000000002 4.5000000000000009 9.5000000000000018 1.5000000000000002 3.5000000000000004 1.5000000000000002 8.5000000000000018 12.500000000000002 14.500000000000002 4.5000000000000009 7.4500000000000011
decision_type=2 2 2 2 2 2 2 2 2 2 2 2 2 2
left_child=3 2 -2 4 -1 -5 13 8 -8 -10 11 -11 -13 -3
right_child=1 6 -4 5 -6 -7 7 -9 9 10 -12 12 -14 -15
leaf_value=-0.049880776605729399 0.043374456182843253 -0.0047897547566534545 -0.0093756939967473349 0.016666055320952597 -0.0029269953292829021 -0.02798132072938116 0.05628325183163671 -1.4980210789011472e-05 -0.0064635978752105947 0.027823925928937066 0.0033328829042147848 0.026250325081249082 0.15400081773598986 -0.037228735290201646
leaf_weight=29 31 262 14.999999999999998 44 27 19 17 5653 61 27 32 5.9999999999999982 6 28
leaf_count=29 31 262 15 44 27 19 17 5653 61 27 32 6 6 28
internal_value=0 0.000215691 0.0261733 -0.0111253 -0.0272423 0.00320097 1.96877e-05 0.000416625 0.0167915 0.0117055 0.0273156 0.0469937 0.0901256 -0.00792179
internal_weight=0 6138 46 119 56 63 6092 5802 149 132 71 39 12 290
internal_count=6257 6138 46 119 56 63 6092 5802 149 132 71 39 12 290
is_linear=0
shrinkage=0.1


Tree=61
num_leaves=15
num_cat=0
split_feature=11 20 9 1 18 15 3 20 4 15 20 6 12 5
split_gain=1.36294 1.51471 1.99709 2.17555 2.09859 3.03838 3.00103 3.56478 4.81104 4.37769 4.41923 3.45401 3.02118 3.08746
threshold=28.500000000000004 30.500000000000004 36.500000000000007 442.50000000000006 28.500000000000004 31.500000000000004 3.5000000000000004 17.500000000000004 21.500000000000004 39.500000000000007 5.5000000000000009 26.500000000000004 7.5000000000000009 29.500000000000004
decision_type=2 2 2 2 2 2 2 2 2 2 2 2 2 2
left_child=1 2 4 -4 5 -1 7 8 9 10 -6 -10 -9 -14
right_child=-2 -3 3 -5 6 -7 -8 12 11 -11 -12 -13 13 -15
leaf_value=-0.00017266412937301173 -0.026063205264508726 0.012050899545843444 -0.019446541047147891 -0.002797020675180565 -0.0061687786345843414 -0.014993027503556617 -7.0068926686846122e-05 -0.010676121874712409 -0.014857498659457789 -0.015218500420451165 0.024391106602192916 0.053059566952288154 0.0055728260782502946 0.051544965855039974
leaf_weight=4238 20 104 101 352 61 143 769 15.999999999999998 117 48 211 7.9999999999999991 21 48
leaf_count=4238 20 104 101 352 61 143 769 16 117 48 211 8 21 48
internal_value=0 8.35761e-05 -0.000119359 -0.00650917 0.00039025 -0.000656415 0.00392023 0.00970992 0.00612559 0.0126242 0.0175376 -0.0105108 0.0284749 0.0375534
internal_weight=0 6237 6133 453 5680 4381 1299 530 445 320 272 125 85 69
internal_count=6257 6237 6133 453 5680 4381 1299 530 445 320 272 125 85 69
is_linear=0
shrinkage=0.1


Tree=62
num_leaves=15
num_cat=0
split_feature=17 7 18 18 18 11 9 16 12 11 16 14 5 0
split_gain=1.35494 3.51023 2.7281 1.79582 1.70105 2.78963 2.68557 3.5526 2.57457 3.70092 2.52527 2.45278 2.20531 2.19497
threshold=1.5000000000000002 7.5000000000000009 7.5000000000000009 9.5000000000000018 6.5000000000000009 1.0000000180025095e-35 4.5000000000000009 7.5000000000000009 7.5000000000000009 4.5000000000000009 4.5000000000000009 3.5000000000000004 20.500000000000004 4.5500000000000007
decision_type=2 2 2 2 2 2 2 2 2 2 2 2 2 2
left_child=1 2 -1 -3 8 6 7 -6 9 10 -2 -11 -10 -12
right_child=4 3 -4 -5 5 -7 -8 -9 12 11 13 -13 -14 -15
leaf_value=-0.0076637488706037399 0.0063603613654979411 0.060629443741506986 0.069807716012001045 -0.0071151310205459593 0.022072425414808097 7.654666368411283e-05 0.0095015044324100028 0.12952445983886715 0.01731431389067685 -0.066345085817224841 0.035179660386509368 -0.018801328655875599 -0.051855053901672367 -0.015480654352486032
leaf_weight=50 108 18.000000000000004 4.9999999999999991 4.9999999999999991 7.9999999999999982 5734 32 5 59 17 8.9999999999999982 30 4.9999999999999991 172
leaf_count=50 108 18 5 5 8 5734 32 5 59 17 9 30 5 172
internal_value=0 0.0130975 -0.000620888 0.0459024 -0.000165335 0.000271183 0.0250722 0.0634001 -0.00647193 -0.00997334 -0.00574096 -0.035998 0.0119105 -0.0129616
internal_weight=0 78 55 23 6179 5779 45 13 400 336 289 47 64 181
internal_count=6257 78 55 23 6179 5779 45 13 400 336 289 47 64 181
is_linear=0
shrinkage=0.1


Tree=63
num_leaves=15
num_cat=0
split_feature=16 13 15 7 20 6 19 20 13 17 13 16 15 11
split_gain=1.32177 3.319 5.24271 4.77568 4.27773 2.97336 2.93006 2.72047 3.81129 3.70423 4.09857 3.60594 3.72176 10.5472
threshold=8.5000000000000018 6.5000000000000009 27.500000000000004 20.500000000000004 10.500000000000002 16.500000000000004 2.5000000000000004 7.5000000000000009 5.5000000000000009 34.500000000000007 10.500000000000002 10.500000000000002 3.5000000000000004 4.5000000000000009
decision_type=2 2 2 2 2 2 2 2 2 2 2 2 2 2
left_child=1 -1 4 -4 5 -3 -6 8 11 10 -10 -2 13 -13
right_child=7 2 3 -5 6 -7 -8 -9 9 -11 -12 12 -14 -15
leaf_value=-0.00067703984132680504 -0.0064648878096127439 0.010663144049164242 -0.10359969884157182 -0.0095579141130050019 0.065802000835537916 -0.050868750736117366 0.010555742867290975 0.00083827868224530411 -0.017414709529297991 0.020016366033814847 -0.004253573767136842 -0.010292494909039563 0.0081995963518663 0.11746912350257238
leaf_weight=1118 167 428 5.9999999999999991 54 24 7.9999999999999991 15.999999999999998 3080 344 48 758 14.000000000000002 180 11.999999999999998
leaf_count=1118 167 428 6 54 24 8 16 3080 344 48 758 14 180 12
internal_value=0 0.00242464 0.0088942 -0.0189621 0.0124055 0.00953412 0.0437035 -0.000871249 -0.00432847 -0.00717746 -0.00836195 0.0044553 0.0133081 0.0486744
internal_weight=0 1654 536 60 476 436 40 4603 1523 1150 1102 373 206 26
internal_count=6257 1654 536 60 476 436 40 4603 1523 1150 1102 373 206 26
is_linear=0
shrinkage=0.1


Tree=64
num_leaves=15
num_cat=0
split_feature=0 20 1 17 2 0 7 11 5 7 17 0 11 8
split_gain=1.36045 5.48496 2.56858 2.17885 2.15768 2.55611 4.33274 1.94174 3.9876 2.14408 4.77364 4.46823 2.76895 5.14844
threshold=7.3000000000000016 1.0000000180025095e-35 634.50000000000011 1.5000000000000002 69.500000000000014 5.4750000000000005 24.500000000000004 2.5000000000000004 28.500000000000004 9.5000000000000018 9.5000000000000018 8.7500000000000018 9.5000000000000018 7.5000000000000009
decision_type=2 2 2 2 2 2 2 2 2 2 2 2 2 2
left_child=3 -2 7 -1 -5 -6 -7 8 -3 -9 11 -11 -12 -14
right_child=1 2 -4 4 5 6 -8 9 -10 10 12 -13 13 -15
leaf_value=0.018664507132212998 -0.077388687431812292 0.093603234418800918 0.059002542226678806 -0.00096130096740557427 -0.021359804533421997 0.088355735410004854 0.012133623031814669 -0.0081079584353410446 -0.023323166370391845 0.048688906957007325 -0.011746243265620208 0.0045710356228730901 0.078331717327237135 0.0047622727247504278
leaf_weight=59 7.9999999999999991 6.9999999999999982 8.9999999999999982 5520 20 7.9999999999999991 110 111 5 48 103 44 9.9999999999999982 195
leaf_count=59 8 7 9 5520 20 8 110 111 5 48 103 44 10 195
internal_value=0 0.00479783 0.00603372 -0.000453179 -0.000652533 0.0116982 0.0173012 0.00512221 0.0448839 0.00418847 0.00760073 0.0275891 0.00163019 0.00835103
internal_weight=0 540 532 5717 5658 138 118 523 12 511 400 92 308 205
internal_count=6257 540 532 5717 5658 138 118 523 12 511 400 92 308 205
is_linear=0
shrinkage=0.1


Tree=65
num_leaves=15
num_cat=0
split_feature=8 20 5 12 12 6 20 3 9 18 9 10 11 6
split_gain=1.34969 3.50089 3.04114 3.4914 2.98104 5.74382 2.79602 3.07371 2.6626 3.95029 3.74824 4.45959 3.77641 3.76103
threshold=13.500000000000002 15.500000000000002 39.500000000000007 22.500000000000004 7.5000000000000009 28.500000000000004 26.500000000000004 5.5000000000000009 15.500000000000002 28.500000000000004 13.500000000000002 37.500000000000007 15.500000000000002 10.500000000000002
decision_type=2 2 2 2 2 2 2 2 2 2 2 2 2 2
left_child=1 8 -3 4 -4 6 7 -6 9 -1 12 13 -11 -12
right_child=-2 2 3 -5 5 -7 -8 -9 -10 10 11 -13 -14 -15
leaf_value=0.00023430547850697523 -0.0039206340958027157 0.003318638130973264 -0.021531838212500921 -0.001461161760526011 0.052084921980276699 0.12071687579154969 -0.045847890675067907 0.015923122177513221 -0.0036725815237349901 0.010132860528522273 0.12173600859112206 0.013185156202845036 -0.056200691892041105 0.036219215020537376
leaf_weight=2827 770 568 10.999999999999998 60 40 6.9999999999999991 4.9999999999999991 57 1666 185 9.0000000000000018 31 8.9999999999999982 11.999999999999998
leaf_count=2827 770 568 11 60 40 7 5 57 1666 185 9 31 9 12
internal_value=0 0.000550189 0.0069081 0.0182349 0.0280829 0.0330898 0.0270762 0.0308352 -0.000453339 0.00129195 0.0134462 0.0372884 0.00705553 0.0728693
internal_weight=0 5487 748 180 120 109 102 97 4739 3073 246 52 194 21
internal_count=6257 5487 748 180 120 109 102 97 4739 3073 246 52 194 21
is_linear=0
shrinkage=0.1


Tree=66
num_leaves=15
num_cat=0
split_feature=0 8 5 4 10 3 0 17 0 17 16 5 1 13
split_gain=1.29879 1.46082 2.67802 2.71387 4.03771 2.55979 3.09369 4.80302 3.2856 2.78181 2.50286 2.48514 2.37881 3.35265
threshold=2.4000000000000004 1.5000000000000002 2.5000000000000004 2.5000000000000004 8.5000000000000018 1.5000000000000002 4.4500000000000011 6.5000000000000009 2.7500000000000004 46.500000000000007 1.0000000180025095e-35 5.5000000000000009 130.50000000000003 1.5000000000000002
decision_type=2 2 2 2 2 2 2 2 2 2 2 2 2 2
